{"learner":{"attributes":{"best_iteration":"12","best_score":"7.468081730537917","scikit_learn":"{\"_estimator_type\": \"regressor\"}"},"feature_names":["temperature_2m","relative_humidity_2m","precipitation","surface_pressure","wind_u","wind_v","hour_sin","hour_cos","month_sin","month_cos","pm2_5","nitrogen_dioxide","ozone","pm10_lag_1","pm10_lag_24","pm10_rolling_mean_24","pm10_rolling_std_24"],"feature_types":["float","int","float","float","float","float","float","float","float","float","float","float","float","float","float","float","float"],"gradient_booster":{"model":{"cats":{"enc":[],"feature_segments":[],"sorted_idx":[]},"gbtree_model_param":{"num_parallel_tree":"1","num_trees":"63"},"iteration_indptr":[0,1,2,3,4,5,6,7,8,9,10,11,12,13,14,15,16,17,18,19,20,21,22,23,24,25,26,27,28,29,30,31,32,33,34,35,36,37,38,39,40,41,42,43,44,45,46,47,48,49,50,51,52,53,54,55,56,57,58,59,60,61,62,63],"tree_info":[0,0,0,0,0,0,0,0,0,0,0,0,0,0,0,0,0,0,0,0,0,0,0,0,0,0,0,0,0,0,0,0,0,0,0,0,0,0,0,0,0,0,0,0,0,0,0,0,0,0,0,0,0,0,0,0,0,0,0,0,0,0,0],"trees":[{"base_weights":[3.5425134E-2,1.2739595E1,-4.982859E0,2.7188802E0,1.754549E1,-5.695529E0,1.1413698E1,1.5109427E1,1.8771363E0,3.306674E1,1.426013E1,-7.7009473E0,-4.023237E0,6.127088E0,2.4591444E1,7.382317E0,3.590458E1,9.1510296E-1,7.9731865E0,2.5154749E1,4.5943016E1,1.0841376E1,3.0051018E1,-3.631694E0,-8.618067E0,-6.623526E-1,-4.7983413E0,-2.6047916E0,9.622873E0,1.105457E1,4.1891838E1,1.8856564E1,4.2191215E0,4.0987114E1,-3.0540252E-1,1.5680727E0,-4.132607E0,2.7566214E0,1.0089335E1,6.404546E1,2.1326797E1,3.3194958E1,7.25263E1,7.41189E0,1.4333748E1,3.9870377E1,1.8517942E1,-5.1276345E0,-2.6956657E-1,-8.148864E0,-9.238331E0,3.4757972E0,-2.9375465E0,-5.4431114E0,-3.9594727E0,6.447818E0,-3.537233E0,7.879152E0,2.5221792E1,3.2094425E1,6.7565126E0,-3.773917E-1,4.5872246E1,-1.6822504E-1,1.4197859E0,3.9203218E-1,2.8974518E-2,1.5908073E0,2.8822389E0,-2.086857E-2,1.7294417E-1,-2.7443668E-1,1.2952543E0,2.1593471E-1,-4.358863E-1,-2.6648665E-2,5.885275E-1,4.429786E0,2.4226027E0,3.7639007E-1,1.3783981E0,1.4377102E0,4.0598893E0,5.686407E0,2.0456498E0,6.4713365E-1,1.6923475E-1,2.326391E0,6.68806E-1,2.089503E0,2.7918434E-1,2.172104E-1,1.2265376E0,-5.0725665E-2,-2.8933638E-1,2.9845077E-1,-1.3039558E-1,-4.2526212E-1,-3.4599957E-1,-4.2212716E-1,-4.9089247E-1,-1.110181E-1,4.2431647E-1,-5.6289386E-2,-2.1371709E-1,-3.496493E-1,-2.5644308E-1,-5.7659704E-2,-2.0529266E-1,1.1040868E0,2.6004417E-2,-2.6728305E-1,-6.99135E-2,4.8899513E-1,-1.1633661E-1,5.62517E-1,1.5623864E0,1.9487545E0,5.2690405E-1,5.219577E-1,-8.287545E-2,1.9480857E0,3.134299E0],"categories":[],"categories_nodes":[],"categories_segments":[],"categories_sizes":[],"default_left":[0,0,0,0,0,0,0,0,0,0,0,0,0,0,0,0,0,0,0,0,0,0,0,0,0,0,0,0,0,0,0,0,0,0,0,0,0,0,0,0,0,0,0,0,0,0,0,0,0,0,0,0,0,0,0,0,0,0,0,0,0,0,0,0,0,0,0,0,0,0,0,0,0,0,0,0,0,0,0,0,0,0,0,0,0,0,0,0,0,0,0,0,0,0,0,0,0,0,0,0,0,0,0,0,0,0,0,0,0,0,0,0,0,0,0,0,0,0,0,0,0,0,0],"id":0,"left_children":[1,3,5,7,9,11,13,15,17,19,21,23,25,27,29,31,33,35,37,39,41,43,45,47,49,51,53,55,57,59,61,63,65,67,-1,69,71,73,75,77,79,81,83,85,87,89,91,93,95,97,99,101,103,105,107,109,111,113,115,117,119,-1,121,-1,-1,-1,-1,-1,-1,-1,-1,-1,-1,-1,-1,-1,-1,-1,-1,-1,-1,-1,-1,-1,-1,-1,-1,-1,-1,-1,-1,-1,-1,-1,-1,-1,-1,-1,-1,-1,-1,-1,-1,-1,-1,-1,-1,-1,-1,-1,-1,-1,-1,-1,-1,-1,-1,-1,-1,-1,-1,-1,-1],"loss_changes":[1.1800065E6,2.52351E5,1.5510606E5,1.770207E4,1.8014525E5,4.2613938E4,3.8374406E4,1.7089076E4,9.335018E3,6.180425E4,1.5758075E5,2.1543344E4,1.8065344E4,1.2112876E4,3.6539438E4,2.8240654E3,6.442742E3,4.545074E3,2.3676572E3,5.594975E4,7.689159E4,2.8710531E4,5.8150406E4,5.35508E3,1.2975312E3,1.2259247E4,3.026836E3,9.850847E2,7.498922E3,7.9219004E3,1.3924758E4,3.6990293E3,8.3904065E2,2.1379023E3,0E0,4.5814443E3,6.5783027E3,1.1847703E3,2.7564648E3,8.7233125E3,3.010736E4,3.1772219E4,9.30365E4,2.704082E4,3.609608E4,1.8196156E4,2.0432406E4,1.992084E3,4.815004E3,1.1209688E3,8.5053125E2,1.3204685E4,2.029627E3,1.5148906E3,1.0029219E3,1.00792554E3,3.948141E2,4.9888574E3,2.0058008E3,1.8141074E3,2.3722256E3,0E0,4.993922E3,0E0,0E0,0E0,0E0,0E0,0E0,0E0,0E0,0E0,0E0,0E0,0E0,0E0,0E0,0E0,0E0,0E0,0E0,0E0,0E0,0E0,0E0,0E0,0E0,0E0,0E0,0E0,0E0,0E0,0E0,0E0,0E0,0E0,0E0,0E0,0E0,0E0,0E0,0E0,0E0,0E0,0E0,0E0,0E0,0E0,0E0,0E0,0E0,0E0,0E0,0E0,0E0,0E0,0E0,0E0,0E0,0E0,0E0,0E0,0E0],"parents":[2147483647,0,0,1,1,2,2,3,3,4,4,5,5,6,6,7,7,8,8,9,9,10,10,11,11,12,12,13,13,14,14,15,15,16,16,17,17,18,18,19,19,20,20,21,21,22,22,23,23,24,24,25,25,26,26,27,27,28,28,29,29,30,30,31,31,32,32,33,33,35,35,36,36,37,37,38,38,39,39,40,40,41,41,42,42,43,43,44,44,45,45,46,46,47,47,48,48,49,49,50,50,51,51,52,52,53,53,54,54,55,55,56,56,57,57,58,58,59,59,60,60,62,62],"right_children":[2,4,6,8,10,12,14,16,18,20,22,24,26,28,30,32,34,36,38,40,42,44,46,48,50,52,54,56,58,60,62,64,66,68,-1,70,72,74,76,78,80,82,84,86,88,90,92,94,96,98,100,102,104,106,108,110,112,114,116,118,120,-1,122,-1,-1,-1,-1,-1,-1,-1,-1,-1,-1,-1,-1,-1,-1,-1,-1,-1,-1,-1,-1,-1,-1,-1,-1,-1,-1,-1,-1,-1,-1,-1,-1,-1,-1,-1,-1,-1,-1,-1,-1,-1,-1,-1,-1,-1,-1,-1,-1,-1,-1,-1,-1,-1,-1,-1,-1,-1,-1,-1,-1],"split_conditions":[-5E-1,-1.8369701E-16,3.0391666E1,3E1,4.3E1,0E0,1.939897E1,3.4458332E1,7.6E1,-5E-1,4.98E1,-2.4492937E-16,-2.4492937E-16,5.3E1,0E0,9.716666E0,-1.0407974E1,1E-1,1.8570833E1,2.3E1,-8.660254E-1,2.88E1,-8.660254E-1,1.7566668E1,8.660254E-1,7.3E1,9.4E0,-1.1145046E1,1.41E2,-2.1795904E1,3.2E1,2E0,2.6E1,8.1E1,-3.0540252E-1,1.19E1,9.751E2,1.7395834E1,-1.6255007E1,1.6E0,2.41E1,1.36325E2,3.4E0,-8.660254E-1,1.9E1,1E-1,5E0,4E1,4.9E1,8.3E0,3.1E1,-5E-1,8.5E1,2.5881904E-1,9.599E2,5.7E1,3.5004166E1,1E-1,1.046518E1,8E1,1E-1,-3.773917E-1,4.78375E1,-1.6822504E-1,1.4197859E0,3.9203218E-1,2.8974518E-2,1.5908073E0,2.8822389E0,-2.086857E-2,1.7294417E-1,-2.7443668E-1,1.2952543E0,2.1593471E-1,-4.358863E-1,-2.6648665E-2,5.885275E-1,4.429786E0,2.4226027E0,3.7639007E-1,1.3783981E0,1.4377102E0,4.0598893E0,5.686407E0,2.0456498E0,6.4713365E-1,1.6923475E-1,2.326391E0,6.68806E-1,2.089503E0,2.7918434E-1,2.172104E-1,1.2265376E0,-5.0725665E-2,-2.8933638E-1,2.9845077E-1,-1.3039558E-1,-4.2526212E-1,-3.4599957E-1,-4.2212716E-1,-4.9089247E-1,-1.110181E-1,4.2431647E-1,-5.6289386E-2,-2.1371709E-1,-3.496493E-1,-2.5644308E-1,-5.7659704E-2,-2.0529266E-1,1.1040868E0,2.6004417E-2,-2.6728305E-1,-6.99135E-2,4.8899513E-1,-1.1633661E-1,5.62517E-1,1.5623864E0,1.9487545E0,5.2690405E-1,5.219577E-1,-8.287545E-2,1.9480857E0,3.134299E0],"split_indices":[8,9,15,1,1,6,4,15,12,6,10,8,8,12,6,15,4,2,15,1,8,13,8,15,8,1,10,4,12,5,12,10,1,12,0,10,3,15,5,11,13,15,11,8,12,2,4,1,1,10,12,9,1,6,3,1,15,2,4,12,2,0,15,0,0,0,0,0,0,0,0,0,0,0,0,0,0,0,0,0,0,0,0,0,0,0,0,0,0,0,0,0,0,0,0,0,0,0,0,0,0,0,0,0,0,0,0,0,0,0,0,0,0,0,0,0,0,0,0,0,0,0,0],"split_type":[0,0,0,0,0,0,0,0,0,0,0,0,0,0,0,0,0,0,0,0,0,0,0,0,0,0,0,0,0,0,0,0,0,0,0,0,0,0,0,0,0,0,0,0,0,0,0,0,0,0,0,0,0,0,0,0,0,0,0,0,0,0,0,0,0,0,0,0,0,0,0,0,0,0,0,0,0,0,0,0,0,0,0,0,0,0,0,0,0,0,0,0,0,0,0,0,0,0,0,0,0,0,0,0,0,0,0,0,0,0,0,0,0,0,0,0,0,0,0,0,0,0,0],"sum_hessian":[1.8507E4,5.24E3,1.3267E4,1.699E3,3.541E3,1.2715E4,5.52E2,1.07E2,1.592E3,6.17E2,2.924E3,5.78E3,6.935E3,3.95E2,1.57E2,7.9E1,2.8E1,1.376E3,2.16E2,3.84E2,2.33E2,2.405E3,5.19E2,1.064E3,4.716E3,1.3E3,5.635E3,1.13E2,2.82E2,8.9E1,6.8E1,1.6E1,6.3E1,2.5E1,3E0,1.219E3,1.57E2,6.3E1,1.53E2,3.3E1,3.51E2,1.59E2,7.4E1,1.215E3,1.19E3,2.79E2,2.4E2,7.36E2,3.28E2,2.693E3,2.023E3,4.61E2,8.39E2,3.183E3,2.452E3,1E1,1.03E2,2.55E2,2.7E1,1.4E1,7.5E1,5E0,6.3E1,5E0,1.1E1,3.1E1,3.2E1,1.8E1,7E0,5.95E2,6.24E2,1.51E2,6E0,5.6E1,7E0,2.1E1,1.32E2,1.1E1,2.2E1,1.1E2,2.41E2,1.47E2,1.2E1,3.1E1,4.3E1,5.11E2,7.04E2,3.3E1,1.157E3,2.64E2,1.5E1,7.2E1,1.68E2,1.02E2,6.34E2,8.9E1,2.39E2,2.083E3,6.1E2,8.59E2,1.164E3,2.16E2,2.45E2,3.57E2,4.82E2,5.33E2,2.65E3,1.22E2,2.33E3,2E0,8E0,5.5E1,4.8E1,2.15E2,4E1,9E0,1.8E1,1E1,4E0,5.2E1,2.3E1,4.7E1,1.6E1],"tree_param":{"num_deleted":"0","num_feature":"17","num_nodes":"123","size_leaf_vector":"1"}},{"base_weights":[-6.986726E-2,1.1911261E1,-4.7564945E0,2.5575604E0,1.6475714E1,-5.409005E0,9.867152E0,1.4529947E1,1.6735508E0,3.1005516E1,1.3537329E1,-7.314076E0,-3.80717E0,5.824438E0,1.9554247E1,9.3222275E0,4.9668148E1,7.4201834E-1,7.3670917E0,2.1914585E1,4.5383118E1,1.000674E1,2.4614319E1,-3.6295655E0,-8.150212E0,-7.362597E-1,-4.5322366E0,-1.792698E0,8.670803E0,9.577306E0,3.4451168E1,-3.5293487E-1,1.4449562E1,1.377748E0,3.2786407E0,1.290056E0,-3.7495296E0,2.9989026E0,9.122926E0,4.45071E1,1.7309132E1,3.4379925E1,6.9229904E1,7.1447883E0,1.3509629E1,2.9961285E1,6.147124E0,-4.1248333E-1,-5.2892733E0,-7.6933594E0,-8.755807E0,3.306031E0,-2.6890635E0,-5.916697E0,-3.6529317E0,4.9026556E0,-2.9719434E0,3.0628014E0,1.2776317E1,5.073275E0,2.2547808E1,-3.369386E-1,3.9368973E1,7.416073E-1,-8.222147E-2,4.7722036E-1,1.2872356E0,-2.2639407E-2,1.3476245E-1,-2.530143E-1,1.0074463E0,2.3849972E-1,-4.3740064E-1,6.0495037E-1,2.6587257E-1,8.8034326E-1,2.644808E0,2.574843E-1,1.0530277E0,1.5531086E0,4.018822E0,5.2121353E0,1.9744456E0,4.2692384E-1,2.7898923E-2,3.544252E-1,8.116533E-1,1.5853488E0,1.3189971E-1,1.7567667E0,2.2956116E-1,-1.6702545E-1,2.6765856E-1,-3.1358275E-1,-1.3279845E-1,-4.112558E-1,-3.5483962E-1,-3.998737E-1,-4.6837494E-1,-1.16660945E-1,4.0016767E-1,-5.095389E-2,-2.0021966E-1,-3.9084747E-1,-2.721433E-1,-2.519277E-1,-1.6914932E-1,1.2201885E0,-5.096407E-2,-1.716914E-1,4.1971928E-1,6.0794353E-1,3.454572E-2,1.0607593E0,5.0082743E-1,4.333004E-1,-9.5044814E-2,6.546952E-1,2.3168924E0,8.6092836E-1,2.1727343E0],"categories":[],"categories_nodes":[],"categories_segments":[],"categories_sizes":[],"default_left":[0,0,0,0,0,0,0,0,0,0,0,0,0,0,0,0,0,0,0,0,0,0,0,0,0,0,0,0,0,0,0,0,0,0,0,0,0,0,0,0,0,0,0,0,0,0,0,0,0,0,0,0,0,0,0,0,0,0,0,0,0,0,0,0,0,0,0,0,0,0,0,0,0,0,0,0,0,0,0,0,0,0,0,0,0,0,0,0,0,0,0,0,0,0,0,0,0,0,0,0,0,0,0,0,0,0,0,0,0,0,0,0,0,0,0,0,0,0,0,0,0],"id":1,"left_children":[1,3,5,7,9,11,13,15,17,19,21,23,25,27,29,31,33,35,37,39,41,43,45,47,49,51,53,55,57,59,61,63,65,-1,-1,67,69,71,73,75,77,79,81,83,85,87,89,91,93,95,97,99,101,103,105,107,109,111,113,115,117,-1,119,-1,-1,-1,-1,-1,-1,-1,-1,-1,-1,-1,-1,-1,-1,-1,-1,-1,-1,-1,-1,-1,-1,-1,-1,-1,-1,-1,-1,-1,-1,-1,-1,-1,-1,-1,-1,-1,-1,-1,-1,-1,-1,-1,-1,-1,-1,-1,-1,-1,-1,-1,-1,-1,-1,-1,-1,-1,-1],"loss_changes":[1.04542125E6,2.2346369E5,1.27755125E5,1.8158488E4,1.4977825E5,3.9069406E4,2.228686E4,2.1129793E4,8.485787E3,7.625256E4,1.1426275E5,1.7995875E4,1.5498344E4,8.796409E3,2.4639172E4,5.1643105E3,3.4686875E3,3.3943735E3,1.6983496E3,3.710339E4,5.7444938E4,2.2179266E4,6.962747E4,5.785744E3,1.2518125E3,1.0515539E4,6.8345703E3,8.909669E2,6.752869E3,5.8444014E3,1.3837094E4,7.50014E2,3.5217852E3,0E0,0E0,3.0086323E3,4.8007163E3,1.4148492E3,1.7477285E3,1.2834383E4,1.3758578E4,2.1614938E4,6.981697E4,1.1240684E4,1.7337469E4,2.6054844E4,7.055129E3,6.2642163E3,1.8329824E3,8.063906E2,8.7275E2,1.1515063E4,1.9684492E3,1.9257266E3,1.2722773E3,1.9881086E3,5.275683E2,2.7100303E3,3.7466816E3,1.9458108E3,5.240884E3,0E0,4.6817734E3,0E0,0E0,0E0,0E0,0E0,0E0,0E0,0E0,0E0,0E0,0E0,0E0,0E0,0E0,0E0,0E0,0E0,0E0,0E0,0E0,0E0,0E0,0E0,0E0,0E0,0E0,0E0,0E0,0E0,0E0,0E0,0E0,0E0,0E0,0E0,0E0,0E0,0E0,0E0,0E0,0E0,0E0,0E0,0E0,0E0,0E0,0E0,0E0,0E0,0E0,0E0,0E0,0E0,0E0,0E0,0E0,0E0,0E0],"parents":[2147483647,0,0,1,1,2,2,3,3,4,4,5,5,6,6,7,7,8,8,9,9,10,10,11,11,12,12,13,13,14,14,15,15,16,16,17,17,18,18,19,19,20,20,21,21,22,22,23,23,24,24,25,25,26,26,27,27,28,28,29,29,30,30,31,31,32,32,35,35,36,36,37,37,38,38,39,39,40,40,41,41,42,42,43,43,44,44,45,45,46,46,47,47,48,48,49,49,50,50,51,51,52,52,53,53,54,54,55,55,56,56,57,57,58,58,59,59,60,60,62,62],"right_children":[2,4,6,8,10,12,14,16,18,20,22,24,26,28,30,32,34,36,38,40,42,44,46,48,50,52,54,56,58,60,62,64,66,-1,-1,68,70,72,74,76,78,80,82,84,86,88,90,92,94,96,98,100,102,104,106,108,110,112,114,116,118,-1,120,-1,-1,-1,-1,-1,-1,-1,-1,-1,-1,-1,-1,-1,-1,-1,-1,-1,-1,-1,-1,-1,-1,-1,-1,-1,-1,-1,-1,-1,-1,-1,-1,-1,-1,-1,-1,-1,-1,-1,-1,-1,-1,-1,-1,-1,-1,-1,-1,-1,-1,-1,-1,-1,-1,-1,-1,-1,-1],"split_conditions":[-5E-1,-1.8369701E-16,3E1,3E1,4.3E1,0E0,1.8806784E1,3.91E1,7.5E1,-5E-1,5.84E1,-2.4492937E-16,-2.4492937E-16,5.3E1,0E0,9.701E2,2.5E1,1E-1,1.8570833E1,2.9E1,-8.660254E-1,3.5E0,7.9E1,5.4E1,8.660254E-1,7.2E1,-2.5881904E-1,-8.308866E0,-2.5881904E-1,2.5451454E1,3.2E1,5.7E0,3.82E1,1.377748E0,3.2786407E0,1.58E1,9.751E2,1.68E1,3.5595833E1,8.6E1,1.91E1,1.36325E2,-1.3738618E1,1E-1,0E0,1E-1,1.9E0,1.7975E1,3.8E0,7.7E0,3.2E1,-5E-1,8.5E1,2.5881904E-1,6.1E0,6.1E1,8.24E1,3.1E1,3.5595833E1,1E-1,4.6E1,-3.369386E-1,3.43E1,7.416073E-1,-8.222147E-2,4.7722036E-1,1.2872356E0,-2.2639407E-2,1.3476245E-1,-2.530143E-1,1.0074463E0,2.3849972E-1,-4.3740064E-1,6.0495037E-1,2.6587257E-1,8.8034326E-1,2.644808E0,2.574843E-1,1.0530277E0,1.5531086E0,4.018822E0,5.2121353E0,1.9744456E0,4.2692384E-1,2.7898923E-2,3.544252E-1,8.116533E-1,1.5853488E0,1.3189971E-1,1.7567667E0,2.2956116E-1,-1.6702545E-1,2.6765856E-1,-3.1358275E-1,-1.3279845E-1,-4.112558E-1,-3.5483962E-1,-3.998737E-1,-4.6837494E-1,-1.16660945E-1,4.0016767E-1,-5.095389E-2,-2.0021966E-1,-3.9084747E-1,-2.721433E-1,-2.519277E-1,-1.6914932E-1,1.2201885E0,-5.096407E-2,-1.716914E-1,4.1971928E-1,6.0794353E-1,3.454572E-2,1.0607593E0,5.0082743E-1,4.333004E-1,-9.5044814E-2,6.546952E-1,2.3168924E0,8.6092836E-1,2.1727343E0],"split_indices":[8,9,15,1,1,6,4,13,12,6,13,8,8,12,6,3,1,2,15,1,8,11,1,1,8,1,7,4,6,4,12,14,14,0,0,13,3,15,15,12,13,15,4,2,6,2,11,15,11,13,12,9,1,6,15,1,13,1,15,2,1,0,14,0,0,0,0,0,0,0,0,0,0,0,0,0,0,0,0,0,0,0,0,0,0,0,0,0,0,0,0,0,0,0,0,0,0,0,0,0,0,0,0,0,0,0,0,0,0,0,0,0,0,0,0,0,0,0,0,0,0],"split_type":[0,0,0,0,0,0,0,0,0,0,0,0,0,0,0,0,0,0,0,0,0,0,0,0,0,0,0,0,0,0,0,0,0,0,0,0,0,0,0,0,0,0,0,0,0,0,0,0,0,0,0,0,0,0,0,0,0,0,0,0,0,0,0,0,0,0,0,0,0,0,0,0,0,0,0,0,0,0,0,0,0,0,0,0,0,0,0,0,0,0,0,0,0,0,0,0,0,0,0,0,0,0,0,0,0,0,0,0,0,0,0,0,0,0,0,0,0,0,0,0,0],"sum_hessian":[1.8616E4,5.234E3,1.3382E4,1.717E3,3.517E3,1.2811E4,5.71E2,1.17E2,1.6E3,5.9E2,2.927E3,5.85E3,6.961E3,4.04E2,1.67E2,1.03E2,1.4E1,1.376E3,2.24E2,3.63E2,2.27E2,2.221E3,7.06E2,1.083E3,4.767E3,1.33E3,5.631E3,1.1E2,2.94E2,1.01E2,6.6E1,3.6E1,6.7E1,7E0,7E0,1.227E3,1.49E2,6.5E1,1.59E2,6E1,3.03E2,1.57E2,7E1,1.224E3,9.97E2,5.47E2,1.59E2,3.69E2,7.14E2,2.725E3,2.042E3,4.33E2,8.97E2,2.185E3,3.446E3,1.6E1,9.4E1,1.25E2,1.69E2,7.6E1,2.5E1,7E0,5.9E1,2E0,3.4E1,4.8E1,1.9E1,5.48E2,6.79E2,1.42E2,7E0,5.7E1,8E0,8.8E1,7.1E1,1.5E1,4.5E1,7.2E1,2.31E2,1.48E2,9E0,3.1E1,3.9E1,1.01E3,2.14E2,2.98E2,6.99E2,5.14E2,3.3E1,7E0,1.52E2,2.45E2,1.24E2,5.19E2,1.95E2,1.434E3,1.291E3,9.18E2,1.124E3,1.97E2,2.36E2,3.96E2,5.01E2,4.33E2,1.752E3,5.59E2,2.887E3,3E0,1.3E1,9.1E1,3E0,2.5E1,1E2,4E1,1.29E2,5E1,2.6E1,1.9E1,6E0,1E1,4.9E1],"tree_param":{"num_deleted":"0","num_feature":"17","num_nodes":"121","size_leaf_vector":"1"}},{"base_weights":[3.842735E-2,1.1690323E1,-4.49783E0,2.8513227E0,1.602888E1,-5.248482E0,5.7591496E0,1.3779406E1,1.9940412E0,3.0348166E1,1.2987681E1,-6.8155684E0,-3.8475907E0,2.7786477E0,2.4758461E1,8.8013315E0,4.2605766E1,-1.1097274E-1,3.4438813E0,1.0964508E1,3.684209E1,9.76872E0,2.6091223E1,-2.8547258E0,-7.751408E0,-1.5756418E0,-4.32503E0,6.6487226E0,-2.8187551E0,1.006606E1,4.0525368E1,-9.044117E-1,1.314179E1,2.1995968E1,5.6894012E1,-2.0966897E0,1.280884E0,-7.909632E-1,5.1301622E0,2.3865337E0,1.8869303E1,2.5946995E1,5.149788E1,7.732134E0,1.4819215E1,3.5130432E1,1.5428194E1,3.649216E0,-4.5858846E0,-7.2932744E0,-8.368425E0,1.349407E0,-3.0827472E0,-5.6644526E0,-3.46141E0,2.2821925E0,1.1628527E1,-3.4853923E0,7.4217386E0,3.0637295E1,5.7687936E0,2.4495693E1,5.0086117E1,3.5162628E-1,-1.0985438E-1,4.2448226E-1,1.4120383E0,2.14043E-1,1.1837624E0,1.3383726E0,3.299074E0,-4.3150317E-2,-2.1425994E-1,2.5314903E-2,3.322013E-1,-5.8367092E-2,1.6422465E0,4.3166663E-2,3.798936E-1,-2.5800458E-1,3.131524E-1,3.100697E0,7.5830704E-1,1.64702E0,7.5549346E-1,1.6189142E0,5.429023E0,6.814297E-1,3.3399203E-1,5.448251E-1,1.1289918E0,7.80153E-1,1.9682022E0,1.439444E0,4.2911997E-1,-4.2438055E-3,7.688532E-1,-3.0855826E-1,-1.64474E-1,-3.8126597E-1,-3.1390142E-1,-4.4255304E-1,-3.9793366E-1,-1.2182038E-1,2.7583703E-1,-3.0498347E-1,-1.2726276E-1,-3.7053004E-1,-2.6098356E-1,-2.5396565E-1,-1.6336365E-1,2.6903424E-1,-2.7494475E-2,-1.1081238E-1,7.106445E-1,-4.8407573E-2,-2.154593E-1,4.955698E-1,-1.01475656E-1,4.745667E-1,1.8690308E0,1.8698624E-1,7.862032E-1,-8.9709125E-2,1.4168414E0,1.3171648E0,2.973961E0],"categories":[],"categories_nodes":[],"categories_segments":[],"categories_sizes":[],"default_left":[0,0,0,0,0,0,0,0,0,0,0,0,0,0,0,0,0,0,0,0,0,0,0,0,0,0,0,0,0,0,0,0,0,0,0,0,0,0,0,0,0,0,0,0,0,0,0,0,0,0,0,0,0,0,0,0,0,0,0,0,0,0,0,0,0,0,0,0,0,0,0,0,0,0,0,0,0,0,0,0,0,0,0,0,0,0,0,0,0,0,0,0,0,0,0,0,0,0,0,0,0,0,0,0,0,0,0,0,0,0,0,0,0,0,0,0,0,0,0,0,0,0,0,0,0,0,0],"id":2,"left_children":[1,3,5,7,9,11,13,15,17,19,21,23,25,27,29,31,33,35,37,39,41,43,45,47,49,51,53,55,57,59,61,63,65,67,69,71,73,75,77,79,81,83,85,87,89,91,93,95,97,99,101,103,105,107,109,111,113,115,117,119,121,123,125,-1,-1,-1,-1,-1,-1,-1,-1,-1,-1,-1,-1,-1,-1,-1,-1,-1,-1,-1,-1,-1,-1,-1,-1,-1,-1,-1,-1,-1,-1,-1,-1,-1,-1,-1,-1,-1,-1,-1,-1,-1,-1,-1,-1,-1,-1,-1,-1,-1,-1,-1,-1,-1,-1,-1,-1,-1,-1,-1,-1,-1,-1,-1,-1],"loss_changes":[9.772542E5,1.9863788E5,1.0249419E5,1.5964451E4,1.5093438E5,2.7197938E4,5.1348965E4,1.741898E4,4.8346445E3,7.612856E4,1.2071678E5,2.1669562E4,7.098086E3,1.7045365E4,2.8085477E4,4.5195137E3,4.049164E3,1.7908859E3,6.7024453E3,1.0397266E4,7.13165E4,2.3583828E4,5.391575E4,1.2627214E4,1.276875E3,5.0252783E3,6.240742E3,1.0084635E4,2.2240637E3,5.569264E3,7.8151953E3,3.6428723E2,4.958201E3,1.663872E2,9.7158594E2,7.171824E2,1.5793917E3,3.4311758E3,7.0585957E3,2.2264128E3,1.1841211E4,1.9434625E4,2.0712375E5,1.0109664E4,1.9876578E4,2.46005E4,2.3625152E4,1.0336422E4,1.7985215E3,8.7040625E2,3.270625E2,6.1348213E3,1.2038965E3,1.6078281E3,1.01771875E3,2.1879795E3,7.795742E3,6.241553E2,4.9072278E2,1.2137422E3,1.0521924E3,2.4744307E3,6.4618047E3,0E0,0E0,0E0,0E0,0E0,0E0,0E0,0E0,0E0,0E0,0E0,0E0,0E0,0E0,0E0,0E0,0E0,0E0,0E0,0E0,0E0,0E0,0E0,0E0,0E0,0E0,0E0,0E0,0E0,0E0,0E0,0E0,0E0,0E0,0E0,0E0,0E0,0E0,0E0,0E0,0E0,0E0,0E0,0E0,0E0,0E0,0E0,0E0,0E0,0E0,0E0,0E0,0E0,0E0,0E0,0E0,0E0,0E0,0E0,0E0,0E0,0E0,0E0,0E0],"parents":[2147483647,0,0,1,1,2,2,3,3,4,4,5,5,6,6,7,7,8,8,9,9,10,10,11,11,12,12,13,13,14,14,15,15,16,16,17,17,18,18,19,19,20,20,21,21,22,22,23,23,24,24,25,25,26,26,27,27,28,28,29,29,30,30,31,31,32,32,33,33,34,34,35,35,36,36,37,37,38,38,39,39,40,40,41,41,42,42,43,43,44,44,45,45,46,46,47,47,48,48,49,49,50,50,51,51,52,52,53,53,54,54,55,55,56,56,57,57,58,58,59,59,60,60,61,61,62,62],"right_children":[2,4,6,8,10,12,14,16,18,20,22,24,26,28,30,32,34,36,38,40,42,44,46,48,50,52,54,56,58,60,62,64,66,68,70,72,74,76,78,80,82,84,86,88,90,92,94,96,98,100,102,104,106,108,110,112,114,116,118,120,122,124,126,-1,-1,-1,-1,-1,-1,-1,-1,-1,-1,-1,-1,-1,-1,-1,-1,-1,-1,-1,-1,-1,-1,-1,-1,-1,-1,-1,-1,-1,-1,-1,-1,-1,-1,-1,-1,-1,-1,-1,-1,-1,-1,-1,-1,-1,-1,-1,-1,-1,-1,-1,-1,-1,-1,-1,-1,-1,-1,-1,-1,-1,-1,-1,-1],"split_conditions":[-5E-1,-1.8369701E-16,1.92E1,3E1,4.3E1,0E0,1.9813997E1,2.67E1,1.12E1,7.5043178E0,4.44E1,-2.4492937E-16,-2.4492937E-16,7.8E1,0E0,9.701E2,5E-1,-7.9062877E0,-7.898972E-16,2.49E1,-5E-1,5.3E0,-8.660254E-1,4.4E1,8.660254E-1,7.4E1,-2.5881904E-1,9.499473E0,3.0045292E1,-2.1795904E1,4.63E1,6E0,8.9E0,-2.5881904E-1,2.11E1,9.643E2,2.5E1,9.739E2,9.621E2,3.4E1,3.1E1,3.7E1,-8.660254E-1,5E1,1.0123941E1,2.27E1,6.2E1,1.0617838E1,9.633E2,8.1E0,6.9E1,-5E-1,1.8E1,2.5881904E-1,7E0,-7.880467E0,-5E-1,8.5E1,9.3E1,2.4574562E1,7.0710677E-1,2.7E1,5.5E1,3.5162628E-1,-1.0985438E-1,4.2448226E-1,1.4120383E0,2.14043E-1,1.1837624E0,1.3383726E0,3.299074E0,-4.3150317E-2,-2.1425994E-1,2.5314903E-2,3.322013E-1,-5.8367092E-2,1.6422465E0,4.3166663E-2,3.798936E-1,-2.5800458E-1,3.131524E-1,3.100697E0,7.5830704E-1,1.64702E0,7.5549346E-1,1.6189142E0,5.429023E0,6.814297E-1,3.3399203E-1,5.448251E-1,1.1289918E0,7.80153E-1,1.9682022E0,1.439444E0,4.2911997E-1,-4.2438055E-3,7.688532E-1,-3.0855826E-1,-1.64474E-1,-3.8126597E-1,-3.1390142E-1,-4.4255304E-1,-3.9793366E-1,-1.2182038E-1,2.7583703E-1,-3.0498347E-1,-1.2726276E-1,-3.7053004E-1,-2.6098356E-1,-2.5396565E-1,-1.6336365E-1,2.6903424E-1,-2.7494475E-2,-1.1081238E-1,7.106445E-1,-4.8407573E-2,-2.154593E-1,4.955698E-1,-1.01475656E-1,4.745667E-1,1.8690308E0,1.8698624E-1,7.862032E-1,-8.9709125E-2,1.4168414E0,1.3171648E0,2.973961E0],"split_indices":[8,9,10,1,1,6,4,10,10,16,10,8,8,1,6,3,7,5,4,0,6,11,8,1,8,1,7,16,16,5,14,10,10,7,0,3,14,3,3,1,1,1,8,1,16,0,1,16,3,10,1,9,0,6,14,5,6,1,1,4,7,0,1,0,0,0,0,0,0,0,0,0,0,0,0,0,0,0,0,0,0,0,0,0,0,0,0,0,0,0,0,0,0,0,0,0,0,0,0,0,0,0,0,0,0,0,0,0,0,0,0,0,0,0,0,0,0,0,0,0,0,0,0,0,0,0,0],"split_type":[0,0,0,0,0,0,0,0,0,0,0,0,0,0,0,0,0,0,0,0,0,0,0,0,0,0,0,0,0,0,0,0,0,0,0,0,0,0,0,0,0,0,0,0,0,0,0,0,0,0,0,0,0,0,0,0,0,0,0,0,0,0,0,0,0,0,0,0,0,0,0,0,0,0,0,0,0,0,0,0,0,0,0,0,0,0,0,0,0,0,0,0,0,0,0,0,0,0,0,0,0,0,0,0,0,0,0,0,0,0,0,0,0,0,0,0,0,0,0,0,0,0,0,0,0,0,0],"sum_hessian":[1.8487E4,5.18E3,1.3307E4,1.706E3,3.474E3,1.24E4,9.07E2,1.23E2,1.583E3,6.07E2,2.867E3,5.851E3,6.549E3,7.85E2,1.22E2,1.06E2,1.7E1,6.46E2,9.37E2,1.53E2,4.54E2,2.303E3,5.64E2,1.119E3,4.732E3,1.138E3,5.411E3,4.64E2,3.21E2,6.4E1,5.8E1,3.3E1,7.3E1,8E0,9E0,2.66E2,3.8E2,2.67E2,6.7E2,7.4E1,7.9E1,2.62E2,1.92E2,1.643E3,6.6E2,3.04E2,2.6E2,2.35E2,8.84E2,2.723E3,2.009E3,3.87E2,7.51E2,2.119E3,3.292E3,2.48E2,2.16E2,3.02E2,1.9E1,1E1,5.4E1,2.3E1,3.5E1,4E0,2.9E1,5.7E1,1.6E1,1E0,7E0,3E0,6E0,1.71E2,9.5E1,3.33E2,4.7E1,2.65E2,2E0,2.46E2,4.24E2,2.5E1,4.9E1,5E0,7.4E1,1.58E2,1.04E2,1.45E2,4.7E1,2.47E2,1.396E3,4.4E2,2.2E2,5.5E1,2.49E2,8.7E1,1.73E2,1.79E2,5.6E1,3.96E2,4.88E2,2.047E3,6.76E2,9.13E2,1.096E3,2.03E2,1.84E2,1.12E2,6.39E2,4.27E2,1.692E3,3.5E2,2.942E3,1.18E2,1.3E2,3.4E1,1.82E2,7.5E1,2.27E2,1.5E1,4E0,3E0,7E0,4.6E1,8E0,3E0,2E1,1.1E1,2.4E1],"tree_param":{"num_deleted":"0","num_feature":"17","num_nodes":"127","size_leaf_vector":"1"}},{"base_weights":[8.1597855E-3,-3.851708E0,1.20281315E1,1.8884254E1,-4.4030538E0,8.957853E0,2.2391684E1,4.7638336E1,1.7089931E1,-8.7153924E-1,-5.60902E0,2.2818396E1,6.418888E0,3.2173378E1,1.4267005E1,2.863022E1,4.2025447E0,1.3431015E1,2.4937353E1,-1.9591835E0,2.4683785E0,-6.3296843E0,-3.898237E0,1.7029781E1,5.1507935E1,8.079407E0,-8.784848E-1,1.0666053E1,3.632655E1,2.0179134E1,5.3095226E0,1.6787914E0,7.872244E0,2.282286E1,9.942528E0,4.030066E1,1.4279527E1,-2.779401E0,1.1582233E0,4.840688E0,9.032844E-2,-4.66143E0,-6.8503346E0,-5.0683765E0,-3.1665359E0,7.10446E1,1.4874754E1,3.3996803E1,9.5677E1,2.3618438E0,1.0197246E1,2.5894656E0,-3.5980208E0,2.3937724E0,2.4275558E1,3.341288E1,6.176756E1,2.128467E1,1.4263434E0,1.6490732E0,9.988593E0,1.11815885E-1,4.5027232E-1,1.4708072E-1,1.3972663E0,3.5559294E-1,1.098585E0,1.0142999E0,4.0154557E0,8.479864E-1,1.0727065E-1,-3.4973973E-3,-1.801766E-1,-1.7147808E-1,1.286064E-1,2.0450674E-1,1.0011264E0,4.799862E-1,-4.2799488E-2,-3.0477187E-1,-2.1009374E-1,-3.8770944E-1,-3.1295666E-1,-1.8643242E-1,-2.7177712E-1,-2.557635E-1,-1.3954541E-1,1.549404E-1,5.914839E0,1.6091365E0,6.41977E-1,1.1913909E0,2.989517E0,8.67266E0,2.0543535E0,-1.0513807E-2,3.3353728E-1,6.5147E-1,2.707555E-1,-4.8497315E-2,5.31765E-1,-3.2283673E-1,-1.0508257E-1,7.941832E-1,-1.4593951E-1,2.0579389E-1,3.8340118E0,1.8699893E0,1.1014907E0,9.4108343E-1,3.8983479E0,3.0862078E-1,1.1439418E0,-2.7814665E-1,2.0634823E-1,-2.3395078E-1,1.8598448E-1,1.0363253E0,3.28254E-2],"categories":[],"categories_nodes":[],"categories_segments":[],"categories_sizes":[],"default_left":[0,0,0,0,0,0,0,0,0,0,0,0,0,0,0,0,0,0,0,0,0,0,0,0,0,0,0,0,0,0,0,0,0,0,0,0,0,0,0,0,0,0,0,0,0,0,0,0,0,0,0,0,0,0,0,0,0,0,0,0,0,0,0,0,0,0,0,0,0,0,0,0,0,0,0,0,0,0,0,0,0,0,0,0,0,0,0,0,0,0,0,0,0,0,0,0,0,0,0,0,0,0,0,0,0,0,0,0,0,0,0,0,0,0,0,0,0,0,0],"id":3,"left_children":[1,3,5,7,9,11,13,15,17,19,21,23,25,27,29,31,-1,33,35,37,39,41,43,45,47,49,51,53,55,57,59,-1,61,63,65,67,69,71,73,75,77,79,81,83,85,87,89,91,93,95,97,99,101,103,105,107,109,111,113,115,117,-1,-1,-1,-1,-1,-1,-1,-1,-1,-1,-1,-1,-1,-1,-1,-1,-1,-1,-1,-1,-1,-1,-1,-1,-1,-1,-1,-1,-1,-1,-1,-1,-1,-1,-1,-1,-1,-1,-1,-1,-1,-1,-1,-1,-1,-1,-1,-1,-1,-1,-1,-1,-1,-1,-1,-1,-1,-1],"loss_changes":[8.616108E5,1.7629298E5,1.4343025E5,1.6366711E4,5.8448344E4,1.224605E5,8.147778E4,1.0744148E4,8.70968E3,1.270092E4,1.2589125E4,8.863603E4,3.5705023E4,4.1326656E4,2.9814008E4,1.1729346E3,0E0,6.8827266E3,1.5634734E4,6.7459033E3,4.8455864E3,6.21925E3,2.5824922E3,5.132475E4,6.635781E4,2.9037234E4,5.1681924E3,8.610677E3,2.691975E4,7.0184844E3,3.8543442E3,0E0,5.4075317E0,5.8245723E3,5.291838E3,3.0401078E4,1.9149258E3,4.662134E3,3.5765002E3,4.8178623E3,3.87775E3,1.104582E3,2.8813594E3,5.5329297E2,1.3545605E3,5.42134E4,1.4874633E4,1.5886742E4,9.901828E4,7.20536E3,2.3644547E4,6.9121787E3,1.2996819E3,3.5579897E3,3.0321783E4,1.5196344E4,2.5664734E4,7.592125E3,4.0046573E2,1.694594E3,9.906896E3,0E0,0E0,0E0,0E0,0E0,0E0,0E0,0E0,0E0,0E0,0E0,0E0,0E0,0E0,0E0,0E0,0E0,0E0,0E0,0E0,0E0,0E0,0E0,0E0,0E0,0E0,0E0,0E0,0E0,0E0,0E0,0E0,0E0,0E0,0E0,0E0,0E0,0E0,0E0,0E0,0E0,0E0,0E0,0E0,0E0,0E0,0E0,0E0,0E0,0E0,0E0,0E0,0E0,0E0,0E0,0E0,0E0,0E0],"parents":[2147483647,0,0,1,1,2,2,3,3,4,4,5,5,6,6,7,7,8,8,9,9,10,10,11,11,12,12,13,13,14,14,15,15,17,17,18,18,19,19,20,20,21,21,22,22,23,23,24,24,25,25,26,26,27,27,28,28,29,29,30,30,32,32,33,33,34,34,35,35,36,36,37,37,38,38,39,39,40,40,41,41,42,42,43,43,44,44,45,45,46,46,47,47,48,48,49,49,50,50,51,51,52,52,53,53,54,54,55,55,56,56,57,57,58,58,59,59,60,60],"right_children":[2,4,6,8,10,12,14,16,18,20,22,24,26,28,30,32,-1,34,36,38,40,42,44,46,48,50,52,54,56,58,60,-1,62,64,66,68,70,72,74,76,78,80,82,84,86,88,90,92,94,96,98,100,102,104,106,108,110,112,114,116,118,-1,-1,-1,-1,-1,-1,-1,-1,-1,-1,-1,-1,-1,-1,-1,-1,-1,-1,-1,-1,-1,-1,-1,-1,-1,-1,-1,-1,-1,-1,-1,-1,-1,-1,-1,-1,-1,-1,-1,-1,-1,-1,-1,-1,-1,-1,-1,-1,-1,-1,-1,-1,-1,-1,-1,-1,-1,-1],"split_conditions":[2.2425E1,-8.660254E-1,4.07E1,2.2E1,-2.4492937E-16,4.3E1,-8.660254E-1,2.66E1,7.0710677E-1,1.81E1,9.3E0,5.84E1,1E-1,2.27E1,6.9E1,2.18E1,4.2025447E0,5.6E0,1.4083333E1,1.26E1,-5E-1,1.6E1,6.123234E-17,2.3158333E1,6.123234E-17,-1.8369701E-16,-6.542557E0,8.465E1,1.176E2,1E-1,8.516305E0,1.6787914E0,2.51E1,8.858334E0,3.02E1,7E1,3.21E1,4.7E1,-5E-1,3.32E1,4.6E1,-7.0710677E-1,6.1E0,2.06E1,7.1E1,1.31E1,2.5E1,8.89E1,-1.8819036E1,5.6E1,7E1,6.123234E-17,2.35E1,5.2E1,6.013746E-1,1.25E2,1.1617083E2,2.97E1,2.93E1,5.04E1,6.36E1,1.11815885E-1,4.5027232E-1,1.4708072E-1,1.3972663E0,3.5559294E-1,1.098585E0,1.0142999E0,4.0154557E0,8.479864E-1,1.0727065E-1,-3.4973973E-3,-1.801766E-1,-1.7147808E-1,1.286064E-1,2.0450674E-1,1.0011264E0,4.799862E-1,-4.2799488E-2,-3.0477187E-1,-2.1009374E-1,-3.8770944E-1,-3.1295666E-1,-1.8643242E-1,-2.7177712E-1,-2.557635E-1,-1.3954541E-1,1.549404E-1,5.914839E0,1.6091365E0,6.41977E-1,1.1913909E0,2.989517E0,8.67266E0,2.0543535E0,-1.0513807E-2,3.3353728E-1,6.5147E-1,2.707555E-1,-4.8497315E-2,5.31765E-1,-3.2283673E-1,-1.0508257E-1,7.941832E-1,-1.4593951E-1,2.0579389E-1,3.8340118E0,1.8699893E0,1.1014907E0,9.4108343E-1,3.8983479E0,3.0862078E-1,1.1439418E0,-2.7814665E-1,2.0634823E-1,-2.3395078E-1,1.8598448E-1,1.0363253E0,3.28254E-2],"split_indices":[15,8,10,1,8,1,8,0,7,14,10,14,2,0,1,14,0,10,15,10,8,12,7,15,9,9,4,15,10,2,4,0,0,15,13,12,13,1,9,13,1,7,14,0,1,10,1,14,4,12,1,9,13,1,4,12,15,14,0,14,14,0,0,0,0,0,0,0,0,0,0,0,0,0,0,0,0,0,0,0,0,0,0,0,0,0,0,0,0,0,0,0,0,0,0,0,0,0,0,0,0,0,0,0,0,0,0,0,0,0,0,0,0,0,0,0,0,0,0],"split_type":[0,0,0,0,0,0,0,0,0,0,0,0,0,0,0,0,0,0,0,0,0,0,0,0,0,0,0,0,0,0,0,0,0,0,0,0,0,0,0,0,0,0,0,0,0,0,0,0,0,0,0,0,0,0,0,0,0,0,0,0,0,0,0,0,0,0,0,0,0,0,0,0,0,0,0,0,0,0,0,0,0,0,0,0,0,0,0,0,0,0,0,0,0,0,0,0,0,0,0,0,0,0,0,0,0,0,0,0,0,0,0,0,0,0,0,0,0,0,0],"sum_hessian":[1.8569E4,1.4056E4,4.513E3,3.32E2,1.3724E4,3.483E3,1.03E3,1.8E1,3.14E2,3.494E3,1.023E4,5.38E2,2.945E3,4.66E2,5.64E2,1.3E1,5E0,2.16E2,9.8E1,2.636E3,8.58E2,7.196E3,3.034E3,4.49E2,8.9E1,2.399E3,5.46E2,7.6E1,3.9E2,3.39E2,2.25E2,1E1,3E0,5.7E1,1.59E2,3.9E1,5.9E1,2.087E3,5.49E2,4.29E2,4.29E2,1.714E3,5.482E3,1.165E3,1.869E3,1.6E1,4.33E2,6.5E1,2.4E1,6.49E2,1.75E3,2.4E2,3.06E2,4.8E1,2.8E1,3.52E2,3.8E1,3.2E2,1.9E1,1.27E2,9.8E1,1E0,2E0,1.2E1,4.5E1,1.3E2,2.9E1,2.7E1,1.2E1,4.8E1,1.1E1,4.87E2,1.6E3,1.29E2,4.2E2,4.1E2,1.9E1,3.8E1,3.91E2,4.13E2,1.301E3,2.163E3,3.319E3,2.53E2,9.12E2,3E2,1.569E3,7E0,9E0,4.4E1,3.89E2,4.8E1,1.7E1,9E0,1.5E1,4.07E2,2.42E2,1.098E3,6.52E2,1.67E2,7.3E1,1.04E2,2.02E2,1.3E1,3.5E1,2.1E1,7E0,2.59E2,9.3E1,1.1E1,2.7E1,3.1E1,2.89E2,5E0,1.4E1,3.1E1,9.6E1,4.5E1,5.3E1],"tree_param":{"num_deleted":"0","num_feature":"17","num_nodes":"119","size_leaf_vector":"1"}},{"base_weights":[-1.2332753E-2,1.0285204E1,-4.048031E0,2.1845632E0,1.4281512E1,-4.6871085E0,6.3711233E0,1.8166173E-2,5.6481566E0,2.7277925E1,1.1606393E1,-1.7101704E0,-5.3647504E0,3.1964586E0,2.421474E1,4.3922788E-1,-5.949139E0,3.694173E0,1.4028549E1,2.2069391E1,4.106327E1,8.781199E0,2.4319183E1,2.8393214E0,-2.7676778E0,-7.0297103E0,-3.9056246E0,5.817976E0,-4.421848E0,9.050903E0,4.0300083E1,-1.733898E0,1.3974152E0,5.0554523E0,-8.54765E0,2.450311E0,1.1356863E1,2.9377992E0,1.206437E1,4.613365E1,1.9027649E1,2.7505182E1,8.3118126E1,5.7519083E0,1.1767581E1,3.3045765E1,1.3701716E1,9.591269E-1,8.522854E0,-4.58135E0,-7.988106E-1,-6.61698E0,-7.55996E0,-5.129181E0,-3.136441E0,4.7114706E0,2.2516693E1,-4.9133735E0,3.8355942E0,3.010314E1,5.3052235E0,2.5503832E1,5.060028E1,3.7989888E-1,-1.2986603E-1,2.6030988E-2,3.339858E-1,3.7637842E-1,-1.5033652E-1,-4.4214135E-1,1.99556E-1,3.1398084E-2,2.7195618E-1,2.7710253E-1,1.2556683E0,7.9934275E-1,9.847488E-2,1.3750354E0,3.6563E0,1.4090244E0,4.335247E-1,1.1462488E0,2.6601949E0,2.4702194E0,7.742851E0,5.392844E-1,9.690257E-2,1.8669643E0,5.549204E-1,2.6396163E0,1.3808879E0,1.277449E0,3.7332082E-1,-4.4454914E-1,8.61777E-2,1.4810038E-1,6.592616E-1,-2.9825202E-1,-1.9470505E-1,-3.9132378E-1,-4.4978717E-3,-3.4501633E-1,-2.9322824E-1,-3.4081277E-1,-4.0676585E-1,-3.3205733E-1,-2.3695396E-1,-2.1082106E-1,-1.4484167E-1,5.837703E-1,1.5580805E-1,3.2904217E-1,1.4516485E0,-3.450709E-1,-1.8357067E-1,2.2516191E-1,3.8833953E-2,4.325776E-1,1.9693505E0,-4.420801E-1,3.4815258E-1,1.3572131E0,5.052752E-1,2.0857742E0,3.433541E0],"categories":[],"categories_nodes":[],"categories_segments":[],"categories_sizes":[],"default_left":[0,0,0,0,0,0,0,0,0,0,0,0,0,0,0,0,0,0,0,0,0,0,0,0,0,0,0,0,0,0,0,0,0,0,0,0,0,0,0,0,0,0,0,0,0,0,0,0,0,0,0,0,0,0,0,0,0,0,0,0,0,0,0,0,0,0,0,0,0,0,0,0,0,0,0,0,0,0,0,0,0,0,0,0,0,0,0,0,0,0,0,0,0,0,0,0,0,0,0,0,0,0,0,0,0,0,0,0,0,0,0,0,0,0,0,0,0,0,0,0,0,0,0,0,0],"id":4,"left_children":[1,3,5,7,9,11,13,15,17,19,21,23,25,27,29,31,33,35,37,39,41,43,45,47,49,51,53,55,57,59,61,63,65,67,69,71,73,-1,75,77,79,81,83,85,87,89,91,93,95,97,99,101,103,105,107,109,111,113,115,117,119,121,123,-1,-1,-1,-1,-1,-1,-1,-1,-1,-1,-1,-1,-1,-1,-1,-1,-1,-1,-1,-1,-1,-1,-1,-1,-1,-1,-1,-1,-1,-1,-1,-1,-1,-1,-1,-1,-1,-1,-1,-1,-1,-1,-1,-1,-1,-1,-1,-1,-1,-1,-1,-1,-1,-1,-1,-1,-1,-1,-1,-1,-1,-1],"loss_changes":[7.692755E5,1.6869512E5,8.8583234E4,1.292846E4,1.21020125E5,2.5269594E4,4.348453E4,2.6684856E3,1.08049E4,4.1815625E4,1.0379947E5,1.1193717E4,2.4769281E4,1.3087104E4,2.7929445E4,2.0680269E3,2.0449009E3,5.1095596E3,1.0272734E4,3.0889797E4,9.008353E4,2.1381844E4,4.8283312E4,4.683043E3,6.734591E3,9.930156E2,5.1056016E3,8.892318E3,7.007151E2,4.650447E3,7.2441406E3,2.4691687E3,3.187624E3,3.016625E2,2.4625781E2,2.5292815E3,5.8601816E3,0E0,4.759746E3,2.2130438E4,3.644225E4,1.3375773E4,8.667425E4,2.2613672E4,2.000011E4,2.9411125E4,1.7464469E4,2.507651E3,2.7869634E3,9.1059375E2,4.51261E3,5.3259375E2,8.341328E2,1.2065547E3,8.531211E2,5.05183E3,2.924208E3,3.672439E2,1.6925095E1,1.451625E3,1.3045737E3,3.571914E2,2.2730625E3,0E0,0E0,0E0,0E0,0E0,0E0,0E0,0E0,0E0,0E0,0E0,0E0,0E0,0E0,0E0,0E0,0E0,0E0,0E0,0E0,0E0,0E0,0E0,0E0,0E0,0E0,0E0,0E0,0E0,0E0,0E0,0E0,0E0,0E0,0E0,0E0,0E0,0E0,0E0,0E0,0E0,0E0,0E0,0E0,0E0,0E0,0E0,0E0,0E0,0E0,0E0,0E0,0E0,0E0,0E0,0E0,0E0,0E0,0E0,0E0,0E0,0E0],"parents":[2147483647,0,0,1,1,2,2,3,3,4,4,5,5,6,6,7,7,8,8,9,9,10,10,11,11,12,12,13,13,14,14,15,15,16,16,17,17,18,18,19,19,20,20,21,21,22,22,23,23,24,24,25,25,26,26,27,27,28,28,29,29,30,30,31,31,32,32,33,33,34,34,35,35,36,36,38,38,39,39,40,40,41,41,42,42,43,43,44,44,45,45,46,46,47,47,48,48,49,49,50,50,51,51,52,52,53,53,54,54,55,55,56,56,57,57,58,58,59,59,60,60,61,61,62,62],"right_children":[2,4,6,8,10,12,14,16,18,20,22,24,26,28,30,32,34,36,38,40,42,44,46,48,50,52,54,56,58,60,62,64,66,68,70,72,74,-1,76,78,80,82,84,86,88,90,92,94,96,98,100,102,104,106,108,110,112,114,116,118,120,122,124,-1,-1,-1,-1,-1,-1,-1,-1,-1,-1,-1,-1,-1,-1,-1,-1,-1,-1,-1,-1,-1,-1,-1,-1,-1,-1,-1,-1,-1,-1,-1,-1,-1,-1,-1,-1,-1,-1,-1,-1,-1,-1,-1,-1,-1,-1,-1,-1,-1,-1,-1,-1,-1,-1,-1,-1,-1,-1,-1,-1,-1,-1],"split_conditions":[-5E-1,-1.8369701E-16,2.88E1,5.6E1,4.3E1,-2.4492937E-16,1.9813997E1,2.86E1,8.660254E-1,5.84E1,7.15E1,4.8E1,0E0,-2.4492937E-16,0E0,0E0,1.81E1,4.63E1,-2.6949331E1,2.5E1,7.9283667E0,2.84E1,-8.660254E-1,1.79E1,1.24E1,8.660254E-1,-2.5881904E-1,1.41E2,4.87E1,-2.1795904E1,5.8E1,1.63E1,4.9E1,9E0,2.88E1,7.5E1,7.6873226E0,2.9377992E0,8.2E0,2.69E1,3.564026E0,1.176E2,-8.660254E-1,-8.660254E-1,1.8E1,5.39E1,6.2E1,-2.1894838E1,-5E-1,-5E-1,1.5E1,7.7E0,3.2E1,2.5881904E-1,8.4E0,-5.7553363E0,1.0775574E1,-2.5881904E-1,2.46E1,2.4574562E1,3.9E1,5.74E1,2.2979574E1,3.7989888E-1,-1.2986603E-1,2.6030988E-2,3.339858E-1,3.7637842E-1,-1.5033652E-1,-4.4214135E-1,1.99556E-1,3.1398084E-2,2.7195618E-1,2.7710253E-1,1.2556683E0,7.9934275E-1,9.847488E-2,1.3750354E0,3.6563E0,1.4090244E0,4.335247E-1,1.1462488E0,2.6601949E0,2.4702194E0,7.742851E0,5.392844E-1,9.690257E-2,1.8669643E0,5.549204E-1,2.6396163E0,1.3808879E0,1.277449E0,3.7332082E-1,-4.4454914E-1,8.61777E-2,1.4810038E-1,6.592616E-1,-2.9825202E-1,-1.9470505E-1,-3.9132378E-1,-4.4978717E-3,-3.4501633E-1,-2.9322824E-1,-3.4081277E-1,-4.0676585E-1,-3.3205733E-1,-2.3695396E-1,-2.1082106E-1,-1.4484167E-1,5.837703E-1,1.5580805E-1,3.2904217E-1,1.4516485E0,-3.450709E-1,-1.8357067E-1,2.2516191E-1,3.8833953E-2,4.325776E-1,1.9693505E0,-4.420801E-1,3.4815258E-1,1.3572131E0,5.052752E-1,2.0857742E0,3.433541E0],"split_indices":[8,9,13,12,1,8,4,10,7,14,13,1,6,8,6,6,14,14,4,1,5,13,8,14,13,8,7,12,14,5,1,0,12,11,0,12,5,0,11,0,5,10,8,8,12,14,1,4,9,6,0,10,12,6,14,4,4,7,10,4,12,10,4,0,0,0,0,0,0,0,0,0,0,0,0,0,0,0,0,0,0,0,0,0,0,0,0,0,0,0,0,0,0,0,0,0,0,0,0,0,0,0,0,0,0,0,0,0,0,0,0,0,0,0,0,0,0,0,0,0,0,0,0,0,0],"split_type":[0,0,0,0,0,0,0,0,0,0,0,0,0,0,0,0,0,0,0,0,0,0,0,0,0,0,0,0,0,0,0,0,0,0,0,0,0,0,0,0,0,0,0,0,0,0,0,0,0,0,0,0,0,0,0,0,0,0,0,0,0,0,0,0,0,0,0,0,0,0,0,0,0,0,0,0,0,0,0,0,0,0,0,0,0,0,0,0,0,0,0,0,0,0,0,0,0,0,0,0,0,0,0,0,0,0,0,0,0,0,0,0,0,0,0,0,0,0,0,0,0,0,0,0,0],"sum_hessian":[1.8509E4,5.211E3,1.3298E4,1.722E3,3.489E3,1.253E4,7.68E2,1.06E3,6.62E2,5.94E2,2.895E3,2.324E3,1.0206E4,6.53E2,1.15E2,9.91E2,6.9E1,5.38E2,1.24E2,4.33E2,1.61E2,2.37E3,5.25E2,4.38E2,1.886E3,4.765E3,5.441E3,4.86E2,1.67E2,6E1,5.5E1,3.03E2,6.88E2,1.3E1,5.6E1,4.64E2,7.4E1,4E0,1.2E2,4.7E1,3.86E2,1.23E2,3.8E1,1.178E3,1.192E3,2.87E2,2.38E2,3.3E2,1.08E2,9.81E2,9.05E2,2.687E3,2.078E3,2.098E3,3.343E3,4.57E2,2.9E1,1.58E2,9E0,8E0,5.2E1,2.4E1,3.1E1,2.5E1,2.78E2,5.91E2,9.7E1,1E1,3E0,5.5E1,1E0,2.89E2,1.75E2,5.3E1,2.1E1,8.6E1,3.4E1,2.9E1,1.8E1,2.04E2,1.82E2,1.06E2,1.7E1,2.7E1,1.1E1,5.07E2,6.71E2,2.9E1,1.163E3,6E1,2.27E2,8.1E1,1.57E2,2.3E1,3.07E2,5E1,5.8E1,3.23E2,6.58E2,8.2E1,8.23E2,1.946E3,7.41E2,9.12E2,1.166E3,4.27E2,1.671E3,6.04E2,2.739E3,8.4E1,3.73E2,9E0,2E1,5.9E1,9.9E1,7E0,2E0,3E0,5E0,5E0,4.7E1,2.1E1,3E0,2.3E1,8E0],"tree_param":{"num_deleted":"0","num_feature":"17","num_nodes":"125","size_leaf_vector":"1"}},{"base_weights":[1.2140655E-1,1.0218936E1,-3.8246336E0,2.105014E0,1.4183043E1,-4.4495463E0,5.525338E0,1.6169027E1,1.5869359E0,2.1358122E1,9.998731E0,-5.8600526E0,-3.2058685E0,2.7317681E0,2.104323E1,1.8953032E0,2.9045362E1,6.563851E-1,7.311807E0,1.5935782E1,3.1858496E1,7.592335E0,2.1053873E1,-2.4321556E0,-6.683102E0,-1.1204034E0,-3.6578698E0,5.276512E0,-4.151877E0,5.859886E0,3.3150143E1,1.4014033E1,-5.0811803E-1,1.9501713E1,3.9922787E1,1.2086818E0,-3.9240503E0,2.2458363E0,6.9545703E0,4.9867348E1,1.3991531E1,2.2526737E1,4.3360653E1,2.5220344E0,1.0043129E1,3.0719112E1,1.0468751E1,2.941068E0,-3.851611E0,-6.277372E0,-7.2125144E0,8.285375E-1,-3.2380424E0,-5.278286E0,-3.330361E0,8.199107E0,1.4847603E0,-8.527008E0,-3.568128E0,2.3919436E1,2.9121158E0,1.660009E1,4.124804E1,8.251998E-1,1.013546E-1,-2.4664648E-1,1.2828487E-1,4.827653E-1,1.1651747E0,9.918961E-1,2.1798515E0,-2.6840243E-1,7.773426E-2,-2.5735873E-1,9.52068E-1,1.1029545E-1,4.5027524E-1,7.7569733E0,2.0778177E0,2.3792088E-1,1.0443107E0,1.9223378E0,5.9164476E-1,4.1192036E0,1.884818E0,2.1360107E-1,-1.337546E-1,6.303038E-1,2.7410638E-1,2.3883398E0,1.146452E0,-3.1751987E-1,6.4619505E-1,-8.237418E-2,3.4005323E-1,-2.6736048E-1,-1.1637243E-1,-3.4095126E-1,-2.975775E-1,-3.3126244E-1,-3.8860428E-1,-9.2398055E-2,1.8309096E-1,-3.5624275E-1,-1.4893411E-1,-1.8509014E-1,-2.776886E-1,-1.6136876E-1,-2.964012E-1,2.322394E-2,5.832033E-1,2.9336754E-2,8.8001597E-1,-8.488715E-2,-4.3856832E-1,1.7632754E-1,-1.9452439E-1,4.0831676E-1,1.5869015E0,4.1857287E-1,5.0883275E-2,-4.142792E-1,1.0867385E0,2.2298357E0,2.0999198E-1],"categories":[],"categories_nodes":[],"categories_segments":[],"categories_sizes":[],"default_left":[0,0,0,0,0,0,0,0,0,0,0,0,0,0,0,0,0,0,0,0,0,0,0,0,0,0,0,0,0,0,0,0,0,0,0,0,0,0,0,0,0,0,0,0,0,0,0,0,0,0,0,0,0,0,0,0,0,0,0,0,0,0,0,0,0,0,0,0,0,0,0,0,0,0,0,0,0,0,0,0,0,0,0,0,0,0,0,0,0,0,0,0,0,0,0,0,0,0,0,0,0,0,0,0,0,0,0,0,0,0,0,0,0,0,0,0,0,0,0,0,0,0,0,0,0],"id":5,"left_children":[1,3,5,7,9,11,13,15,17,19,21,23,25,27,29,31,33,35,37,39,41,43,45,47,49,51,53,55,57,59,61,63,65,67,69,71,73,-1,75,77,79,81,83,85,87,89,91,93,95,97,99,101,103,105,107,109,111,113,115,117,119,121,123,-1,-1,-1,-1,-1,-1,-1,-1,-1,-1,-1,-1,-1,-1,-1,-1,-1,-1,-1,-1,-1,-1,-1,-1,-1,-1,-1,-1,-1,-1,-1,-1,-1,-1,-1,-1,-1,-1,-1,-1,-1,-1,-1,-1,-1,-1,-1,-1,-1,-1,-1,-1,-1,-1,-1,-1,-1,-1,-1,-1,-1,-1],"loss_changes":[7.426352E5,1.6841531E5,7.8325484E4,1.2506707E4,1.05406625E5,2.2017656E4,3.635678E4,1.1156339E4,8.83849E3,7.322519E4,5.900533E4,1.6587281E4,6.2908047E3,1.2511611E4,2.3335145E4,8.809132E2,2.5433672E3,3.619769E3,2.8042773E3,5.577389E4,4.625078E4,2.2689875E4,4.029458E4,8.713792E3,9.739531E2,4.918122E3,2.8949062E3,5.761421E3,4.6249194E2,3.0179976E3,8.830734E3,1.1578003E2,3.662838E2,4.862417E2,1.682793E2,2.9119736E3,4.423799E3,0E0,2.2298867E3,3.37991E4,5.1528375E4,4.1255367E4,4.021828E4,5.441084E3,1.4332484E4,2.6394922E4,7.969135E3,4.2443228E3,2.0459756E3,4.348672E2,6.228281E2,4.71598E3,5.5439404E2,3.7943164E2,1.2029102E3,7.87383E3,3.2893298E3,2.1821777E1,4.070901E2,7.261533E2,5.189457E2,3.374585E3,5.643633E3,0E0,0E0,0E0,0E0,0E0,0E0,0E0,0E0,0E0,0E0,0E0,0E0,0E0,0E0,0E0,0E0,0E0,0E0,0E0,0E0,0E0,0E0,0E0,0E0,0E0,0E0,0E0,0E0,0E0,0E0,0E0,0E0,0E0,0E0,0E0,0E0,0E0,0E0,0E0,0E0,0E0,0E0,0E0,0E0,0E0,0E0,0E0,0E0,0E0,0E0,0E0,0E0,0E0,0E0,0E0,0E0,0E0,0E0,0E0,0E0,0E0,0E0],"parents":[2147483647,0,0,1,1,2,2,3,3,4,4,5,5,6,6,7,7,8,8,9,9,10,10,11,11,12,12,13,13,14,14,15,15,16,16,17,17,18,18,19,19,20,20,21,21,22,22,23,23,24,24,25,25,26,26,27,27,28,28,29,29,30,30,31,31,32,32,33,33,34,34,35,35,36,36,38,38,39,39,40,40,41,41,42,42,43,43,44,44,45,45,46,46,47,47,48,48,49,49,50,50,51,51,52,52,53,53,54,54,55,55,56,56,57,57,58,58,59,59,60,60,61,61,62,62],"right_children":[2,4,6,8,10,12,14,16,18,20,22,24,26,28,30,32,34,36,38,40,42,44,46,48,50,52,54,56,58,60,62,64,66,68,70,72,74,-1,76,78,80,82,84,86,88,90,92,94,96,98,100,102,104,106,108,110,112,114,116,118,120,122,124,-1,-1,-1,-1,-1,-1,-1,-1,-1,-1,-1,-1,-1,-1,-1,-1,-1,-1,-1,-1,-1,-1,-1,-1,-1,-1,-1,-1,-1,-1,-1,-1,-1,-1,-1,-1,-1,-1,-1,-1,-1,-1,-1,-1,-1,-1,-1,-1,-1,-1,-1,-1,-1,-1,-1,-1,-1,-1,-1,-1,-1,-1],"split_conditions":[-5E-1,-1.8369701E-16,2.75E1,2.7E1,5.5E1,0E0,1.939897E1,2.26E1,7.6E1,-2.5881904E-1,7.15E1,-2.4492937E-16,-2.4492937E-16,-2.4492937E-16,-2.5881904E-1,4.361705E0,2.1E1,1E-1,-2.6949331E1,2.6E1,2.32E1,0E0,-8.660254E-1,4.4E1,8.660254E-1,8.3E1,6.8E0,6.6E1,2.5881904E-1,-2.1795904E1,4.28E1,2.28E1,6.9E1,6.808243E0,1.57E1,-1.9831982E1,9.751E2,2.2458363E0,4.292346E0,-2.0482555E1,2.75E1,3.3076482E0,-1.9399479E1,1E-1,8E1,8.24E1,-5E-1,9E0,1.01E1,5.8E0,3.5E1,2.04E1,1.6E1,2.1E1,9.708E2,-2.5881904E-1,1.17E2,9.558E2,9.583E2,4E1,-1.8401093E1,3.3E1,9.599E2,8.251998E-1,1.013546E-1,-2.4664648E-1,1.2828487E-1,4.827653E-1,1.1651747E0,9.918961E-1,2.1798515E0,-2.6840243E-1,7.773426E-2,-2.5735873E-1,9.52068E-1,1.1029545E-1,4.5027524E-1,7.7569733E0,2.0778177E0,2.3792088E-1,1.0443107E0,1.9223378E0,5.9164476E-1,4.1192036E0,1.884818E0,2.1360107E-1,-1.337546E-1,6.303038E-1,2.7410638E-1,2.3883398E0,1.146452E0,-3.1751987E-1,6.4619505E-1,-8.237418E-2,3.4005323E-1,-2.6736048E-1,-1.1637243E-1,-3.4095126E-1,-2.975775E-1,-3.3126244E-1,-3.8860428E-1,-9.2398055E-2,1.8309096E-1,-3.5624275E-1,-1.4893411E-1,-1.8509014E-1,-2.776886E-1,-1.6136876E-1,-2.964012E-1,2.322394E-2,5.832033E-1,2.9336754E-2,8.8001597E-1,-8.488715E-2,-4.3856832E-1,1.7632754E-1,-1.9452439E-1,4.0831676E-1,1.5869015E0,4.1857287E-1,5.0883275E-2,-4.142792E-1,1.0867385E0,2.2298357E0,2.0999198E-1],"split_indices":[8,9,13,1,1,6,4,14,12,6,13,8,8,8,6,5,0,2,4,1,0,6,8,1,8,1,14,1,6,5,14,0,12,5,13,4,3,0,4,4,13,5,4,2,1,14,6,13,14,13,12,0,0,0,3,6,12,3,3,1,5,12,3,0,0,0,0,0,0,0,0,0,0,0,0,0,0,0,0,0,0,0,0,0,0,0,0,0,0,0,0,0,0,0,0,0,0,0,0,0,0,0,0,0,0,0,0,0,0,0,0,0,0,0,0,0,0,0,0,0,0,0,0,0,0],"split_type":[0,0,0,0,0,0,0,0,0,0,0,0,0,0,0,0,0,0,0,0,0,0,0,0,0,0,0,0,0,0,0,0,0,0,0,0,0,0,0,0,0,0,0,0,0,0,0,0,0,0,0,0,0,0,0,0,0,0,0,0,0,0,0,0,0,0,0,0,0,0,0,0,0,0,0,0,0,0,0,0,0,0,0,0,0,0,0,0,0,0,0,0,0,0,0,0,0,0,0,0,0,0,0,0,0,0,0,0,0,0,0,0,0,0,0,0,0,0,0,0,0,0,0,0,0],"sum_hessian":[1.8636E4,5.236E3,1.34E4,1.719E3,3.517E3,1.2561E4,8.39E2,6E1,1.659E3,1.294E3,2.223E3,5.884E3,6.677E3,7.12E2,1.27E2,2.9E1,3.1E1,1.428E3,2.31E2,8.55E2,4.39E2,1.827E3,3.96E2,1.14E3,4.744E3,1.19E3,5.487E3,5.2E2,1.92E2,5.7E1,7E1,4E0,2.5E1,1.8E1,1.3E1,1.275E3,1.53E2,1E0,2.3E2,4.5E1,8.1E2,2.44E2,1.95E2,5.96E2,1.231E3,2.06E2,1.9E2,2.38E2,9.02E2,2.693E3,2.051E3,6.2E2,5.7E2,9.2E2,4.567E3,2.93E2,2.27E2,2.1E1,1.71E2,7E0,5E1,2.4E1,4.6E1,3E0,1E0,1E1,1.5E1,6E0,1.2E1,3E0,1E1,6.3E1,1.212E3,1.46E2,7E0,7E1,1.6E2,2E0,4.3E1,3.47E2,4.63E2,9.7E1,1.47E2,2.3E1,1.72E2,4.46E2,1.5E2,7.87E2,4.44E2,6.3E1,1.43E2,2.4E1,1.66E2,1.09E2,1.29E2,4.54E2,4.48E2,1.004E3,1.689E3,1.007E3,1.044E3,3.19E2,3.01E2,3.4E1,5.36E2,1.39E2,7.81E2,4.395E3,1.72E2,9.1E1,2.02E2,2.16E2,1.1E1,1E0,2E1,7E0,1.64E2,3E0,4E0,1.2E1,3.8E1,4E0,2E1,4.2E1,4E0],"tree_param":{"num_deleted":"0","num_feature":"17","num_nodes":"125","size_leaf_vector":"1"}},{"base_weights":[3.4645204E-2,-3.3078978E0,1.032508E1,1.5530179E1,-3.7685754E0,8.332021E0,2.1831015E1,9.741067E0,2.0923782E1,-6.8641394E-1,-4.8328705E0,1.0068314E1,-1.2023857E0,3.182938E1,1.105068E1,7.5220637E0,2.7075203E1,2.7580154E1,1.1160157E1,-1.8475534E0,1.9068596E0,-6.330828E0,-3.5544264E0,8.318514E0,1.9908699E1,-2.809245E0,2.309919E0,2.9094536E1,5.2541374E1,1.354799E1,-3.1393912E0,6.827985E0,1.514067E0,3.3558803E0,3.3612446E1,1.9863253E1,5.6032005E1,1.4526632E1,2.4529948E0,-2.3189626E0,2.9449317E0,-1.4438612E0,3.4130218E0,-6.6658387E0,-5.6784053E0,-4.413506E0,-2.5484688E0,3.0395732E0,1.0226477E1,1.3914419E1,4.7201656E1,-6.0368185E0,-1.1006737E0,-1.5517035E0,6.0659294E0,4.001642E1,2.313565E1,1.2379496E1,6.787713E1,2.0835121E1,7.8189335E0,-4.595529E0,5.296864E-1,4.3704158E-1,7.7599235E-2,3.4509063E-1,-2.7069622E-1,2.1224763E0,7.377376E-1,1.6124487E0,4.8691344E-1,4.3637E0,1.5046391E0,9.1858846E-1,2.4947949E-2,-8.324787E-3,6.8137264E-1,-8.995384E-2,-2.6553884E-1,3.929089E-1,8.918181E-2,-2.385226E-1,1.4685166E-2,-2.2896734E-1,2.1645942E-1,-3.1642532E-1,-3.6417338E-1,-3.0291188E-1,-2.3013578E-1,-3.0552906E-1,-2.0618592E-1,-2.0295794E-1,-1.16095446E-1,9.000096E-3,3.4952834E-1,5.4050934E-1,-3.2681558E-1,1.5178646E-1,9.931572E-1,1.3600227E0,5.485988E0,-4.1500622E-1,-1.17346E-1,2.5498307E-1,-9.81503E-2,-2.1306498E-1,1.8733148E-1,-2.5547057E-2,4.9554762E-1,7.2183216E-1,2.5368984E0,4.7066298E-1,1.6354035E0,1.643801E0,2.4962945E-1,3.6781693E-1,3.7422688E0,1.3490183E0,2.2488649E-1,2.6081884E-3,5.352618E-1,-4.1396832E-1,-3.5594277E-2],"categories":[],"categories_nodes":[],"categories_segments":[],"categories_sizes":[],"default_left":[0,0,0,0,0,0,0,0,0,0,0,0,0,0,0,0,0,0,0,0,0,0,0,0,0,0,0,0,0,0,0,0,0,0,0,0,0,0,0,0,0,0,0,0,0,0,0,0,0,0,0,0,0,0,0,0,0,0,0,0,0,0,0,0,0,0,0,0,0,0,0,0,0,0,0,0,0,0,0,0,0,0,0,0,0,0,0,0,0,0,0,0,0,0,0,0,0,0,0,0,0,0,0,0,0,0,0,0,0,0,0,0,0,0,0,0,0,0,0,0,0,0,0],"id":6,"left_children":[1,3,5,7,9,11,13,15,17,19,21,23,25,27,29,31,33,35,37,39,41,43,45,47,49,51,53,55,57,59,61,63,-1,65,67,69,71,73,75,77,79,81,83,85,87,89,91,93,95,97,99,101,103,105,107,109,111,113,115,117,119,121,-1,-1,-1,-1,-1,-1,-1,-1,-1,-1,-1,-1,-1,-1,-1,-1,-1,-1,-1,-1,-1,-1,-1,-1,-1,-1,-1,-1,-1,-1,-1,-1,-1,-1,-1,-1,-1,-1,-1,-1,-1,-1,-1,-1,-1,-1,-1,-1,-1,-1,-1,-1,-1,-1,-1,-1,-1,-1,-1,-1,-1],"loss_changes":[6.334062E5,1.2068661E5,1.03356125E5,1.0162609E4,4.4507453E4,6.374703E4,7.143353E4,6.027588E3,1.0805547E4,1.0494376E4,1.929275E4,5.591572E4,3.3588938E3,1.8013562E4,1.1453246E4,2.0837656E3,2.6782637E3,2.1062594E4,2.0455498E3,5.4447773E3,5.445302E3,9.7696875E2,4.693453E3,2.7838203E4,7.967161E4,2.2432874E3,2.7217153E3,1.9054438E4,2.3180328E4,1.1276152E4,1.0285521E3,1.4195234E3,0E0,1.9285156E2,1.7067256E3,9.843771E3,1.43919375E4,2.7416875E3,6.169681E2,3.3998857E3,1.2184216E3,1.9377567E3,5.4676475E3,5.918594E2,6.184883E2,1.418207E3,8.496504E2,8.314178E3,1.9952953E4,2.608429E4,1.0705403E5,1.1580635E3,1.4429391E3,1.3511055E3,2.4074448E3,2.8612781E4,2.6094766E4,1.652734E3,1.1257672E4,1.192632E4,3.4741143E3,6.3790814E2,0E0,0E0,0E0,0E0,0E0,0E0,0E0,0E0,0E0,0E0,0E0,0E0,0E0,0E0,0E0,0E0,0E0,0E0,0E0,0E0,0E0,0E0,0E0,0E0,0E0,0E0,0E0,0E0,0E0,0E0,0E0,0E0,0E0,0E0,0E0,0E0,0E0,0E0,0E0,0E0,0E0,0E0,0E0,0E0,0E0,0E0,0E0,0E0,0E0,0E0,0E0,0E0,0E0,0E0,0E0,0E0,0E0,0E0,0E0,0E0,0E0],"parents":[2147483647,0,0,1,1,2,2,3,3,4,4,5,5,6,6,7,7,8,8,9,9,10,10,11,11,12,12,13,13,14,14,15,15,16,16,17,17,18,18,19,19,20,20,21,21,22,22,23,23,24,24,25,25,26,26,27,27,28,28,29,29,30,30,31,31,33,33,34,34,35,35,36,36,37,37,38,38,39,39,40,40,41,41,42,42,43,43,44,44,45,45,46,46,47,47,48,48,49,49,50,50,51,51,52,52,53,53,54,54,55,55,56,56,57,57,58,58,59,59,60,60,61,61],"right_children":[2,4,6,8,10,12,14,16,18,20,22,24,26,28,30,32,34,36,38,40,42,44,46,48,50,52,54,56,58,60,62,64,-1,66,68,70,72,74,76,78,80,82,84,86,88,90,92,94,96,98,100,102,104,106,108,110,112,114,116,118,120,122,-1,-1,-1,-1,-1,-1,-1,-1,-1,-1,-1,-1,-1,-1,-1,-1,-1,-1,-1,-1,-1,-1,-1,-1,-1,-1,-1,-1,-1,-1,-1,-1,-1,-1,-1,-1,-1,-1,-1,-1,-1,-1,-1,-1,-1,-1,-1,-1,-1,-1,-1,-1,-1,-1,-1,-1,-1,-1,-1,-1,-1],"split_conditions":[2.2425E1,-8.660254E-1,7.64E1,3.2E0,-2.4492937E-16,1E-1,-8.660254E-1,3.02E1,1.5541667E1,1.5991667E1,0E0,5.58E1,5E-1,1.176E2,-2.9529543E0,1.1E2,6.3E1,7.4E1,6.18034E0,1.13E1,-5E-1,8.660254E-1,2.5881904E-1,-1.8369701E-16,7.9283667E0,5E1,3.2E0,8.24E1,1.1617083E2,6.71E1,1.2E0,7.319231E0,1.514067E0,2.23E1,8.4E1,6.5E0,7.045404E-1,3.32E1,2.42E1,1E-1,1.9E1,1.82E1,-1.2877038E1,4.3E1,8.1E0,2.5881904E-1,5.775E0,5.7E1,-2.4492937E-16,2.5E1,6.123234E-17,0E0,1.82E1,4.5283333E1,3.1E1,-1.3812953E1,1.132E2,-1.2612079E1,-1.1910524E1,-5E-1,-2.5881904E-1,7.7E1,5.296864E-1,4.3704158E-1,7.7599235E-2,3.4509063E-1,-2.7069622E-1,2.1224763E0,7.377376E-1,1.6124487E0,4.8691344E-1,4.3637E0,1.5046391E0,9.1858846E-1,2.4947949E-2,-8.324787E-3,6.8137264E-1,-8.995384E-2,-2.6553884E-1,3.929089E-1,8.918181E-2,-2.385226E-1,1.4685166E-2,-2.2896734E-1,2.1645942E-1,-3.1642532E-1,-3.6417338E-1,-3.0291188E-1,-2.3013578E-1,-3.0552906E-1,-2.0618592E-1,-2.0295794E-1,-1.16095446E-1,9.000096E-3,3.4952834E-1,5.4050934E-1,-3.2681558E-1,1.5178646E-1,9.931572E-1,1.3600227E0,5.485988E0,-4.1500622E-1,-1.17346E-1,2.5498307E-1,-9.81503E-2,-2.1306498E-1,1.8733148E-1,-2.5547057E-2,4.9554762E-1,7.2183216E-1,2.5368984E0,4.7066298E-1,1.6354035E0,1.643801E0,2.4962945E-1,3.6781693E-1,3.7422688E0,1.3490183E0,2.2488649E-1,2.6081884E-3,5.352618E-1,-4.1396832E-1,-3.5594277E-2],"split_indices":[15,8,13,11,8,2,8,13,15,15,6,14,6,10,5,12,12,12,5,11,9,9,7,9,5,12,11,14,15,14,2,5,0,0,12,11,5,13,0,2,12,0,5,12,10,6,15,12,8,0,9,6,0,15,12,5,13,5,5,8,6,12,0,0,0,0,0,0,0,0,0,0,0,0,0,0,0,0,0,0,0,0,0,0,0,0,0,0,0,0,0,0,0,0,0,0,0,0,0,0,0,0,0,0,0,0,0,0,0,0,0,0,0,0,0,0,0,0,0,0,0,0,0],"split_type":[0,0,0,0,0,0,0,0,0,0,0,0,0,0,0,0,0,0,0,0,0,0,0,0,0,0,0,0,0,0,0,0,0,0,0,0,0,0,0,0,0,0,0,0,0,0,0,0,0,0,0,0,0,0,0,0,0,0,0,0,0,0,0,0,0,0,0,0,0,0,0,0,0,0,0,0,0,0,0,0,0,0,0,0,0,0,0,0,0,0,0,0,0,0,0,0,0,0,0,0,0,0,0,0,0,0,0,0,0,0,0,0,0,0,0,0,0,0,0,0,0,0,0],"sum_hessian":[1.8413E4,1.3899E4,4.514E3,3.31E2,1.3568E4,3.849E3,6.65E2,1.61E2,1.7E2,3.483E3,1.0085E4,3.256E3,5.93E2,3.44E2,3.21E2,1.44E2,1.7E1,1E2,7E1,2.406E3,1.077E3,4.642E3,5.443E3,2.766E3,4.9E2,4.07E2,1.86E2,3.06E2,3.8E1,2.73E2,4.8E1,1.41E2,3E0,4E0,1.3E1,8E1,2E1,5E1,2E1,2.191E3,2.15E2,3.34E2,7.43E2,3.061E3,1.581E3,2.934E3,2.509E3,7.35E2,2.031E3,4.03E2,8.7E1,1.4E2,2.67E2,9.2E1,9.4E1,1.06E2,2E2,1.1E1,2.7E1,1.19E2,1.54E2,4.4E1,4E0,1.03E2,3.8E1,3E0,1E0,8E0,5E0,3.5E1,4.5E1,8E0,1.2E1,3.9E1,1.1E1,1.7E1,3E0,1.868E3,3.23E2,4E1,1.75E2,1.14E2,2.2E2,7.6E1,6.67E2,1.987E3,1.074E3,1.165E3,4.16E2,4.25E2,2.509E3,3.25E2,2.184E3,4.27E2,3.08E2,1.963E3,6.8E1,1.43E2,2.6E2,6.7E1,2E1,8.6E1,5.4E1,3.2E1,2.35E2,6.1E1,3.1E1,3.5E1,5.9E1,3.2E1,7.4E1,8.3E1,1.17E2,2E0,9E0,3E0,2.4E1,8.6E1,3.3E1,4.2E1,1.12E2,2.2E1,2.2E1],"tree_param":{"num_deleted":"0","num_feature":"17","num_nodes":"123","size_leaf_vector":"1"}},{"base_weights":[2.0140805E-3,-3.1592736E0,9.921551E0,4.7464147E0,-3.4380994E0,8.002465E0,2.096885E1,-8.233592E-2,1.5235902E1,-4.103381E0,-4.4671077E-1,1.7106264E1,5.646586E0,2.8376772E1,1.2310252E1,-3.8373342E0,2.0920043E0,3.3567712E0,8.587548E0,-4.3702016E0,2.9722383E0,6.049988E0,-1.0000322E0,3.0143085E1,1.2589984E1,7.5577626E0,2.2001684E-1,2.5998943E1,4.651165E1,2.0201483E1,7.2078166E0,-2.463884E0,-1.10809145E1,-2.1479732E-1,7.824142E0,6.10683E0,2.959184E1,-5.4849463E0,-3.1745234E0,7.8998065E0,-1.3531445E0,3.7748892E0,4.0241074E1,-4.2578395E-2,-2.334986E0,1.739927E1,6.728373E1,1.1743273E1,7.2085266E1,4.380288E-1,1.0145703E1,-2.6316607E0,1.605316E0,4.3158443E1,2.2623913E1,7.693119E0,6.2873405E1,2.8199976E1,9.903322E0,1.9536594E1,2.959666E0,3.5946408E-1,-1.6213246E-1,-6.821883E-2,-5.772462E-1,4.659358E-1,-6.3235424E-2,8.367508E-1,4.9054444E-2,8.463344E-1,6.903828E-2,1.9701617E0,4.971389E-1,-2.9072788E-1,-2.1291268E-1,-1.0423402E-1,-1.8607669E-1,1.7128302E0,3.4242275E-1,-1.1226022E-1,1.7440178E-1,1.5281014E-1,1.7586033E0,2.491295E0,-2.5610253E-1,-2.119463E-1,2.9091423E-2,-1.6076483E-1,-7.885542E-2,3.4380278E-1,2.8158798E0,7.7279776E-1,4.6371517E0,5.495962E-1,1.7923508E0,4.9038596E0,-1.9635044E-1,-7.484176E-2,2.4573293E-1,3.5018912E-1,7.141847E-1,3.090923E-1,-1.6775772E-1,1.57921E-1,-1.7986877E-1,1.4653987E0,3.1580634E0,9.622386E-1,1.9220059E0,1.7114493E0,-1.2165499E-2,3.3415914E0,3.804652E-1,1.8315775E0,1.606139E-1,2.078737E0,3.2690573E-1,-4.8523586E-2,1.3199621E0,-3.757051E-1,2.5861773E-1],"categories":[],"categories_nodes":[],"categories_segments":[],"categories_sizes":[],"default_left":[0,0,0,0,0,0,0,0,0,0,0,0,0,0,0,0,0,0,0,0,0,0,0,0,0,0,0,0,0,0,0,0,0,0,0,0,0,0,0,0,0,0,0,0,0,0,0,0,0,0,0,0,0,0,0,0,0,0,0,0,0,0,0,0,0,0,0,0,0,0,0,0,0,0,0,0,0,0,0,0,0,0,0,0,0,0,0,0,0,0,0,0,0,0,0,0,0,0,0,0,0,0,0,0,0,0,0,0,0,0,0,0,0,0,0,0,0,0,0,0,0],"id":7,"left_children":[1,3,5,7,9,11,13,15,17,19,21,23,25,27,29,31,33,-1,35,37,39,41,43,45,47,49,51,53,55,57,59,61,63,65,67,69,71,73,75,77,79,81,83,85,87,89,91,93,95,97,99,101,103,105,107,109,111,113,115,117,119,-1,-1,-1,-1,-1,-1,-1,-1,-1,-1,-1,-1,-1,-1,-1,-1,-1,-1,-1,-1,-1,-1,-1,-1,-1,-1,-1,-1,-1,-1,-1,-1,-1,-1,-1,-1,-1,-1,-1,-1,-1,-1,-1,-1,-1,-1,-1,-1,-1,-1,-1,-1,-1,-1,-1,-1,-1,-1,-1,-1],"loss_changes":[5.809164E5,3.0982453E4,9.474778E4,2.426314E4,2.7004047E4,8.1746875E4,4.2112844E4,2.6941956E3,5.1525484E4,2.0970797E4,8.885112E3,4.5780812E4,3.1453977E4,1.41420625E4,1.2215594E4,1.1764902E3,2.7652676E3,0E0,6.8535615E3,1.42416875E4,8.621393E3,1.4938982E4,2.9102632E3,9.396533E4,2.8572664E4,4.1323844E4,3.129012E3,1.7382266E4,2.4921883E4,9.605098E3,9.788585E3,7.976197E2,6.991113E1,1.5131866E3,3.6422363E3,6.21514E3,2.307209E3,2.2132344E3,3.070789E3,5.0026357E3,9.4065393E2,4.0218523E3,5.472787E3,3.479509E3,6.294053E2,6.145419E4,6.586105E4,1.0055633E4,1.6190793E4,5.1956963E3,2.1286984E4,1.6722588E3,4.318173E3,1.2278352E4,1.3530094E4,2.7461284E3,5.6166953E3,1.3998262E4,5.4835474E3,6.780791E3,3.306566E3,0E0,0E0,0E0,0E0,0E0,0E0,0E0,0E0,0E0,0E0,0E0,0E0,0E0,0E0,0E0,0E0,0E0,0E0,0E0,0E0,0E0,0E0,0E0,0E0,0E0,0E0,0E0,0E0,0E0,0E0,0E0,0E0,0E0,0E0,0E0,0E0,0E0,0E0,0E0,0E0,0E0,0E0,0E0,0E0,0E0,0E0,0E0,0E0,0E0,0E0,0E0,0E0,0E0,0E0,0E0,0E0,0E0,0E0,0E0,0E0],"parents":[2147483647,0,0,1,1,2,2,3,3,4,4,5,5,6,6,7,7,8,8,9,9,10,10,11,11,12,12,13,13,14,14,15,15,16,16,18,18,19,19,20,20,21,21,22,22,23,23,24,24,25,25,26,26,27,27,28,28,29,29,30,30,31,31,32,32,33,33,34,34,35,35,36,36,37,37,38,38,39,39,40,40,41,41,42,42,43,43,44,44,45,45,46,46,47,47,48,48,49,49,50,50,51,51,52,52,53,53,54,54,55,55,56,56,57,57,58,58,59,59,60,60],"right_children":[2,4,6,8,10,12,14,16,18,20,22,24,26,28,30,32,34,-1,36,38,40,42,44,46,48,50,52,54,56,58,60,62,64,66,68,70,72,74,76,78,80,82,84,86,88,90,92,94,96,98,100,102,104,106,108,110,112,114,116,118,120,-1,-1,-1,-1,-1,-1,-1,-1,-1,-1,-1,-1,-1,-1,-1,-1,-1,-1,-1,-1,-1,-1,-1,-1,-1,-1,-1,-1,-1,-1,-1,-1,-1,-1,-1,-1,-1,-1,-1,-1,-1,-1,-1,-1,-1,-1,-1,-1,-1,-1,-1,-1,-1,-1,-1,-1,-1,-1,-1,-1],"split_conditions":[2.2425E1,3.7E1,5.33E1,7.2841287E0,1.22E1,4.6E1,6.123234E-17,-1.6494802E1,1.1175E1,2.35E1,5.3E1,-1.2686076E1,8E1,1.676E2,6.2E1,1.51E1,-2.5881904E-1,3.3567712E0,1.3475694E1,0E0,7.7E1,1.1556621E1,8.6E1,6.123234E-17,1.94E1,-5E-1,-1.8369701E-16,1.6043243E1,1.1617083E2,7.15E1,6.965E1,2.2E1,1.56E1,1E0,9.270833E0,1.4370833E1,1.4935979E1,8E0,8.3E1,2.5E0,1.447824E1,2.93E1,6.123234E-17,-1.2192568E1,2.5881904E-1,2.505422E1,7.2841287E0,9.659258E-1,8.660254E-1,3.08E1,9.941116E0,3.8861701E0,8.660254E-1,4.8E0,3.921724E1,2.76E1,2.1563158E1,8.660254E-1,2.77E1,6.88862E0,-2.5881904E-1,3.5946408E-1,-1.6213246E-1,-6.821883E-2,-5.772462E-1,4.659358E-1,-6.3235424E-2,8.367508E-1,4.9054444E-2,8.463344E-1,6.903828E-2,1.9701617E0,4.971389E-1,-2.9072788E-1,-2.1291268E-1,-1.0423402E-1,-1.8607669E-1,1.7128302E0,3.4242275E-1,-1.1226022E-1,1.7440178E-1,1.5281014E-1,1.7586033E0,2.491295E0,-2.5610253E-1,-2.119463E-1,2.9091423E-2,-1.6076483E-1,-7.885542E-2,3.4380278E-1,2.8158798E0,7.7279776E-1,4.6371517E0,5.495962E-1,1.7923508E0,4.9038596E0,-1.9635044E-1,-7.484176E-2,2.4573293E-1,3.5018912E-1,7.141847E-1,3.090923E-1,-1.6775772E-1,1.57921E-1,-1.7986877E-1,1.4653987E0,3.1580634E0,9.622386E-1,1.9220059E0,1.7114493E0,-1.2165499E-2,3.3415914E0,3.804652E-1,1.8315775E0,1.606139E-1,2.078737E0,3.2690573E-1,-4.8523586E-2,1.3199621E0,-3.757051E-1,2.5861773E-1],"split_indices":[15,1,10,16,10,1,9,4,15,14,1,4,1,13,1,13,6,0,16,6,1,16,1,9,11,6,9,16,15,14,15,1,0,11,15,15,16,10,1,10,4,10,9,4,7,16,16,6,9,0,16,16,9,11,16,14,4,9,0,4,6,0,0,0,0,0,0,0,0,0,0,0,0,0,0,0,0,0,0,0,0,0,0,0,0,0,0,0,0,0,0,0,0,0,0,0,0,0,0,0,0,0,0,0,0,0,0,0,0,0,0,0,0,0,0,0,0,0,0,0,0],"split_type":[0,0,0,0,0,0,0,0,0,0,0,0,0,0,0,0,0,0,0,0,0,0,0,0,0,0,0,0,0,0,0,0,0,0,0,0,0,0,0,0,0,0,0,0,0,0,0,0,0,0,0,0,0,0,0,0,0,0,0,0,0,0,0,0,0,0,0,0,0,0,0,0,0,0,0,0,0,0,0,0,0,0,0,0,0,0,0,0,0,0,0,0,0,0,0,0,0,0,0,0,0,0,0,0,0,0,0,0,0,0,0,0,0,0,0,0,0,0,0,0,0],"sum_hessian":[1.8523E4,1.4047E4,4.476E3,4.78E2,1.3569E4,3.815E3,6.61E2,3.28E2,1.5E2,1.11E4,2.469E3,7.83E2,3.032E3,3.55E2,3.06E2,1.2E2,2.08E2,1.6E1,1.34E2,1.0697E4,4.03E2,1.93E2,2.276E3,2E2,5.83E2,2.242E3,7.9E2,3.16E2,3.9E1,1.19E2,1.87E2,1.02E2,1.8E1,1.49E2,5.9E1,1.21E2,1.3E1,5.534E3,5.163E3,1.88E2,2.15E2,1.82E2,1.1E1,1.326E3,9.5E2,1.5E2,5E1,5.76E2,7E0,5.98E2,1.644E3,2.58E2,5.32E2,5E1,2.66E2,1.2E1,2.7E1,6.6E1,5.3E1,4.7E1,1.4E2,7E0,9.5E1,1E0,1.7E1,1.4E1,1.35E2,2.5E1,3.4E1,3.6E1,8.5E1,8E0,5E0,4.359E3,1.175E3,1.727E3,3.436E3,6E0,1.82E2,1.82E2,3.3E1,1.79E2,3E0,9E0,2E0,1.71E2,1.155E3,4.38E2,5.12E2,1.19E2,3.1E1,1.7E1,3.3E1,5.6E2,1.6E1,5E0,2E0,4.18E2,1.8E2,9.36E2,7.08E2,1.9E1,2.39E2,4.1E2,1.22E2,3.1E1,1.9E1,2.21E2,4.5E1,2E0,1E1,2.5E1,2E0,4.9E1,1.7E1,4E0,4.9E1,1.2E1,3.5E1,2.4E1,1.16E2],"tree_param":{"num_deleted":"0","num_feature":"17","num_nodes":"121","size_leaf_vector":"1"}},{"base_weights":[5.4836787E-2,8.66009E0,-3.376982E0,1.7847986E0,1.1984034E1,-3.9226272E0,6.6266656E0,1.0281896E1,1.1861944E0,2.5313322E1,1.0227592E1,-5.2309237E0,-2.7971823E0,-1.3281261E0,1.1183151E1,6.2225776E0,3.8542603E1,-1.3311116E0,1.9192032E0,7.5353985E0,2.9897432E1,7.584791E0,1.8029947E1,-2.5850577E0,-5.7975907E0,-8.894301E-1,-3.2199287E0,-4.612609E0,1.3279185E0,1.3832762E1,-1.9295777E0,2.156E1,4.0846944E0,2.0684017E1,2.6723166E0,-3.596032E0,3.931572E-1,3.0198898E0,-3.0547276E-1,-1.8422134E0,1.6120382E1,2.4153656E1,4.4591072E1,4.440314E0,1.0034546E1,2.1425222E1,3.0652702E0,-3.7578187E0,4.2504662E-1,-5.4438725E0,-6.267013E0,1.3582081E0,-2.619346E0,-4.707819E0,-2.9211323E0,-1.1892791E-1,-7.0117135E0,2.8526862E0,-5.408675E0,8.7173195E0,2.3701649E1,-2.4190872E0,8.451155E-1,-1.2666865E-1,1.1990306E0,1.0336365E-1,6.949744E-1,2.0120282E-1,1.1244574E0,-2.314639E-1,7.751548E-2,-4.0683564E-2,2.099436E-1,3.4071922E-2,2.480553E-1,1.4965673E-2,-4.481381E-1,-3.5439518E-1,2.1412204E-1,2.7825031E0,4.8939607E-1,3.2488678E0,1.0459359E0,6.8560176E0,1.3705788E0,4.8935866E-1,1.0028584E-1,1.1228949E0,4.2106175E-1,6.046421E-1,1.2120975E0,1.9911091E0,3.4021556E-2,-2.0113122E-1,3.2303807E-1,2.7228597E-1,-7.8293614E-2,-2.8273064E-1,-2.2453777E-1,-3.691631E-1,-3.052604E-1,-8.839678E-2,2.3237292E-1,-1.7018451E-1,-5.6399114E-2,-2.6136222E-1,-1.6906868E-1,-1.4190689E-1,-2.7431557E-1,3.2505056E-1,-2.4015479E-1,-4.2521927E-1,-1.5824334E-1,1.8435946E-2,3.326621E-1,-3.0401513E-1,-6.858893E-2,2.0814934E-1,1.0087942E0,6.835616E-1,1.7353462E0,3.401801E-2,-1.9755344E-1],"categories":[],"categories_nodes":[],"categories_segments":[],"categories_sizes":[],"default_left":[0,0,0,0,0,0,0,0,0,0,0,0,0,0,0,0,0,0,0,0,0,0,0,0,0,0,0,0,0,0,0,0,0,0,0,0,0,0,0,0,0,0,0,0,0,0,0,0,0,0,0,0,0,0,0,0,0,0,0,0,0,0,0,0,0,0,0,0,0,0,0,0,0,0,0,0,0,0,0,0,0,0,0,0,0,0,0,0,0,0,0,0,0,0,0,0,0,0,0,0,0,0,0,0,0,0,0,0,0,0,0,0,0,0,0,0,0,0,0,0,0,0,0],"id":8,"left_children":[1,3,5,7,9,11,13,15,17,19,21,23,25,27,29,31,33,35,37,39,41,43,45,47,49,51,53,55,57,59,61,63,65,67,-1,69,71,73,75,77,79,81,83,85,87,89,91,93,95,97,99,101,103,105,107,109,111,113,115,117,119,121,-1,-1,-1,-1,-1,-1,-1,-1,-1,-1,-1,-1,-1,-1,-1,-1,-1,-1,-1,-1,-1,-1,-1,-1,-1,-1,-1,-1,-1,-1,-1,-1,-1,-1,-1,-1,-1,-1,-1,-1,-1,-1,-1,-1,-1,-1,-1,-1,-1,-1,-1,-1,-1,-1,-1,-1,-1,-1,-1,-1,-1],"loss_changes":[5.459813E5,1.2043716E5,7.217025E4,8.73132E3,8.292434E4,1.844061E4,2.4807041E4,1.2723436E4,2.9678027E3,3.3432562E4,6.4630938E4,8.673609E3,5.4329062E3,2.1870583E3,1.5140168E4,3.1908958E3,2.62075E3,1.4190493E3,3.049518E3,6.9532686E3,2.6605156E4,1.8042547E4,4.0276812E4,3.6164531E3,7.582344E2,4.762745E3,2.4389805E3,1.2066167E3,1.4432012E3,1.8068492E4,7.230489E2,7.606006E2,1.7335173E3,1.500896E2,0E0,8.4201416E2,9.541354E2,3.7779722E3,2.1650715E3,1.3797312E3,1.0719712E4,3.0071562E4,1.4089552E5,1.3388338E4,2.624725E4,1.6714375E4,1.2946483E4,2.0202666E3,2.8873035E3,5.227578E2,3.2409375E2,5.4888784E3,8.056221E2,6.1688477E2,9.631133E2,1.2715812E3,3.922566E2,1.0737587E3,6.215271E1,1.2440678E4,1.310318E4,3.4931378E2,0E0,0E0,0E0,0E0,0E0,0E0,0E0,0E0,0E0,0E0,0E0,0E0,0E0,0E0,0E0,0E0,0E0,0E0,0E0,0E0,0E0,0E0,0E0,0E0,0E0,0E0,0E0,0E0,0E0,0E0,0E0,0E0,0E0,0E0,0E0,0E0,0E0,0E0,0E0,0E0,0E0,0E0,0E0,0E0,0E0,0E0,0E0,0E0,0E0,0E0,0E0,0E0,0E0,0E0,0E0,0E0,0E0,0E0,0E0,0E0,0E0],"parents":[2147483647,0,0,1,1,2,2,3,3,4,4,5,5,6,6,7,7,8,8,9,9,10,10,11,11,12,12,13,13,14,14,15,15,16,16,17,17,18,18,19,19,20,20,21,21,22,22,23,23,24,24,25,25,26,26,27,27,28,28,29,29,30,30,31,31,32,32,33,33,35,35,36,36,37,37,38,38,39,39,40,40,41,41,42,42,43,43,44,44,45,45,46,46,47,47,48,48,49,49,50,50,51,51,52,52,53,53,54,54,55,55,56,56,57,57,58,58,59,59,60,60,61,61],"right_children":[2,4,6,8,10,12,14,16,18,20,22,24,26,28,30,32,34,36,38,40,42,44,46,48,50,52,54,56,58,60,62,64,66,68,-1,70,72,74,76,78,80,82,84,86,88,90,92,94,96,98,100,102,104,106,108,110,112,114,116,118,120,122,-1,-1,-1,-1,-1,-1,-1,-1,-1,-1,-1,-1,-1,-1,-1,-1,-1,-1,-1,-1,-1,-1,-1,-1,-1,-1,-1,-1,-1,-1,-1,-1,-1,-1,-1,-1,-1,-1,-1,-1,-1,-1,-1,-1,-1,-1,-1,-1,-1,-1,-1,-1,-1,-1,-1,-1,-1,-1,-1,-1,-1],"split_conditions":[-5E-1,-1.8369701E-16,2.7245832E1,3E1,3.9E1,0E0,9.499473E0,3.91E1,1.6E0,7.5043178E0,3.89E1,-2.4492937E-16,-2.4492937E-16,3.2279167E1,1E-1,3.2608986E0,2.5E1,1.400142E1,7.3E1,2.2425E1,-8.660254E-1,0E0,8E1,1.7566668E1,8.660254E-1,7.8E1,6.8E0,-5E-1,6.4E0,1.8806784E1,2.688925E1,9.651E2,3.3741665E1,3.32E1,2.6723166E0,9.735E2,2.84E1,-7.898972E-16,4.74E1,3.3E1,3.1E1,1.2354167E1,-1.3329777E1,5E1,5.3E1,-5E-1,1.9E0,9.133192E0,4.9E1,-2.5881904E-1,5.1833334E0,-5E-1,1.4083333E1,8.7E0,9.712E2,9.669E2,9.006213E0,3E0,1E0,9.624E2,5.4E1,4.19E1,8.451155E-1,-1.2666865E-1,1.1990306E0,1.0336365E-1,6.949744E-1,2.0120282E-1,1.1244574E0,-2.314639E-1,7.751548E-2,-4.0683564E-2,2.099436E-1,3.4071922E-2,2.480553E-1,1.4965673E-2,-4.481381E-1,-3.5439518E-1,2.1412204E-1,2.7825031E0,4.8939607E-1,3.2488678E0,1.0459359E0,6.8560176E0,1.3705788E0,4.8935866E-1,1.0028584E-1,1.1228949E0,4.2106175E-1,6.046421E-1,1.2120975E0,1.9911091E0,3.4021556E-2,-2.0113122E-1,3.2303807E-1,2.7228597E-1,-7.8293614E-2,-2.8273064E-1,-2.2453777E-1,-3.691631E-1,-3.052604E-1,-8.839678E-2,2.3237292E-1,-1.7018451E-1,-5.6399114E-2,-2.6136222E-1,-1.6906868E-1,-1.4190689E-1,-2.7431557E-1,3.2505056E-1,-2.4015479E-1,-4.2521927E-1,-1.5824334E-1,1.8435946E-2,3.326621E-1,-3.0401513E-1,-6.858893E-2,2.0814934E-1,1.0087942E0,6.835616E-1,1.7353462E0,3.401801E-2,-1.9755344E-1],"split_indices":[8,9,15,1,1,6,16,13,11,16,10,8,8,15,2,16,1,4,1,15,8,6,1,15,8,1,14,9,11,4,4,3,15,10,0,3,14,4,13,1,1,15,4,1,1,6,11,16,1,6,15,9,15,10,3,3,16,11,9,3,1,14,0,0,0,0,0,0,0,0,0,0,0,0,0,0,0,0,0,0,0,0,0,0,0,0,0,0,0,0,0,0,0,0,0,0,0,0,0,0,0,0,0,0,0,0,0,0,0,0,0,0,0,0,0,0,0,0,0,0,0,0,0],"split_type":[0,0,0,0,0,0,0,0,0,0,0,0,0,0,0,0,0,0,0,0,0,0,0,0,0,0,0,0,0,0,0,0,0,0,0,0,0,0,0,0,0,0,0,0,0,0,0,0,0,0,0,0,0,0,0,0,0,0,0,0,0,0,0,0,0,0,0,0,0,0,0,0,0,0,0,0,0,0,0,0,0,0,0,0,0,0,0,0,0,0,0,0,0,0,0,0,0,0,0,0,0,0,0,0,0,0,0,0,0,0,0,0,0,0,0,0,0,0,0,0,0,0,0],"sum_hessian":[1.8486E4,5.27E3,1.3216E4,1.718E3,3.552E3,1.2533E4,6.83E2,1.12E2,1.606E3,4.12E2,3.14E3,5.794E3,6.739E3,2.49E2,4.34E2,9.9E1,1.3E1,3.62E2,1.244E3,8.5E1,3.27E2,2.347E3,7.93E2,1.023E3,4.771E3,1.223E3,5.516E3,1.11E2,1.38E2,3.61E2,7.3E1,1.1E1,8.8E1,7E0,6E0,1.56E2,2.06E2,8.32E2,4.12E2,4.1E1,4.4E1,2.37E2,9E1,1.029E3,1.318E3,6.46E2,1.47E2,7.36E2,2.87E2,2.728E3,2.043E3,5.32E2,6.91E2,9.2E2,4.596E3,3.9E1,7.2E1,1.13E2,2.5E1,2.39E2,1.22E2,7.2E1,1E0,1E0,1E1,7.4E1,1.4E1,1E0,6E0,1.3E2,2.6E1,1.57E2,4.9E1,3.78E2,4.54E2,3.86E2,2.6E1,2.2E1,1.9E1,5E0,3.9E1,1.6E1,2.21E2,1.3E1,7.7E1,3.21E2,7.08E2,1.5E2,1.168E3,1.51E2,4.95E2,8E0,1.39E2,7.18E2,1.8E1,8.1E1,2.06E2,2.23E3,4.98E2,2.53E2,1.79E3,2.73E2,2.59E2,4.52E2,2.39E2,6.59E2,2.61E2,4.454E3,1.42E2,1.6E1,2.3E1,5.1E1,2.1E1,6.9E1,4.4E1,2.1E1,4E0,1.72E2,6.7E1,6.5E1,5.7E1,2.4E1,4.8E1],"tree_param":{"num_deleted":"0","num_feature":"17","num_nodes":"123","size_leaf_vector":"1"}},{"base_weights":[-8.376673E-4,-2.844291E0,8.821757E0,4.7941303E1,-2.8840818E0,1.3020972E1,4.228365E0,1.0440091E0,3.3506105E0,-3.411991E0,1.6097492E-2,8.903874E0,1.9134981E1,5.936264E0,-1.0924429E0,2.1563563E0,-3.6260087E0,7.1872315E0,-9.2599374E-1,2.6043089E1,7.7553854E0,4.812421E1,1.6142912E1,4.21771E0,1.3269571E1,-3.4086585E0,2.22609E0,-3.969638E-1,1.067978E1,-4.6379747E0,-2.9304292E0,4.1428337E0,2.216561E1,7.968077E-2,-2.7683523E0,4.6858562E1,5.1114445E0,9.761244E0,1.2097944E0,2.9371113E1,1.374312E2,1.2499228E1,2.9259586E1,5.725267E0,-8.06484E-1,2.2620163E1,6.707851E0,-6.4142547E0,-2.3484137E0,-7.2020894E-1,8.933136E0,-3.6690164E-1,3.333975E-2,2.056429E0,1.5615015E-1,-1.8227977E-1,-2.5437015E-1,-1.8689166E-1,-1.0816126E-1,1.5739475E0,1.6592613E-1,6.891977E-1,3.507911E0,9.302026E-2,-9.464752E-2,-2.0833854E-1,-6.575485E-2,1.0723133E0,3.9583523E0,8.1477416E-1,-1.1304231E-1,3.4833893E-1,7.999797E-1,-5.9067637E-1,1.0250906E-1,3.8313696E-1,1.9818939E0,9.965115E0,3.7019556E0,5.016646E-1,1.0380307E0,8.537713E-1,1.9456055E0,1.1551898E0,2.531986E-1,-1.5133171E-1,7.613249E-2,1.4968965E0,-1.5705898E-1,1.8603915E-1,1.3171071E0,-3.609862E-1,3.555868E-1,3.4658977E-1,-1.5140556E-1,-1.1349427E-1,3.5904777E-1,1.2577661E0,9.200063E-2],"categories":[],"categories_nodes":[],"categories_segments":[],"categories_sizes":[],"default_left":[0,0,0,0,0,0,0,0,0,0,0,0,0,0,0,0,0,0,0,0,0,0,0,0,0,0,0,0,0,0,0,0,0,0,0,0,0,0,0,0,0,0,0,0,0,0,0,0,0,0,0,0,0,0,0,0,0,0,0,0,0,0,0,0,0,0,0,0,0,0,0,0,0,0,0,0,0,0,0,0,0,0,0,0,0,0,0,0,0,0,0,0,0,0,0,0,0,0,0],"id":9,"left_children":[1,3,5,7,9,11,13,-1,-1,15,17,19,21,23,25,27,29,31,33,35,37,39,41,43,45,47,49,51,53,55,57,59,61,63,65,67,69,71,73,75,77,79,81,83,85,87,89,91,93,95,97,-1,-1,-1,-1,-1,-1,-1,-1,-1,-1,-1,-1,-1,-1,-1,-1,-1,-1,-1,-1,-1,-1,-1,-1,-1,-1,-1,-1,-1,-1,-1,-1,-1,-1,-1,-1,-1,-1,-1,-1,-1,-1,-1,-1,-1,-1,-1,-1],"loss_changes":[4.6367634E5,2.838496E4,8.684025E4,4.2776562E3,2.13855E4,5.905928E4,1.957166E4,0E0,0E0,1.40904375E4,1.4545271E4,2.7513383E4,8.127709E4,2.0486402E4,4.0352817E3,9.536446E3,7.996828E3,1.1308205E4,3.5261235E3,3.8102273E4,1.7332305E4,1.4334434E5,4.0688516E4,1.0017789E4,1.880727E4,9.6961694E2,4.2748022E3,2.5005574E3,2.3111129E4,2.0482188E3,4.171297E3,4.605032E3,1.592776E4,4.3311836E3,1.3601987E3,3.44276E4,3.7471807E3,1.7513148E4,3.4279988E3,1.6188992E4,4.4075906E4,1.3522477E4,2.121061E4,1.1570711E4,1.5869425E3,2.4035504E4,1.0634746E4,9.229265E2,1.471769E3,1.8651813E3,7.5480664E3,0E0,0E0,0E0,0E0,0E0,0E0,0E0,0E0,0E0,0E0,0E0,0E0,0E0,0E0,0E0,0E0,0E0,0E0,0E0,0E0,0E0,0E0,0E0,0E0,0E0,0E0,0E0,0E0,0E0,0E0,0E0,0E0,0E0,0E0,0E0,0E0,0E0,0E0,0E0,0E0,0E0,0E0,0E0,0E0,0E0,0E0,0E0,0E0],"parents":[2147483647,0,0,1,1,2,2,3,3,4,4,5,5,6,6,9,9,10,10,11,11,12,12,13,13,14,14,15,15,16,16,17,17,18,18,19,19,20,20,21,21,22,22,23,23,24,24,25,25,26,26,27,27,28,28,29,29,30,30,31,31,32,32,33,33,34,34,35,35,36,36,37,37,38,38,39,39,40,40,41,41,42,42,43,43,44,44,45,45,46,46,47,47,48,48,49,49,50,50],"right_children":[2,4,6,8,10,12,14,-1,-1,16,18,20,22,24,26,28,30,32,34,36,38,40,42,44,46,48,50,52,54,56,58,60,62,64,66,68,70,72,74,76,78,80,82,84,86,88,90,92,94,96,98,-1,-1,-1,-1,-1,-1,-1,-1,-1,-1,-1,-1,-1,-1,-1,-1,-1,-1,-1,-1,-1,-1,-1,-1,-1,-1,-1,-1,-1,-1,-1,-1,-1,-1,-1,-1,-1,-1,-1,-1,-1,-1,-1,-1,-1,-1,-1,-1],"split_conditions":[2.2425E1,2E1,6.4E1,-1.0102898E1,1.76E1,4.2241665E1,1E-1,1.0440091E0,3.3506105E0,3.8E1,5.3E1,3.1E1,-1.8819036E1,6.1E1,9.1E1,7.5043178E0,7.7E0,9.624041E0,-7.8440166E-1,8.660254E-1,4.361705E0,6.123234E-17,1.132E2,8.3E1,6.123234E-17,-1.8369701E-16,4.39E1,-2.282852E1,1.3320833E1,2.4E1,6.123234E-17,9.9125E0,6.2893023E0,8.5E1,6.9E0,6.123234E-17,3.41E1,9.642E2,3.5E1,9.696E2,-5E-1,5.3E0,9.605E2,2.2E1,3.9E1,-5.4E0,9.642E2,9.727E2,1.82E1,4.5283333E1,1.0617838E1,-3.6690164E-1,3.333975E-2,2.056429E0,1.5615015E-1,-1.8227977E-1,-2.5437015E-1,-1.8689166E-1,-1.0816126E-1,1.5739475E0,1.6592613E-1,6.891977E-1,3.507911E0,9.302026E-2,-9.464752E-2,-2.0833854E-1,-6.575485E-2,1.0723133E0,3.9583523E0,8.1477416E-1,-1.1304231E-1,3.4833893E-1,7.999797E-1,-5.9067637E-1,1.0250906E-1,3.8313696E-1,1.9818939E0,9.965115E0,3.7019556E0,5.016646E-1,1.0380307E0,8.537713E-1,1.9456055E0,1.1551898E0,2.531986E-1,-1.5133171E-1,7.613249E-2,1.4968965E0,-1.5705898E-1,1.8603915E-1,1.3171071E0,-3.609862E-1,3.555868E-1,3.4658977E-1,-1.5140556E-1,-1.1349427E-1,3.5904777E-1,1.2577661E0,9.200063E-2],"split_indices":[15,1,1,4,13,15,2,0,0,1,1,1,4,13,1,16,13,16,5,9,5,9,13,1,9,9,13,4,15,0,7,15,4,1,11,9,0,3,1,3,7,11,3,12,12,5,3,3,0,15,16,0,0,0,0,0,0,0,0,0,0,0,0,0,0,0,0,0,0,0,0,0,0,0,0,0,0,0,0,0,0,0,0,0,0,0,0,0,0,0,0,0,0,0,0,0,0,0,0],"split_type":[0,0,0,0,0,0,0,0,0,0,0,0,0,0,0,0,0,0,0,0,0,0,0,0,0,0,0,0,0,0,0,0,0,0,0,0,0,0,0,0,0,0,0,0,0,0,0,0,0,0,0,0,0,0,0,0,0,0,0,0,0,0,0,0,0,0,0,0,0,0,0,0,0,0,0,0,0,0,0,0,0,0,0,0,0,0,0,0,0,0,0,0,0,0,0,0,0,0,0],"sum_hessian":[1.8481E4,1.3977E4,4.504E3,1E1,1.3967E4,2.352E3,2.152E3,5E0,5E0,1.1816E4,2.151E3,1.407E3,9.45E2,1.629E3,5.23E2,4.37E2,1.1379E4,2.49E2,1.902E3,8.7E1,1.32E3,8.7E1,8.58E2,1.321E3,3.08E2,3.08E2,2.15E2,3.37E2,1E2,4.633E3,6.746E3,2.08E2,4.1E1,1.231E3,6.71E2,4.3E1,4.4E1,1.01E3,3.1E2,7.3E1,1.4E1,6.73E2,1.85E2,1.016E3,3.05E2,1.26E2,1.82E2,7.9E1,2.29E2,1.5E2,6.5E1,4.4E1,2.93E2,1.9E1,8.1E1,1.447E3,3.186E3,3.285E3,3.461E3,5E0,2.03E2,3.6E1,5E0,6.47E2,5.84E2,3.41E2,3.3E2,2.5E1,1.8E1,1.7E1,2.7E1,6.99E2,3.11E2,1.8E1,2.92E2,2.4E1,4.9E1,6E0,8E0,5.2E2,1.53E2,8.3E1,1.02E2,3.6E1,9.8E2,1.56E2,1.49E2,9.8E1,2.8E1,1.59E2,2.3E1,7.5E1,4E0,1.5E1,2.14E2,1.26E2,2.4E1,1.9E1,4.6E1],"tree_param":{"num_deleted":"0","num_feature":"17","num_nodes":"99","size_leaf_vector":"1"}},{"base_weights":[-1.4814271E-2,7.6966825E0,-3.0554895E0,5.646743E0,1.600241E1,-3.4834664E0,6.7408724E0,2.3261095E1,4.7271214E0,1.8272831E1,1.0698743E0,-4.779564E0,-2.3813024E0,-5.037575E0,9.577939E0,1.2193781E1,4.34094E1,2.900868E0,7.120397E0,4.056126E1,1.6620712E1,5.185427E0,-2.4014552E0,-2.5286596E0,-5.3126516E0,-1.8682577E-1,-2.8948443E0,6.4893514E-1,-5.327247E0,3.0924628E0,1.4838112E1,4.581926E1,9.714859E0,9.280729E1,3.2170353E1,8.737883E0,1.1672277E0,5.0251328E1,6.7365446E0,2.1092836E1,6.969621E1,2.1796627E1,1.1057741E1,7.415183E0,-6.0293455E0,-3.5972505E0,5.7309394E0,1.0970089E-1,-3.600112E0,-4.984211E0,-5.757644E0,3.8317606E0,-1.6056944E0,-3.8189561E0,-2.1122472E0,-6.787724E0,-1.6921384E0,1.5923997E0,1.0964908E1,8.667339E0,3.0863558E1,9.762544E-1,3.1474788E0,-1.2326073E-1,6.753653E-1,7.927666E-1,6.9460177E0,6.309013E-1,2.1059937E0,5.05349E-1,-4.6297646E-1,3.1747892E-2,7.3249215E-1,6.567122E0,9.516673E-1,6.497642E-1,2.077987E-1,3.0151236E-1,2.4797742E0,4.9861803E0,2.573295E0,8.2126504E-1,1.6854063E0,-1.265048E-1,7.031049E-1,9.956847E-2,6.2821805E-1,-1.9272557E-1,-4.4358388E-1,-5.750817E-2,-4.0611157E-1,5.2749723E-1,-4.515027E-1,-1.4616458E-1,2.0226799E-1,-2.1817088E-1,-7.769513E-2,-5.976356E-2,-2.5116536E-1,-2.549302E-1,-3.145527E-1,9.232767E-2,6.708955E-1,-6.412428E-2,-3.612378E-1,-2.664881E-1,-1.7538387E-1,-1.4090253E-1,-8.821272E-2,-3.640008E-1,-4.4756602E-2,2.2692506E-1,-2.3652716E-1,-5.1678497E-2,3.7044266E-1,3.397299E-1,1.9229214E0,6.5433973E-1,1.7566752E-1,8.765179E-1,1.7837906E0],"categories":[],"categories_nodes":[],"categories_segments":[],"categories_sizes":[],"default_left":[0,0,0,0,0,0,0,0,0,0,0,0,0,0,0,0,0,0,0,0,0,0,0,0,0,0,0,0,0,0,0,0,0,0,0,0,0,0,0,0,0,0,0,0,0,0,0,0,0,0,0,0,0,0,0,0,0,0,0,0,0,0,0,0,0,0,0,0,0,0,0,0,0,0,0,0,0,0,0,0,0,0,0,0,0,0,0,0,0,0,0,0,0,0,0,0,0,0,0,0,0,0,0,0,0,0,0,0,0,0,0,0,0,0,0,0,0,0,0,0,0],"id":10,"left_children":[1,3,5,7,9,11,13,15,17,19,21,23,25,27,29,31,33,35,37,39,41,43,45,47,49,51,53,-1,55,57,59,61,63,65,67,69,71,73,75,77,79,81,83,85,87,89,91,93,95,97,99,101,103,105,107,109,111,113,115,117,119,-1,-1,-1,-1,-1,-1,-1,-1,-1,-1,-1,-1,-1,-1,-1,-1,-1,-1,-1,-1,-1,-1,-1,-1,-1,-1,-1,-1,-1,-1,-1,-1,-1,-1,-1,-1,-1,-1,-1,-1,-1,-1,-1,-1,-1,-1,-1,-1,-1,-1,-1,-1,-1,-1,-1,-1,-1,-1,-1,-1],"loss_changes":[4.3165722E5,8.854825E4,5.537857E4,6.755134E4,3.4900656E4,1.8060719E4,1.8527428E4,4.5629125E4,1.7335508E4,3.224575E4,1.9696948E3,6.96175E3,7.706711E3,6.327737E2,1.5169281E4,1.0807789E4,3.7542875E4,2.2798664E4,2.8104523E4,3.312983E4,2.3772719E4,1.6200997E3,7.499665E2,3.1523628E3,6.580781E2,7.4071494E3,3.9999492E3,0E0,5.565764E2,2.3561812E3,2.4059285E4,2.82475E3,5.8997197E3,4.3927734E4,1.1335242E4,1.280793E4,1.2470441E4,3.547263E4,2.7467492E4,1.6015225E4,8.0054453E3,2.7021953E4,1.6527957E4,1.4551731E3,3.3801605E1,7.214778E2,8.065996E2,3.8674197E3,1.231793E3,3.9557812E2,6.671328E2,6.4265596E3,1.7342197E3,1.1758203E3,7.326094E2,2.139502E2,6.2726807E2,2.6042085E3,3.4076987E3,4.03125E3,3.7376562E3,0E0,0E0,0E0,0E0,0E0,0E0,0E0,0E0,0E0,0E0,0E0,0E0,0E0,0E0,0E0,0E0,0E0,0E0,0E0,0E0,0E0,0E0,0E0,0E0,0E0,0E0,0E0,0E0,0E0,0E0,0E0,0E0,0E0,0E0,0E0,0E0,0E0,0E0,0E0,0E0,0E0,0E0,0E0,0E0,0E0,0E0,0E0,0E0,0E0,0E0,0E0,0E0,0E0,0E0,0E0,0E0,0E0,0E0,0E0,0E0],"parents":[2147483647,0,0,1,1,2,2,3,3,4,4,5,5,6,6,7,7,8,8,9,9,10,10,11,11,12,12,13,13,14,14,15,15,16,16,17,17,18,18,19,19,20,20,21,21,22,22,23,23,24,24,25,25,26,26,28,28,29,29,30,30,31,31,32,32,33,33,34,34,35,35,36,36,37,37,38,38,39,39,40,40,41,41,42,42,43,43,44,44,45,45,46,46,47,47,48,48,49,49,50,50,51,51,52,52,53,53,54,54,55,55,56,56,57,57,58,58,59,59,60,60],"right_children":[2,4,6,8,10,12,14,16,18,20,22,24,26,28,30,32,34,36,38,40,42,44,46,48,50,52,54,-1,56,58,60,62,64,66,68,70,72,74,76,78,80,82,84,86,88,90,92,94,96,98,100,102,104,106,108,110,112,114,116,118,120,-1,-1,-1,-1,-1,-1,-1,-1,-1,-1,-1,-1,-1,-1,-1,-1,-1,-1,-1,-1,-1,-1,-1,-1,-1,-1,-1,-1,-1,-1,-1,-1,-1,-1,-1,-1,-1,-1,-1,-1,-1,-1,-1,-1,-1,-1,-1,-1,-1,-1,-1,-1,-1,-1,-1,-1,-1,-1,-1,-1],"split_conditions":[-5E-1,5.2125E1,3.0391666E1,3E1,1E-1,0E0,4.6E1,2.2425E1,7.4250154E0,-1.9399479E1,8.020417E1,-2.4492937E-16,-2.4492937E-16,2.04E1,-2.5881904E-1,2E1,-5E-1,-8.660254E-1,1.3E1,5E-1,-8.660254E-1,3.0045292E1,2.3E0,5.1E1,8.660254E-1,6.8E1,-1.8369701E-16,6.4893514E-1,5.04E1,2.416937E1,1.8806784E1,2.66E1,-1.8388792E1,2.02E1,2.29E1,3.7958332E1,4.0916668E1,9.626E2,5.2E1,8.8E1,9.672E2,1.1617083E2,9.594E2,-8.660254E-1,1.9146502E1,1.132E2,9.666E2,5.626413E0,3.8E0,5E-1,3.2E1,9.256842E0,9.712E2,2.5881904E-1,7.7916665E0,1.0785698E1,9.208987E0,9.622E2,-5E-1,4.9175E1,4.28E1,9.762544E-1,3.1474788E0,-1.2326073E-1,6.753653E-1,7.927666E-1,6.9460177E0,6.309013E-1,2.1059937E0,5.05349E-1,-4.6297646E-1,3.1747892E-2,7.3249215E-1,6.567122E0,9.516673E-1,6.497642E-1,2.077987E-1,3.0151236E-1,2.4797742E0,4.9861803E0,2.573295E0,8.2126504E-1,1.6854063E0,-1.265048E-1,7.031049E-1,9.956847E-2,6.2821805E-1,-1.9272557E-1,-4.4358388E-1,-5.750817E-2,-4.0611157E-1,5.2749723E-1,-4.515027E-1,-1.4616458E-1,2.0226799E-1,-2.1817088E-1,-7.769513E-2,-5.976356E-2,-2.5116536E-1,-2.549302E-1,-3.145527E-1,9.232767E-2,6.708955E-1,-6.412428E-2,-3.612378E-1,-2.664881E-1,-1.7538387E-1,-1.4090253E-1,-8.821272E-2,-3.640008E-1,-4.4756602E-2,2.2692506E-1,-2.3652716E-1,-5.1678497E-2,3.7044266E-1,3.397299E-1,1.9229214E0,6.5433973E-1,1.7566752E-1,8.765179E-1,1.7837906E0],"split_indices":[8,15,15,1,2,6,12,15,16,4,15,8,8,0,6,1,7,8,12,6,8,16,2,1,8,1,7,0,14,4,4,0,4,0,0,15,15,3,1,12,3,15,3,8,4,14,3,16,11,11,12,16,3,6,15,16,4,3,6,15,14,0,0,0,0,0,0,0,0,0,0,0,0,0,0,0,0,0,0,0,0,0,0,0,0,0,0,0,0,0,0,0,0,0,0,0,0,0,0,0,0,0,0,0,0,0,0,0,0,0,0,0,0,0,0,0,0,0,0,0,0],"split_type":[0,0,0,0,0,0,0,0,0,0,0,0,0,0,0,0,0,0,0,0,0,0,0,0,0,0,0,0,0,0,0,0,0,0,0,0,0,0,0,0,0,0,0,0,0,0,0,0,0,0,0,0,0,0,0,0,0,0,0,0,0,0,0,0,0,0,0,0,0,0,0,0,0,0,0,0,0,0,0,0,0,0,0,0,0,0,0,0,0,0,0,0,0,0,0,0,0,0,0,0,0,0,0,0,0,0,0,0,0,0,0,0,0,0,0,0,0,0,0,0,0],"sum_hessian":[1.8407E4,5.205E3,1.3202E4,4.176E3,1.029E3,1.265E4,5.52E2,2.06E2,3.97E3,8.93E2,1.36E2,5.812E3,6.838E3,1.07E2,4.45E2,1.34E2,7.2E1,2.253E3,1.717E3,6E1,8.33E2,6.2E1,7.4E1,1.114E3,4.698E3,1.297E3,5.541E3,1E0,1.06E2,2E2,2.45E2,8E0,1.26E2,1.2E1,6E1,5.15E2,1.738E3,1.4E1,1.703E3,3.7E1,2.3E1,4.3E2,4.03E2,5.2E1,1E1,6.5E1,9E0,3.22E2,7.92E2,2.71E3,1.988E3,3.38E2,9.59E2,2.539E3,3.002E3,7.5E1,3.1E1,1.69E2,3.1E1,1.78E2,6.7E1,4E0,4E0,3E1,9.6E1,5E0,7E0,2.1E1,3.9E1,4.79E2,3.6E1,1.673E3,6.5E1,3E0,1.1E1,4.96E2,1.207E3,2.5E1,1.2E1,7E0,1.6E1,2.98E2,1.32E2,7.3E1,3.3E2,2.6E1,2.6E1,7E0,3E0,4.3E1,2.2E1,7E0,2E0,1.82E2,1.4E2,5.76E2,2.16E2,2.8E1,2.682E3,8.94E2,1.094E3,2.81E2,5.7E1,9.08E2,5.1E1,4.31E2,2.108E3,9.89E2,2.013E3,6.9E1,6E0,1E1,2.1E1,1.17E2,5.2E1,2.8E1,3E0,9.5E1,8.3E1,1.9E1,4.8E1],"tree_param":{"num_deleted":"0","num_feature":"17","num_nodes":"121","size_leaf_vector":"1"}},{"base_weights":[-3.74923E-2,7.2128425E0,-2.8869133E0,1.3507614E0,1.004884E1,-3.3133054E0,6.7877336E0,-7.728746E-1,3.2791662E0,2.2835506E1,8.330197E0,-4.563527E0,-2.25299E0,-4.193674E-1,1.2149325E1,-3.4347832E-1,-8.036351E0,8.906154E-1,5.4111753E0,4.120715E0,2.66974E1,7.3388414E0,2.1148731E1,-2.5868948E0,-5.0146856E0,-2.6661727E-1,-2.7227287E0,-5.067404E0,1.9072719E0,1.7054588E1,1.7974843E0,7.4457707E0,-5.8478636E-1,-8.607618E0,-2.8964758E-2,-5.2148886E0,2.7898672E0,4.1485357E0,1.8149235E1,-1.1358074E0,1.3464402E1,6.8721E1,2.4700283E1,3.0908456E0,9.5445385E0,1.2215914E0,2.5019842E1,-4.591711E0,-1.3356416E0,-4.7078094E0,-5.4122877E0,2.8287745E0,-1.865893E0,-2.6376698E0,-5.4263816E0,4.2496123E0,-6.16165E0,-5.4432235E0,3.8601031E0,-6.061658E0,1.9175966E1,-5.393429E-1,1.8196762E1,1.9228517E-1,6.3092875E-1,-2.1584632E-2,-4.5624143E-1,-4.7412515E-1,-2.6399937E-1,1.7204042E-1,-1.16624594E-1,8.815374E-2,-3.976514E-1,4.9398122E-3,5.316075E-1,1.763944E0,1.8858242E-1,-8.5119665E-2,1.0752565E0,2.8775805E-1,-2.8057072E-1,2.4643786E0,3.3244383E-1,8.408372E0,2.0242798E0,2.962563E0,1.1255015E0,2.2842169E-1,-1.7549005E-1,1.0918278E0,3.8003084E-1,1.3840961E0,-1.888948E-1,7.902598E-1,2.0894172E0,-2.9087976E-1,-1.9268142E-1,-6.8158745E-3,-2.1295324E-1,-2.3040839E-1,-3.3193323E-1,-2.4416342E-1,-2.9672492E-1,-8.877995E-2,3.4764603E-1,-3.2355073E-1,-7.7564225E-2,-7.158726E-2,-1.4454058E-1,-1.7422315E-1,-2.955607E-1,3.631585E-1,-2.0992796E-1,-3.9291024E-1,-1.762267E-1,-3.9269435E-1,3.557761E-1,-3.1500965E-2,3.2529625E-1,-3.37084E-1,-9.382502E-3,6.011085E-1,1.3682733E0,3.8472533E-1,-9.353008E-2,1.4536189E0,5.066446E-1],"categories":[],"categories_nodes":[],"categories_segments":[],"categories_sizes":[],"default_left":[0,0,0,0,0,0,0,0,0,0,0,0,0,0,0,0,0,0,0,0,0,0,0,0,0,0,0,0,0,0,0,0,0,0,0,0,0,0,0,0,0,0,0,0,0,0,0,0,0,0,0,0,0,0,0,0,0,0,0,0,0,0,0,0,0,0,0,0,0,0,0,0,0,0,0,0,0,0,0,0,0,0,0,0,0,0,0,0,0,0,0,0,0,0,0,0,0,0,0,0,0,0,0,0,0,0,0,0,0,0,0,0,0,0,0,0,0,0,0,0,0,0,0,0,0,0,0],"id":11,"left_children":[1,3,5,7,9,11,13,15,17,19,21,23,25,27,29,31,33,35,37,39,41,43,45,47,49,51,53,55,57,59,61,63,65,67,69,71,73,75,77,79,81,83,85,87,89,91,93,95,97,99,101,103,105,107,109,111,113,115,117,119,121,123,125,-1,-1,-1,-1,-1,-1,-1,-1,-1,-1,-1,-1,-1,-1,-1,-1,-1,-1,-1,-1,-1,-1,-1,-1,-1,-1,-1,-1,-1,-1,-1,-1,-1,-1,-1,-1,-1,-1,-1,-1,-1,-1,-1,-1,-1,-1,-1,-1,-1,-1,-1,-1,-1,-1,-1,-1,-1,-1,-1,-1,-1,-1,-1,-1],"loss_changes":[3.8019244E5,8.630266E4,5.4520438E4,6.939854E3,7.670275E4,1.6764219E4,2.1567068E4,2.5142002E3,4.517242E3,2.9811625E4,3.906083E4,5.164664E3,6.38991E3,2.5942837E3,1.6218469E4,1.4384952E3,2.0559644E2,4.8848228E3,7.4679033E3,3.551595E3,2.7089219E4,2.6824328E4,1.7017414E4,2.7055908E3,5.5115625E2,6.495233E3,1.2594883E3,8.417937E2,2.3176958E3,1.0757543E4,3.9953308E3,3.7978906E2,9.6486414E2,7.220703E1,3.999652E1,1.9246855E3,6.773378E3,4.888508E3,2.8346494E3,1.4818341E3,6.0202886E3,3.5310305E4,2.3563453E4,9.583763E3,4.4899484E4,4.999239E3,2.7924945E4,3.530752E2,2.3380093E3,4.840664E2,5.3790234E2,8.500477E3,1.2431829E3,1.6357695E3,1.375752E2,2.5962628E2,2.9443213E2,1.0852317E3,1.5128674E3,7.462952E1,1.1329625E4,1.0228407E3,8.4550684E2,0E0,0E0,0E0,0E0,0E0,0E0,0E0,0E0,0E0,0E0,0E0,0E0,0E0,0E0,0E0,0E0,0E0,0E0,0E0,0E0,0E0,0E0,0E0,0E0,0E0,0E0,0E0,0E0,0E0,0E0,0E0,0E0,0E0,0E0,0E0,0E0,0E0,0E0,0E0,0E0,0E0,0E0,0E0,0E0,0E0,0E0,0E0,0E0,0E0,0E0,0E0,0E0,0E0,0E0,0E0,0E0,0E0,0E0,0E0,0E0,0E0,0E0,0E0,0E0],"parents":[2147483647,0,0,1,1,2,2,3,3,4,4,5,5,6,6,7,7,8,8,9,9,10,10,11,11,12,12,13,13,14,14,15,15,16,16,17,17,18,18,19,19,20,20,21,21,22,22,23,23,24,24,25,25,26,26,27,27,28,28,29,29,30,30,31,31,32,32,33,33,34,34,35,35,36,36,37,37,38,38,39,39,40,40,41,41,42,42,43,43,44,44,45,45,46,46,47,47,48,48,49,49,50,50,51,51,52,52,53,53,54,54,55,55,56,56,57,57,58,58,59,59,60,60,61,61,62,62],"right_children":[2,4,6,8,10,12,14,16,18,20,22,24,26,28,30,32,34,36,38,40,42,44,46,48,50,52,54,56,58,60,62,64,66,68,70,72,74,76,78,80,82,84,86,88,90,92,94,96,98,100,102,104,106,108,110,112,114,116,118,120,122,124,126,-1,-1,-1,-1,-1,-1,-1,-1,-1,-1,-1,-1,-1,-1,-1,-1,-1,-1,-1,-1,-1,-1,-1,-1,-1,-1,-1,-1,-1,-1,-1,-1,-1,-1,-1,-1,-1,-1,-1,-1,-1,-1,-1,-1,-1,-1,-1,-1,-1,-1,-1,-1,-1,-1,-1,-1,-1,-1,-1,-1,-1,-1,-1,-1],"split_conditions":[-5E-1,-1.8369701E-16,3.0391666E1,4.9E1,3.9E1,0E0,1.0617838E1,3.63125E1,5.748344E0,6.8930326E0,1.132E2,-2.4492937E-16,-2.4492937E-16,4.6E1,5.4479168E1,1.655289E0,9.683E2,-1.5113097E1,9.727E2,2.595E1,-2.282852E1,-2.5881904E-1,2.7952456E0,9.634E2,8.660254E-1,7.2E1,9.714E2,2.21E1,2.8E1,4.6E1,1.46E2,7.6E1,4.74E1,8.3E1,1.65E1,3.3E1,-2.5881904E-1,-2.6949331E1,6.0613875E0,9.672E2,3.1E1,9.698E2,1.2354167E1,6.8E1,5.4E1,5.7E1,9.62E2,3.9E1,9.701E2,8.657978E0,3.5E1,-5E-1,1.53E1,2.11E1,-1.8819036E1,9.632E2,3.63125E1,1.7243982E1,4.5E1,3.6E0,1.2246469E-16,9.571E2,7.64E1,1.9228517E-1,6.3092875E-1,-2.1584632E-2,-4.5624143E-1,-4.7412515E-1,-2.6399937E-1,1.7204042E-1,-1.16624594E-1,8.815374E-2,-3.976514E-1,4.9398122E-3,5.316075E-1,1.763944E0,1.8858242E-1,-8.5119665E-2,1.0752565E0,2.8775805E-1,-2.8057072E-1,2.4643786E0,3.3244383E-1,8.408372E0,2.0242798E0,2.962563E0,1.1255015E0,2.2842169E-1,-1.7549005E-1,1.0918278E0,3.8003084E-1,1.3840961E0,-1.888948E-1,7.902598E-1,2.0894172E0,-2.9087976E-1,-1.9268142E-1,-6.8158745E-3,-2.1295324E-1,-2.3040839E-1,-3.3193323E-1,-2.4416342E-1,-2.9672492E-1,-8.877995E-2,3.4764603E-1,-3.2355073E-1,-7.7564225E-2,-7.158726E-2,-1.4454058E-1,-1.7422315E-1,-2.955607E-1,3.631585E-1,-2.0992796E-1,-3.9291024E-1,-1.762267E-1,-3.9269435E-1,3.557761E-1,-3.1500965E-2,3.2529625E-1,-3.37084E-1,-9.382502E-3,6.011085E-1,1.3682733E0,3.8472533E-1,-9.353008E-2,1.4536189E0,5.066446E-1],"split_indices":[8,9,15,12,1,6,16,15,16,16,13,8,8,12,15,16,3,4,3,15,4,6,4,3,8,1,3,0,13,12,12,1,13,1,0,1,6,4,16,3,1,3,15,1,1,1,3,12,3,16,12,9,0,0,4,3,15,4,1,11,6,3,13,0,0,0,0,0,0,0,0,0,0,0,0,0,0,0,0,0,0,0,0,0,0,0,0,0,0,0,0,0,0,0,0,0,0,0,0,0,0,0,0,0,0,0,0,0,0,0,0,0,0,0,0,0,0,0,0,0,0,0,0,0,0,0,0],"split_type":[0,0,0,0,0,0,0,0,0,0,0,0,0,0,0,0,0,0,0,0,0,0,0,0,0,0,0,0,0,0,0,0,0,0,0,0,0,0,0,0,0,0,0,0,0,0,0,0,0,0,0,0,0,0,0,0,0,0,0,0,0,0,0,0,0,0,0,0,0,0,0,0,0,0,0,0,0,0,0,0,0,0,0,0,0,0,0,0,0,0,0,0,0,0,0,0,0,0,0,0,0,0,0,0,0,0,0,0,0,0,0,0,0,0,0,0,0,0,0,0,0,0,0,0,0,0,0],"sum_hessian":[1.8401E4,5.191E3,1.321E4,1.693E3,3.498E3,1.2653E4,5.57E2,8.06E2,8.87E2,4.13E2,3.085E3,5.805E3,6.848E3,2.38E2,3.19E2,7.62E2,4.4E1,4.19E2,4.68E2,7.1E1,3.42E2,2.865E3,2.2E2,1.08E3,4.725E3,1.31E3,5.538E3,7.9E1,1.59E2,2.16E2,1.03E2,2.2E1,7.4E2,4.1E1,3E0,9.9E1,3.2E2,4.27E2,4.1E1,4.6E1,2.5E1,1.4E1,3.28E2,9.8E2,1.885E3,3.6E1,1.84E2,4.14E2,6.66E2,2.674E3,2.051E3,4.46E2,8.64E2,5.371E3,1.67E2,8E0,7.1E1,3.3E1,1.26E2,1.8E1,1.98E2,9.1E1,1.2E1,1.4E1,8E0,7.28E2,1.2E1,3.1E1,1E1,1E0,2E0,2.8E1,7.1E1,2.39E2,8.1E1,4E0,4.23E2,6E0,3.5E1,1.8E1,2.8E1,3E0,2.2E1,2E0,1.2E1,1.8E1,3.1E2,8.01E2,1.79E2,2.56E2,1.629E3,5E0,3.1E1,1.2E2,6.4E1,1.53E2,2.61E2,4.73E2,1.93E2,2.546E3,1.28E2,1.024E3,1.027E3,2.11E2,2.35E2,5.4E1,8.1E2,9.33E2,4.438E3,3.5E1,1.32E2,6E0,2E0,4.2E1,2.9E1,2.8E1,5E0,4.7E1,7.9E1,1.6E1,2E0,1.07E2,9.1E1,1.2E1,7.9E1,4E0,8E0],"tree_param":{"num_deleted":"0","num_feature":"17","num_nodes":"127","size_leaf_vector":"1"}},{"base_weights":[2.3665538E-2,-2.421031E0,7.6389933E0,4.2408497E1,-2.4561088E0,1.0396617E1,2.311116E0,9.129357E-1,2.97451E0,-3.0285375E0,1.3401067E-1,8.075936E0,1.7276285E1,-1.2153082E0,4.8100257E0,-3.2338922E0,2.3622663E0,6.6521E0,-6.8551546E-1,6.811746E0,1.7478289E1,3.978763E1,1.4512479E1,-4.6916046E0,-3.3189458E-1,9.558739E0,1.4179711E0,-4.1369205E0,-2.2513573E0,5.653744E0,-1.3030856E0,2.6703527E0,1.5895813E1,-8.501813E-1,9.19071E0,3.3816571E0,9.403618E0,2.0963993E1,1.0870014E0,2.414034E1,1.1294676E2,1.0448782E1,2.4274288E1,4.6885877E0,-5.350531E0,-2.9263017E0,1.2225369E0,7.3322997E0,2.7462933E1,2.8792868E0,-3.5918894E0,-6.806477E-2,-2.2234245E-1,4.6440202E-1,-1.1894365E-1,1.5992638E0,2.4498148E-1,-1.1274675E-1,1.2216156E-1,8.7998563E-1,8.0910146E-2,3.4913971E0,6.185212E-1,5.1239175E-3,-1.086972E-1,8.7499E-1,-2.7610345E-2,3.3176655E-1,1.353942E-2,1.1803611E-1,5.678858E-1,2.5006947E-1,1.2171822E0,5.6363684E-1,-2.0199175E-1,4.9346995E-1,1.9060503E0,8.578464E0,3.6170418E0,6.6305554E-1,-8.176678E-2,1.4996235E0,6.1882514E-1,-1.530579E-1,1.0604233E0,-3.767859E-1,-1.5016647E-1,-1.2309696E-1,-4.8239407E-1,1.8904796E-1,-8.0661796E-2,1.4803708E-1,9.6665496E-1,2.818897E0,-3.5877812E-3,-2.5241548E-2,2.9077697E-1,-1.24167524E-1,-5.864274E-1],"categories":[],"categories_nodes":[],"categories_segments":[],"categories_sizes":[],"default_left":[0,0,0,0,0,0,0,0,0,0,0,0,0,0,0,0,0,0,0,0,0,0,0,0,0,0,0,0,0,0,0,0,0,0,0,0,0,0,0,0,0,0,0,0,0,0,0,0,0,0,0,0,0,0,0,0,0,0,0,0,0,0,0,0,0,0,0,0,0,0,0,0,0,0,0,0,0,0,0,0,0,0,0,0,0,0,0,0,0,0,0,0,0,0,0,0,0,0,0],"id":12,"left_children":[1,3,5,7,9,11,13,-1,-1,15,17,19,21,23,25,27,29,31,33,35,37,39,41,43,45,47,49,51,53,55,57,59,61,63,65,67,69,71,73,75,77,79,81,83,85,87,89,91,93,95,97,-1,-1,-1,-1,-1,-1,-1,-1,-1,-1,-1,-1,-1,-1,-1,-1,-1,-1,-1,-1,-1,-1,-1,-1,-1,-1,-1,-1,-1,-1,-1,-1,-1,-1,-1,-1,-1,-1,-1,-1,-1,-1,-1,-1,-1,-1,-1,-1],"loss_changes":[3.4428712E5,2.2117906E4,6.600309E4,3.4515E3,2.0741328E4,4.7134406E4,1.3523785E4,0E0,0E0,1.2690836E4,1.3535198E4,2.6221125E4,4.583647E4,1.9546747E3,1.4451336E4,9.783336E3,5.08649E3,1.0373686E4,3.6685632E3,1.7348836E4,1.4946633E4,8.9997516E4,2.6165938E4,8.22417E2,2.056287E3,1.4707242E4,3.85386E3,4.9403594E3,7.803133E3,4.251537E3,7.1869507E2,3.0973965E3,1.5297396E4,2.7935486E3,3.00499E3,8.53084E3,1.5290867E4,1.1531008E4,2.499908E3,1.3190945E4,2.0914438E4,1.6062375E4,1.2895375E4,1.217146E3,5.9798584E2,5.724061E2,2.320478E3,1.7465133E4,3.2646844E4,4.0471418E3,1.0442302E3,0E0,0E0,0E0,0E0,0E0,0E0,0E0,0E0,0E0,0E0,0E0,0E0,0E0,0E0,0E0,0E0,0E0,0E0,0E0,0E0,0E0,0E0,0E0,0E0,0E0,0E0,0E0,0E0,0E0,0E0,0E0,0E0,0E0,0E0,0E0,0E0,0E0,0E0,0E0,0E0,0E0,0E0,0E0,0E0,0E0,0E0,0E0,0E0],"parents":[2147483647,0,0,1,1,2,2,3,3,4,4,5,5,6,6,9,9,10,10,11,11,12,12,13,13,14,14,15,15,16,16,17,17,18,18,19,19,20,20,21,21,22,22,23,23,24,24,25,25,26,26,27,27,28,28,29,29,30,30,31,31,32,32,33,33,34,34,35,35,36,36,37,37,38,38,39,39,40,40,41,41,42,42,43,43,44,44,45,45,46,46,47,47,48,48,49,49,50,50],"right_children":[2,4,6,8,10,12,14,-1,-1,16,18,20,22,24,26,28,30,32,34,36,38,40,42,44,46,48,50,52,54,56,58,60,62,64,66,68,70,72,74,76,78,80,82,84,86,88,90,92,94,96,98,-1,-1,-1,-1,-1,-1,-1,-1,-1,-1,-1,-1,-1,-1,-1,-1,-1,-1,-1,-1,-1,-1,-1,-1,-1,-1,-1,-1,-1,-1,-1,-1,-1,-1,-1,-1,-1,-1,-1,-1,-1,-1,-1,-1,-1,-1,-1,-1],"split_conditions":[2.2425E1,2E1,7.1E1,-1.0102898E1,1.22E1,5.58E1,3.02E1,9.129357E-1,2.97451E0,2.35E1,5.3E1,4.07E1,-1.7580317E1,-2.5881904E-1,8E1,0E0,7.7E1,1.97E1,2.79E1,-5E-1,8.660254E-1,6.123234E-17,7.89E1,2.3158333E1,1.8467703E0,8.8E0,1.2356621E1,4.5E1,3.1E1,2.5E0,1.400142E1,1.0154166E1,1.0920834E1,-1.8772136E0,8.660254E-1,4.7E1,-1.8369701E-16,2.27E1,4.78375E1,-1.8369701E-16,-5E-1,9.938333E1,1.425E2,8.3E1,2.41E1,4.25E1,2.8429167E1,6.1E1,3.0391666E1,6.123234E-17,1.045E2,-6.806477E-2,-2.2234245E-1,4.6440202E-1,-1.1894365E-1,1.5992638E0,2.4498148E-1,-1.1274675E-1,1.2216156E-1,8.7998563E-1,8.0910146E-2,3.4913971E0,6.185212E-1,5.1239175E-3,-1.086972E-1,8.7499E-1,-2.7610345E-2,3.3176655E-1,1.353942E-2,1.1803611E-1,5.678858E-1,2.5006947E-1,1.2171822E0,5.6363684E-1,-2.0199175E-1,4.9346995E-1,1.9060503E0,8.578464E0,3.6170418E0,6.6305554E-1,-8.176678E-2,1.4996235E0,6.1882514E-1,-1.530579E-1,1.0604233E0,-3.767859E-1,-1.5016647E-1,-1.2309696E-1,-4.8239407E-1,1.8904796E-1,-8.0661796E-2,1.4803708E-1,9.6665496E-1,2.818897E0,-3.5877812E-3,-2.5241548E-2,2.9077697E-1,-1.24167524E-1,-5.864274E-1],"split_indices":[15,1,1,4,10,14,14,0,0,14,1,10,4,6,1,6,1,10,10,6,9,9,10,15,4,11,4,1,1,10,4,15,15,5,9,1,9,0,15,7,7,15,14,1,0,10,15,13,15,9,14,0,0,0,0,0,0,0,0,0,0,0,0,0,0,0,0,0,0,0,0,0,0,0,0,0,0,0,0,0,0,0,0,0,0,0,0,0,0,0,0,0,0,0,0,0,0,0,0],"split_type":[0,0,0,0,0,0,0,0,0,0,0,0,0,0,0,0,0,0,0,0,0,0,0,0,0,0,0,0,0,0,0,0,0,0,0,0,0,0,0,0,0,0,0,0,0,0,0,0,0,0,0,0,0,0,0,0,0,0,0,0,0,0,0,0,0,0,0,0,0,0,0,0,0,0,0,0,0,0,0,0,0,0,0,0,0,0,0,0,0,0,0,0,0,0,0,0,0,0,0],"sum_hessian":[1.8491E4,1.3998E4,4.493E3,1E1,1.3988E4,2.96E3,1.533E3,5E0,5E0,1.1456E4,2.532E3,2.215E3,7.45E2,6.36E2,8.97E2,1.1036E4,4.2E2,2.82E2,2.25E3,1.954E3,2.61E2,8E1,6.65E2,1.28E2,5.08E2,3.73E2,5.24E2,5.749E3,5.287E3,2.21E2,1.99E2,1.98E2,8.4E1,2.214E3,3.6E1,8.42E2,1.112E3,2.15E2,4.6E1,6.7E1,1.3E1,4.71E2,1.94E2,8E0,1.2E2,1.9E2,3.18E2,3.33E2,4E1,4.06E2,1.18E2,5.78E2,5.171E3,5.7E1,5.23E3,5E0,2.16E2,1.59E2,4E1,1.2E1,1.86E2,4E0,8E1,1.288E3,9.26E2,1.9E1,1.7E1,4.11E2,4.31E2,2.42E2,8.7E2,3.8E1,1.77E2,1.5E1,3.1E1,3.4E1,3.3E1,4E0,9E0,3.82E2,8.9E1,1.3E2,6.4E1,6E0,2E0,6.1E1,5.9E1,1.79E2,1.1E1,1.67E2,1.51E2,2.45E2,8.8E1,1.9E1,2.1E1,1.89E2,2.17E2,1.05E2,1.3E1],"tree_param":{"num_deleted":"0","num_feature":"17","num_nodes":"99","size_leaf_vector":"1"}},{"base_weights":[4.8905328E-2,6.9669304E0,-2.6597567E0,5.464056E0,1.8678596E1,-3.0311875E0,5.5830045E0,1.9875187E1,4.700699E0,2.5713507E1,9.344832E0,-4.1537194E0,-2.0858605E0,-1.3552464E0,1.0027357E1,1.27655735E1,6.732107E1,9.125203E-1,6.8137374E0,6.5606437E0,2.8270927E1,-3.7694922E-1,1.3299717E1,-2.1909537E0,-4.6015816E0,-2.0850204E-1,-2.516107E0,-5.0436406E0,1.3789158E0,1.2675732E1,-2.4792147E0,1.1311344E1,3.314959E1,3.2266045E1,1.4553102E2,-5.113664E-1,2.388713E0,1.1647346E1,5.1878448E0,-2.2866504E0,2.579225E1,2.2640884E1,4.4931183E1,3.9916728E0,-4.2992854E0,-1.767734E0,1.8558516E1,-4.7644812E-1,-3.4090438E0,-4.7546153E0,-3.8941495E0,2.9255931E0,-1.7248763E0,-3.289996E0,-2.215325E0,-7.6371984E0,-1.6693202E0,-4.2524652E0,3.2611265E0,7.325813E0,2.0591335E1,-3.031091E0,7.7963084E-1,6.687116E-1,-5.2948177E-1,6.0766834E-1,3.2156436E0,2.0722113E0,7.20188E-1,1.9605404E0,7.695985E0,7.08541E-4,-3.964325E-1,6.514774E-3,2.1860336E-1,3.332756E-1,1.0759914E0,7.3493846E-2,3.6866418E-1,-3.6758792E-1,1.8326885E-1,5.0674117E-1,2.4408586E0,1.9159657E0,9.7174025E-1,2.4727592E0,7.131258E-2,-3.5646024E-1,3.7118405E-1,-2.842914E-1,4.8005277E-1,2.4184258E-1,-2.1795309E-1,1.2752904E0,5.7718164E-1,-7.180589E-2,2.2975461E-1,-1.8705977E-1,1.276361E-1,-2.3435365E-1,-3.1923935E-1,-2.0881692E-1,-1.6322286E-1,-7.7830836E-2,3.4372428E-1,-7.2253354E-2,-3.142423E-1,1.7238248E-2,-1.7399967E-1,-1.0611919E-1,-2.4282308E-1,-2.8616843E-1,-4.113267E-1,1.804303E-1,-2.3128298E-1,-3.2575452E-1,1.2502642E-2,-1.535215E-1,3.5759568E-1,1.9043076E-1,1.0848187E0,1.554243E0,3.983786E-1,2.225766E-1,-1.8171422E-1],"categories":[],"categories_nodes":[],"categories_segments":[],"categories_sizes":[],"default_left":[0,0,0,0,0,0,0,0,0,0,0,0,0,0,0,0,0,0,0,0,0,0,0,0,0,0,0,0,0,0,0,0,0,0,0,0,0,0,0,0,0,0,0,0,0,0,0,0,0,0,0,0,0,0,0,0,0,0,0,0,0,0,0,0,0,0,0,0,0,0,0,0,0,0,0,0,0,0,0,0,0,0,0,0,0,0,0,0,0,0,0,0,0,0,0,0,0,0,0,0,0,0,0,0,0,0,0,0,0,0,0,0,0,0,0,0,0,0,0,0,0,0,0,0,0],"id":13,"left_children":[1,3,5,7,9,11,13,15,17,19,21,23,25,27,29,31,33,35,37,39,41,43,45,47,49,51,53,55,57,59,61,63,65,67,69,71,73,75,77,79,81,83,85,87,89,91,93,95,97,99,101,103,105,107,109,111,113,115,117,119,121,123,-1,-1,-1,-1,-1,-1,-1,-1,-1,-1,-1,-1,-1,-1,-1,-1,-1,-1,-1,-1,-1,-1,-1,-1,-1,-1,-1,-1,-1,-1,-1,-1,-1,-1,-1,-1,-1,-1,-1,-1,-1,-1,-1,-1,-1,-1,-1,-1,-1,-1,-1,-1,-1,-1,-1,-1,-1,-1,-1,-1,-1,-1,-1],"loss_changes":[3.4690734E5,9.158239E4,4.074865E4,5.070842E4,3.8631734E4,1.3500961E4,1.771347E4,7.7399305E4,3.510983E4,1.6321422E4,9.847834E3,5.1051016E3,5.583295E3,2.2760051E3,1.1624152E4,5.6425664E3,7.755383E4,3.3054573E3,2.207032E4,7.035033E3,2.6840734E4,1.3023015E3,1.4453889E4,2.2601372E3,4.9432812E2,6.135721E3,1.3018164E3,8.2739453E2,1.3917959E3,1.2087684E4,6.6561426E2,8.770863E3,7.7244277E3,3.0097988E3,1.9916562E3,3.122457E3,3.4574043E3,3.4678164E4,1.7125613E4,9.012292E2,4.1918896E3,1.0514914E4,1.4493891E4,1.4269348E3,8.255266E2,8.425871E2,6.2847188E3,2.201618E3,1.2630239E3,3.98375E2,1.370498E2,7.462302E3,1.1009692E3,1.0868145E3,9.84584E2,1.382251E1,6.8763586E2,3.3781696E2,2.4361638E3,8.712041E3,1.5118586E4,2.914997E2,0E0,0E0,0E0,0E0,0E0,0E0,0E0,0E0,0E0,0E0,0E0,0E0,0E0,0E0,0E0,0E0,0E0,0E0,0E0,0E0,0E0,0E0,0E0,0E0,0E0,0E0,0E0,0E0,0E0,0E0,0E0,0E0,0E0,0E0,0E0,0E0,0E0,0E0,0E0,0E0,0E0,0E0,0E0,0E0,0E0,0E0,0E0,0E0,0E0,0E0,0E0,0E0,0E0,0E0,0E0,0E0,0E0,0E0,0E0,0E0,0E0,0E0,0E0],"parents":[2147483647,0,0,1,1,2,2,3,3,4,4,5,5,6,6,7,7,8,8,9,9,10,10,11,11,12,12,13,13,14,14,15,15,16,16,17,17,18,18,19,19,20,20,21,21,22,22,23,23,24,24,25,25,26,26,27,27,28,28,29,29,30,30,31,31,32,32,33,33,34,34,35,35,36,36,37,37,38,38,39,39,40,40,41,41,42,42,43,43,44,44,45,45,46,46,47,47,48,48,49,49,50,50,51,51,52,52,53,53,54,54,55,55,56,56,57,57,58,58,59,59,60,60,61,61],"right_children":[2,4,6,8,10,12,14,16,18,20,22,24,26,28,30,32,34,36,38,40,42,44,46,48,50,52,54,56,58,60,62,64,66,68,70,72,74,76,78,80,82,84,86,88,90,92,94,96,98,100,102,104,106,108,110,112,114,116,118,120,122,124,-1,-1,-1,-1,-1,-1,-1,-1,-1,-1,-1,-1,-1,-1,-1,-1,-1,-1,-1,-1,-1,-1,-1,-1,-1,-1,-1,-1,-1,-1,-1,-1,-1,-1,-1,-1,-1,-1,-1,-1,-1,-1,-1,-1,-1,-1,-1,-1,-1,-1,-1,-1,-1,-1,-1,-1,-1,-1,-1,-1,-1,-1,-1],"split_conditions":[-5E-1,7.64E1,3.0391666E1,3E1,-8.660254E-1,0E0,1.0123941E1,6.123234E-17,-1.8369701E-16,2.22E1,4.658019E0,-2.4492937E-16,-2.4492937E-16,5.3E1,1E-1,3.5435104E1,9.679E2,4.9E1,5E1,4.379448E1,9.63E2,8.020417E1,9.596E2,5.7E1,-2.5881904E-1,7.2E1,7.295833E0,3.5004166E1,3.8E1,1.8806784E1,2.688925E1,5.4479168E1,2.3E1,9.8E1,1.1E0,3.63125E1,5.488565E0,-2.5881904E-1,0E0,3.5435104E1,1.99E1,2.46E1,7.3E1,5.1E1,9.8E1,1.394779E1,6.2E1,8.88122E0,1.13E1,8.657978E0,6.9E0,-5E-1,9.712E2,-1.3329777E1,9.712E2,2.6E1,4.19E1,1.13E2,7.7406406E0,9.624E2,3.15E1,1.74E1,7.7963084E-1,6.687116E-1,-5.2948177E-1,6.0766834E-1,3.2156436E0,2.0722113E0,7.20188E-1,1.9605404E0,7.695985E0,7.08541E-4,-3.964325E-1,6.514774E-3,2.1860336E-1,3.332756E-1,1.0759914E0,7.3493846E-2,3.6866418E-1,-3.6758792E-1,1.8326885E-1,5.0674117E-1,2.4408586E0,1.9159657E0,9.7174025E-1,2.4727592E0,7.131258E-2,-3.5646024E-1,3.7118405E-1,-2.842914E-1,4.8005277E-1,2.4184258E-1,-2.1795309E-1,1.2752904E0,5.7718164E-1,-7.180589E-2,2.2975461E-1,-1.8705977E-1,1.276361E-1,-2.3435365E-1,-3.1923935E-1,-2.0881692E-1,-1.6322286E-1,-7.7830836E-2,3.4372428E-1,-7.2253354E-2,-3.142423E-1,1.7238248E-2,-1.7399967E-1,-1.0611919E-1,-2.4282308E-1,-2.8616843E-1,-4.113267E-1,1.804303E-1,-2.3128298E-1,-3.2575452E-1,1.2502642E-2,-1.535215E-1,3.5759568E-1,1.9043076E-1,1.0848187E0,1.554243E0,3.983786E-1,2.225766E-1,-1.8171422E-1],"split_indices":[8,13,15,1,8,6,16,9,9,0,4,8,8,12,2,16,3,12,1,16,3,15,3,1,6,1,15,15,1,4,4,15,1,12,11,15,16,6,6,16,0,0,1,12,1,4,1,16,11,16,11,9,3,4,3,12,13,12,4,3,0,0,0,0,0,0,0,0,0,0,0,0,0,0,0,0,0,0,0,0,0,0,0,0,0,0,0,0,0,0,0,0,0,0,0,0,0,0,0,0,0,0,0,0,0,0,0,0,0,0,0,0,0,0,0,0,0,0,0,0,0,0,0,0,0],"split_type":[0,0,0,0,0,0,0,0,0,0,0,0,0,0,0,0,0,0,0,0,0,0,0,0,0,0,0,0,0,0,0,0,0,0,0,0,0,0,0,0,0,0,0,0,0,0,0,0,0,0,0,0,0,0,0,0,0,0,0,0,0,0,0,0,0,0,0,0,0,0,0,0,0,0,0,0,0,0,0,0,0,0,0,0,0,0,0,0,0,0,0,0,0,0,0,0,0,0,0,0,0,0,0,0,0,0,0,0,0,0,0,0,0,0,0,0,0,0,0,0,0,0,0,0,0],"sum_hessian":[1.8511E4,5.208E3,1.3303E4,4.617E3,5.91E2,1.273E4,5.73E2,2.31E2,4.386E3,3.36E2,2.55E2,5.818E3,6.912E3,2.24E2,3.49E2,2.02E2,2.9E1,1.571E3,2.815E3,4E1,2.96E2,7.4E1,1.81E2,1.082E3,4.736E3,1.289E3,5.623E3,9.5E1,1.29E2,2.88E2,6.1E1,1.9E2,1.2E1,2.1E1,8E0,8E2,7.71E2,7.07E2,2.108E3,2.8E1,1.2E1,2.23E2,7.3E1,3.5E1,3.9E1,4.7E1,1.34E2,4.5E2,6.32E2,3.889E3,8.47E2,4.2E2,8.69E2,1.571E3,4.052E3,5.3E1,4.2E1,3.2E1,9.7E1,1.73E2,1.15E2,6E1,1E0,1.74E2,1.6E1,8E0,4E0,1.3E1,8E0,1E0,7E0,7.48E2,5.2E1,3.61E2,4.1E2,4.71E2,2.36E2,7.81E2,1.327E3,1.5E1,1.3E1,8E0,4E0,3.6E1,1.87E2,6.6E1,7E0,8E0,2.7E1,3.6E1,3E0,1.3E1,3.4E1,6.6E1,6.8E1,3.79E2,7.1E1,5.99E2,3.3E1,3.738E3,1.51E2,5.81E2,2.66E2,1.97E2,2.23E2,8.2E2,4.9E1,7.8E1,1.493E3,3.916E3,1.36E2,1.5E1,3.8E1,1.5E1,2.7E1,2.1E1,1.1E1,3.7E1,6E1,1.4E2,3.3E1,6.2E1,5.3E1,4E0,5.6E1],"tree_param":{"num_deleted":"0","num_feature":"17","num_nodes":"125","size_leaf_vector":"1"}},{"base_weights":[-8.344685E-3,6.398774E0,-2.5097404E0,1.3068482E0,8.845661E0,-2.8590043E0,5.815371E0,9.451112E0,7.272388E-1,2.021865E1,7.317337E0,-3.8957195E0,-1.9757957E0,2.3600888E0,1.5960612E1,3.952965E0,2.1948244E1,1.5877779E-1,4.0702877E0,1.6110641E1,2.8807735E1,5.0831976E0,1.31619625E1,-2.0583835E0,-4.322521E0,-1.4611991E-1,-2.4128935E0,-3.5868192E0,4.7638693E0,6.3629103E0,2.7313307E1,1.5145368E1,1.0930992E0,8.283922E0,3.8704124E1,-1.1426541E0,1.5252377E0,4.476289E0,-1.1765483E1,1.12388525E1,2.9971418E1,1.8733667E1,8.164402E1,3.2903507E0,8.207858E0,1.6079206E1,-4.360689E-1,-4.175111E0,-9.359568E-1,-4.4957376E0,-3.5352392E0,2.7423048E0,-1.5707396E0,-3.2734942E0,-1.6657684E0,4.992344E0,-4.624726E0,1.43864E0,9.841975E0,9.926442E0,-1.6231956E0,1.9399488E1,4.71205E1,1.2455398E0,1.13304615E-1,3.8550842E-1,-6.493938E-3,7.745742E-1,-3.6573088E-1,1.0530336E0,2.160266E0,-1.14987336E-1,3.1871784E-2,-9.6240915E-2,1.4859332E-1,2.035429E-1,9.2642355E-1,-7.09911E-1,9.954977E-3,1.3757925E0,2.7325672E-1,2.9737384E0,1.2970572E0,5.928869E-1,4.8435664E0,6.9663706E0,1.7714528E0,2.3913781E-1,-1.8284982E-2,2.1667536E-1,6.123066E-1,1.3539623E0,6.722862E-1,-1.03730634E-1,3.2925773E-1,-1.934276E-1,-3.560705E-1,1.0611965E-2,-1.9375142E-1,-2.376451E-1,-1.9999728E-1,-2.1644735E-1,-1.6778074E-1,-7.273718E-2,3.029043E-1,-3.0684766E-1,-6.4614914E-2,-2.3695631E-1,-1.4899008E-1,-1.7542514E-1,-7.786406E-2,8.707034E-1,-2.3779007E-2,-3.1472102E-1,-7.155528E-2,-2.1808697E-2,5.226143E-1,1.4416645E-1,7.759759E-1,1.4195977E-1,7.724729E-1,-1.507876E-1,7.6014006E-1,-2.1231258E-1,1.0876282E0,2.550873E-1,2.4713907E0],"categories":[],"categories_nodes":[],"categories_segments":[],"categories_sizes":[],"default_left":[0,0,0,0,0,0,0,0,0,0,0,0,0,0,0,0,0,0,0,0,0,0,0,0,0,0,0,0,0,0,0,0,0,0,0,0,0,0,0,0,0,0,0,0,0,0,0,0,0,0,0,0,0,0,0,0,0,0,0,0,0,0,0,0,0,0,0,0,0,0,0,0,0,0,0,0,0,0,0,0,0,0,0,0,0,0,0,0,0,0,0,0,0,0,0,0,0,0,0,0,0,0,0,0,0,0,0,0,0,0,0,0,0,0,0,0,0,0,0,0,0,0,0,0,0,0,0],"id":14,"left_children":[1,3,5,7,9,11,13,15,17,19,21,23,25,27,29,31,33,35,37,39,41,43,45,47,49,51,53,55,57,59,61,63,65,67,69,71,73,75,77,79,81,83,85,87,89,91,93,95,97,99,101,103,105,107,109,111,113,115,117,119,121,123,125,-1,-1,-1,-1,-1,-1,-1,-1,-1,-1,-1,-1,-1,-1,-1,-1,-1,-1,-1,-1,-1,-1,-1,-1,-1,-1,-1,-1,-1,-1,-1,-1,-1,-1,-1,-1,-1,-1,-1,-1,-1,-1,-1,-1,-1,-1,-1,-1,-1,-1,-1,-1,-1,-1,-1,-1,-1,-1,-1,-1,-1,-1,-1,-1],"loss_changes":[2.9646266E5,6.4702438E4,3.8700133E4,7.9565967E3,6.082678E4,1.1684055E4,1.8751635E4,7.608879E3,2.9943728E3,1.4178766E4,4.033364E4,4.596578E3,5.515504E3,5.749407E3,1.4644738E4,2.5121375E3,7.4639404E3,2.3989646E3,1.5249861E3,1.8773234E4,6.926327E4,1.2521559E4,3.3923812E4,2.6309336E3,6.3391406E2,5.481248E3,3.573996E3,1.0559952E3,4.8151987E3,2.150518E3,8.804418E3,1.955896E3,5.189233E2,2.3618628E3,2.813164E2,1.4247386E3,3.2897651E3,1.2007437E3,1.7746686E2,1.9679148E4,7.1373438E3,5.9562723E4,5.1046312E4,7.776992E3,1.2713816E4,2.0029656E4,1.762358E3,3.1928418E2,2.4508042E3,4.784922E2,1.086543E2,6.132071E3,1.1261782E3,1.0990098E3,5.9067773E2,8.912554E2,5.455586E2,2.9449692E3,4.419657E3,1.9915708E3,6.081955E2,2.6518164E3,1.3959883E3,0E0,0E0,0E0,0E0,0E0,0E0,0E0,0E0,0E0,0E0,0E0,0E0,0E0,0E0,0E0,0E0,0E0,0E0,0E0,0E0,0E0,0E0,0E0,0E0,0E0,0E0,0E0,0E0,0E0,0E0,0E0,0E0,0E0,0E0,0E0,0E0,0E0,0E0,0E0,0E0,0E0,0E0,0E0,0E0,0E0,0E0,0E0,0E0,0E0,0E0,0E0,0E0,0E0,0E0,0E0,0E0,0E0,0E0,0E0,0E0,0E0,0E0,0E0,0E0],"parents":[2147483647,0,0,1,1,2,2,3,3,4,4,5,5,6,6,7,7,8,8,9,9,10,10,11,11,12,12,13,13,14,14,15,15,16,16,17,17,18,18,19,19,20,20,21,21,22,22,23,23,24,24,25,25,26,26,27,27,28,28,29,29,30,30,31,31,32,32,33,33,34,34,35,35,36,36,37,37,38,38,39,39,40,40,41,41,42,42,43,43,44,44,45,45,46,46,47,47,48,48,49,49,50,50,51,51,52,52,53,53,54,54,55,55,56,56,57,57,58,58,59,59,60,60,61,61,62,62],"right_children":[2,4,6,8,10,12,14,16,18,20,22,24,26,28,30,32,34,36,38,40,42,44,46,48,50,52,54,56,58,60,62,64,66,68,70,72,74,76,78,80,82,84,86,88,90,92,94,96,98,100,102,104,106,108,110,112,114,116,118,120,122,124,126,-1,-1,-1,-1,-1,-1,-1,-1,-1,-1,-1,-1,-1,-1,-1,-1,-1,-1,-1,-1,-1,-1,-1,-1,-1,-1,-1,-1,-1,-1,-1,-1,-1,-1,-1,-1,-1,-1,-1,-1,-1,-1,-1,-1,-1,-1,-1,-1,-1,-1,-1,-1,-1,-1,-1,-1,-1,-1,-1,-1,-1,-1,-1,-1],"split_conditions":[-5E-1,-1.8369701E-16,3.0391666E1,3E1,3.9E1,0E0,1.9813997E1,3.3741665E1,7.6E1,-8.660254E-1,5.03625E1,-2.4492937E-16,-2.4492937E-16,5.3E1,0E0,1.63E1,2.5881904E-1,6.123234E-17,8.24E1,6.71E1,9.68E2,4.3E0,1E-1,9.63E2,8.660254E-1,7.2E1,-1.8369701E-16,-8.113777E0,2.5881904E-1,1E-1,4.78375E1,9.716666E0,1.4E0,2.4E1,2.16E1,5E-1,9.621E2,7.64E1,2.27E1,1.4370833E1,-2.282852E1,7.0710677E-1,3E1,7.4E1,-1.0886486E0,6.50875E1,9.8E1,2.6E1,9.701E2,8.660254E-1,6.2458334E0,-5E-1,1.5E1,2.5881904E-1,6.4E1,5.9E1,4.51E1,9.648E2,2.54E1,-7.0710677E-1,2.688925E1,2.65E1,2.0183544E1,1.2455398E0,1.13304615E-1,3.8550842E-1,-6.493938E-3,7.745742E-1,-3.6573088E-1,1.0530336E0,2.160266E0,-1.14987336E-1,3.1871784E-2,-9.6240915E-2,1.4859332E-1,2.035429E-1,9.2642355E-1,-7.09911E-1,9.954977E-3,1.3757925E0,2.7325672E-1,2.9737384E0,1.2970572E0,5.928869E-1,4.8435664E0,6.9663706E0,1.7714528E0,2.3913781E-1,-1.8284982E-2,2.1667536E-1,6.123066E-1,1.3539623E0,6.722862E-1,-1.03730634E-1,3.2925773E-1,-1.934276E-1,-3.560705E-1,1.0611965E-2,-1.9375142E-1,-2.376451E-1,-1.9999728E-1,-2.1644735E-1,-1.6778074E-1,-7.273718E-2,3.029043E-1,-3.0684766E-1,-6.4614914E-2,-2.3695631E-1,-1.4899008E-1,-1.7542514E-1,-7.786406E-2,8.707034E-1,-2.3779007E-2,-3.1472102E-1,-7.155528E-2,-2.1808697E-2,5.226143E-1,1.4416645E-1,7.759759E-1,1.4195977E-1,7.724729E-1,-1.507876E-1,7.6014006E-1,-2.1231258E-1,1.0876282E0,2.550873E-1,2.4713907E0],"split_indices":[8,9,15,1,1,6,4,15,12,8,15,8,8,12,6,0,7,7,14,14,3,11,2,3,