{"learner":{"attributes":{"best_iteration":"4","best_score":"7.997946332067831","scikit_learn":"{\"_estimator_type\": \"regressor\"}"},"feature_names":["temperature_2m","relative_humidity_2m","precipitation","surface_pressure","wind_u","wind_v","hour_sin","hour_cos","month_sin","month_cos","pm2_5","nitrogen_dioxide","ozone","pm10_lag_1","pm10_lag_24","pm10_rolling_mean_24","pm10_rolling_std_24"],"feature_types":["float","int","float","float","float","float","float","float","float","float","float","float","float","float","float","float","float"],"gradient_booster":{"model":{"cats":{"enc":[],"feature_segments":[],"sorted_idx":[]},"gbtree_model_param":{"num_parallel_tree":"1","num_trees":"55"},"iteration_indptr":[0,1,2,3,4,5,6,7,8,9,10,11,12,13,14,15,16,17,18,19,20,21,22,23,24,25,26,27,28,29,30,31,32,33,34,35,36,37,38,39,40,41,42,43,44,45,46,47,48,49,50,51,52,53,54,55],"tree_info":[0,0,0,0,0,0,0,0,0,0,0,0,0,0,0,0,0,0,0,0,0,0,0,0,0,0,0,0,0,0,0,0,0,0,0,0,0,0,0,0,0,0,0,0,0,0,0,0,0,0,0,0,0,0,0],"trees":[{"base_weights":[6.85267E-2,1.2913578E1,-5.0054092E0,2.3607918E1,7.619141E0,3.9213127E-1,-6.5071907E0,2.699064E1,1.362099E1,5.120987E0,1.5082198E1,-1.2290139E0,1.04827795E1,-8.504429E0,-4.834311E0,2.9733734E1,1.6417603E1,1.7616198E0,1.5556397E1,1.0178773E1,2.8711958E0,1.2540148E1,2.660295E1,5.043434E0,-1.9282032E0,1.1622509E0,1.5279862E1,-7.990158E0,-9.188039E0,-5.0824146E0,-3.455691E0,2.2428392E1,3.479229E1,7.508617E0,2.6469004E1,4.944962E0,-3.2748587E0,1.2623842E1,2.3722979E1,7.79873E0,1.9491756E1,7.199982E-1,5.7029634E0,2.2231953E0,1.4214526E1,1.856882E1,5.430663E1,2.1077742E1,-1.0632178E0,-3.1370132E0,1.4990218E0,-6.717903E0,4.3667808E0,1.914917E1,-1.2205846E-1,-8.361435E0,-7.329451E0,-9.239868E0,1.1366868E0,-7.0942535E0,-4.943926E0,-1.1855755E0,-3.8886945E0,4.7541967E-1,1.3096172E0,1.8770605E0,3.5863355E-1,6.8863356E-1,1.7414118E-1,1.6098864E0,2.6342785E-1,-1.5813401E-1,3.7413388E-1,1.3209815E-1,-2.4430811E-1,1.6442665E0,5.759151E-1,7.447383E-1,1.4983333E0,3.684439E-1,3.7473886E0,9.7973526E-2,1.1097114E0,-1.4102637E-2,3.5675696E-1,1.6321912E-1,4.365706E-1,-1.3582055E-1,2.4793418E-1,7.469403E-1,-3.0923304E-1,1.9474165E0,7.8104943E-1,3.2884083E0,1.492555E0,-4.6492195E-1,1.2328643E0,6.9320315E-1,-8.697661E-2,-1.8899006E-1,-6.862077E-2,-1.0487759E-1,2.9100457E-1,-9.30953E-2,-3.936859E-1,1.0947247E0,9.494862E-2,1.2049515E0,3.2911584E-1,5.9180796E-1,-1.7281984E-1,2.3214227E-2,-4.191103E-1,2.7388334E-2,-3.6770746E-1,-4.7594124E-1,-4.1477028E-1,-6.386167E-2,1.1007805E-1,-3.8862613E-1,-2.6628357E-1,-4.5449004E-1,-2.440429E-1,9.544449E-2,-1.3849853E-1,-1.4382869E-1,-2.281516E-1],"categories":[],"categories_nodes":[],"categories_segments":[],"categories_sizes":[],"default_left":[0,0,0,0,0,0,0,0,0,0,0,0,0,0,0,0,0,0,0,0,0,0,0,0,0,0,0,0,0,0,0,0,0,0,0,0,0,0,0,0,0,0,0,0,0,0,0,0,0,0,0,0,0,0,0,0,0,0,0,0,0,0,0,0,0,0,0,0,0,0,0,0,0,0,0,0,0,0,0,0,0,0,0,0,0,0,0,0,0,0,0,0,0,0,0,0,0,0,0,0,0,0,0,0,0,0,0,0,0,0,0,0,0,0,0,0,0,0,0,0,0,0,0,0,0,0,0],"id":0,"left_children":[1,3,5,7,9,11,13,15,17,19,21,23,25,27,29,31,33,35,37,39,41,43,45,47,49,51,53,55,57,59,61,63,65,67,69,71,73,75,77,79,81,83,85,87,89,91,93,95,97,99,101,103,105,107,109,111,113,115,117,119,121,123,125,-1,-1,-1,-1,-1,-1,-1,-1,-1,-1,-1,-1,-1,-1,-1,-1,-1,-1,-1,-1,-1,-1,-1,-1,-1,-1,-1,-1,-1,-1,-1,-1,-1,-1,-1,-1,-1,-1,-1,-1,-1,-1,-1,-1,-1,-1,-1,-1,-1,-1,-1,-1,-1,-1,-1,-1,-1,-1,-1,-1,-1,-1,-1,-1],"loss_changes":[1.2063231E6,2.965682E5,1.0755194E5,5.8245875E4,6.5306812E4,4.7272316E4,3.4639906E4,3.70705E4,1.0094734E4,2.988607E4,2.5409094E4,1.0929939E4,1.7866781E4,1.5895E3,1.9153125E3,3.7171938E4,2.388961E4,1.0262626E3,8.77718E3,1.7779719E4,1.1088864E4,1.2440578E4,3.415842E4,2.4501395E4,9.288861E3,3.4888855E3,1.5735352E4,6.027656E2,1.0935781E3,1.2986641E3,8.456553E2,2.0321547E4,4.5664812E4,3.5833945E3,1.513325E4,8.2608594E2,2.5125397E2,5.915582E3,5.0105977E3,1.809396E4,7.726922E3,6.6617295E3,5.776199E3,1.3917179E3,9.267492E3,6.8409336E3,7.8471797E3,7.731842E3,1.8615043E3,1.8742861E3,9.103718E3,2.0984521E2,4.1974165E3,1.2966445E4,2.1940386E3,3.2029688E2,1.9507422E2,4.5165625E2,3.1087643E1,3.2567578E2,1.1275547E3,6.916874E2,4.8237793E2,0E0,0E0,0E0,0E0,0E0,0E0,0E0,0E0,0E0,0E0,0E0,0E0,0E0,0E0,0E0,0E0,0E0,0E0,0E0,0E0,0E0,0E0,0E0,0E0,0E0,0E0,0E0,0E0,0E0,0E0,0E0,0E0,0E0,0E0,0E0,0E0,0E0,0E0,0E0,0E0,0E0,0E0,0E0,0E0,0E0,0E0,0E0,0E0,0E0,0E0,0E0,0E0,0E0,0E0,0E0,0E0,0E0,0E0,0E0,0E0,0E0,0E0,0E0,0E0],"parents":[2147483647,0,0,1,1,2,2,3,3,4,4,5,5,6,6,7,7,8,8,9,9,10,10,11,11,12,12,13,13,14,14,15,15,16,16,17,17,18,18,19,19,20,20,21,21,22,22,23,23,24,24,25,25,26,26,27,27,28,28,29,29,30,30,31,31,32,32,33,33,34,34,35,35,36,36,37,37,38,38,39,39,40,40,41,41,42,42,43,43,44,44,45,45,46,46,47,47,48,48,49,49,50,50,51,51,52,52,53,53,54,54,55,55,56,56,57,57,58,58,59,59,60,60,61,61,62,62],"right_children":[2,4,6,8,10,12,14,16,18,20,22,24,26,28,30,32,34,36,38,40,42,44,46,48,50,52,54,56,58,60,62,64,66,68,70,72,74,76,78,80,82,84,86,88,90,92,94,96,98,100,102,104,106,108,110,112,114,116,118,120,122,124,126,-1,-1,-1,-1,-1,-1,-1,-1,-1,-1,-1,-1,-1,-1,-1,-1,-1,-1,-1,-1,-1,-1,-1,-1,-1,-1,-1,-1,-1,-1,-1,-1,-1,-1,-1,-1,-1,-1,-1,-1,-1,-1,-1,-1,-1,-1,-1,-1,-1,-1,-1,-1,-1,-1,-1,-1,-1,-1,-1,-1,-1,-1,-1,-1],"split_conditions":[-5E-1,-8.660254E-1,-2.4492937E-16,7E1,3.7958332E1,3.3175E1,0E0,1.8018103E1,3.5E1,-5.045538E0,9.054583E1,7.0666666E0,-2.5881904E-1,8.660254E-1,1.26E1,-2.5881904E-1,3.32E1,6.5E0,5.4479168E1,2.8816668E1,5.2E1,9.581E2,1.8018103E1,4.5E1,2.11E1,1.2944272E1,8E1,-5E-1,2.1291666E1,4.7916665E0,7.875E0,1.08E1,1.48E1,7.5E1,0E0,-1.1172287E1,2.01E1,1.5541667E1,6.6E1,1E2,3.4E1,1.48E1,-5E-1,-1.3507048E1,9.717E2,9.59E2,9.9E1,9.656E2,-1.1807366E1,1.63E1,3.4192948E0,2.84E1,4.0916668E1,3.7E0,1.5E0,-2.4209278E1,-2.6949331E1,9.3E0,9.627E2,8.660254E-1,1.3E0,9.639E2,-1.8369701E-16,4.7541967E-1,1.3096172E0,1.8770605E0,3.5863355E-1,6.8863356E-1,1.7414118E-1,1.6098864E0,2.6342785E-1,-1.5813401E-1,3.7413388E-1,1.3209815E-1,-2.4430811E-1,1.6442665E0,5.759151E-1,7.447383E-1,1.4983333E0,3.684439E-1,3.7473886E0,9.7973526E-2,1.1097114E0,-1.4102637E-2,3.5675696E-1,1.6321912E-1,4.365706E-1,-1.3582055E-1,2.4793418E-1,7.469403E-1,-3.0923304E-1,1.9474165E0,7.8104943E-1,3.2884083E0,1.492555E0,-4.6492195E-1,1.2328643E0,6.9320315E-1,-8.697661E-2,-1.8899006E-1,-6.862077E-2,-1.0487759E-1,2.9100457E-1,-9.30953E-2,-3.936859E-1,1.0947247E0,9.494862E-2,1.2049515E0,3.2911584E-1,5.9180796E-1,-1.7281984E-1,2.3214227E-2,-4.191103E-1,2.7388334E-2,-3.6770746E-1,-4.7594124E-1,-4.1477028E-1,-6.386167E-2,1.1007805E-1,-3.8862613E-1,-2.6628357E-1,-4.5449004E-1,-2.440429E-1,9.544449E-2,-1.3849853E-1,-1.4382869E-1,-2.281516E-1],"split_indices":[8,8,8,1,15,15,6,4,12,4,15,15,6,8,11,6,10,11,15,15,12,3,4,1,13,4,1,6,15,15,15,10,11,12,6,5,13,15,12,1,1,11,6,5,3,3,10,3,4,15,4,13,15,11,11,4,4,13,3,9,10,3,9,0,0,0,0,0,0,0,0,0,0,0,0,0,0,0,0,0,0,0,0,0,0,0,0,0,0,0,0,0,0,0,0,0,0,0,0,0,0,0,0,0,0,0,0,0,0,0,0,0,0,0,0,0,0,0,0,0,0,0,0,0,0,0,0],"split_type":[0,0,0,0,0,0,0,0,0,0,0,0,0,0,0,0,0,0,0,0,0,0,0,0,0,0,0,0,0,0,0,0,0,0,0,0,0,0,0,0,0,0,0,0,0,0,0,0,0,0,0,0,0,0,0,0,0,0,0,0,0,0,0,0,0,0,0,0,0,0,0,0,0,0,0,0,0,0,0,0,0,0,0,0,0,0,0,0,0,0,0,0,0,0,0,0,0,0,0,0,0,0,0,0,0,0,0,0,0,0,0,0,0,0,0,0,0,0,0,0,0,0,0,0,0,0,0],"sum_hessian":[1.8507E4,5.24E3,1.3267E4,1.734E3,3.506E3,2.888E3,1.0379E4,1.294E3,4.4E2,2.628E3,8.78E2,2.489E3,3.99E2,4.729E3,5.65E3,1.026E3,2.68E2,6.2E1,3.78E2,8.08E2,1.82E3,7.21E2,1.57E2,2.49E2,2.24E3,1.36E2,2.63E2,2.706E3,2.023E3,4.786E3,8.64E2,4.22E2,6.04E2,1.43E2,1.25E2,3.8E1,2.4E1,2.8E2,9.8E1,6.45E2,1.63E2,1.035E3,7.85E2,1.01E2,6.2E2,1.23E2,3.4E1,6.8E1,1.81E2,1.656E3,5.84E2,3.9E1,9.7E1,2.1E2,5.3E1,1.725E3,9.81E2,2.013E3,1E1,3.05E2,4.481E3,1.39E2,7.25E2,9.6E1,3.26E2,5.49E2,5.5E1,5.5E1,8.8E1,9.8E1,2.7E1,9E0,2.9E1,5E0,1.9E1,1.3E1,2.67E2,4.2E1,5.6E1,6.42E2,3E0,2.2E1,1.41E2,8.96E2,1.39E2,4.36E2,3.49E2,3.6E1,6.5E1,5.99E2,2.1E1,1.4E1,1.09E2,2.2E1,1.2E1,7E0,6.1E1,7E0,1.74E2,1.213E3,4.43E2,3.19E2,2.65E2,8E0,3.1E1,1.1E1,8.6E1,1.5E2,6E1,1.1E1,4.2E1,4E0,1.721E3,3E0,9.78E2,1.547E3,4.66E2,3E0,7E0,2.18E2,8.7E1,6.5E1,4.416E3,4.7E1,9.2E1,2.92E2,4.33E2],"tree_param":{"num_deleted":"0","num_feature":"17","num_nodes":"127","size_leaf_vector":"1"}},{"base_weights":[-5.660681E-3,1.228009E1,-4.811452E0,2.2123264E1,7.4613934E0,1.2877814E-1,-6.2059183E0,2.5333313E1,1.2582471E1,4.1745124E0,1.4572802E1,-1.4371287E0,9.527633E0,-8.097502E0,-4.6036835E0,1.9908855E1,3.0897705E1,1.0025382E1,2.434107E1,7.74484E0,2.4602962E0,1.2796951E1,2.6131458E1,4.3210654E0,-2.0712392E0,1.9344819E0,1.5529299E1,-7.620752E0,-8.733638E0,-5.9900765E0,-3.7225804E0,1.4978509E1,2.9976025E1,3.356823E1,5.761615E0,8.974988E0,2.4980057E1,1.5724171E1,3.7316742E1,6.3053675E0,1.8182848E1,2.282912E0,3.409637E1,2.158903E1,1.0411704E1,1.7640474E1,5.089815E1,2.251505E1,-1.0193355E0,-3.1567447E0,1.2469083E0,-4.7826233E0,4.842425E0,2.2712425E1,1.3280853E0,-7.827119E0,-6.6700783E0,-8.786844E0,1.0037395E0,-7.9288616E0,-5.506383E0,-5.9618936E0,-3.5855153E0,6.059626E-1,1.6466404E0,1.9511493E0,7.613463E-1,1.970991E0,1.0750841E0,-1.3820055E-1,4.2706838E-1,4.2368513E-1,2.028281E0,1.4231725E0,-3.8651866E-1,2.5148603E-1,1.2289934E0,1.5614842E0,2.823001E0,6.181068E-1,2.3871027E-1,1.6072356E0,5.7295877E-1,2.6509581E-2,2.4815992E-1,3.7085366E-2,1.9086494E0,3.5797403E0,8.6321956E-1,2.2125967E-1,7.0135564E-1,5.032365E-1,1.4063267E0,4.148531E0,1.9594761E0,-1.5481538E-1,1.3690844E0,4.3455645E-1,-1.0893833E-1,3.2758787E-1,-1.6375475E-1,-1.1007766E-1,2.9582962E-1,-3.2712778E-1,1.5859345E-1,7.1961135E-1,1.3914517E-1,7.699823E-1,1.6631523E0,2.513066E-1,-3.058598E-1,-8.333204E-2,-3.9255688E-1,-2.3545054E-1,-3.3864674E-1,-4.502669E-1,-3.9018926E-1,-3.5639938E-2,1.16583325E-1,-4.0003642E-1,2.5554484E-1,-3.703218E-1,-2.6979694E-1,-3.4002632E-1,-1.8840367E-1,-1.6024928E-1,-2.1037412E-1],"categories":[],"categories_nodes":[],"categories_segments":[],"categories_sizes":[],"default_left":[0,0,0,0,0,0,0,0,0,0,0,0,0,0,0,0,0,0,0,0,0,0,0,0,0,0,0,0,0,0,0,0,0,0,0,0,0,0,0,0,0,0,0,0,0,0,0,0,0,0,0,0,0,0,0,0,0,0,0,0,0,0,0,0,0,0,0,0,0,0,0,0,0,0,0,0,0,0,0,0,0,0,0,0,0,0,0,0,0,0,0,0,0,0,0,0,0,0,0,0,0,0,0,0,0,0,0,0,0,0,0,0,0,0,0,0,0,0,0,0,0,0,0,0,0,0,0],"id":1,"left_children":[1,3,5,7,9,11,13,15,17,19,21,23,25,27,29,31,33,35,37,39,41,43,45,47,49,51,53,55,57,59,61,63,65,67,69,71,73,75,77,79,81,83,85,87,89,91,93,95,97,99,101,103,105,107,109,111,113,115,117,119,121,123,125,-1,-1,-1,-1,-1,-1,-1,-1,-1,-1,-1,-1,-1,-1,-1,-1,-1,-1,-1,-1,-1,-1,-1,-1,-1,-1,-1,-1,-1,-1,-1,-1,-1,-1,-1,-1,-1,-1,-1,-1,-1,-1,-1,-1,-1,-1,-1,-1,-1,-1,-1,-1,-1,-1,-1,-1,-1,-1,-1,-1,-1,-1,-1,-1],"loss_changes":[1.099258E6,2.4813756E5,9.219609E4,5.2358688E4,8.2123375E4,4.3386848E4,3.159475E4,3.8201312E4,1.2835453E4,1.4706414E4,2.2470484E4,9.235864E3,1.9155586E4,1.384625E3,6.8831484E3,3.2012062E4,4.2297688E4,5.41509E3,8.0225977E3,1.1605031E4,9.052459E3,2.00125E4,3.0015297E4,2.4410906E4,8.205389E3,3.675823E3,2.3941973E4,4.859375E2,1.0672656E3,2.0147656E3,1.0403008E3,2.224004E4,2.7960781E4,3.95405E4,1.4929548E3,4.992967E3,2.8407266E3,4.422299E3,1.7325586E3,6.3121445E3,8.455898E3,7.6030957E3,1.1954551E3,4.3096625E4,1.6408766E4,8.534723E3,1.0642828E4,7.189328E3,2.2143652E3,1.9931465E3,9.06304E3,8.187158E2,2.5364585E3,1.1523844E4,2.2333857E3,3.1954688E2,6.815625E1,3.661875E2,2.9015259E1,4.4948047E2,3.29375E2,3.386577E2,7.585547E2,0E0,0E0,0E0,0E0,0E0,0E0,0E0,0E0,0E0,0E0,0E0,0E0,0E0,0E0,0E0,0E0,0E0,0E0,0E0,0E0,0E0,0E0,0E0,0E0,0E0,0E0,0E0,0E0,0E0,0E0,0E0,0E0,0E0,0E0,0E0,0E0,0E0,0E0,0E0,0E0,0E0,0E0,0E0,0E0,0E0,0E0,0E0,0E0,0E0,0E0,0E0,0E0,0E0,0E0,0E0,0E0,0E0,0E0,0E0,0E0,0E0,0E0,0E0,0E0],"parents":[2147483647,0,0,1,1,2,2,3,3,4,4,5,5,6,6,7,7,8,8,9,9,10,10,11,11,12,12,13,13,14,14,15,15,16,16,17,17,18,18,19,19,20,20,21,21,22,22,23,23,24,24,25,25,26,26,27,27,28,28,29,29,30,30,31,31,32,32,33,33,34,34,35,35,36,36,37,37,38,38,39,39,40,40,41,41,42,42,43,43,44,44,45,45,46,46,47,47,48,48,49,49,50,50,51,51,52,52,53,53,54,54,55,55,56,56,57,57,58,58,59,59,60,60,61,61,62,62],"right_children":[2,4,6,8,10,12,14,16,18,20,22,24,26,28,30,32,34,36,38,40,42,44,46,48,50,52,54,56,58,60,62,64,66,68,70,72,74,76,78,80,82,84,86,88,90,92,94,96,98,100,102,104,106,108,110,112,114,116,118,120,122,124,126,-1,-1,-1,-1,-1,-1,-1,-1,-1,-1,-1,-1,-1,-1,-1,-1,-1,-1,-1,-1,-1,-1,-1,-1,-1,-1,-1,-1,-1,-1,-1,-1,-1,-1,-1,-1,-1,-1,-1,-1,-1,-1,-1,-1,-1,-1,-1,-1,-1,-1,-1,-1,-1,-1,-1,-1,-1,-1,-1,-1,-1,-1,-1,-1],"split_conditions":[-5E-1,-8.660254E-1,-2.4492937E-16,7E1,3.5E1,3.2683334E1,0E0,3.1E0,8.24E1,-4.1718082E0,9.054583E1,7.0666666E0,0E0,8.660254E-1,-2.5881904E-1,4.5283333E1,1.48E1,9.693E2,5E-1,3.91E1,1.41E2,-6.847607E0,1.6876158E1,-1.0474422E1,2.11E1,1.2600359E1,6.36E1,8.660254E-1,2.1291666E1,2.5881904E-1,4.7916665E0,9.708E2,7.15E1,6.50875E1,5.5E0,1.271E2,-3.230844E0,6.4E1,1.1E2,1.0866667E1,2.06E1,5E-1,3.3E1,9.637E2,6.3E1,1.132E2,6.1E1,-5E-1,4.6E1,-2.6949331E1,3.604269E0,9.659258E-1,4.0916668E1,8.2E1,3.4E0,-2.4209278E1,-1.2950531E1,8.660254E-1,9.632E2,2.24E1,4.679167E0,8.660254E-1,9.659258E-1,6.059626E-1,1.6466404E0,1.9511493E0,7.613463E-1,1.970991E0,1.0750841E0,-1.3820055E-1,4.2706838E-1,4.2368513E-1,2.028281E0,1.4231725E0,-3.8651866E-1,2.5148603E-1,1.2289934E0,1.5614842E0,2.823001E0,6.181068E-1,2.3871027E-1,1.6072356E0,5.7295877E-1,2.6509581E-2,2.4815992E-1,3.7085366E-2,1.9086494E0,3.5797403E0,8.6321956E-1,2.2125967E-1,7.0135564E-1,5.032365E-1,1.4063267E0,4.148531E0,1.9594761E0,-1.5481538E-1,1.3690844E0,4.3455645E-1,-1.0893833E-1,3.2758787E-1,-1.6375475E-1,-1.1007766E-1,2.9582962E-1,-3.2712778E-1,1.5859345E-1,7.1961135E-1,1.3914517E-1,7.699823E-1,1.6631523E0,2.513066E-1,-3.058598E-1,-8.333204E-2,-3.9255688E-1,-2.3545054E-1,-3.3864674E-1,-4.502669E-1,-3.9018926E-1,-3.5639938E-2,1.16583325E-1,-4.0003642E-1,2.5554484E-1,-3.703218E-1,-2.6979694E-1,-3.4002632E-1,-1.8840367E-1,-1.6024928E-1,-2.1037412E-1],"split_indices":[8,8,8,1,14,15,6,11,14,4,15,15,6,8,7,15,11,3,7,13,12,4,4,4,13,4,14,7,15,6,15,3,14,15,14,13,4,12,12,15,14,7,1,3,12,14,14,9,1,4,4,7,15,12,11,4,4,7,3,11,15,9,6,0,0,0,0,0,0,0,0,0,0,0,0,0,0,0,0,0,0,0,0,0,0,0,0,0,0,0,0,0,0,0,0,0,0,0,0,0,0,0,0,0,0,0,0,0,0,0,0,0,0,0,0,0,0,0,0,0,0,0,0,0,0,0,0],"split_type":[0,0,0,0,0,0,0,0,0,0,0,0,0,0,0,0,0,0,0,0,0,0,0,0,0,0,0,0,0,0,0,0,0,0,0,0,0,0,0,0,0,0,0,0,0,0,0,0,0,0,0,0,0,0,0,0,0,0,0,0,0,0,0,0,0,0,0,0,0,0,0,0,0,0,0,0,0,0,0,0,0,0,0,0,0,0,0,0,0,0,0,0,0,0,0,0,0,0,0,0,0,0,0,0,0,0,0,0,0,0,0,0,0,0,0,0,0,0,0,0,0,0,0,0,0,0,0],"sum_hessian":[1.8616E4,5.234E3,1.3382E4,1.719E3,3.515E3,2.946E3,1.0436E4,1.285E3,4.34E2,2.405E3,1.11E3,2.526E3,4.2E2,4.784E3,5.652E3,6.53E2,6.32E2,3.58E2,7.6E1,7.79E2,1.626E3,9.64E2,1.46E2,2.5E2,2.276E3,1.86E2,2.34E2,2.742E3,2.042E3,2.194E3,3.458E3,4.4E2,2.13E2,5.71E2,6.1E1,3.36E2,2.2E1,4.7E1,2.9E1,6.86E2,9.3E1,1.618E3,8E0,2.04E2,7.6E2,1.1E2,3.6E1,5.6E1,1.94E2,1.715E3,5.61E2,5.6E1,1.3E2,1.55E2,7.9E1,2.247E3,4.95E2,2.031E3,1.1E1,4.35E2,1.759E3,1.97E2,3.261E3,3.81E2,5.9E1,1.31E2,8.2E1,3.83E2,1.88E2,1.5E1,4.6E1,3.32E2,4E0,2E1,2E0,2.2E1,2.5E1,2.4E1,5E0,1.37E2,5.49E2,2.9E1,6.4E1,9.79E2,6.39E2,1E0,7E0,1.5E1,1.89E2,2.87E2,4.73E2,6.5E1,4.5E1,8E0,2.8E1,9E0,4.7E1,2E1,1.74E2,2E1,1.695E3,3.23E2,2.38E2,4.6E1,1E1,2.2E1,1.08E2,9.3E1,6.2E1,5.3E1,2.6E1,9E0,2.238E3,2.7E1,4.68E2,1.655E3,3.76E2,5E0,6E0,4.33E2,2E0,9.3E1,1.666E3,1.41E2,5.6E1,2.027E3,1.234E3],"tree_param":{"num_deleted":"0","num_feature":"17","num_nodes":"127","size_leaf_vector":"1"}},{"base_weights":[-3.7945446E-2,1.1709775E1,-4.6115026E0,2.0971447E1,7.0768905E0,-1.4128391E-1,-5.8625317E0,2.4091839E1,1.1264805E1,3.9968462E0,1.4497889E1,-1.8956183E0,5.239526E0,-7.673985E0,-4.344215E0,2.8764034E1,1.7951595E1,8.708271E0,2.2606314E1,8.357826E0,2.387931E0,1.2449199E1,2.3249584E1,2.2842944E0,-2.7191784E0,1.0648592E1,-1.9928563E-1,-7.223966E0,-8.281611E0,-5.495052E0,-3.350241E0,3.1459785E1,1.197599E1,1.0517155E1,2.7403946E1,7.8698263E0,2.5509323E1,1.6948301E1,3.0905588E1,1.1622808E1,4.743889E0,1.3466028E0,6.4804864E0,-1.9182684E0,1.3829193E1,3.3838818E1,1.462029E1,2.9009005E1,8.833404E-1,-4.5415754E0,-1.2062763E0,1.5569696E1,9.611215E-1,-1.2051204E0,8.058828E0,1.15620375E-1,-7.2428694E0,-8.312891E0,5.853292E-1,-7.3838077E0,-5.117897E0,-6.9955316E0,-3.256903E0,1.4714694E0,2.8453107E0,2.1220417E-1,1.1009533E0,3.556873E-1,1.1487561E0,1.6610622E0,6.0268444E-1,6.744949E-1,2.6892486E-1,5.4176706E-1,2.7812507E0,1.0208029E0,8.646097E-2,-7.9774454E-2,1.6040667E0,4.801906E-1,1.0341824E0,4.3290067E-2,6.8373936E-1,-2.8353471E-2,1.4319055E-1,8.1732243E-1,1.6970062E-1,1.4250307E-1,-3.1925762E-1,1.4074405E0,5.5978477E-1,1.0676879E0,2.5969179E0,3.9349984E-2,1.1433612E0,1.6709956E0,-2.0927504E-1,2.5656796E-1,-1.3250552E-1,-2.928561E-1,-1.4002393E-1,3.430553E-2,-1.4266305E-1,4.7007737E-1,1.1154836E0,-2.3209076E-1,2.4582599E-1,8.557971E-2,-1.7561032E-1,-1.4586057E-1,8.802889E-1,-1.920538E-1,1.03734925E-1,-3.770293E-1,-3.3585623E-1,-4.2580944E-1,-3.6901698E-1,-3.605461E-2,7.5670026E-2,-3.7283212E-1,1.15503006E-1,-3.5677755E-1,-2.512462E-1,-2.547446E-1,-4.0097126E-1,-1.6856864E-1,-3.0353308E-2],"categories":[],"categories_nodes":[],"categories_segments":[],"categories_sizes":[],"default_left":[0,0,0,0,0,0,0,0,0,0,0,0,0,0,0,0,0,0,0,0,0,0,0,0,0,0,0,0,0,0,0,0,0,0,0,0,0,0,0,0,0,0,0,0,0,0,0,0,0,0,0,0,0,0,0,0,0,0,0,0,0,0,0,0,0,0,0,0,0,0,0,0,0,0,0,0,0,0,0,0,0,0,0,0,0,0,0,0,0,0,0,0,0,0,0,0,0,0,0,0,0,0,0,0,0,0,0,0,0,0,0,0,0,0,0,0,0,0,0,0,0,0,0,0,0,0,0],"id":2,"left_children":[1,3,5,7,9,11,13,15,17,19,21,23,25,27,29,31,33,35,37,39,41,43,45,47,49,51,53,55,57,59,61,63,65,67,69,71,73,75,77,79,81,83,85,87,89,91,93,95,97,99,101,103,105,107,109,111,113,115,117,119,121,123,125,-1,-1,-1,-1,-1,-1,-1,-1,-1,-1,-1,-1,-1,-1,-1,-1,-1,-1,-1,-1,-1,-1,-1,-1,-1,-1,-1,-1,-1,-1,-1,-1,-1,-1,-1,-1,-1,-1,-1,-1,-1,-1,-1,-1,-1,-1,-1,-1,-1,-1,-1,-1,-1,-1,-1,-1,-1,-1,-1,-1,-1,-1,-1,-1],"loss_changes":[9.9339344E5,2.2215925E5,7.442247E4,5.2036938E4,7.8912984E4,2.7489014E4,2.8564906E4,3.6950688E4,1.2039004E4,1.7121223E4,1.7873172E4,7.565741E3,2.106605E4,1.2362812E3,6.4549297E3,3.3113E4,3.9556562E4,4.6732617E3,3.0919258E3,7.7088945E3,7.602657E3,1.6344172E4,1.695839E4,1.3527687E4,5.0538164E3,1.7099664E4,2.983367E3,3.7975E2,5.623594E2,1.8292891E3,1.01121875E3,3.123675E4,7.982371E3,1.3362016E4,2.1834531E4,4.561926E3,6.467958E3,2.4979473E3,1.1975742E3,6.1127188E3,1.0863488E4,4.139025E3,1.0967795E4,1.5730671E3,2.8005562E4,1.8098695E4,1.2188801E4,2.7754004E3,5.192106E3,1.8892891E3,3.1311572E3,9.684668E3,2.7265667E3,2.159327E3,4.13808E3,6.9980896E1,3.7571875E2,3.1689062E2,1.0790919E1,3.236504E2,3.7458594E2,1.0509619E2,8.9731445E2,0E0,0E0,0E0,0E0,0E0,0E0,0E0,0E0,0E0,0E0,0E0,0E0,0E0,0E0,0E0,0E0,0E0,0E0,0E0,0E0,0E0,0E0,0E0,0E0,0E0,0E0,0E0,0E0,0E0,0E0,0E0,0E0,0E0,0E0,0E0,0E0,0E0,0E0,0E0,0E0,0E0,0E0,0E0,0E0,0E0,0E0,0E0,0E0,0E0,0E0,0E0,0E0,0E0,0E0,0E0,0E0,0E0,0E0,0E0,0E0,0E0,0E0,0E0,0E0],"parents":[2147483647,0,0,1,1,2,2,3,3,4,4,5,5,6,6,7,7,8,8,9,9,10,10,11,11,12,12,13,13,14,14,15,15,16,16,17,17,18,18,19,19,20,20,21,21,22,22,23,23,24,24,25,25,26,26,27,27,28,28,29,29,30,30,31,31,32,32,33,33,34,34,35,35,36,36,37,37,38,38,39,39,40,40,41,41,42,42,43,43,44,44,45,45,46,46,47,47,48,48,49,49,50,50,51,51,52,52,53,53,54,54,55,55,56,56,57,57,58,58,59,59,60,60,61,61,62,62],"right_children":[2,4,6,8,10,12,14,16,18,20,22,24,26,28,30,32,34,36,38,40,42,44,46,48,50,52,54,56,58,60,62,64,66,68,70,72,74,76,78,80,82,84,86,88,90,92,94,96,98,100,102,104,106,108,110,112,114,116,118,120,122,124,126,-1,-1,-1,-1,-1,-1,-1,-1,-1,-1,-1,-1,-1,-1,-1,-1,-1,-1,-1,-1,-1,-1,-1,-1,-1,-1,-1,-1,-1,-1,-1,-1,-1,-1,-1,-1,-1,-1,-1,-1,-1,-1,-1,-1,-1,-1,-1,-1,-1,-1,-1,-1,-1,-1,-1,-1,-1,-1,-1,-1,-1,-1,-1,-1],"split_conditions":[-5E-1,-8.660254E-1,-2.4492937E-16,7E1,3.73E1,1.81E1,0E0,2.67E1,2.3344881E1,5E1,2.3344881E1,4.6E1,-8.910159E0,8.660254E-1,-1.8369701E-16,1.03E1,3.4E1,9.693E2,5E-1,2.41E1,8.3E0,3.4E1,3.5435104E1,1.6921601E0,0E0,1.6043243E1,1.2600359E1,-2.6949331E1,1.1182699E1,2.5881904E-1,1.45E1,8E0,2.84E1,9.643E2,8.87E1,9.609E2,1.72E1,1.0541717E1,-1.1910524E1,-1.8369701E-16,2.26E1,0E0,6.5E1,9.698E2,-9.420249E0,2.69E1,4.98E1,2.64E1,4.685081E0,8.1E0,8.3E1,1.2246469E-16,5.7E1,7.5043178E0,0E0,8.934336E0,-5E-1,8.660254E-1,9.63E2,2.24E1,1.45E1,4.306584E0,9.69E2,1.4714694E0,2.8453107E0,2.1220417E-1,1.1009533E0,3.556873E-1,1.1487561E0,1.6610622E0,6.0268444E-1,6.744949E-1,2.6892486E-1,5.4176706E-1,2.7812507E0,1.0208029E0,8.646097E-2,-7.9774454E-2,1.6040667E0,4.801906E-1,1.0341824E0,4.3290067E-2,6.8373936E-1,-2.8353471E-2,1.4319055E-1,8.1732243E-1,1.6970062E-1,1.4250307E-1,-3.1925762E-1,1.4074405E0,5.5978477E-1,1.0676879E0,2.5969179E0,3.9349984E-2,1.1433612E0,1.6709956E0,-2.0927504E-1,2.5656796E-1,-1.3250552E-1,-2.928561E-1,-1.4002393E-1,3.430553E-2,-1.4266305E-1,4.7007737E-1,1.1154836E0,-2.3209076E-1,2.4582599E-1,8.557971E-2,-1.7561032E-1,-1.4586057E-1,8.802889E-1,-1.920538E-1,1.03734925E-1,-3.770293E-1,-3.3585623E-1,-4.2580944E-1,-3.6901698E-1,-3.605461E-2,7.5670026E-2,-3.7283212E-1,1.15503006E-1,-3.5677755E-1,-2.512462E-1,-2.547446E-1,-4.0097126E-1,-1.6856864E-1,-3.0353308E-2],"split_indices":[8,8,8,1,14,10,6,0,16,1,16,1,5,8,7,11,10,3,7,0,11,1,16,16,6,16,4,4,16,6,0,11,14,3,10,3,0,4,5,9,14,6,1,3,4,0,10,0,16,10,1,6,1,16,6,5,6,7,3,11,0,16,3,0,0,0,0,0,0,0,0,0,0,0,0,0,0,0,0,0,0,0,0,0,0,0,0,0,0,0,0,0,0,0,0,0,0,0,0,0,0,0,0,0,0,0,0,0,0,0,0,0,0,0,0,0,0,0,0,0,0,0,0,0,0,0,0],"split_type":[0,0,0,0,0,0,0,0,0,0,0,0,0,0,0,0,0,0,0,0,0,0,0,0,0,0,0,0,0,0,0,0,0,0,0,0,0,0,0,0,0,0,0,0,0,0,0,0,0,0,0,0,0,0,0,0,0,0,0,0,0,0,0,0,0,0,0,0,0,0,0,0,0,0,0,0,0,0,0,0,0,0,0,0,0,0,0,0,0,0,0,0,0,0,0,0,0,0,0,0,0,0,0,0,0,0,0,0,0,0,0,0,0,0,0,0,0,0,0,0,0,0,0,0,0,0,0],"sum_hessian":[1.8487E4,5.18E3,1.3307E4,1.726E3,3.454E3,2.91E3,1.0397E4,1.305E3,4.21E2,2.442E3,1.012E3,2.195E3,7.15E2,4.739E3,5.658E3,7.39E2,5.66E2,3.45E2,7.6E1,6.57E2,1.785E3,8.22E2,1.9E2,3.61E2,1.834E3,3.58E2,3.57E2,2.73E3,2.009E3,2.62E3,3.038E3,6.36E2,1.03E2,3.18E2,2.48E2,3.3E2,1.5E1,4.7E1,2.9E1,3.44E2,3.13E2,1.424E3,3.61E2,7.2E1,7.5E2,8.4E1,1.06E2,1.7E1,3.44E2,8.31E2,1.003E3,2.37E2,1.21E2,3.19E2,3.8E1,7E0,2.723E3,2.002E3,7E0,4.33E2,2.187E3,7.4E1,2.964E3,5.91E2,4.5E1,5.9E1,4.4E1,2.51E2,6.7E1,1.79E2,6.9E1,1E2,2.3E2,1.1E1,4E0,3.8E1,9E0,1E0,2.8E1,2.83E2,6.1E1,2.19E2,9.4E1,6.3E2,7.94E2,8.5E1,2.76E2,3.5E1,3.7E1,1.15E2,6.35E2,5.1E1,3.3E1,4E1,6.6E1,1.5E1,2E0,1.56E2,1.88E2,4.72E2,3.59E2,4.67E2,5.36E2,1.25E2,1.12E2,5E1,7.1E1,1.41E2,1.78E2,1.8E1,2E1,2E0,5E0,1.73E3,9.93E2,1.637E3,3.65E2,3E0,4E0,4.3E2,3E0,9.3E1,2.094E3,2.8E1,4.6E1,2.841E3,1.23E2],"tree_param":{"num_deleted":"0","num_feature":"17","num_nodes":"127","size_leaf_vector":"1"}},{"base_weights":[7.959069E-3,1.1043215E1,-4.3562245E0,1.9680344E1,6.716578E0,1.2633334E-1,-5.6223426E0,2.2522259E1,1.1332687E1,4.047886E0,1.3186289E1,-1.2356784E0,8.119484E0,-4.9764776E0,-7.340461E0,2.7303673E1,1.6558077E1,1.0666187E1,4.2657967E1,8.495273E0,2.568021E0,1.1296499E1,2.3953394E1,3.9747775E0,-1.7943821E0,1.708761E1,4.3929644E0,-5.8997126E0,-4.100562E0,-7.534249E0,-4.921403E0,1.8028255E1,3.1632008E1,1.2234975E1,3.338438E1,2.7014704E0,1.2510361E1,1.9779472E-1,2.6575286E0,6.208471E0,1.6011309E1,2.374668E0,3.495853E1,-2.2524388E0,1.2263482E1,1.6498295E1,4.8403343E1,1.6420858E1,-1.6792519E0,-2.799197E0,7.877323E-1,1.0310622E1,5.2151268E1,5.514252E0,-3.4083104E-1,-6.496436E0,-5.424695E0,-6.192595E0,-3.7489746E0,-9.254026E0,-7.410438E0,-5.0926876E0,3.2225738E0,5.791854E-1,1.2689984E0,1.7967561E0,6.960568E-1,2.820393E0,5.7200766E-1,2.0156863E0,2.858751E-1,2.367163E-1,-2.2511052E-1,9.0521777E-1,5.5414456E-1,5.1217145E-1,9.6952945E-2,5.324716E-1,1.5087036E0,7.20726E-2,3.3588466E-1,1.9207276E0,9.958029E-3,5.415079E-1,-1.8321745E-1,1.0724801E0,5.062556E-1,5.1852536E-1,1.2457789E0,3.0133238E0,1.3151947E0,1.0430187E0,-3.349176E-1,-3.9566594E-1,-5.0817396E-2,-1.670683E-1,-5.7552632E-2,-1.1791351E-1,1.290087E-1,3.243141E-1,2.3187828E0,3.1176593E0,-2.1223474E-1,3.25348E-2,4.8276663E-1,-3.5760793E-1,-2.8355998E-1,-2.4287339E-1,-3.0237794E-1,-2.7096343E-1,-3.5831943E-1,-1.4829908E-1,-2.2274207E-1,-3.7846085E-1,-4.7577745E-1,-3.7321785E-1,-2.070684E-1,-3.1561497E-1,-2.0856123E-1,-7.322609E-2,3.417739E-1],"categories":[],"categories_nodes":[],"categories_segments":[],"categories_sizes":[],"default_left":[0,0,0,0,0,0,0,0,0,0,0,0,0,0,0,0,0,0,0,0,0,0,0,0,0,0,0,0,0,0,0,0,0,0,0,0,0,0,0,0,0,0,0,0,0,0,0,0,0,0,0,0,0,0,0,0,0,0,0,0,0,0,0,0,0,0,0,0,0,0,0,0,0,0,0,0,0,0,0,0,0,0,0,0,0,0,0,0,0,0,0,0,0,0,0,0,0,0,0,0,0,0,0,0,0,0,0,0,0,0,0,0,0,0,0,0,0,0,0,0,0],"id":3,"left_children":[1,3,5,7,9,11,13,15,17,19,21,23,25,27,29,31,33,35,37,39,41,43,45,47,49,51,53,55,57,59,61,63,65,67,69,71,73,-1,-1,75,77,79,81,83,85,87,89,91,93,95,97,99,101,103,-1,105,107,109,111,113,115,117,119,-1,-1,-1,-1,-1,-1,-1,-1,-1,-1,-1,-1,-1,-1,-1,-1,-1,-1,-1,-1,-1,-1,-1,-1,-1,-1,-1,-1,-1,-1,-1,-1,-1,-1,-1,-1,-1,-1,-1,-1,-1,-1,-1,-1,-1,-1,-1,-1,-1,-1,-1,-1,-1,-1,-1,-1,-1,-1],"loss_changes":[8.9437706E5,1.9654462E5,7.552953E4,4.1403E4,6.0514594E4,3.1930027E4,1.1478531E4,3.6876938E4,8.898484E3,1.6333293E4,2.0565297E4,7.302351E3,1.4195232E4,6.0772656E3,1.2909844E3,2.8536375E4,4.2145484E4,6.4290625E3,3.4445127E3,1.0556961E4,1.160339E4,1.146532E4,2.6907492E4,1.7127607E4,5.876259E3,2.916554E4,3.8460474E3,1.0053203E3,2.8269766E3,4.895E2,3.135332E2,1.074518E4,3.707222E4,1.5750852E4,2.258339E4,1.2514146E3,2.6500898E3,0E0,0E0,8.197365E3,1.0613875E4,7.5126465E3,1.3137686E3,1.1295011E3,1.5792125E4,5.8279746E3,7.590664E3,7.9402207E3,6.8623206E2,1.4526787E3,3.586866E3,1.431924E4,1.1771609E4,5.552462E3,0E0,8.3714844E2,6.9489844E2,3.7986328E2,1.8217109E3,3.7597656E0,4.009375E2,2.085498E2,9.4680855E1,0E0,0E0,0E0,0E0,0E0,0E0,0E0,0E0,0E0,0E0,0E0,0E0,0E0,0E0,0E0,0E0,0E0,0E0,0E0,0E0,0E0,0E0,0E0,0E0,0E0,0E0,0E0,0E0,0E0,0E0,0E0,0E0,0E0,0E0,0E0,0E0,0E0,0E0,0E0,0E0,0E0,0E0,0E0,0E0,0E0,0E0,0E0,0E0,0E0,0E0,0E0,0E0,0E0,0E0,0E0,0E0,0E0,0E0],"parents":[2147483647,0,0,1,1,2,2,3,3,4,4,5,5,6,6,7,7,8,8,9,9,10,10,11,11,12,12,13,13,14,14,15,15,16,16,17,17,18,18,19,19,20,20,21,21,22,22,23,23,24,24,25,25,26,26,27,27,28,28,29,29,30,30,31,31,32,32,33,33,34,34,35,35,36,36,39,39,40,40,41,41,42,42,43,43,44,44,45,45,46,46,47,47,48,48,49,49,50,50,51,51,52,52,53,53,55,55,56,56,57,57,58,58,59,59,60,60,61,61,62,62],"right_children":[2,4,6,8,10,12,14,16,18,20,22,24,26,28,30,32,34,36,38,40,42,44,46,48,50,52,54,56,58,60,62,64,66,68,70,72,74,-1,-1,76,78,80,82,84,86,88,90,92,94,96,98,100,102,104,-1,106,108,110,112,114,116,118,120,-1,-1,-1,-1,-1,-1,-1,-1,-1,-1,-1,-1,-1,-1,-1,-1,-1,-1,-1,-1,-1,-1,-1,-1,-1,-1,-1,-1,-1,-1,-1,-1,-1,-1,-1,-1,-1,-1,-1,-1,-1,-1,-1,-1,-1,-1,-1,-1,-1,-1,-1,-1,-1,-1,-1,-1,-1,-1],"split_conditions":[-5E-1,-8.660254E-1,-2.4492937E-16,7E1,3.73E1,3.2279167E1,2.69E1,2.66E1,1.13E2,2.05E1,9.054583E1,7.0666666E0,3.97625E1,6.123234E-17,9.659258E-1,2.01E1,1.22E2,3.7E1,7.29E1,-1.8369701E-16,1.44E2,2.8E1,1.7960176E1,4.8E1,1.95E1,2.0183544E1,8.020417E1,8.7E1,4.8E0,4.7916665E0,1.7631428E1,6.123234E-17,5.33E1,5.2E0,1.1617083E2,9E0,1.93E1,1.9779472E-1,2.6575286E0,5.6E1,2E1,3.02E1,7.0710677E-1,5.8E1,-6.847607E0,1.132E2,9.9E1,7.4E1,3.7E0,1.6629168E1,1.26E1,3.76E1,6.1E1,5.8E1,-3.4083104E-1,7.1E0,8.660254E-1,2.52E1,1.8E1,1.3E0,2.2079166E1,9.9E0,7.5E1,5.791854E-1,1.2689984E0,1.7967561E0,6.960568E-1,2.820393E0,5.7200766E-1,2.0156863E0,2.858751E-1,2.367163E-1,-2.2511052E-1,9.0521777E-1,5.5414456E-1,5.1217145E-1,9.6952945E-2,5.324716E-1,1.5087036E0,7.20726E-2,3.3588466E-1,1.9207276E0,9.958029E-3,5.415079E-1,-1.8321745E-1,1.0724801E0,5.062556E-1,5.1852536E-1,1.2457789E0,3.0133238E0,1.3151947E0,1.0430187E0,-3.349176E-1,-3.9566594E-1,-5.0817396E-2,-1.670683E-1,-5.7552632E-2,-1.1791351E-1,1.290087E-1,3.243141E-1,2.3187828E0,3.1176593E0,-2.1223474E-1,3.25348E-2,4.8276663E-1,-3.5760793E-1,-2.8355998E-1,-2.4287339E-1,-3.0237794E-1,-2.7096343E-1,-3.5831943E-1,-1.4829908E-1,-2.2274207E-1,-3.7846085E-1,-4.7577745E-1,-3.7321785E-1,-2.070684E-1,-3.1561497E-1,-2.0856123E-1,-7.322609E-2,3.417739E-1],"split_indices":[8,8,8,1,14,15,0,0,12,0,15,15,15,7,7,13,12,12,10,9,12,1,4,1,14,4,15,1,10,15,4,7,10,13,15,11,0,0,0,1,0,14,7,12,4,14,10,12,13,15,10,10,1,1,0,10,8,0,12,10,15,14,1,0,0,0,0,0,0,0,0,0,0,0,0,0,0,0,0,0,0,0,0,0,0,0,0,0,0,0,0,0,0,0,0,0,0,0,0,0,0,0,0,0,0,0,0,0,0,0,0,0,0,0,0,0,0,0,0,0,0],"split_type":[0,0,0,0,0,0,0,0,0,0,0,0,0,0,0,0,0,0,0,0,0,0,0,0,0,0,0,0,0,0,0,0,0,0,0,0,0,0,0,0,0,0,0,0,0,0,0,0,0,0,0,0,0,0,0,0,0,0,0,0,0,0,0,0,0,0,0,0,0,0,0,0,0,0,0,0,0,0,0,0,0,0,0,0,0,0,0,0,0,0,0,0,0,0,0,0,0,0,0,0,0,0,0,0,0,0,0,0,0,0,0,0,0,0,0,0,0,0,0,0,0],"sum_hessian":[1.8569E4,5.262E3,1.3307E4,1.755E3,3.507E3,2.931E3,1.0376E4,1.308E3,4.47E2,2.484E3,1.023E3,2.505E3,4.26E2,7.544E3,2.832E3,7.24E2,5.84E2,4.39E2,8E0,6.19E2,1.865E3,8.72E2,1.51E2,2.42E2,2.263E3,1.24E2,3.02E2,3.67E3,3.874E3,2.62E3,2.12E2,2.32E2,4.92E2,4.66E2,1.18E2,8.3E1,3.56E2,2E0,6E0,4.76E2,1.43E2,1.855E3,1E1,5.8E1,8.14E2,1.17E2,3.4E1,7.5E1,1.67E2,1.629E3,6.34E2,1.05E2,1.9E1,2.75E2,2.7E1,1.621E3,2.049E3,5.55E2,3.319E3,1.71E2,2.449E3,2.08E2,4E0,1.25E2,1.07E2,3.95E2,9.7E1,7E0,4.59E2,9.4E1,2.4E1,6.5E1,1.8E1,7E1,2.86E2,2.44E2,2.32E2,1.05E2,3.8E1,1.528E3,3.27E2,9E0,1E0,5E0,5.3E1,1.52E2,6.62E2,6.9E1,4.8E1,2.1E1,1.3E1,6.3E1,1.2E1,1.5E1,1.52E2,1.225E3,4.04E2,2.3E2,4.04E2,9.6E1,9E0,1.6E1,3E0,1.27E2,1.48E2,8.99E2,7.22E2,1.077E3,9.72E2,3.13E2,2.42E2,1.576E3,1.743E3,2.7E1,1.44E2,2.408E3,4.1E1,8.7E1,1.21E2,2E0,2E0],"tree_param":{"num_deleted":"0","num_feature":"17","num_nodes":"121","size_leaf_vector":"1"}},{"base_weights":[-7.537286E-2,1.0248918E1,-4.121551E0,1.8853836E1,5.9719267E0,1.6087773E-1,-5.3290186E0,2.1649664E1,1.06825485E1,3.5431023E0,1.1982277E1,-1.8194915E0,4.2247005E0,-6.9915643E0,-3.9104495E0,2.4195965E1,1.2438557E1,1.0014325E1,2.543635E0,7.860528E0,2.003777E0,1.0841603E1,2.3147175E1,1.7693579E0,-2.94668E0,7.657506E0,-1.1889237E0,-6.5803533E0,-7.5211954E0,-5.161083E0,-3.1283946E0,2.5631157E1,4.598219E0,4.4758596E0,2.1653107E1,8.834048E0,2.2174759E1,1.9875063E1,6.519022E0,-1.060005E0,3.4215004E0,-3.2195518E0,1.1541891E1,9.455699E0,3.994741E1,4.3161235E0,-3.3031342E0,-5.1242247E0,-1.844018E0,2.0969734E0,1.0191107E1,-1.544257E0,1.2636232E0,8.287232E-1,-6.6027126E0,-7.623419E0,-5.5840845E0,-6.7248635E0,-4.7612176E0,-6.336407E0,-3.0187922E0,8.1160545E-1,1.4998456E0,-1.0801554E-2,6.37686E-1,6.104643E-1,6.565232E-2,1.3698653E0,1.9692129E-1,6.044786E-2,5.101274E-1,5.235767E-1,1.3586749E0,6.3212985E-1,1.7213386E0,2.3131791E-1,6.161305E-1,6.026721E-2,-1.6647552E-1,4.3021068E-1,1.00395404E-1,-4.3725044E-1,-3.000239E-3,1.1361341E0,5.1574826E-1,2.7008516E-1,1.5538732E0,-2.3402433E-1,2.2449274E0,-1.1996789E-1,5.3973854E-1,2.1643484E-1,-2.6378658E-1,-3.0309775E-1,-1.7803483E-1,6.9403234E-3,-1.598698E-1,-3.5190824E-2,2.8909037E-1,2.261204E-1,7.961112E-1,-1.8478544E-1,-1.0109259E-3,-1.7347158E-1,1.2762003E-1,-3.383591E-1,-2.911106E-1,-3.9333043E-1,-3.6158046E-1,-2.8350127E-1,9.028959E-2,-3.0020127E-1,-3.839734E-1,-2.1509051E-1,-2.5913987E-1,-2.7788717E-1,-3.9564618E-1,-1.051596E-1,-1.628816E-1],"categories":[],"categories_nodes":[],"categories_segments":[],"categories_sizes":[],"default_left":[0,0,0,0,0,0,0,0,0,0,0,0,0,0,0,0,0,0,0,0,0,0,0,0,0,0,0,0,0,0,0,0,0,0,0,0,0,0,0,0,0,0,0,0,0,0,0,0,0,0,0,0,0,0,0,0,0,0,0,0,0,0,0,0,0,0,0,0,0,0,0,0,0,0,0,0,0,0,0,0,0,0,0,0,0,0,0,0,0,0,0,0,0,0,0,0,0,0,0,0,0,0,0,0,0,0,0,0,0,0,0,0,0,0,0,0,0,0,0],"id":4,"left_children":[1,3,5,7,9,11,13,15,17,19,21,23,25,27,29,31,33,35,-1,37,39,41,43,45,47,49,51,53,55,57,59,61,63,65,67,69,71,73,75,77,79,81,83,85,87,89,91,93,95,97,99,101,-1,103,105,107,109,111,113,115,117,-1,-1,-1,-1,-1,-1,-1,-1,-1,-1,-1,-1,-1,-1,-1,-1,-1,-1,-1,-1,-1,-1,-1,-1,-1,-1,-1,-1,-1,-1,-1,-1,-1,-1,-1,-1,-1,-1,-1,-1,-1,-1,-1,-1,-1,-1,-1,-1,-1,-1,-1,-1,-1,-1,-1,-1,-1,-1],"loss_changes":[7.7327744E5,1.9170544E5,6.876853E4,3.9291438E4,5.080267E4,2.355575E4,2.4439094E4,2.9908125E4,1.1387746E4,1.6479426E4,1.2510031E4,7.966385E3,1.7831082E4,9.904531E2,5.4610156E3,2.8233688E4,2.0520805E4,6.0762305E3,0E0,1.037909E4,7.95675E3,9.007641E3,2.078411E4,6.0988457E3,3.5873916E3,8.248387E3,3.5462021E3,4.5209375E2,3.693047E2,1.3142539E3,1.1932109E3,3.8044E4,2.7511387E3,3.7017944E3,1.3120461E4,4.1616426E3,1.9385039E3,6.405666E3,6.4017266E3,2.985922E3,9.155182E3,7.676245E2,1.1672828E4,4.3901655E3,9.269453E3,1.3687171E4,2.401453E3,7.1589746E2,2.673221E3,1.9133518E3,1.3020648E4,1.2098376E3,0E0,7.5533066E1,3.0565625E2,1.3110938E2,7.882861E1,2.5391211E2,3.104414E2,9.473779E1,7.226699E2,0E0,0E0,0E0,0E0,0E0,0E0,0E0,0E0,0E0,0E0,0E0,0E0,0E0,0E0,0E0,0E0,0E0,0E0,0E0,0E0,0E0,0E0,0E0,0E0,0E0,0E0,0E0,0E0,0E0,0E0,0E0,0E0,0E0,0E0,0E0,0E0,0E0,0E0,0E0,0E0,0E0,0E0,0E0,0E0,0E0,0E0,0E0,0E0,0E0,0E0,0E0,0E0,0E0,0E0,0E0,0E0,0E0,0E0],"parents":[2147483647,0,0,1,1,2,2,3,3,4,4,5,5,6,6,7,7,8,8,9,9,10,10,11,11,12,12,13,13,14,14,15,15,16,16,17,17,19,19,20,20,21,21,22,22,23,23,24,24,25,25,26,26,27,27,28,28,29,29,30,30,31,31,32,32,33,33,34,34,35,35,36,36,37,37,38,38,39,39,40,40,41,41,42,42,43,43,44,44,45,45,46,46,47,47,48,48,49,49,50,50,51,51,53,53,54,54,55,55,56,56,57,57,58,58,59,59,60,60],"right_children":[2,4,6,8,10,12,14,16,18,20,22,24,26,28,30,32,34,36,-1,38,40,42,44,46,48,50,52,54,56,58,60,62,64,66,68,70,72,74,76,78,80,82,84,86,88,90,92,94,96,98,100,102,-1,104,106,108,110,112,114,116,118,-1,-1,-1,-1,-1,-1,-1,-1,-1,-1,-1,-1,-1,-1,-1,-1,-1,-1,-1,-1,-1,-1,-1,-1,-1,-1,-1,-1,-1,-1,-1,-1,-1,-1,-1,-1,-1,-1,-1,-1,-1,-1,-1,-1,-1,-1,-1,-1,-1,-1,-1,-1,-1,-1,-1,-1,-1,-1],"split_conditions":[-5E-1,-8.660254E-1,-2.4492937E-16,7E1,3.73E1,2.11E1,0E0,1.7960176E1,1.13E2,4.9E1,1.132E2,5.2E1,-7.072233E0,8.660254E-1,-2.5881904E-1,1.48E1,4.74E1,1.271E2,2.543635E0,4.5E1,-2.5881904E-1,2.7E1,2.74E1,2.94E1,-2.5881904E-1,-2.5881904E-1,1.5880805E1,-2.6949331E1,1.11E1,2.5881904E-1,1.48E1,-5E-1,2.12E1,7.1E1,0E0,3.4E1,6.6E1,3.82E1,2.32E1,2.78E1,6.6E1,2.03E1,-1.3101376E1,9.2E1,3.4E1,-5E-1,-9.624167E0,8.1E0,8E1,3.23E1,2.63E1,2.5881904E-1,1.2636232E0,8.934336E0,-2.5881904E-1,1E0,2.29E1,8.660254E-1,2.22E1,1.38E1,-5E-1,8.1160545E-1,1.4998456E0,-1.0801554E-2,6.37686E-1,6.104643E-1,6.565232E-2,1.3698653E0,1.9692129E-1,6.044786E-2,5.101274E-1,5.235767E-1,1.3586749E0,6.3212985E-1,1.7213386E0,2.3131791E-1,6.161305E-1,6.026721E-2,-1.6647552E-1,4.3021068E-1,1.00395404E-1,-4.3725044E-1,-3.000239E-3,1.1361341E0,5.1574826E-1,2.7008516E-1,1.5538732E0,-2.3402433E-1,2.2449274E0,-1.1996789E-1,5.3973854E-1,2.1643484E-1,-2.6378658E-1,-3.0309775E-1,-1.7803483E-1,6.9403234E-3,-1.598698E-1,-3.5190824E-2,2.8909037E-1,2.261204E-1,7.961112E-1,-1.8478544E-1,-1.0109259E-3,-1.7347158E-1,1.2762003E-1,-3.383591E-1,-2.911106E-1,-3.9333043E-1,-3.6158046E-1,-2.8350127E-1,9.028959E-2,-3.0020127E-1,-3.839734E-1,-2.1509051E-1,-2.5913987E-1,-2.7788717E-1,-3.9564618E-1,-1.051596E-1,-1.628816E-1],"split_indices":[8,8,8,1,14,14,6,4,12,1,14,1,5,8,7,11,13,14,0,12,6,1,0,0,6,6,4,4,11,6,0,6,0,12,6,12,12,13,14,0,1,0,4,1,10,9,5,10,1,0,0,6,0,5,6,8,13,8,0,10,9,0,0,0,0,0,0,0,0,0,0,0,0,0,0,0,0,0,0,0,0,0,0,0,0,0,0,0,0,0,0,0,0,0,0,0,0,0,0,0,0,0,0,0,0,0,0,0,0,0,0,0,0,0,0,0,0,0,0],"split_type":[0,0,0,0,0,0,0,0,0,0,0,0,0,0,0,0,0,0,0,0,0,0,0,0,0,0,0,0,0,0,0,0,0,0,0,0,0,0,0,0,0,0,0,0,0,0,0,0,0,0,0,0,0,0,0,0,0,0,0,0,0,0,0,0,0,0,0,0,0,0,0,0,0,0,0,0,0,0,0,0,0,0,0,0,0,0,0,0,0,0,0,0,0,0,0,0,0,0,0,0,0,0,0,0,0,0,0,0,0,0,0,0,0,0,0,0,0,0,0],"sum_hessian":[1.8509E4,5.211E3,1.3298E4,1.729E3,3.482E3,2.925E3,1.0373E4,1.287E3,4.42E2,2.481E3,1.001E3,1.967E3,9.58E2,4.774E3,5.599E3,1.007E3,2.8E2,4.36E2,6E0,6.51E2,1.83E3,9.1E2,9.1E1,4.7E2,1.497E3,5.86E2,3.72E2,2.695E3,2.079E3,2.152E3,3.447E3,9.38E2,6.9E1,1.51E2,1.29E2,3.99E2,3.7E1,6.4E1,5.87E2,5.79E2,1.251E3,4.3E1,8.67E2,5.1E1,4E1,3.13E2,1.57E2,5.02E2,9.95E2,1.84E2,4.02E2,3.68E2,4E0,8E0,2.687E3,1.972E3,1.07E2,4.35E2,1.717E3,1.12E2,3.335E3,2.99E2,6.39E2,4.4E1,2.5E1,4.3E1,1.08E2,9.7E1,3.2E1,6.1E1,3.38E2,1.2E1,2.5E1,4.4E1,2E1,4.44E2,1.43E2,2.9E2,2.89E2,2.67E2,9.84E2,1.5E1,2.8E1,8.4E1,7.83E2,4.4E1,7E0,4E0,3.6E1,1.54E2,1.59E2,3.2E1,1.25E2,3.12E2,1.9E2,4.04E2,5.91E2,1.05E2,7.9E1,2.03E2,1.99E2,1.52E2,2.16E2,2E0,6E0,2.213E3,4.74E2,1.205E3,7.67E2,1.06E2,1E0,2.52E2,1.83E2,8.27E2,8.9E2,7.8E1,3.4E1,6.92E2,2.643E3],"tree_param":{"num_deleted":"0","num_feature":"17","num_nodes":"119","size_leaf_vector":"1"}},{"base_weights":[7.0002094E-2,1.0220393E1,-3.8966918E0,1.8711573E1,5.946287E0,8.923967E-2,-5.0350466E0,2.165268E1,1.0198222E1,3.8923132E0,1.3087951E1,-1.8068368E0,4.113837E0,-6.621372E0,-3.7038267E0,2.422605E1,1.0672823E1,9.807262E0,2.5766962E0,7.2358584E0,2.5841358E0,1.2221156E1,3.7688293E1,2.0241492E0,-2.6844497E0,7.5904884E0,-9.5531166E-1,-6.2389417E0,-7.121659E0,-3.9294407E0,-2.433915E0,2.5320368E1,5.674857E0,7.3674645E0,2.7261774E1,8.703014E0,2.302961E1,1.6543049E1,5.802784E0,7.5545716E-1,5.38681E0,-1.2970024E0,1.3852507E1,8.203945E1,2.3221853E1,-2.8105793E0,6.6241527E0,-4.669507E0,-1.6049194E0,2.4273133E0,1.1248854E1,-1.2305037E0,1.2919772E0,-5.425978E-1,-6.2620163E0,-7.3664513E0,-6.2256794E0,-6.055982E0,-3.8037062E0,-1.600049E0,-2.9597764E0,1.4586695E0,8.8382864E-1,2.4133515E-2,7.3106205E-1,2.315843E-1,7.2050333E-1,1.9250714E0,6.110526E-1,7.332915E-2,4.9711633E-1,7.0681137E-1,2.5083039E0,2.6028721E0,2.701727E-1,2.2471939E-1,8.2218856E-1,6.759678E-2,-2.1224307E-1,1.2422382E-1,4.4639292E-1,-1.8929374E-1,1.4598595E-1,1.2861815E-1,7.643299E-1,2.2510353E-1,4.832326E0,-1.5772235E-2,1.6328901E0,-2.1184765E-1,2.6693103E-1,-1.3504808E-1,8.82802E-1,-2.7314004E-1,-1.2486831E-1,-1.9877955E-2,-1.607372E-1,-2.9946078E-2,3.2744908E-1,2.4149251E-1,9.081152E-1,-1.7117678E-1,1.8540598E-2,-2.2031914E-1,9.7004615E-2,-3.2878232E-1,-2.8917024E-1,-3.6282778E-1,-4.44244E-1,-3.18552E-1,-1.4018433E-1,-3.279185E-1,-2.3021296E-1,-3.125729E-1,-1.8556355E-1,-2.701137E-1,-5.3953458E-2,-9.279859E-2,-2.2231463E-1],"categories":[],"categories_nodes":[],"categories_segments":[],"categories_sizes":[],"default_left":[0,0,0,0,0,0,0,0,0,0,0,0,0,0,0,0,0,0,0,0,0,0,0,0,0,0,0,0,0,0,0,0,0,0,0,0,0,0,0,0,0,0,0,0,0,0,0,0,0,0,0,0,0,0,0,0,0,0,0,0,0,0,0,0,0,0,0,0,0,0,0,0,0,0,0,0,0,0,0,0,0,0,0,0,0,0,0,0,0,0,0,0,0,0,0,0,0,0,0,0,0,0,0,0,0,0,0,0,0,0,0,0,0,0,0,0,0,0,0],"id":5,"left_children":[1,3,5,7,9,11,13,15,17,19,21,23,25,27,29,31,33,35,-1,37,39,41,43,45,47,49,51,53,55,57,59,61,63,65,67,69,71,73,75,77,79,81,83,85,87,89,91,93,95,97,99,101,-1,103,105,107,109,111,113,115,117,-1,-1,-1,-1,-1,-1,-1,-1,-1,-1,-1,-1,-1,-1,-1,-1,-1,-1,-1,-1,-1,-1,-1,-1,-1,-1,-1,-1,-1,-1,-1,-1,-1,-1,-1,-1,-1,-1,-1,-1,-1,-1,-1,-1,-1,-1,-1,-1,-1,-1,-1,-1,-1,-1,-1,-1,-1,-1],"loss_changes":[7.5043056E5,1.8995094E5,6.080617E4,4.3672E4,5.1069797E4,2.2732383E4,2.1988344E4,3.652975E4,6.7991875E3,1.1825965E4,1.61290625E4,6.813731E3,1.6820227E4,8.653125E2,1.6149453E3,2.1253438E4,1.3452424E4,6.3553086E3,0E0,1.0054141E4,9.979799E3,1.6623766E4,1.4776578E4,8.42525E3,3.5240547E3,1.0663744E4,2.9001763E3,3.5189062E2,4.044297E2,1.2638672E3,3.7149512E2,2.878875E4,2.7800205E3,3.9600605E3,6.460621E3,3.7161875E3,7.4962324E3,3.967592E4,9.128955E3,3.525185E3,7.8810645E3,8.7163403E2,1.0831461E4,6.360453E3,4.674333E3,2.173023E3,2.0005168E4,9.857822E2,2.0764712E3,2.9475825E3,1.4601219E4,1.3567996E3,0E0,1.23659744E2,3.660547E2,2.0367969E2,2.0448438E2,1.6453418E2,1.00559375E3,6.5578546E2,8.531802E2,0E0,0E0,0E0,0E0,0E0,0E0,0E0,0E0,0E0,0E0,0E0,0E0,0E0,0E0,0E0,0E0,0E0,0E0,0E0,0E0,0E0,0E0,0E0,0E0,0E0,0E0,0E0,0E0,0E0,0E0,0E0,0E0,0E0,0E0,0E0,0E0,0E0,0E0,0E0,0E0,0E0,0E0,0E0,0E0,0E0,0E0,0E0,0E0,0E0,0E0,0E0,0E0,0E0,0E0,0E0,0E0,0E0,0E0],"parents":[2147483647,0,0,1,1,2,2,3,3,4,4,5,5,6,6,7,7,8,8,9,9,10,10,11,11,12,12,13,13,14,14,15,15,16,16,17,17,19,19,20,20,21,21,22,22,23,23,24,24,25,25,26,26,27,27,28,28,29,29,30,30,31,31,32,32,33,33,34,34,35,35,36,36,37,37,38,38,39,39,40,40,41,41,42,42,43,43,44,44,45,45,46,46,47,47,48,48,49,49,50,50,51,51,53,53,54,54,55,55,56,56,57,57,58,58,59,59,60,60],"right_children":[2,4,6,8,10,12,14,16,18,20,22,24,26,28,30,32,34,36,-1,38,40,42,44,46,48,50,52,54,56,58,60,62,64,66,68,70,72,74,76,78,80,82,84,86,88,90,92,94,96,98,100,102,-1,104,106,108,110,112,114,116,118,-1,-1,-1,-1,-1,-1,-1,-1,-1,-1,-1,-1,-1,-1,-1,-1,-1,-1,-1,-1,-1,-1,-1,-1,-1,-1,-1,-1,-1,-1,-1,-1,-1,-1,-1,-1,-1,-1,-1,-1,-1,-1,-1,-1,-1,-1,-1,-1,-1,-1,-1,-1,-1,-1,-1,-1,-1,-1],"split_conditions":[-5E-1,-8.660254E-1,-2.4492937E-16,7E1,4.28E1,2.11E1,0E0,1.8806784E1,1.23E2,-6.05E0,1.3E0,4.7E1,-7.284421E0,8.660254E-1,1.26E1,1.48E1,1.26E2,9.693E2,2.5766962E0,9.647E2,5.7E1,4E1,4.51E1,9.675E2,-2.5881904E-1,0E0,1.5773695E1,-2.4209278E1,9.6E0,4E0,-1.8369701E-16,2.71E1,2.88E1,4.39E1,2.3193102E1,3.4E1,1.8E1,1.95E1,3.91E1,2.2979574E1,2.32E1,2.38E1,3.7E1,2.08E1,8.89E1,1.4400502E1,-5E-1,9.673E2,8.5E1,9.597E2,2.64E1,2.14E1,1.2919772E0,8.934336E0,7.2E1,8.1E1,1.86E1,4.2E0,1.48E1,1.6E1,9.641E2,1.4586695E0,8.8382864E-1,2.4133515E-2,7.3106205E-1,2.315843E-1,7.2050333E-1,1.9250714E0,6.110526E-1,7.332915E-2,4.9711633E-1,7.0681137E-1,2.5083039E0,2.6028721E0,2.701727E-1,2.2471939E-1,8.2218856E-1,6.759678E-2,-2.1224307E-1,1.2422382E-1,4.4639292E-1,-1.8929374E-1,1.4598595E-1,1.2861815E-1,7.643299E-1,2.2510353E-1,4.832326E0,-1.5772235E-2,1.6328901E0,-2.1184765E-1,2.6693103E-1,-1.3504808E-1,8.82802E-1,-2.7314004E-1,-1.2486831E-1,-1.9877955E-2,-1.607372E-1,-2.9946078E-2,3.2744908E-1,2.4149251E-1,9.081152E-1,-1.7117678E-1,1.8540598E-2,-2.2031914E-1,9.7004615E-2,-3.2878232E-1,-2.8917024E-1,-3.6282778E-1,-4.44244E-1,-3.18552E-1,-1.4018433E-1,-3.279185E-1,-2.3021296E-1,-3.125729E-1,-1.8556355E-1,-2.701137E-1,-5.3953458E-2,-9.279859E-2,-2.2231463E-1],"split_indices":[8,8,8,1,14,14,6,4,12,4,2,1,5,8,11,11,12,3,0,3,12,12,14,3,6,6,4,4,13,14,9,0,14,14,4,12,0,13,13,4,14,0,1,0,14,4,9,3,1,3,0,0,0,5,1,12,11,11,0,0,3,0,0,0,0,0,0,0,0,0,0,0,0,0,0,0,0,0,0,0,0,0,0,0,0,0,0,0,0,0,0,0,0,0,0,0,0,0,0,0,0,0,0,0,0,0,0,0,0,0,0,0,0,0,0,0,0,0,0],"split_type":[0,0,0,0,0,0,0,0,0,0,0,0,0,0,0,0,0,0,0,0,0,0,0,0,0,0,0,0,0,0,0,0,0,0,0,0,0,0,0,0,0,0,0,0,0,0,0,0,0,0,0,0,0,0,0,0,0,0,0,0,0,0,0,0,0,0,0,0,0,0,0,0,0,0,0,0,0,0,0,0,0,0,0,0,0,0,0,0,0,0,0,0,0,0,0,0,0,0,0,0,0,0,0,0,0,0,0,0,0,0,0,0,0,0,0,0,0,0,0],"sum_hessian":[1.8636E4,5.236E3,1.34E4,1.752E3,3.484E3,2.977E3,1.0423E4,1.301E3,4.51E2,2.707E3,7.77E2,2.024E3,9.53E2,4.754E3,5.669E3,1.053E3,2.48E2,4.48E2,3E0,7.6E2,1.947E3,7.52E2,2.5E1,3.77E2,1.647E3,5.65E2,3.88E2,2.702E3,2.052E3,4.812E3,8.57E2,9.94E2,5.9E1,2.08E2,4E1,4.15E2,3.3E1,1E2,6.6E2,1.179E3,7.68E2,8.1E1,6.71E2,5E0,2E1,1.84E2,1.93E2,5.79E2,1.068E3,2.35E2,3.3E2,3.85E2,3E0,1.1E1,2.691E3,1.606E3,4.46E2,2.66E2,4.546E3,3.33E2,5.24E2,6.59E2,3.35E2,3.8E1,2.1E1,1.51E2,5.7E1,2.2E1,1.8E1,6.1E1,3.54E2,2.6E1,7E0,2.3E1,7.7E1,5.89E2,7.1E1,1.054E3,1.25E2,4.23E2,3.45E2,5.1E1,3E1,7.6E1,5.95E2,1E0,4E0,6E0,1.4E1,1.57E2,2.7E1,1.05E2,8.8E1,4.23E2,1.56E2,6.11E2,4.57E2,1.36E2,9.9E1,1.72E2,1.58E2,1.62E2,2.23E2,4E0,7E0,1.618E3,1.073E3,1.503E3,1.03E2,4.27E2,1.9E1,1.95E2,7.1E1,1.63E2,4.383E3,3.9E1,2.94E2,3.02E2,2.22E2],"tree_param":{"num_deleted":"0","num_feature":"17","num_nodes":"119","size_leaf_vector":"1"}},{"base_weights":[2.3278538E-3,9.269998E0,-3.6924922E0,1.6817343E1,5.558016E0,2.019275E-1,-4.805312E0,-3.9293802E-1,1.7543314E1,3.162097E0,1.1476172E1,-1.0204972E0,7.751703E0,-6.3279624E0,-3.5057678E0,-1.9316198E0,1.6598051E1,1.8433577E1,2.3446708E0,2.9728918E0,2.915981E1,9.6153755E0,2.2214252E1,3.960201E0,-1.5561961E0,1.9220934E1,4.1611032E0,-5.9562445E0,-6.820761E0,-4.7121754E0,-2.7456188E0,-6.0223573E-1,-1.0848925E0,1.0321446E-1,3.0443716E1,1.748202E1,3.5686424E1,9.652432E0,-5.012978E0,6.8838105E0,1.6641686E0,8.228875E0,3.8939537E1,1.6246891E1,7.7900047E0,7.138902E0,3.046274E1,1.3581083E0,2.123794E1,-2.4048657E0,8.8981426E-1,8.427907E0,3.1505589E1,8.613242E0,-1.2226188E-1,-6.2393136E0,-5.455306E0,-6.868597E0,1.7562011E0,-6.3181496E0,-4.299893E0,-6.280877E0,-2.658356E0,-2.9223306E-2,-4.0974793E-1,2.1638892E0,1.19389586E-1,7.829669E-1,1.1453986E0,6.361458E-2,1.8966885E0,1.1121992E-1,6.707251E-1,-4.8772293E-1,6.6096246E-2,2.514696E-1,6.515139E-1,5.2549853E-3,1.7809801E-1,9.1179484E-1,2.894432E-2,3.325966E-1,2.0635026E0,2.049147E-3,1.2476103E0,8.255064E-2,5.133757E-1,6.3393676E-1,1.0277357E-2,1.894824E0,7.2054946E-1,4.7754285E-1,-8.745685E-2,4.7241026E-1,1.2720262E0,-1.1142198E-1,-3.8045087E-1,1.7860974E-1,-1.2604849E-1,1.989308E-1,8.0901986E-1,2.1092608E0,-2.669595E-1,-3.6815402E-1,5.82133E-1,1.098295E-1,-3.812401E-1,-3.206627E-1,-2.672029E-1,-2.8293934E-1,-2.4070202E-1,-3.5687304E-1,-3.0666348E-1,1.3524576E-1,-5.649052E-3,-3.192377E-1,2.689496E-1,-1.9132815E-1,-2.3602052E-1,-2.610009E-1,-3.955169E-1,-2.247815E-1,-1.2383049E-1],"categories":[],"categories_nodes":[],"categories_segments":[],"categories_sizes":[],"default_left":[0,0,0,0,0,0,0,0,0,0,0,0,0,0,0,0,0,0,0,0,0,0,0,0,0,0,0,0,0,0,0,0,0,0,0,0,0,0,0,0,0,0,0,0,0,0,0,0,0,0,0,0,0,0,0,0,0,0,0,0,0,0,0,0,0,0,0,0,0,0,0,0,0,0,0,0,0,0,0,0,0,0,0,0,0,0,0,0,0,0,0,0,0,0,0,0,0,0,0,0,0,0,0,0,0,0,0,0,0,0,0,0,0,0,0,0,0,0,0,0,0,0,0],"id":6,"left_children":[1,3,5,7,9,11,13,15,17,19,21,23,25,27,29,31,33,35,37,39,41,43,45,47,49,51,53,55,57,59,61,-1,63,-1,65,67,69,71,73,75,77,79,81,83,85,87,89,91,93,95,97,99,101,103,105,107,109,111,113,115,117,119,121,-1,-1,-1,-1,-1,-1,-1,-1,-1,-1,-1,-1,-1,-1,-1,-1,-1,-1,-1,-1,-1,-1,-1,-1,-1,-1,-1,-1,-1,-1,-1,-1,-1,-1,-1,-1,-1,-1,-1,-1,-1,-1,-1,-1,-1,-1,-1,-1,-1,-1,-1,-1,-1,-1,-1,-1,-1,-1,-1,-1],"loss_changes":[6.3057325E5,1.469605E5,5.7059594E4,2.1621812E4,4.9875273E4,2.7021287E4,2.0240234E4,1.8882655E3,2.2417844E4,1.2244998E4,2.0047547E4,6.7299116E3,1.672204E4,8.2290625E2,5.0556016E3,5.520929E2,1.1445332E3,2.5118E4,5.048806E3,1.2733135E4,3.3641484E3,1.0356336E4,1.8310508E4,1.0985936E4,4.7267856E3,1.2595566E4,5.9509365E3,3.4810938E2,8.4084375E2,1.3864492E3,1.0300293E3,0E0,2.1581036E2,0E0,9.768762E2,1.4357281E4,6.2163203E3,1.2835659E3,1.4246254E3,7.0468945E3,5.523683E3,5.253187E2,6.2843555E2,2.6239402E4,1.0340652E4,2.071514E3,1.0909023E4,5.464478E3,1.3451475E3,1.5347158E3,5.3794805E3,1.7637578E3,1.7932219E4,7.4907617E3,2.8003135E3,2.3278906E2,1.00765625E2,3.5340625E2,2.1585426E1,3.724668E2,3.2070703E2,9.872681E1,1.0951367E3,0E0,0E0,0E0,0E0,0E0,0E0,0E0,0E0,0E0,0E0,0E0,0E0,0E0,0E0,0E0,0E0,0E0,0E0,0E0,0E0,0E0,0E0,0E0,0E0,0E0,0E0,0E0,0E0,0E0,0E0,0E0,0E0,0E0,0E0,0E0,0E0,0E0,0E0,0E0,0E0,0E0,0E0,0E0,0E0,0E0,0E0,0E0,0E0,0E0,0E0,0E0,0E0,0E0,0E0,0E0,0E0,0E0,0E0,0E0,0E0],"parents":[2147483647,0,0,1,1,2,2,3,3,4,4,5,5,6,6,7,7,8,8,9,9,10,10,11,11,12,12,13,13,14,14,15,15,16,16,17,17,18,18,19,19,20,20,21,21,22,22,23,23,24,24,25,25,26,26,27,27,28,28,29,29,30,30,32,32,34,34,35,35,36,36,37,37,38,38,39,39,40,40,41,41,42,42,43,43,44,44,45,45,46,46,47,47,48,48,49,49,50,50,51,51,52,52,53,53,54,54,55,55,56,56,57,57,58,58,59,59,60,60,61,61,62,62],"right_children":[2,4,6,8,10,12,14,16,18,20,22,24,26,28,30,32,34,36,38,40,42,44,46,48,50,52,54,56,58,60,62,-1,64,-1,66,68,70,72,74,76,78,80,82,84,86,88,90,92,94,96,98,100,102,104,106,108,110,112,114,116,118,120,122,-1,-1,-1,-1,-1,-1,-1,-1,-1,-1,-1,-1,-1,-1,-1,-1,-1,-1,-1,-1,-1,-1,-1,-1,-1,-1,-1,-1,-1,-1,-1,-1,-1,-1,-1,-1,-1,-1,-1,-1,-1,-1,-1,-1,-1,-1,-1,-1,-1,-1,-1,-1,-1,-1,-1,-1,-1,-1,-1,-1],"split_conditions":[-5E-1,-8.660254E-1,-2.4492937E-16,3E1,3.73E1,3.3175E1,0E0,5.22E1,1.36325E2,1.34E2,9.054583E1,7.0666666E0,3.97625E1,8.660254E-1,-2.5881904E-1,1.34E1,4.09E1,1.33E2,2.7E1,2.05E1,-7.6000867E0,1.64E1,2.59E1,9.353074E0,2.11E1,2.83E1,5.03625E1,-5E-1,2.0979166E1,2.5881904E-1,1.41E1,-6.0223573E-1,4.87E1,1.0321446E-1,2.14E1,5.1E0,1.78E1,-9.890172E0,1.5141667E2,-1.8369701E-16,5.5E1,3.46E1,-1.8369701E-16,-6.7134433E0,3.7958332E1,6.68E1,-8.3018055E0,1.92E1,1.89E1,3.27E1,-3.5748715E0,2.68E1,4E0,5.6E1,3.9E0,7.4E1,9.659258E-1,8.6E0,5E-1,2.24E1,2.22E1,1.1875E1,5.375E0,-2.9223306E-2,-4.0974793E-1,2.1638892E0,1.19389586E-1,7.829669E-1,1.1453986E0,6.361458E-2,1.8966885E0,1.1121992E-1,6.707251E-1,-4.8772293E-1,6.6096246E-2,2.514696E-1,6.515139E-1,5.2549853E-3,1.7809801E-1,9.1179484E-1,2.894432E-2,3.325966E-1,2.0635026E0,2.049147E-3,1.2476103E0,8.255064E-2,5.133757E-1,6.3393676E-1,1.0277357E-2,1.894824E0,7.2054946E-1,4.7754285E-1,-8.745685E-2,4.7241026E-1,1.2720262E0,-1.1142198E-1,-3.8045087E-1,1.7860974E-1,-1.2604849E-1,1.989308E-1,8.0901986E-1,2.1092608E0,-2.669595E-1,-3.6815402E-1,5.82133E-1,1.098295E-1,-3.812401E-1,-3.206627E-1,-2.672029E-1,-2.8293934E-1,-2.4070202E-1,-3.5687304E-1,-3.0666348E-1,1.3524576E-1,-5.649052E-3,-3.192377E-1,2.689496E-1,-1.9132815E-1,-2.3602052E-1,-2.610009E-1,-3.955169E-1,-2.247815E-1,-1.2383049E-1],"split_indices":[8,8,8,12,14,15,6,13,15,12,15,15,15,8,7,0,14,12,0,0,5,10,0,5,13,0,15,6,15,6,0,0,13,0,0,11,14,5,15,9,12,0,9,5,15,10,5,0,0,0,5,0,11,12,11,12,7,13,7,11,0,15,15,0,0,0,0,0,0,0,0,0,0,0,0,0,0,0,0,0,0,0,0,0,0,0,0,0,0,0,0,0,0,0,0,0,0,0,0,0,0,0,0,0,0,0,0,0,0,0,0,0,0,0,0,0,0,0,0,0,0,0,0],"split_type":[0,0,0,0,0,0,0,0,0,0,0,0,0,0,0,0,0,0,0,0,0,0,0,0,0,0,0,0,0,0,0,0,0,0,0,0,0,0,0,0,0,0,0,0,0,0,0,0,0,0,0,0,0,0,0,0,0,0,0,0,0,0,0,0,0,0,0,0,0,0,0,0,0,0,0,0,0,0,0,0,0,0,0,0,0,0,0,0,0,0,0,0,0,0,0,0,0,0,0,0,0,0,0,0,0,0,0,0,0,0,0,0,0,0,0,0,0,0,0,0,0,0,0],"sum_hessian":[1.8413E4,5.248E3,1.3165E4,1.729E3,3.519E3,2.926E3,1.0239E4,7E1,1.659E3,2.506E3,1.013E3,2.519E3,4.07E2,4.713E3,5.526E3,6.5E1,5E0,1.567E3,9.2E1,2.489E3,1.7E1,8.65E2,1.48E2,2.44E2,2.275E3,9.6E1,3.11E2,2.694E3,2.019E3,2.134E3,3.392E3,4E0,6.1E1,3E0,2E0,1.487E3,8E1,4.6E1,4.6E1,6.23E2,1.866E3,6E0,1.1E1,1.85E2,6.8E2,5.3E1,9.5E1,2.13E2,3.1E1,1.689E3,5.86E2,5.2E1,4.4E1,1.52E2,1.59E2,1.714E3,9.8E2,2.008E3,1.1E1,4.33E2,1.701E3,8E1,3.312E3,5.8E1,3E0,1E0,1E0,1.116E3,3.71E2,5E0,7.5E1,1.6E1,3E1,2.6E1,2E1,4.8E2,1.43E2,1.025E3,8.41E2,2E0,4E0,1E0,1E1,6.5E1,1.2E2,1.96E2,4.84E2,2.9E1,2.4E1,6.4E1,3.1E1,5.8E1,1.55E2,9E0,2.2E1,1.635E3,5.4E1,3.28E2,2.58E2,3.4E1,1.8E1,3.4E1,1E1,2.4E1,1.28E2,1.22E2,3.7E1,1.43E3,2.84E2,7.38E2,2.42E2,1.464E3,5.44E2,7E0,4E0,4.31E2,2E0,8.05E2,8.96E2,5.1E1,2.9E1,2.96E2,3.016E3],"tree_param":{"num_deleted":"0","num_feature":"17","num_nodes":"123","size_leaf_vector":"1"}},{"base_weights":[-2.9063426E-2,-2.634725E0,9.310316E0,4.903057E0,-3.2351465E0,1.2015646E1,4.570574E0,3.4125643E0,3.5211052E1,-3.905701E0,1.225464E0,7.929956E0,1.62902E1,1.4810139E0,7.69192E0,6.5750823E0,-4.6094975E0,4.89047E1,-1.1144002E-3,-5.262744E0,-2.6642776E0,-1.251233E0,3.6039376E0,5.608392E-1,1.1440397E1,6.8614235E1,1.5344921E1,-1.4605927E0,3.3585434E0,6.7913513E0,2.5406332E1,-2.3981707E0,9.069228E0,6.984925E-1,-5.722878E0,1.5885933E1,6.919456E1,-2.4670382E0,5.4241405E0,-5.474156E0,-2.9831038E0,-2.173953E-1,-3.0883055E0,-1.4057813E0,3.2173542E1,6.222834E0,-8.9878744E-1,-4.1477895E-1,4.139542E0,1.5889648E1,6.051077E0,5.248027E0,9.783526E1,8.209601E0,1.5091243E1,-2.6328316E0,2.044016E0,4.6107393E-2,7.0750976E0,1.7070978E1,5.9188495E0,7.607522E1,1.6414373E1,-3.56698E-1,8.287687E-2,6.378005E-1,1.6551557E-1,-8.805799E-2,9.7197056E-1,-3.0005866E-1,2.0817122E-3,-4.592729E-3,9.9440175E-1,1.4036537E0,4.143028E0,-2.0563768E-1,7.20576E-2,7.994995E-2,2.9903382E-1,-2.0721482E-1,-2.8447473E-1,-2.8589835E-2,-2.4623226E-1,-8.4904805E-2,1.7297347E-1,-1.9254576E-1,-1.1512227E-1,3.9658034E-1,-8.0209725E-2,1.7340994E-2,2.133342E0,2.7608138E-1,5.1680984E0,-6.559916E-2,1.3110664E0,1.132158E0,-5.7243634E-2,4.8131347E0,7.5132596E-1,2.6221398E-1,1.3339101E0,-3.590444E-1,1.4178257E0,5.565204E0,3.429322E-1,4.4334683E0,7.3598766E-1,-1.8130709E-1,1.0951212E-2,5.3022886E-3,8.888383E-1,3.1573775E-1,-1.0160761E-1,4.4380203E-1,3.497202E-2,3.60195E-1,1.2987992E0,1.9591092E-1,5.671503E-1,2.529369E-1,4.6282325E0,2.75272E-1,1.3148704E0],"categories":[],"categories_nodes":[],"categories_segments":[],"categories_sizes":[],"default_left":[0,0,0,0,0,0,0,0,0,0,0,0,0,0,0,0,0,0,0,0,0,0,0,0,0,0,0,0,0,0,0,0,0,0,0,0,0,0,0,0,0,0,0,0,0,0,0,0,0,0,0,0,0,0,0,0,0,0,0,0,0,0,0,0,0,0,0,0,0,0,0,0,0,0,0,0,0,0,0,0,0,0,0,0,0,0,0,0,0,0,0,0,0,0,0,0,0,0,0,0,0,0,0,0,0,0,0,0,0,0,0,0,0,0,0,0,0,0,0,0,0,0,0],"id":7,"left_children":[1,3,5,7,9,11,13,15,17,19,21,23,25,27,29,31,33,35,37,39,41,43,45,47,49,51,53,55,57,59,61,63,65,67,69,71,73,75,77,79,81,83,85,87,89,91,93,95,-1,97,99,101,103,-1,105,107,109,111,113,115,117,119,121,-1,-1,-1,-1,-1,-1,-1,-1,-1,-1,-1,-1,-1,-1,-1,-1,-1,-1,-1,-1,-1,-1,-1,-1,-1,-1,-1,-1,-1,-1,-1,-1,-1,-1,-1,-1,-1,-1,-1,-1,-1,-1,-1,-1,-1,-1,-1,-1,-1,-1,-1,-1,-1,-1,-1,-1,-1,-1,-1,-1],"loss_changes":[4.5081094E5,6.556823E4,5.176103E4,4.8170695E4,4.0133156E4,4.478953E4,1.4164682E4,2.5907621E4,2.4109207E4,1.9634203E4,1.0336899E4,3.406286E4,6.1069875E4,4.0918906E3,1.1489133E4,1.640435E4,1.7119336E3,2.3018836E4,2.1405553E2,2.6685781E3,6.3210977E3,4.4877656E3,1.0559586E4,3.4210223E4,2.1292625E4,4.0222312E4,4.4154875E4,1.1926624E3,5.564176E3,6.1503457E3,1.4697713E4,3.0849414E3,1.2123637E4,2.3851394E3,3.8366162E2,9.6099756E2,1.0037102E4,7.667655E1,1.0810394E0,1.4360469E3,2.2209688E3,4.911221E3,3.1033203E3,1.6004554E3,1.3210723E3,3.798215E4,3.7323533E3,7.130065E3,0E0,3.2407219E4,6.6000684E3,2.5013323E3,1.7616812E4,0E0,3.2424281E4,6.1550696E2,2.2238555E3,3.139523E3,2.439499E3,4.5576562E3,6.944076E3,5.3868496E3,3.1974346E3,0E0,0E0,0E0,0E0,0E0,0E0,0E0,0E0,0E0,0E0,0E0,0E0,0E0,0E0,0E0,0E0,0E0,0E0,0E0,0E0,0E0,0E0,0E0,0E0,0E0,0E0,0E0,0E0,0E0,0E0,0E0,0E0,0E0,0E0,0E0,0E0,0E0,0E0,0E0,0E0,0E0,0E0,0E0,0E0,0E0,0E0,0E0,0E0,0E0,0E0,0E0,0E0,0E0,0E0,0E0,0E0,0E0,0E0,0E0,0E0],"parents":[2147483647,0,0,1,1,2,2,3,3,4,4,5,5,6,6,7,7,8,8,9,9,10,10,11,11,12,12,13,13,14,14,15,15,16,16,17,17,18,18,19,19,20,20,21,21,22,22,23,23,24,24,25,25,26,26,27,27,28,28,29,29,30,30,31,31,32,32,33,33,34,34,35,35,36,36,37,37,38,38,39,39,40,40,41,41,42,42,43,43,44,44,45,45,46,46,47,47,49,49,50,50,51,51,52,52,54,54,55,55,56,56,57,57,58,58,59,59,60,60,61,61,62,62],"right_children":[2,4,6,8,10,12,14,16,18,20,22,24,26,28,30,32,34,36,38,40,42,44,46,48,50,52,54,56,58,60,62,64,66,68,70,72,74,76,78,80,82,84,86,88,90,92,94,96,-1,98,100,102,104,-1,106,108,110,112,114,116,118,120,122,-1,-1,-1,-1,-1,-1,-1,-1,-1,-1,-1,-1,-1,-1,-1,-1,-1,-1,-1,-1,-1,-1,-1,-1,-1,-1,-1,-1,-1,-1,-1,-1,-1,-1,-1,-1,-1,-1,-1,-1,-1,-1,-1,-1,-1,-1,-1,-1,-1,-1,-1,-1,-1,-1,-1,-1,-1,-1,-1,-1],"split_conditions":[2.48625E1,4.5E1,6.9E1,3.02E1,1.91E1,-2.5881904E-1,3.73E1,3.02E1,6.123234E-17,0E0,1.7004168E1,2.63E1,3.3652933E0,-1.8369701E-16,9.9E1,-5E-1,6.123234E-17,-1.8369701E-16,1.95E1,1.17E1,7.3E1,2.61E1,7.2841287E0,5.74E1,6.123234E-17,2.03E1,5.2E0,2.45E1,5E-1,6.4515233E0,2.35E1,1.5E1,2.29E1,2.5E0,1.16E1,2.12E1,9.006213E0,3.3E1,2.35E1,5.4E1,-1.8369701E-16,3.2216167E0,-1.8369701E-16,2.6E0,5.3E1,3.82E1,1.7E0,3.3652933E0,4.139542E0,6.5E0,1.425E2,3.148867E0,2.64E1,8.209601E0,6.5E0,7.0710677E-1,3.7066666E1,6.123234E-17,9.4E0,5E-1,2.3344881E1,1.96E1,-2.5881904E-1,-3.56698E-1,8.287687E-2,6.378005E-1,1.6551557E-1,-8.805799E-2,9.7197056E-1,-3.0005866E-1,2.0817122E-3,-4.592729E-3,9.9440175E-1,1.4036537E0,4.143028E0,-2.0563768E-1,7.20576E-2,7.994995E-2,2.9903382E-1,-2.0721482E-1,-2.8447473E-1,-2.8589835E-2,-2.4623226E-1,-8.4904805E-2,1.7297347E-1,-1.9254576E-1,-1.1512227E-1,3.9658034E-1,-8.0209725E-2,1.7340994E-2,2.133342E0,2.7608138E-1,5.1680984E0,-6.559916E-2,1.3110664E0,1.132158E0,-5.7243634E-2,4.8131347E0,7.5132596E-1,2.6221398E-1,1.3339101E0,-3.590444E-1,1.4178257E0,5.565204E0,3.429322E-1,4.4334683E0,7.3598766E-1,-1.8130709E-1,1.0951212E-2,5.3022886E-3,8.888383E-1,3.1573775E-1,-1.0160761E-1,4.4380203E-1,3.497202E-2,3.60195E-1,1.2987992E0,1.9591092E-1,5.671503E-1,2.529369E-1,4.6282325E0,2.75272E-1,1.3148704E0],"split_indices":[15,1,1,13,14,6,14,0,9,6,15,14,16,9,1,9,9,9,14,10,1,10,16,10,9,0,13,0,6,16,13,0,0,11,10,10,16,1,0,1,9,4,7,10,1,14,2,16,0,13,14,16,0,0,14,7,15,9,11,6,16,0,7,0,0,0,0,0,0,0,0,0,0,0,0,0,0,0,0,0,0,0,0,0,0,0,0,0,0,0,0,0,0,0,0,0,0,0,0,0,0,0,0,0,0,0,0,0,0,0,0,0,0,0,0,0,0,0,0,0,0,0,0],"split_type":[0,0,0,0,0,0,0,0,0,0,0,0,0,0,0,0,0,0,0,0,0,0,0,0,0,0,0,0,0,0,0,0,0,0,0,0,0,0,0,0,0,0,0,0,0,0,0,0,0,0,0,0,0,0,0,0,0,0,0,0,0,0,0,0,0,0,0,0,0,0,0,0,0,0,0,0,0,0,0,0,0,0,0,0,0,0,0,0,0,0,0,0,0,0,0,0,0,0,0,0,0,0,0,0,0,0,0,0,0,0,0,0,0,0,0,0,0,0,0,0,0,0,0],"sum_hessian":[1.8523E4,1.4483E4,4.04E3,1.068E3,1.3415E4,2.571E3,1.469E3,1.019E3,4.9E1,1.1662E4,1.753E3,1.316E3,1.255E3,7.39E2,7.3E2,7.31E2,2.88E2,3.5E1,1.4E1,5.57E3,6.092E3,8.59E2,8.94E2,4.25E2,8.91E2,2.1E1,1.234E3,2.88E2,4.51E2,6.96E2,3.4E1,1.59E2,5.72E2,5E1,2.38E2,1.4E1,2.1E1,1E1,4E0,5.096E3,4.74E2,9E2,5.192E3,8.56E2,3E0,5.65E2,3.29E2,4.21E2,4E0,4.87E2,4.04E2,7E0,1.4E1,1E0,1.233E3,2.16E2,7.2E1,2.39E2,2.12E2,5.3E1,6.43E2,4E0,3E1,7.3E1,8.6E1,3.48E2,2.24E2,4.5E1,5E0,2.27E2,1.1E1,3E0,1.1E1,6E0,1.5E1,7E0,3E0,1E0,3E0,7.13E2,4.383E3,2.12E2,2.62E2,6.42E2,2.58E2,2.633E3,2.559E3,1.7E1,8.39E2,1E0,2E0,5.62E2,3E0,3.25E2,4E0,1.2E1,4.09E2,4E0,4.83E2,3.9E2,1.4E1,5E0,2E0,1.2E1,2E0,5E0,1.228E3,1.6E2,5.6E1,6.5E1,7E0,5.9E1,1.8E2,1.65E2,4.7E1,2.6E1,2.7E1,4.71E2,1.72E2,1E0,3E0,1.5E1,1.5E1],"tree_param":{"num_deleted":"0","num_feature":"17","num_nodes":"123","size_leaf_vector":"1"}},{"base_weights":[1.6331474E-1,9.052011E0,-3.38155E0,1.6231419E1,5.5247183E0,2.15246E-1,-4.383232E0,1.8865887E1,8.308873E0,2.7511334E0,9.779552E0,-9.6970487E-1,7.1386757E0,-5.665681E0,-3.2736847E0,2.0040283E1,-6.144585E-1,5.777281E0,1.9470598E1,5.784633E0,1.4518276E0,8.406824E0,2.0628296E1,3.81251E0,-1.4646474E0,1.3186742E1,-2.047917E0,-5.3318563E0,-6.1122007E0,-5.1876206E0,-3.1601312E0,1.4692794E1,2.5159286E1,1.2047022E1,-2.5235546E0,5.0062037E0,2.5736769E1,1.6028578E1,3.1283463E1,4.6447077E0,1.6969921E1,-3.0039635E0,2.1950624E0,1.6469786E1,6.4251094E0,1.3738675E1,4.166084E1,-1.3652908E0,1.3417885E1,-2.4589093E0,5.7341725E-1,3.807364E0,2.0797039E1,-8.474457E0,-1.6809686E-1,-5.1009216E0,-5.9193635E0,-6.143549E0,1.6586709E0,-5.879711E0,-3.4107711E0,-3.355032E0,-2.2574422E0,4.0681693E-1,1.2322158E0,3.8267836E-1,1.3873506E0,3.3050448E-1,1.1264919E0,6.279153E-1,-1.8495657E-1,5.499139E-1,1.6184801E-1,6.266246E-1,2.6156635E0,9.0717137E-1,-1.8921228E-1,1.9668244E0,2.0444512E-1,2.9719234E-1,-1.8775078E-2,1.8150688E0,3.4399724E-1,1.8089794E-1,-2.200378E-1,1.9870643E-1,2.8302839E-2,5.642895E-1,1.9888457E0,1.4265142E-1,4.9152514E-1,2.8823733E-1,1.2128773E0,3.3856213E0,1.4969201E0,8.9635783E-1,-8.067107E-2,-8.8776164E-2,1.1688174E0,-1.8784189E-1,-9.114786E-2,-9.101983E-2,2.1671565E-1,-1.4887767E-1,4.3563208E-1,8.209656E-1,2.4778068E0,-5.4150057E-1,-3.4081838E-1,-1.2418979E-1,1.1501449E0,-2.7689132E-1,-2.2890215E-1,9.9855654E-2,-2.986858E-1,-3.1940955E-1,-2.68349E-1,-2.2691298E-2,1.1635368E-1,-2.3401761E-1,-3.311736E-1,-2.3464727E-1,-6.9638275E-2,-1.21819906E-1,-1.8214168E-1,-2.6560906E-2,-1.3030033E-1],"categories":[],"categories_nodes":[],"categories_segments":[],"categories_sizes":[],"default_left":[0,0,0,0,0,0,0,0,0,0,0,0,0,0,0,0,0,0,0,0,0,0,0,0,0,0,0,0,0,0,0,0,0,0,0,0,0,0,0,0,0,0,0,0,0,0,0,0,0,0,0,0,0,0,0,0,0,0,0,0,0,0,0,0,0,0,0,0,0,0,0,0,0,0,0,0,0,0,0,0,0,0,0,0,0,0,0,0,0,0,0,0,0,0,0,0,0,0,0,0,0,0,0,0,0,0,0,0,0,0,0,0,0,0,0,0,0,0,0,0,0,0,0,0,0,0,0],"id":8,"left_children":[1,3,5,7,9,11,13,15,17,19,21,23,25,27,29,31,33,35,37,39,41,43,45,47,49,51,53,55,57,59,61,63,65,67,69,71,73,75,77,79,81,83,85,87,89,91,93,95,97,99,101,103,105,107,109,111,113,115,117,119,121,123,125,-1,-1,-1,-1,-1,-1,-1,-1,-1,-1,-1,-1,-1,-1,-1,-1,-1,-1,-1,-1,-1,-1,-1,-1,-1,-1,-1,-1,-1,-1,-1,-1,-1,-1,-1,-1,-1,-1,-1,-1,-1,-1,-1,-1,-1,-1,-1,-1,-1,-1,-1,-1,-1,-1,-1,-1,-1,-1,-1,-1,-1,-1,-1,-1],"loss_changes":[5.825417E5,1.3339244E5,4.7619766E4,3.60765E4,4.1701945E4,2.3634223E4,1.4691797E4,2.9799031E4,1.2179283E4,8.434175E3,2.0601453E4,5.828211E3,2.3418236E4,6.819844E2,1.1887227E3,3.3245406E4,1.8433002E3,5.3501064E3,2.7513809E3,8.1069355E3,4.977455E3,1.9707516E4,2.2033008E4,1.1507039E4,4.520215E3,1.8051305E4,2.0281394E3,3.430547E2,5.08125E2,3.5993652E2,9.137969E2,3.9143258E4,2.8145375E4,4.2101953E2,1.2166271E3,3.611293E3,3.9063896E3,2.75033E3,3.562129E3,3.8110498E3,1.1258428E4,2.0045538E3,3.7276152E3,2.9032156E4,1.2099797E4,9.841492E3,9.577547E3,7.517683E2,1.2297045E4,1.230456E3,6.598001E3,3.8533608E3,1.6812254E4,7.459595E1,7.0862065E3,4.274297E2,3.432461E2,3.5251562E2,1.3764074E1,1.6613965E2,2.237456E2,1.1292969E3,5.6000195E2,0E0,0E0,0E0,0E0,0E0,0E0,0E0,0E0,0E0,0E0,0E0,0E0,0E0,0E0,0E0,0E0,0E0,0E0,0E0,0E0,0E0,0E0,0E0,0E0,0E0,0E0,0E0,0E0,0E0,0E0,0E0,0E0,0E0,0E0,0E0,0E0,0E0,0E0,0E0,0E0,0E0,0E0,0E0,0E0,0E0,0E0,0E0,0E0,0E0,0E0,0E0,0E0,0E0,0E0,0E0,0E0,0E0,0E0,0E0,0E0,0E0,0E0,0E0,0E0],"parents":[2147483647,0,0,1,1,2,2,3,3,4,4,5,5,6,6,7,7,8,8,9,9,10,10,11,11,12,12,13,13,14,14,15,15,16,16,17,17,18,18,19,19,20,20,21,21,22,22,23,23,24,24,25,25,26,26,27,27,28,28,29,29,30,30,31,31,32,32,33,33,34,34,35,35,36,36,37,37,38,38,39,39,40,40,41,41,42,42,43,43,44,44,45,45,46,46,47,47,48,48,49,49,50,50,51,51,52,52,53,53,54,54,55,55,56,56,57,57,58,58,59,59,60,60,61,61,62,62],"right_children":[2,4,6,8,10,12,14,16,18,20,22,24,26,28,30,32,34,36,38,40,42,44,46,48,50,52,54,56,58,60,62,64,66,68,70,72,74,76,78,80,82,84,86,88,90,92,94,96,98,100,102,104,106,108,110,112,114,116,118,120,122,124,126,-1,-1,-1,-1,-1,-1,-1,-1,-1,-1,-1,-1,-1,-1,-1,-1,-1,-1,-1,-1,-1,-1,-1,-1,-1,-1,-1,-1,-1,-1,-1,-1,-1,-1,-1,-1,-1,-1,-1,-1,-1,-1,-1,-1,-1,-1,-1,-1,-1,-1,-1,-1,-1,-1,-1,-1,-1,-1,-1,-1,-1,-1,-1,-1],"split_conditions":[-5E-1,-8.660254E-1,-2.4492937E-16,7E1,3.06E1,3.2683334E1,0E0,1.36325E2,2.2138271E1,5.1E1,9.054583E1,7.0666666E0,1.6043243E1,8.660254E-1,4.7916665E0,9.798222E0,-1.0064047E1,9.703E2,8.87E1,2.73E1,-7.0710677E-1,-8.308866E0,1.8018103E1,9.684E2,1.82E1,0E0,1.0801227E1,9.657E2,2.1291666E1,8.660254E-1,1.13E1,3.4E0,1.87E1,3.7E1,1.4504333E1,9.606E2,1.92E1,7.89E1,1E-1,8.757887E0,1.91E1,8.1E0,5.488565E0,8.9E1,3.7958332E1,1.132E2,8.89E1,2.6E1,-5E-1,-5E-1,6.139453E0,1.5047716E1,2.0818844E1,6.3E1,8.89E1,7E1,-2.6949331E1,9.3E0,9.627E2,5E-1,4.4E0,2.5747943E0,8.2E0,4.0681693E-1,1.2322158E0,3.8267836E-1,1.3873506E0,3.3050448E-1,1.1264919E0,6.279153E-1,-1.8495657E-1,5.499139E-1,1.6184801E-1,6.266246E-1,2.6156635E0,9.0717137E-1,-1.8921228E-1,1.9668244E0,2.0444512E-1,2.9719234E-1,-1.8775078E-2,1.8150688E0,3.4399724E-1,1.8089794E-1,-2.200378E-1,1.9870643E-1,2.8302839E-2,5.642895E-1,1.9888457E0,1.4265142E-1,4.9152514E-1,2.8823733E-1,1.2128773E0,3.3856213E0,1.4969201E0,8.9635783E-1,-8.067107E-2,-8.8776164E-2,1.1688174E0,-1.8784189E-1,-9.114786E-2,-9.101983E-2,2.1671565E-1,-1.4887767E-1,4.3563208E-1,8.209656E-1,2.4778068E0,-5.4150057E-1,-3.4081838E-1,-1.2418979E-1,1.1501449E0,-2.7689132E-1,-2.2890215E-1,9.9855654E-2,-2.986858E-1,-3.1940955E-1,-2.68349E-1,-2.2691298E-2,1.1635368E-1,-2.3401761E-1,-3.311736E-1,-2.3464727E-1,-6.9638275E-2,-1.21819906E-1,-1.8214168E-1,-2.6560906E-2,-1.3030033E-1],"split_indices":[8,8,8,1,14,15,6,15,16,1,15,15,16,8,15,16,4,3,10,10,6,4,4,3,13,6,4,3,15,9,11,11,13,1,16,3,10,10,2,16,14,10,16,1,15,14,14,1,9,6,4,4,4,1,13,1,4,13,3,9,10,16,15,0,0,0,0,0,0,0,0,0,0,0,0,0,0,0,0,0,0,0,0,0,0,0,0,0,0,0,0,0,0,0,0,0,0,0,0,0,0,0,0,0,0,0,0,0,0,0,0,0,0,0,0,0,0,0,0,0,0,0,0,0,0,0,0],"split_type":[0,0,0,0,0,0,0,0,0,0,0,0,0,0,0,0,0,0,0,0,0,0,0,0,0,0,0,0,0,0,0,0,0,0,0,0,0,0,0,0,0,0,0,0,0,0,0,0,0,0,0,0,0,0,0,0,0,0,0,0,0,0,0,0,0,0,0,0,0,0,0,0,0,0,0,0,0,0,0,0,0,0,0,0,0,0,0,0,0,0,0,0,0,0,0,0,0,0,0,0,0,0,0,0,0,0,0,0,0,0,0,0,0,0,0,0,0,0,0,0,0,0,0,0,0,0,0],"sum_hessian":[1.8486E4,5.27E3,1.3216E4,1.735E3,3.535E3,2.879E3,1.0337E4,1.301E3,4.34E2,2.141E3,1.394E3,2.459E3,4.2E2,4.793E3,5.544E3,1.227E3,7.4E1,3.55E2,7.9E1,6.41E2,1.5E3,1.239E3,1.55E2,2.3E2,2.229E3,2.53E2,1.67E2,2.75E3,2.043E3,3.08E2,5.236E3,6.02E2,6.25E2,9E0,6.5E1,3.43E2,1.2E1,6.3E1,1.6E1,5.83E2,5.8E1,2.14E2,1.286E3,2.43E2,9.96E2,1.18E2,3.7E1,1.5E2,8E1,1.498E3,7.31E2,1.14E2,1.39E2,3.7E1,1.3E2,1.981E3,7.69E2,2.035E3,8E0,2.2E2,8.8E1,4.304E3,9.32E2,3.64E2,2.38E2,8.1E1,5.44E2,7E0,2E0,4E0,6.1E1,7.7E1,2.66E2,9E0,3E0,5.7E1,6E0,1.2E1,4E0,4.63E2,1.2E2,1.9E1,3.9E1,3.7E1,1.77E2,6.14E2,6.72E2,2E2,4.3E1,4.87E2,5.09E2,6.8E1,5E1,1E1,2.7E1,1E0,1.49E2,3.2E1,4.8E1,4.91E2,1.007E3,4.47E2,2.84E2,4.8E1,6.6E1,1.22E2,1.7E1,1.3E1,2.4E1,1.19E2,1.1E1,1.074E3,9.07E2,5E0,7.64E2,1.542E3,4.93E2,2E0,6E0,8.7E1,1.33E2,5.3E1,3.5E1,1.029E3,3.275E3,1.57E2,7.75E2],"tree_param":{"num_deleted":"0","num_feature":"17","num_nodes":"127","size_leaf_vector":"1"}},{"base_weights":[2.642069E-2,-2.3539197E0,8.6422825E0,4.3501053E0,-2.900439E0,2.332415E0,1.0128415E1,8.565036E0,-2.0845463E0,-3.472269E0,4.745869E-1,-1.5989496E0,1.1134786E1,1.5565028E1,6.7199883E0,3.0363684E0,1.6539642E1,2.6983747E0,-4.0344276E0,-2.921026E0,-5.0641522E0,1.7955518E0,-1.8542184E0,-3.2089937E0,6.9686537E0,2.5311527E1,8.1124325E0,7.045963E1,1.4612826E1,5.7996645E0,1.5677963E1,-2.9926662E0,6.1559587E0,7.5607224E0,2.7050623E1,2.657402E-1,1.940613E1,-7.038999E-1,-4.820762E0,-3.0093346E0,5.1018405E0,-5.2627177E0,-2.8938873E0,3.089851E0,-2.508499E0,-2.0659559E0,1.4702646E1,-3.1901243E-1,-6.7944527E0,-8.2470976E-2,4.2230167E1,1.1188772E1,5.174907E1,5.6988516E0,2.517231E1,3.0969719E1,1.0354412E2,7.9735565E0,1.4364597E1,2.1851402E1,5.3212976E0,6.147446E0,3.3600544E1,-3.2810563E-1,5.671016E-2,5.517413E-1,1.394742E-1,-1.3227049E-1,7.0269996E-1,1.6416737E0,-6.266025E-2,-1.2605317E-2,9.4961256E-1,1.713395E-1,1.5726875E0,-1.3447033E-1,1.8610811E-1,-2.5304815E-1,4.1820336E-2,-1.9029163E-1,-1.123923E-1,9.815853E-2,1.7088982E0,-3.555622E-1,-2.5465766E-1,-1.5889207E-1,3.6883911E-1,6.2442726E-1,9.0531774E-2,1.3745838E0,-1.6234536E-1,-2.1393247E-1,-3.708606E-2,8.526283E-2,8.057081E-1,1.1122533E-1,-2.404509E-1,1.1345904E-1,-4.0548703E-1,-2.0273851E-1,5.501247E-1,3.3889654E0,3.4991384E-1,9.688799E-1,1.2477101E-2,1.1049961E0,3.2882638E0,5.867642E-1,-5.7161428E-2,2.2264843E-1,1.7626835E0,-3.2731667E-1,2.0016994E0,8.448758E0,2.8942795E0,3.606701E-1,8.6470646E-1,-2.0586474E-2,1.6338342E0,8.7137955E-1,2.3704746E-1,4.2546222E-1,-3.1615946E-1,2.3841476E0,6.2681973E-1],"categories":[],"categories_nodes":[],"categories_segments":[],"categories_sizes":[],"default_left":[0,0,0,0,0,0,0,0,0,0,0,0,0,0,0,0,0,0,0,0,0,0,0,0,0,0,0,0,0,0,0,0,0,0,0,0,0,0,0,0,0,0,0,0,0,0,0,0,0,0,0,0,0,0,0,0,0,0,0,0,0,0,0,0,0,0,0,0,0,0,0,0,0,0,0,0,0,0,0,0,0,0,0,0,0,0,0,0,0,0,0,0,0,0,0,0,0,0,0,0,0,0,0,0,0,0,0,0,0,0,0,0,0,0,0,0,0,0,0,0,0,0,0,0,0],"id":9,"left_children":[1,3,5,7,9,11,13,15,17,19,21,23,25,27,29,31,33,35,37,39,41,43,45,47,49,51,53,55,57,59,61,63,65,67,69,71,73,75,77,79,81,83,85,87,89,91,93,95,97,99,101,103,105,107,109,111,113,-1,115,117,119,121,123,-1,-1,-1,-1,-1,-1,-1,-1,-1,-1,-1,-1,-1,-1,-1,-1,-1,-1,-1,-1,-1,-1,-1,-1,-1,-1,-1,-1,-1,-1,-1,-1,-1,-1,-1,-1,-1,-1,-1,-1,-1,-1,-1,-1,-1,-1,-1,-1,-1,-1,-1,-1,-1,-1,-1,-1,-1,-1,-1,-1,-1,-1],"loss_changes":[3.7906184E5,5.3072914E4,3.7494938E4,2.963465E4,2.5845477E4,2.6456273E4,5.98965E4,2.9048484E4,4.0491006E3,1.0033625E4,5.974369E3,7.3195044E3,9.906582E3,6.4152E4,1.6331602E4,7.3723975E3,2.5277336E4,5.115969E3,8.0323E2,6.0431797E3,1.2534609E3,6.909884E3,2.4948884E3,4.6192437E3,2.0888684E4,1.4729199E4,7.926924E3,2.4229852E4,4.182986E4,1.3766656E4,3.1393566E4,1.9813481E3,4.2067607E3,9.77905E3,2.033707E4,1.0812057E3,2.9724229E3,5.3728894E2,3.4258887E2,5.095953E3,8.420116E3,8.088281E2,7.49625E2,1.1435262E4,6.446995E3,2.0332639E3,1.376355E2,2.8429602E3,2.3907383E3,3.170941E3,1.2127682E4,2.5033892E3,4.364551E3,7.15862E3,4.856115E3,4.0026875E3,2.3081102E4,0E0,2.5559531E4,1.2545699E4,1.2261824E4,3.6470864E3,1.8386797E4,0E0,0E0,0E0,0E0,0E0,0E0,0E0,0E0,0E0,0E0,0E0,0E0,0E0,0E0,0E0,0E0,0E0,0E0,0E0,0E0,0E0,0E0,0E0,0E0,0E0,0E0,0E0,0E0,0E0,0E0,0E0,0E0,0E0,0E0,0E0,0E0,0E0,0E0,0E0,0E0,0E0,0E0,0E0,0E0,0E0,0E0,0E0,0E0,0E0,0E0,0E0,0E0,0E0,0E0,0E0,0E0,0E0,0E0,0E0,0E0,0E0,0E0],"parents":[2147483647,0,0,1,1,2,2,3,3,4,4,5,5,6,6,7,7,8,8,9,9,10,10,11,11,12,12,13,13,14,14,15,15,16,16,17,17,18,18,19,19,20,20,21,21,22,22,23,23,24,24,25,25,26,26,27,27,28,28,29,29,30,30,31,31,32,32,33,33,34,34,35,35,36,36,37,37,38,38,39,39,40,40,41,41,42,42,43,43,44,44,45,45,46,46,47,47,48,48,49,49,50,50,51,51,52,52,53,53,54,54,55,55,56,56,58,58,59,59,60,60,61,61,62,62],"right_children":[2,4,6,8,10,12,14,16,18,20,22,24,26,28,30,32,34,36,38,40,42,44,46,48,50,52,54,56,58,60,62,64,66,68,70,72,74,76,78,80,82,84,86,88,90,92,94,96,98,100,102,104,106,108,110,112,114,-1,116,118,120,122,124,-1,-1,-1,-1,-1,-1,-1,-1,-1,-1,-1,-1,-1,-1,-1,-1,-1,-1,-1,-1,-1,-1,-1,-1,-1,-1,-1,-1,-1,-1,-1,-1,-1,-1,-1,-1,-1,-1,-1,-1,-1,-1,-1,-1,-1,-1,-1,-1,-1,-1,-1,-1,-1,-1,-1,-1,-1,-1,-1,-1,-1,-1],"split_conditions":[2.5241667E1,4.5E1,-1.8369701E-16,2.67E1,1.68E1,3.7066666E1,6.123234E-17,-1.8369701E-16,6.123234E-17,2.68E1,7.2167077E0,1.3475694E1,5.7981944E0,3.2608986E0,9.054583E1,-5E-1,6.942151E0,2.9E0,3.02E1,2.97E1,9.659258E-1,9.686E2,5.04E1,2.92E1,6.6E1,5E-1,2.3344881E1,2.9E0,5.2E0,-1.7580317E1,1.2981133E1,1.5E1,1.1045834E1,8.660254E-1,6.123234E-17,1.1182699E1,2.86E1,9.353074E0,1.8E1,6.123234E-17,1.0032455E1,4.9708333E0,1.53E1,-8.308866E0,8.6E0,1.38E1,1.7004168E1,-1.6405262E-1,-5E-1,9.659258E-1,3.2279167E1,9.647E2,9.607E2,4.78375E1,-2.5881904E-1,4.8E1,-5E-1,7.9735565E0,9.798222E0,2.14E1,2.05E1,8.660254E-1,6.446529E1,-3.2810563E-1,5.671016E-2,5.517413E-1,1.394742E-1,-1.3227049E-1,7.0269996E-1,1.6416737E0,-6.266025E-2,-1.2605317E-2,9.4961256E-1,1.713395E-1,1.5726875E0,-1.3447033E-1,1.8610811E-1,-2.5304815E-1,4.1820336E-2,-1.9029163E-1,-1.123923E-1,9.815853E-2,1.7088982E0,-3.555622E-1,-2.5465766E-1,-1.5889207E-1,3.6883911E-1,6.2442726E-1,9.0531774E-2,1.3745838E0,-1.6234536E-1,-2.1393247E-1,-3.708606E-2,8.526283E-2,8.057081E-1,1.1122533E-1,-2.404509E-1,1.1345904E-1,-4.0548703E-1,-2.0273851E-1,5.501247E-1,3.3889654E0,3.4991384E-1,9.688799E-1,1.2477101E-2,1.1049961E0,3.2882638E0,5.867642E-1,-5.7161428E-2,2.2264843E-1,1.7626835E0,-3.2731667E-1,2.0016994E0,8.448758E0,2.8942795E0,3.606701E-1,8.6470646E-1,-2.0586474E-2,1.6338342E0,8.7137955E-1,2.3704746E-1,4.2546222E-1,-3.1615946E-1,2.3841476E0,6.2681973E-1],"split_indices":[15,1,9,0,15,15,9,9,9,0,16,16,16,16,15,9,16,11,0,13,7,3,13,15,12,7,16,11,13,4,4,0,15,9,9,16,0,5,13,7,4,15,15,4,13,13,15,5,9,7,15,3,3,15,7,12,7,0,16,0,0,9,16,0,0,0,0,0,0,0,0,0,0,0,0,0,0,0,0,0,0,0,0,0,0,0,0,0,0,0,0,0,0,0,0,0,0,0,0,0,0,0,0,0,0,0,0,0,0,0,0,0,0,0,0,0,0,0,0,0,0,0,0,0,0],"split_type":[0,0,0,0,0,0,0,0,0,0,0,0,0,0,0,0,0,0,0,0,0,0,0,0,0,0,0,0,0,0,0,0,0,0,0,0,0,0,0,0,0,0,0,0,0,0,0,0,0,0,0,0,0,0,0,0,0,0,0,0,0,0,0,0,0,0,0,0,0,0,0,0,0,0,0,0,0,0,0,0,0,0,0,0,0,0,0,0,0,0,0,0,0,0,0,0,0,0,0,0,0,0,0,0,0,0,0,0,0,0,0,0,0,0,0,0,0,0,0,0,0,0,0,0,0],"sum_hessian":[1.8481E4,1.4481E4,4E3,1.091E3,1.339E4,7.63E2,3.237E3,6.59E2,4.32E2,1.145E4,1.94E3,5.28E2,2.35E2,1.246E3,1.991E3,3.9E2,2.69E2,1.25E2,3.07E2,8.507E3,2.943E3,1.238E3,7.02E2,4.45E2,8.3E1,4E1,1.95E2,2E1,1.226E3,1.807E3,1.84E2,1.33E2,2.57E2,1.46E2,1.23E2,1.1E2,1.5E1,5.9E1,2.48E2,8.415E3,9.2E1,2.695E3,2.48E2,9.52E2,2.86E2,6.94E2,8E0,2.47E2,1.98E2,7E1,1.3E1,2.7E1,1.3E1,1.72E2,2.3E1,1E1,1E1,1E0,1.225E3,5.1E1,1.756E3,1.21E2,6.3E1,7.1E1,6.2E1,1.04E2,1.53E2,5.7E1,8.9E1,1.02E2,2.1E1,1.08E2,2E0,7E0,8E0,4.1E1,1.8E1,2.38E2,1E1,4.111E3,4.304E3,8.4E1,8E0,2.23E2,2.472E3,2.42E2,6E0,1.13E2,8.39E2,6E0,2.8E2,2.59E2,4.35E2,1E0,7E0,1.58E2,8.9E1,2.5E1,1.73E2,5.2E1,1.8E1,7E0,6E0,1.5E1,1.2E1,5E0,8E0,9.1E1,8.1E1,8E0,1.5E1,2E0,8E0,3E0,7E0,3.57E2,8.68E2,1.7E1,3.4E1,7.9E1,1.677E3,1.02E2,1.9E1,3.7E1,2.6E1],"tree_param":{"num_deleted":"0","num_feature":"17","num_nodes":"125","size_leaf_vector":"1"}},{"base_weights":[-3.1923145E-2,7.7688327E0,-3.1077926E0,1.412053E1,4.6471457E0,7.106847E-2,-4.013659E0,1.3180806E1,3.0941319E1,2.8162847E0,9.149834E0,-9.07138E-1,6.1003776E0,-5.2255526E0,-2.9870198E0,3.8483486E0,1.4731224E1,4.9447055E0,2.7461405E1,6.310558E0,1.7098771E0,7.141534E0,1.7496574E1,3.616698E0,-1.393494E0,1.1399633E1,-2.5670037E0,-4.928982E0,-5.6289396E0,-3.973373E0,-2.3798053E0,9.906987E0,-5.4573137E-1,1.7614784E1,7.3937783E0,3.370085E1,1.6712513E0,9.631157E-1,8.008281E0,1.5116615E0,2.1128473E1,-1.7317482E0,8.513941E0,3.2156578E1,1.0900274E1,-1.4062423E0,1.2282943E1,-2.2727888E0,-1.1051595E-1,3.7172327E0,1.7933384E1,-6.0840497E0,1.4124801E0,-4.6603417E0,-5.6205087E0,-5.659667E0,1.7599646E0,-5.557914E0,-3.5631332E0,-5.2930098E0,-2.2767656E0,1.9345789E0,4.29536E-1,9.1234505E-1,-7.767222E-2,5.975114E-1,1.0986289E0,2.6352593E-1,8.6745137E-1,2.1543815E0,1.1247315E0,1.171728E0,-2.121857E-1,1.6447744E-1,-1.8309638E-1,1.0981754E-1,5.467956E-1,-2.2596834E-2,1.412025E-1,9.692313E-2,1.6080554E0,-1.10346735E-1,7.9761076E-1,9.1571397E-1,3.5534617E-1,8.7835425E-1,1.9506075E0,2.8179932E-1,1.241674E0,-2.0833981E-1,4.1552838E-2,8.2445383E-1,9.289618E-2,-1.3555746E-1,7.101752E-2,-8.9916505E-2,1.2465911E-1,-1.7109664E-1,3.4466156E-1,6.9695616E-1,2.3634393E0,3.1619617E-1,-3.480254E-1,-4.5414615E-1,2.7339345E-1,-2.2254944E-1,-2.719847E-1,1.5102117E-1,-2.8409892E-1,-3.4526202E-1,-2.7687106E-1,-1.4803839E-2,1.1948508E-1,-2.811586E-1,1.4315633E-1,-1.5882875E-1,-2.2541606E-1,-2.1550463E-1,-3.3582118E-1,-1.1915996E-1,2.711593E-2],"categories":[],"categories_nodes":[],"categories_segments":[],"categories_sizes":[],"default_left":[0,0,0,0,0,0,0,0,0,0,0,0,0,0,0,0,0,0,0,0,0,0,0,0,0,0,0,0,0,0,0,0,0,0,0,0,0,0,0,0,0,0,0,0,0,0,0,0,0,0,0,0,0,0,0,0,0,0,0,0,0,0,0,0,0,0,0,0,0,0,0,0,0,0,0,0,0,0,0,0,0,0,0,0,0,0,0,0,0,0,0,0,0,0,0,0,0,0,0,0,0,0,0,0,0,0,0,0,0,0,0,0,0,0,0,0,0,0,0,0,0],"id":10,"left_children":[1,3,5,7,9,11,13,15,17,19,21,23,25,27,29,31,33,-1,35,37,39,41,43,45,47,49,51,53,55,57,59,61,63,65,67,69,71,73,75,77,79,81,83,85,87,89,91,93,95,97,99,101,103,105,107,109,111,113,115,117,119,-1,-1,-1,-1,-1,-1,-1,-1,-1,-1,-1,-1,-1,-1,-1,-1,-1,-1,-1,-1,-1,-1,-1,-1,-1,-1,-1,-1,-1,-1,-1,-1,-1,-1,-1,-1,-1,-1,-1,-1,-1,-1,-1,-1,-1,-1,-1,-1,-1,-1,-1,-1,-1,-1,-1,-1,-1,-1,-1,-1],"loss_changes":[4.4170762E5,1.03159E5,3.8019953E4,2.6701031E4,2.8761578E4,1.728051E4,1.27683125E4,2.347025E4,1.8566516E4,9.592576E3,1.6788664E4,5.5517314E3,1.881491E4,5.3585156E2,3.3235781E3,6.208365E3,2.9363938E4,0E0,1.3943391E4,5.4121367E3,7.235103E3,9.939617E3,1.8506336E4,1.0682131E4,2.5684688E3,1.268284E4,2.1919739E3,4.7965625E2,4.6155078E2,1.3576328E3,1.02265234E3,3.3806553E3,2.6038564E3,2.4422375E4,8.257904E3,6.394086E3,2.4165754E3,1.5722247E3,7.6838633E3,4.8202715E3,3.9602686E3,9.5955536E2,9.605043E3,5.315824E3,9.835422E3,9.6694775E2,3.9157754E3,2.191019E3,4.0782393E3,2.6991174E3,1.5393848E4,9.466492E2,3.1993215E3,2.9672266E2,4.1924805E2,2.6340625E2,1.2360426E1,2.5460059E2,6.016953E2,1.347461E2,1.0007422E3,0E0,0E0,0E0,0E0,0E0,0E0,0E0,0E0,0E0,0E0,0E0,0E0,0E0,0E0,0E0,0E0,0E0,0E0,0E0,0E0,0E0,0E0,0E0,0E0,0E0,0E0,0E0,0E0,0E0,0E0,0E0,0E0,0E0,0E0,0E0,0E0,0E0,0E0,0E0,0E0,0E0,0E0,0E0,0E0,0E0,0E0,0E0,0E0,0E0,0E0,0E0,0E0,0E0,0E0,0E0,0E0,0E0,0E0,0E0,0E0],"parents":[2147483647,0,0,1,1,2,2,3,3,4,4,5,5,6,6,7,7,8,8,9,9,10,10,11,11,12,12,13,13,14,14,15,15,16,16,18,18,19,19,20,20,21,21,22,22,23,23,24,24,25,25,26,26,27,27,28,28,29,29,30,30,31,31,32,32,33,33,34,34,35,35,36,36,37,37,38,38,39,39,40,40,41,41,42,42,43,43,44,44,45,45,46,46,47,47,48,48,49,49,50,50,51,51,52,52,53,53,54,54,55,55,56,56,57,57,58,58,59,59,60,60],"right_children":[2,4,6,8,10,12,14,16,18,20,22,24,26,28,30,32,34,-1,36,38,40,42,44,46,48,50,52,54,56,58,60,62,64,66,68,70,72,74,76,78,80,82,84,86,88,90,92,94,96,98,100,102,104,106,108,110,112,114,116,118,120,-1,-1,-1,-1,-1,-1,-1,-1,-1,-1,-1,-1,-1,-1,-1,-1,-1,-1,-1,-1,-1,-1,-1,-1,-1,-1,-1,-1,-1,-1,-1,-1,-1,-1,-1,-1,-1,-1,-1,-1,-1,-1,-1,-1,-1,-1,-1,-1,-1,-1,-1,-1,-1,-1,-1,-1,-1,-1,-1,-1],"split_conditions":[-5E-1,-8.660254E-1,-2.4492937E-16,1.33E2,3.73E1,3.2683334E1,0E0,9.594E2,7.9520435E0,2.05E1,2.3344881E1,7.0666666E0,1.6043243E1,8.660254E-1,-2.5881904E-1,7.4E1,6.9E1,4.9447055E0,1.1617083E2,-1.6494802E1,1.34E2,9.587E2,3.0045292E1,9.676E2,1.63E1,0E0,9.6E1,4.757418E0,2.1291666E1,2.5881904E-1,1.48E1,2.21E1,3.4E1,-2.5881904E-1,2.505422E1,2.505422E1,6.71E1,1E-1,3.7E1,1.68E1,3.5E1,2.2138271E1,6.2520256E0,7.8E1,1.731478E1,0E0,4.6E1,7.2167077E0,6.139453E0,1.2600359E1,2.99E1,1.672376E1,1.3703182E1,3E1,-2.6949331E1,4.7916665E0,9.627E2,2.24E1,4.757418E0,1.22875E1,9.69E2,1.9345789E0,4.29536E-1,9.1234505E-1,-7.767222E-2,5.975114E-1,1.0986289E0,2.6352593E-1,8.6745137E-1,2.1543815E0,1.1247315E0,1.171728E0,-2.121857E-1,1.6447744E-1,-1.8309638E-1,1.0981754E-1,5.467956E-1,-2.2596834E-2,1.412025E-1,9.692313E-2,1.6080554E0,-1.10346735E-1,7.9761076E-1,9.1571397E-1,3.5534617E-1,8.7835425E-1,1.9506075E0,2.8179932E-1,1.241674E0,-2.0833981E-1,4.1552838E-2,8.2445383E-1,9.289618E-2,-1.3555746E-1,7.101752E-2,-8.9916505E-2,1.2465911E-1,-1.7109664E-1,3.4466156E-1,6.9695616E-1,2.3634393E0,3.1619617E-1,-3.480254E-1,-4.5414615E-1,2.7339345E-1,-2.2254944E-1,-2.719847E-1,1.5102117E-1,-2.8409892E-1,-3.4526202E-1,-2.7687106E-1,-1.4803839E-2,1.1948508E-1,-2.811586E-1,1.4315633E-1,-1.5882875E-1,-2.2541606E-1,-2.1550463E-1,-3.3582118E-1,-1.1915996E-1,2.711593E-2],"split_indices":[8,8,8,12,14,15,6,3,16,0,16,15,16,8,7,12,1,0,15,4,12,3,16,3,15,6,12,16,15,6,0,0,1,6,16,16,14,2,12,14,1,16,16,12,4,6,1,16,4,4,0,16,4,0,4,15,3,11,16,15,3,0,0,0,0,0,0,0,0,0,0,0,0,0,0,0,0,0,0,0,0,0,0,0,0,0,0,0,0,0,0,0,0,0,0,0,0,0,0,0,0,0,0,0,0,0,0,0,0,0,0,0,0,0,0,0,0,0,0,0,0],"split_type":[0,0,0,0,0,0,0,0,0,0,0,0,0,0,0,0,0,0,0,0,0,0,0,0,0,0,0,0,0,0,0,0,0,0,0,0,0,0,0,0,0,0,0,0,0,0,0,0,0,0,0,0,0,0,0,0,0,0,0,0,0,0,0,0,0,0,0,0,0,0,0,0,0,0,0,0,0,0,0,0,0,0,0,0,0,0,0,0,0,0,0,0,0,0,0,0,0,0,0,0,0,0,0,0,0,0,0,0,0,0,0,0,0,0,0,0,0,0,0,0,0],"sum_hessian":[1.8407E4,5.205E3,1.3202E4,1.714E3,3.491E3,2.928E3,1.0274E4,1.625E3,8.9E1,2.483E3,1.008E3,2.52E3,4.08E2,4.71E3,5.564E3,2.32E2,1.393E3,3E0,8.6E1,5.96E2,1.887E3,8.14E2,1.94E2,2.44E2,2.276E3,2.53E2,1.55E2,2.722E3,1.988E3,2.118E3,3.446E3,9.7E1,1.35E2,9.99E2,3.94E2,6.9E1,1.7E1,1.44E2,4.52E2,1.869E3,1.8E1,1.09E2,7.05E2,5.9E1,1.35E2,1.55E2,8.9E1,1.35E3,9.26E2,1.17E2,1.36E2,8.2E1,7.3E1,1.966E3,7.56E2,1.98E3,8E0,4.33E2,1.685E3,1.16E2,3.33E3,3E0,9.4E1,6E0,1.29E2,4.36E2,5.63E2,3.26E2,6.8E1,3.6E1,3.3E1,3E0,1.4E1,9.6E1,4.8E1,1.52E2,3E2,7.49E2,1.12E3,7E0,1.1E1,1.07E2,2E0,8.7E1,6.18E2,2E1,3.9E1,9.9E1,3.6E1,6.9E1,8.6E1,6.3E1,2.6E1,1.207E3,1.43E2,5.62E2,3.64E2,3.6E1,8.1E1,1.21E2,1.5E1,5E0,7.7E1,2E1,5.3E1,1.555E3,4.11E2,5E0,7.51E2,1.72E2,1.808E3,2E0,6E0,4.3E2,3E0,1.199E3,4.86E2,7.1E1,4.5E1,3.209E3,1.21E2],"tree_param":{"num_deleted":"0","num_feature":"17","num_nodes":"121","size_leaf_vector":"1"}},{"base_weights":[-9.671879E-2,7.2024655E0,-2.9653335E0,1.307422E1,4.327669E0,-3.270359E0,5.5160527E0,1.5214102E1,6.7283306E0,2.8345213E0,8.971045E0,-4.4988456E0,-2.2233427E0,9.388166E0,-1.6407746E0,1.6269083E1,-2.905136E0,4.43618E0,1.675834E1,5.6076517E0,1.0738201E0,2.2535059E1,8.020173E0,-2.296327E0,-5.0254946E0,-2.5710532E-2,-2.7566862E0,3.1977742E0,1.7255325E1,-4.447575E0,5.755742E0,1.29585705E1,2.2586195E1,1.1884071E1,-4.205592E0,3.9900227E0,3.4690727E1,1.4474326E1,4.2515465E1,5.1522226E0,4.0664738E1,-5.505791E-1,3.0859578E0,3.1206517E0,3.269487E1,6.0748277E0,1.633169E1,4.7921148E-1,-3.1102297E0,-6.300391E0,-4.9275985E0,1.675971E0,-1.7656796E0,-5.1564713E0,-2.6597993E0,-5.6027193E0,8.398088E0,5.1119294E0,2.7764399E1,-3.2362795E0,-7.116741E0,-4.5755496E0,1.6764616E1,4.5758602E-1,9.83754E-1,3.1882614E-1,1.3704327E0,6.478097E-1,1.6308646E-1,2.5940493E-1,-2.7953622E-1,2.5094286E-1,-2.281125E-1,3.57787E-1,2.533107E0,5.062889E-1,1.0329813E0,4.9017486E-1,2.3548582E0,1.6669373E-1,5.578964E-1,4.0710597E0,2.5071514E-1,-9.610566E-2,1.05442725E-1,3.139841E-1,4.873347E-3,4.698906E-1,-2.0481451E-1,1.6911043E0,-1.689428E-1,-7.909914E-2,3.8872516E-1,5.3280896E-1,1.769089E0,1.1979346E0,-1.3552385E-2,-1.9568928E-1,-7.5173594E-2,-3.649128E-1,-2.8643698E-1,-2.336673E-1,-2.6391408E-1,-1.7302985E-1,1.429867E-1,4.1356117E-2,-1.4602277E-1,-1.9627285E-1,-3.0717522E-1,-2.3304377E-1,-1.27604E-1,4.7600976E-1,-3.2587677E-1,-2.52749E-2,9.1901076E-1,9.8443216E-1,1.293906E-1,1.957366E0,6.907725E-1,3.4311667E-1,-1.9858025E-1,-2.6773652E-1,-3.997312E-1,-4.9144092E-1,3.1279366E-2,3.535509E-1,1.2907698E0],"categories":[],"categories_nodes":[],"categories_segments":[],"categories_sizes":[],"default_left":[0,0,0,0,0,0,0,0,0,0,0,0,0,0,0,0,0,0,0,0,0,0,0,0,0,0,0,0,0,0,0,0,0,0,0,0,0,0,0,0,0,0,0,0,0,0,0,0,0,0,0,0,0,0,0,0,0,0,0,0,0,0,0,0,0,0,0,0,0,0,0,0,0,0,0,0,0,0,0,0,0,0,0,0,0,0,0,0,0,0,0,0,0,0,0,0,0,0,0,0,0,0,0,0,0,0,0,0,0,0,0,0,0,0,0,0,0,0,0,0,0,0,0,0,0,0,0],"id":11,"left_children":[1,3,5,7,9,11,13,15,17,19,21,23,25,27,29,31,33,35,37,39,41,43,45,47,49,51,53,55,57,59,61,63,65,67,69,71,73,75,77,79,81,83,85,87,89,91,93,95,97,99,101,103,105,107,109,111,113,115,117,119,121,123,125,-1,-1,-1,-1,-1,-1,-1,-1,-1,-1,-1,-1,-1,-1,-1,-1,-1,-1,-1,-1,-1,-1,-1,-1,-1,-1,-1,-1,-1,-1,-1,-1,-1,-1,-1,-1,-1,-1,-1,-1,-1,-1,-1,-1,-1,-1,-1,-1,-1,-1,-1,-1,-1,-1,-1,-1,-1,-1,-1,-1,-1,-1,-1,-1],"loss_changes":[3.8533247E5,8.758491E4,3.419542E4,2.3064156E4,2.41508E4,1.6393484E4,1.2735236E4,2.4419469E4,9.857465E3,1.28841875E4,1.0756453E4,6.793922E3,8.072133E3,1.4457656E4,3.3888076E3,2.4907312E4,1.4155023E3,4.62648E3,4.0909902E3,1.615566E4,5.283619E3,1.0746537E4,1.2738789E4,2.5632168E3,5.597969E2,3.988295E3,1.2748398E3,7.735628E3,1.6575746E4,3.5847974E2,5.1948223E3,2.0095953E4,3.2109656E4,1.3205688E1,8.8776404E2,3.0937036E3,1.8363374E3,1.8080869E3,4.3754004E2,1.102523E4,1.848054E4,3.2685696E3,6.890455E3,9.4453424E2,1.5781445E3,8.406389E3,1.5840816E4,4.5513433E3,1.1264268E3,1.4871387E2,3.6773438E2,4.1507026E3,1.996489E3,2.3590479E2,1.1367969E3,9.336328E2,9.430225E3,2.2302368E3,1.0573738E4,6.435933E2,1.2877075E1,6.619E2,1.7476211E3,0E0,0E0,0E0,0E0,0E0,0E0,0E0,0E0,0E0,0E0,0E0,0E0,0E0,0E0,0E0,0E0,0E0,0E0,0E0,0E0,0E0,0E0,0E0,0E0,0E0,0E0,0E0,0E0,0E0,0E0,0E0,0E0,0E0,0E0,0E0,0E0,0E0,0E0,0E0,0E0,0E0,0E0,0E0,0E0,0E0,0E0,0E0,0E0,0E0,0E0,0E0,0E0,0E0,0E0,0E0,0E0,0E0,0E0,0E0,0E0,0E0,0E0,0E0,0E0],"parents":[2147483647,0,0,1,1,2,2,3,3,4,4,5,5,6,6,7,7,8,8,9,9,10,10,11,11,12,12,13,13,14,14,15,15,16,16,17,17,18,18,19,19,20,20,21,21,22,22,23,23,24,24,25,25,26,26,27,27,28,28,29,29,30,30,31,31,32,32,33,33,34,34,35,35,36,36,37,37,38,38,39,39,40,40,41,41,42,42,43,43,44,44,45,45,46,46,47,47,48,48,49,49,50,50,51,51,52,52,53,53,54,54,55,55,56,56,57,57,58,58,59,59,60,60,61,61,62,62],"right_children":[2,4,6,8,10,12,14,16,18,20,22,24,26,28,30,32,34,36,38,40,42,44,46,48,50,52,54,56,58,60,62,64,66,68,70,72,74,76,78,80,82,84,86,88,90,92,94,96,98,100,102,104,106,108,110,112,114,116,118,120,122,124,126,-1,-1,-1,-1,-1,-1,-1,-1,-1,-1,-1,-1,-1,-1,-1,-1,-1,-1,-1,-1,-1,-1,-1,-1,-1,-1,-1,-1,-1,-1,-1,-1,-1,-1,-1,-1,-1,-1,-1,-1,-1,-1,-1,-1,-1,-1,-1,-1,-1,-1,-1,-1,-1,-1,-1,-1,-1,-1,-1,-1,-1,-1,-1,-1],"split_conditions":[-5E-1,-8.660254E-1,3.2279167E1,7E1,3.7958332E1,0E0,1.6043243E1,1.36325E2,2.2138271E1,-1.4333142E0,5.845584E0,-2.4492937E-16,-2.4492937E-16,1.5047716E1,1.23E2,1.3779283E1,1.4935979E1,9.717E2,1.16E2,1E2,5.2E1,1.0086537E1,9.054583E1,4.6E1,4.8958335E0,8E1,1.48E1,5.6E1,-2.5881904E-1,7.7E1,6.2E1,3.6E0,2.2E1,2.77E1,-1.2192568E1,9.4E0,8E1,9.643E2,2.64E1,2.8033333E1,-1.1226683E1,-1.8369701E-16,2.77E1,4.5931897E0,7.7E0,9.591E2,1.8018103E1,1.5868801E0,1.64375E1,1.0086537E1,8.660254E-1,1.53E1,9.62E2,1.0429167E1,4.679167E0,4.4748573E0,2.56E1,6.7E1,6.2E1,2.65E1,1E-1,1.8806784E1,9.575E2,4.5758602E-1,9.83754E-1,3.1882614E-1,1.3704327E0,6.478097E-1,1.6308646E-1,2.5940493E-1,-2.7953622E-1,2.5094286E-1,-2.281125E-1,3.57787E-1,2.533107E0,5.062889E-1,1.0329813E0,4.9017486E-1,2.3548582E0,1.6669373E-1,5.578964E-1,4.0710597E0,2.5071514E-1,-9.610566E-2,1.05442725E-1,3.139841E-1,4.873347E-3,4.698906E-1,-2.0481451E-1,1.6911043E0,-1.689428E-1,-7.909914E-2,3.8872516E-1,5.3280896E-1,1.769089E0,1.1979346E0,-1.3552385E-2,-1.9568928E-1,-7.5173594E-2,-3.649128E-1,-2.8643698E-1,-2.336673E-1,-2.6391408E-1,-1.7302985E-1,1.429867E-1,4.1356117E-2,-1.4602277E-1,-1.9627285E-1,-3.0717522E-1,-2.3304377E-1,-1.27604E-1,4.7600976E-1,-3.2587677E-1,-2.52749E-2,9.1901076E-1,9.8443216E-1,1.293906E-1,1.957366E0,6.907725E-1,3.4311667E-1,-1.9858025E-1,-2.6773652E-1,-3.997312E-1,-4.9144092E-1,3.1279366E-2,3.535509E-1,1.2907698E0],"split_indices":[8,8,15,1,15,6,16,15,16,4,16,8,8,4,12,16,16,3,12,1,12,4,15,1,15,1,0,1,6,1,1,11,0,0,4,11,1,3,0,15,4,9,0,16,11,3,4,16,15,4,8,0,3,15,15,16,0,12,1,0,2,4,3,0,0,0,0,0,0,0,0,0,0,0,0,0,0,0,0,0,0,0,0,0,0,0,0,0,0,0,0,0,0,0,0,0,0,0,0,0,0,0,0,0,0,0,0,0,0,0,0,0,0,0,0,0,0,0,0,0,0,0,0,0,0,0,0],"split_type":[0,0,0,0,0,0,0,0,0,0,0,0,0,0,0,0,0,0,0,0,0,0,0,0,0,0,0,0,0,0,0,0,0,0,0,0,0,0,0,0,0,0,0,0,0,0,0,0,0,0,0,0,0,0,0,0,0,0,0,0,0,0,0,0,0,0,0,0,0,0,0,0,0,0,0,0,0,0,0,0,0,0,0,0,0,0,0,0,0,0,0,0,0,0,0,0,0,0,0,0,0,0,0,0,0,0,0,0,0,0,0,0,0,0,0,0,0,0,0,0,0,0,0,0,0,0,0],"sum_hessian":[1.8401E4,5.191E3,1.321E4,1.705E3,3.486E3,1.2752E4,4.58E2,1.274E3,4.31E2,2.639E3,8.47E2,5.866E3,6.886E3,2.97E2,1.61E2,1.204E3,7E1,3.52E2,7.9E1,1.024E3,1.615E3,5.4E1,7.93E2,1.133E3,4.733E3,1.345E3,5.541E3,1.67E2,1.3E2,1.17E2,4.4E1,7.92E2,4.12E2,5E0,6.5E1,3.48E2,4E0,7.4E1,5E0,1.012E3,1.2E1,8.94E2,7.21E2,1.9E1,3.5E1,6.44E2,1.49E2,2.57E2,8.76E2,3.33E2,4.4E3,6.8E2,6.65E2,2.13E2,5.328E3,6.2E1,1.05E2,6.1E1,6.9E1,8.2E1,3.5E1,2.3E1,2.1E1,5.07E2,2.85E2,9.5E1,3.17E2,4E0,1E0,8E0,5.7E1,3.11E2,3.7E1,2E0,2E0,4.5E1,2.9E1,1E0,4E0,7.78E2,2.34E2,5E0,7E0,5.9E2,3.04E2,3.48E2,3.73E2,1E1,9E0,3.4E1,1E0,1.17E2,5.27E2,1.16E2,3.3E1,7E0,2.5E2,5.83E2,2.93E2,1.17E2,2.16E2,2.559E3,1.841E3,1.27E2,5.53E2,2.05E2,4.6E2,9.7E1,1.16E2,2.7E2,5.058E3,3E0,5.9E1,5.6E1,4.9E1,8E0,5.3E1,3.7E1,3.2E1,5E0,7.7E1,1.4E1,2.1E1,1.1E1,1.2E1,1.1E1,1E1],"tree_param":{"num_deleted":"0","num_feature":"17","num_nodes":"127","size_leaf_vector":"1"}},{"base_weights":[4.0320493E-2,-1.9390005E0,7.7393556E0,4.107989E0,-2.4434044E0,1.0047106E1,3.521371E0,2.7741606E0,2.5629519E1,-2.939055E0,2.1813848E0,5.5039783E0,1.4713854E1,9.220651E-1,5.9070916E0,5.435765E0,-3.7514257E0,3.72103E1,7.7657866E-1,-4.1499767E0,-1.8860168E0,4.62791E0,4.4967312E-2,-1.927274E0,8.079979E0,1.4931473E2,1.425369E1,6.8186894E-3,6.9195404E0,4.9766173E0,1.6911695E1,2.0216274E0,1.0088009E1,2.46943E0,-4.451483E0,1.4251745E1,5.670521E1,-2.6092675E0,8.404716E0,-4.3142223E0,-1.6480085E0,-2.6203227E0,-9.4282275E-1,6.7161365E0,-7.220065E-1,1.5270695E1,-1.1694235E0,-5.9436574E0,7.4642736E-1,1.517642E1,4.827291E0,-1.8058152E-1,1.0074703E1,3.1262474E0,1.6121447E1,-2.8696942E0,1.2745427E0,1.9291105E1,-1.7933328E-1,7.36434E0,1.1745588E0,3.7831962E0,1.1972076E1,-1.0024156E-1,2.238647E-1,2.9169983E-1,9.39178E-1,-7.960401E-2,1.0167327E0,-2.3064625E-1,2.6590678E-1,9.3299526E-1,1.0699948E-1,2.9908903E0,7.488884E-1,7.28265E-2,-2.0429555E-1,9.7527884E-2,4.577658E-1,-2.2844641E-1,-1.8294562E-1,-2.4968453E-3,-2.2457139E-1,-1.481503E-1,-1.335022E-2,5.17811E-2,-6.9015115E-2,1.804728E-1,7.2270954E-1,-6.088453E-2,8.088259E-1,2.4819396E0,-6.914346E-2,-1.1771049E-1,1.4064162E-2,-3.4875286E-1,3.7342172E-2,1.2178542E-2,1.6256409E0,1.0012001E0,5.3883363E-2,1.80031E-1,9.377586E-1,-7.361463E-2,3.924425E-1,3.848692E0,7.844649E-1,1.6428077E-1,-1.7413063E-1,-7.071283E-2,1.7920783E-1,2.4667099E0,7.155134E-1,-1.1284181E-1,1.3436519E0,9.752802E-1,3.15793E-1,-4.242075E-2,5.753742E-1,1.3658096E-1,1.2014258E0],"categories":[],"categories_nodes":[],"categories_segments":[],"categories_sizes":[],"default_left":[0,0,0,0,0,0,0,0,0,0,0,0,0,0,0,0,0,0,0,0,0,0,0,0,0,0,0,0,0,0,0,0,0,0,0,0,0,0,0,0,0,0,0,0,0,0,0,0,0,0,0,0,0,0,0,0,0,0,0,0,0,0,0,0,0,0,0,0,0,0,0,0,0,0,0,0,0,0,0,0,0,0,0,0,0,0,0,0,0,0,0,0,0,0,0,0,0,0,0,0,0,0,0,0,0,0,0,0,0,0,0,0,0,0,0,0,0,0,0,0,0],"id":12,"left_children":[1,3,5,7,9,11,13,15,17,19,21,23,25,27,29,31,33,35,37,39,41,43,45,47,49,51,53,55,57,59,61,63,65,67,69,71,73,75,77,79,81,83,85,87,89,91,93,95,97,99,101,-1,-1,103,105,107,109,111,113,115,117,-1,119,-1,-1,-1,-1,-1,-1,-1,-1,-1,-1,-1,-1,-1,-1,-1,-1,-1,-1,-1,-1,-1,-1,-1,-1,-1,-1,-1,-1,-1,-1,-1,-1,-1,-1,-1,-1,-1,-1,-1,-1,-1,-1,-1,-1,-1,-1,-1,-1,-1,-1,-1,-1,-1,-1,-1,-1,-1,-1],"loss_changes":[2.8181206E5,4.488042E4,3.677883E4,3.245283E4,3.1133273E4,5.1735797E4,8.297982E3,1.8569977E4,1.8966992E4,1.5631852E4,6.8730337E3,2.3752781E4,7.250761E4,3.523998E3,7.063006E3,1.2035107E4,1.3610283E3,1.9332723E4,5.9013947E2,2.3368828E3,4.5423223E3,6.8531826E3,1.3016315E4,3.440792E3,2.118573E4,3.2646102E4,2.4931172E4,2.0384739E3,7.468515E3,5.846826E3,1.4765685E4,4.3496494E3,1.1764523E4,2.3542876E3,4.645791E2,1.1346602E3,2.2212031E3,1.0201096E2,1.6053467E1,8.7659375E2,1.6038035E3,2.9741777E3,2.4889604E3,1.0549318E4,1.4688031E3,2.9830906E4,1.1213053E3,8.884839E2,3.0750505E3,1.9730078E4,1.07472295E4,0E0,0E0,3.790327E3,2.585225E4,6.565746E2,2.4145828E3,3.9328467E3,3.1517239E3,4.917834E3,5.2355723E3,0E0,5.6161206E3,0E0,0E0,0E0,0E0,0E0,0E0,0E0,0E0,0E0,0E0,0E0,0E0,0E0,0E0,0E0,0E0,0E0,0E0,0E0,0E0,0E0,0E0,0E0,0E0,0E0,0E0,0E0,0E0,0E0,0E0,0E0,0E0,0E0,0E0,0E0,0E0,0E0,0E0,0E0,0E0,0E0,0E0,0E0,0E0,0E0,0E0,0E0,0E0,0E0,0E0,0E0,0E0,0E0,0E0,0E0,0E0,0E0,0E0],"parents":[2147483647,0,0,1,1,2,2,3,3,4,4,5,5,6,6,7,7,8,8,9,9,10,10,11,11,12,12,13,13,14,14,15,15,16,16,17,17,18,18,19,19,20,20,21,21,22,22,23,23,24,24,25,25,26,26,27,27,28,28,29,29,30,30,31,31,32,32,33,33,34,34,35,35,36,36,37,37,38,38,39,39,40,40,41,41,42,42,43,43,44,44,45,45,46,46,47,47,48,48,49,49,50,50,53,53,54,54,55,55,56,56,57,57,58,58,59,59,60,60,62,62],"right_children":[2,4,6,8,10,12,14,16,18,20,22,24,26,28,30,32,34,36,38,40,42,44,46,48,50,52,54,56,58,60,62,64,66,68,70,72,74,76,78,80,82,84,86,88,90,92,94,96,98,100,102,-1,-1,104,106,108,110,112,114,116,118,-1,120,-1,-1,-1,-1,-1,-1,-1,-1,-1,-1,-1,-1,-1,-1,-1,-1,-1,-1,-1,-1,-1,-1,-1,-1,-1,-1,-1,-1,-1,-1,-1,-1,-1,-1,-1,-1,-1,-1,-1,-1,-1,-1,-1,-1,-1,-1,-1,-1,-1,-1,-1,-1,-1,-1,-1,-1,-1,-1],"split_conditions":[2.6229166E1,4.5E1,6.9E1,3.02E1,2.18E1,-2.5881904E-1,3.73E1,3.02E1,6.123234E-17,0E0,7.6E1,2.47E1,4.6E0,3.52E1,1.4E0,-1.8369701E-16,-1.8369701E-16,-1.8369701E-16,2.88E1,1.35E1,2.5881904E-1,4.153481E0,-1.25753975E1,1.0086537E1,4.1E1,2.01E1,-1.8369701E-16,0E0,3.8E0,8.4E1,2.8429167E1,-5E-1,2.5881904E-1,2.3E0,2.88E1,1.79E1,4.3E1,3.43E1,1.4E0,7.0710677E-1,7.1E1,1.63E1,7.3E1,-2.496747E0,4.292346E0,5.356255E0,1.39E1,2.29E1,6.5E0,7.28625E1,1.132E2,-1.8058152E-1,1.0074703E1,3.7958332E1,6.9E0,-1.5098208E1,-1.8369701E-16,2.24E1,9.1E1,-1.8369701E-16,4.153481E0,3.7831962E0,8.89E1,-1.0024156E-1,2.238647E-1,2.9169983E-1,9.39178E-1,-7.960401E-2,1.0167327E0,-2.3064625E-1,2.6590678E-1,9.3299526E-1,1.0699948E-1,2.9908903E0,7.488884E-1,7.28265E-2,-2.0429555E-1,9.7527884E-2,4.577658E-1,-2.2844641E-1,-1.8294562E-1,-2.4968453E-3,-2.2457139E-1,-1.481503E-1,-1.335022E-2,5.17811E-2,-6.9015115E-2,1.804728E-1,7.2270954E-1,-6.088453E-2,8.088259E-1,2.4819396E0,-6.914346E-2,-1.1771049E-1,1.4064162E-2,-3.4875286E-1,3.7342172E-2,1.2178542E-2,1.6256409E0,1.0012001E0,5.3883363E-2,1.80031E-1,9.377586E-1,-7.361463E-2,3.924425E-1,3.848692E0,7.844649E-1,1.6428077E-1,-1.7413063E-1,-7.071283E-2,1.7920783E-1,2.4667099E0,7.155134E-1,-1.1284181E-1,1.3436519E0,9.752802E-1,3.15793E-1,-4.242075E-2,5.753742E-1,1.3658096E-1,1.2014258E0],"split_indices":[15,1,1,13,14,6,14,0,9,6,1,14,10,10,2,9,9,9,14,10,7,5,4,4,1,0,9,6,11,1,15,9,6,11,13,14,1,13,5,7,1,15,1,5,4,5,10,14,11,15,14,0,0,15,14,5,9,14,1,9,5,0,14,0,0,0,0,0,0,0,0,0,0,0,0,0,0,0,0,0,0,0,0,0,0,0,0,0,0,0,0,0,0,0,0,0,0,0,0,0,0,0,0,0,0,0,0,0,0,0,0,0,0,0,0,0,0,0,0,0,0],"split_type":[0,0,0,0,0,0,0,0,0,0,0,0,0,0,0,0,0,0,0,0,0,0,0,0,0,0,0,0,0,0,0,0,0,0,0,0,0,0,0,0,0,0,0,0,0,0,0,0,0,0,0,0,0,0,0,0,0,0,0,0,0,0,0,0,0,0,0,0,0,0,0,0,0,0,0,0,0,0,0,0,0,0,0,0,0,0,0,0,0,0,0,0,0,0,0,0,0,0,0,0,0,0,0,0,0,0,0,0,0,0,0,0,0,0,0,0,0,0,0,0,0],"sum_hessian":[1.8491E4,1.471E4,3.781E3,1.132E3,1.3578E4,2.443E3,1.338E3,1.067E3,6.5E1,1.2264E4,1.314E3,1.239E3,1.204E3,6.41E2,6.97E2,7.58E2,3.09E2,4.4E1,2.1E1,5.703E3,6.561E3,6.12E2,7.02E2,3.19E2,9.2E2,3E0,1.201E3,5.57E2,8.4E1,6.44E2,5.3E1,4.38E2,3.2E2,3.1E1,2.78E2,2.1E1,2.3E1,1.5E1,6E0,5.351E3,3.52E2,3.688E3,2.873E3,4.4E2,1.72E2,5.1E1,6.51E2,1.27E2,1.92E2,2.88E2,6.32E2,1E0,2E0,1.73E2,1.028E3,1.7E2,3.87E2,3E1,5.4E1,3.95E2,2.49E2,3E0,5E1,1.66E2,2.72E2,2.16E2,1.04E2,2.6E1,5E0,2.74E2,4E0,1.5E1,6E0,2.1E1,2E0,4E0,1.1E1,1E0,5E0,3.849E3,1.502E3,2.26E2,1.26E2,3.219E3,4.69E2,5.2E2,2.353E3,3.15E2,1.25E2,1.68E2,4E0,1.6E1,3.5E1,3.58E2,2.93E2,1.1E2,1.7E1,1.9E2,2E0,2.14E2,7.4E1,5.82E2,5E1,8.8E1,8.5E1,6E0,1.022E3,1.5E1,1.55E2,1.79E2,2.08E2,3E0,2.7E1,5.1E1,3E0,3E1,3.65E2,2.09E2,4E1,2.9E1,2.1E1],"tree_param":{"num_deleted":"0","num_feature":"17","num_nodes":"121","size_leaf_vector":"1"}},{"base_weights":[-2.8033057E-2,6.7265644E0,-2.6727016E0,1.1971588E1,4.1329584E0,1.2047693E-1,-3.4529982E0,1.3818357E1,5.363857E0,3.579264E0,1.617504E1,-7.8162E-1,5.476794E0,-4.5262556E0,-2.5486906E0,4.4653983E0,1.5621974E1,3.3356607E0,1.5262573E1,6.215131E0,2.5935454E0,1.0640192E1,3.5979332E1,3.7419114E0,-1.2551095E0,1.0709356E1,-1.7378356E0,-5.73535E0,-4.434475E0,-4.8193216E0,-2.4618213E0,8.684243E-1,2.1575499E1,9.533235E0,1.872702E1,3.053899E0,2.2952206E0,1.9166168E1,6.939065E0,5.726526E0,4.9470345E1,3.8964984E-1,5.411106E0,4.4198494E0,1.7320566E1,3.5642915E0,2.8651337E1,1.4531022E1,2.2509399E-1,-1.9158043E0,6.853495E-1,4.389239E0,1.8836403E1,-7.1948056E0,1.2157403E-1,-6.833379E0,-5.3050704E0,-4.1703835E0,-4.8022547E0,-3.834996E0,-5.9618087E0,-4.1618485E0,-2.331882E0,3.628143E-1,-9.4157234E-2,2.6151383E-2,1.3156205E0,3.7172418E-2,6.558755E-1,1.022489E0,3.337727E-2,-3.4316263E-1,1.9677663E-1,7.3994744E-1,1.6049051E0,5.8084494E-1,-1.3496277E-1,4.8491293E-1,1.6097142E-1,4.601853E0,2.8765163E-1,-1.6819948E-2,2.3334849E-1,3.6843923E-1,5.2086692E-2,5.506698E-2,1.0154456E0,1.5138285E0,2.1095388E-1,1.9092327E0,7.854796E-1,-2.158807E-1,9.517135E-1,5.562351E-1,-3.1236315E-2,-7.409709E-2,-1.827301E-1,-7.328559E-2,2.0340137E-1,-1.122275E-1,5.3404534E-1,3.220372E-1,1.4689662E0,2.7174324E-1,-3.9543125E-1,-8.209967E-2,9.915206E-1,-3.470597E-1,6.905468E-2,-5.1976044E-2,-2.7229288E-1,-1.464434E-1,-2.1606655E-1,-2.4209698E-1,1.12181775E-1,-2.1791783E-1,-9.479969E-2,-3.1356385E-1,-1.8886566E-2,-2.4251084E-1,-1.2203228E-1,-1.2135234E-1,-2.102462E-2],"categories":[],"categories_nodes":[],"categories_segments":[],"categories_sizes":[],"default_left":[0,0,0,0,0,0,0,0,0,0,0,0,0,0,0,0,0,0,0,0,0,0,0,0,0,0,0,0,0,0,0,0,0,0,0,0,0,0,0,0,0,0,0,0,0,0,0,0,0,0,0,0,0,0,0,0,0,0,0,0,0,0,0,0,0,0,0,0,0,0,0,0,0,0,0,0,0,0,0,0,0,0,0,0,0,0,0,0,0,0,0,0,0,0,0,0,0,0,0,0,0,0,0,0,0,0,0,0,0,0,0,0,0,0,0,0,0,0,0,0,0,0,0],"id":13,"left_children":[1,3,5,7,9,11,13,15,17,19,21,23,25,27,29,31,33,35,37,39,41,43,45,47,49,51,53,55,57,59,61,63,65,67,69,71,-1,73,75,77,79,81,83,85,87,-1,89,91,93,95,97,99,101,103,105,107,109,111,113,115,117,119,121,-1,-1,-1,-1,-1,-1,-1,-1,-1,-1,-1,-1,-1,-1,-1,-1,-1,-1,-1,-1,-1,-1,-1,-1,-1,-1,-1,-1,-1,-1,-1,-1,-1,-1,-1,-1,-1,-1,-1,-1,-1,-1,-1,-1,-1,-1,-1,-1,-1,-1,-1,-1,-1,-1,-1,-1,-1,-1,-1,-1],"loss_changes":[3.3071022E5,7.081128E4,2.8996578E4,2.0951594E4,2.319214E4,1.4045833E4,1.008125E4,2.2636125E4,7.5380186E3,8.648957E3,1.6388074E4,5.333606E3,1.5836277E4,5.021328E2,1.1018008E3,1.3459527E4,2.114725E4,3.6379993E3,1.9464688E3,1.8885895E4,1.5081033E4,4.951506E3,6.4955195E3,8.951355E3,2.8897742E3,1.2398752E4,1.7968483E3,1.2060449E2,4.095703E2,2.0992432E2,1.1919883E3,3.2126135E3,3.7757383E3,1.2056664E4,2.3195969E4,2.772404E3,0E0,1.9534756E3,1.02325903E3,8.910629E3,1.8079531E4,4.237531E3,9.110699E3,3.352225E3,9.71735E3,0E0,2.9780898E3,5.0052256E3,1.6649744E3,1.262729E3,4.1753096E3,5.783761E3,1.3663539E4,4.4867065E2,4.6553574E3,8.929492E1,1.4026904E2,4.7121875E2,5.2591016E2,1.0742334E2,1.6007178E2,4.4431836E2,9.1864844E2,0E0,0E0,0E0,0E0,0E0,0E0,0E0,0E0,0E0,0E0,0E0,0E0,0E0,0E0,0E0,0E0,0E0,0E0,0E0,0E0,0E0,0E0,0E0,0E0,0E0,0E0,0E0,0E0,0E0,0E0,0E0,0E0,0E0,0E0,0E0,0E0,0E0,0E0,0E0,0E0,0E0,0E0,0E0,0E0,0E0,0E0,0E0,0E0,0E0,0E0,0E0,0E0,0E0,0E0,0E0,0E0,0E0,0E0,0E0,0E0],"parents":[2147483647,0,0,1,1,2,2,3,3,4,4,5,5,6,6,7,7,8,8,9,9,10,10,11,11,12,12,13,13,14,14,15,15,16,16,17,17,18,18,19,19,20,20,21,21,22,22,23,23,24,24,25,25,26,26,27,27,28,28,29,29,30,30,31,31,32,32,33,33,34,34,35,35,37,37,38,38,39,39,40,40,41,41,42,42,43,43,44,44,46,46,47,47,48,48,49,49,50,50,51,51,52,52,53,53,54,54,55,55,56,56,57,57,58,58,59,59,60,60,61,61,62,62],"right_children":[2,4,6,8,10,12,14,16,18,20,22,24,26,28,30,32,34,36,38,40,42,44,46,48,50,52,54,56,58,60,62,64,66,68,70,72,-1,74,76,78,80,82,84,86,88,-1,90,92,94,96,98,100,102,104,106,108,110,112,114,116,118,120,122,-1,-1,-1,-1,-1,-1,-1,-1,-1,-1,-1,-1,-1,-1,-1,-1,-1,-1,-1,-1,-1,-1,-1,-1,-1,-1,-1,-1,-1,-1,-1,-1,-1,-1,-1,-1,-1,-1,-1,-1,-1,-1,-1,-1,-1,-1,-1,-1,-1,-1,-1,-1,-1,-1,-1,-1,-1,-1,-1,-1],"split_conditions":[-5E-1,-8.660254E-1,-2.4492937E-16,7.2E1,9.054583E1,3.2683334E1,0E0,9.591E2,2.2138271E1,-6.156615E0,1.8018103E1,7.0666666E0,1.5458563E1,4.9708333E0,1.48E1,1.39E2,-5E-1,9.727E2,8.660254E-1,1E2,6E1,8.973775E0,9.938333E1,-1.0474422E1,2.11E1,1.0123941E1,1.2356621E1,9.33497E0,8.660254E-1,1.1479167E1,4.9708333E0,7.2E1,1.672376E1,1.99E1,1.48E1,-1.7975882E1,2.2952206E0,1.271E2,7.9516497E0,9.673E2,2.35E1,1.19E1,3.01E1,8.7E1,6.446529E1,3.5642915E0,1.271E2,-5E-1,4.7916665E0,1E-1,5.793122E0,5.8E1,-2.5881904E-1,1.7435976E1,8.89E1,9.5E1,5E-1,6.2458334E0,2.1291666E1,1.38E1,9.9E1,8.660254E-1,9.687E2,3.628143E-1,-9.4157234E-2,2.6151383E-2,1.3156205E0,3.7172418E-2,6.558755E-1,1.022489E0,3.337727E-2,-3.4316263E-1,1.9677663E-1,7.3994744E-1,1.6049051E0,5.8084494E-1,-1.3496277E-1,4.8491293E-1,1.6097142E-1,4.601853E0,2.8765163E-1,-1.6819948E-2,2.3334849E-1,3.6843923E-1,5.2086692E-2,5.506698E-2,1.0154456E0,1.5138285E0,2.1095388E-1,1.9092327E0,7.854796E-1,-2.158807E-1,9.517135E-1,5.562351E-1,-3.1236315E-2,-7.409709E-2,-1.827301E-1,-7.328559E-2,2.0340137E-1,-1.122275E-1,5.3404534E-1,3.220372E-1,1.4689662E0,2.7174324E-1,-3.9543125E-1,-8.209967E-2,9.915206E-1,-3.470597E-1,6.905468E-2,-5.1976044E-2,-2.7229288E-1,-1.464434E-1,-2.1606655E-1,-2.4209698E-1,1.12181775E-1,-2.1791783E-1,-9.479969E-2,-3.1356385E-1,-1.8886566E-2,-2.4251084E-1,-1.2203228E-1,-1.2135234E-1,-2.102462E-2],"split_indices":[8,8,8,1,15,15,6,3,16,4,4,15,16,15,0,12,6,3,6,1,12,4,15,4,13,16,4,4,8,15,15,12,16,13,11,4,0,13,4,3,13,11,0,1,16,0,13,9,15,2,4,1,6,16,13,1,11,15,15,0,1,9,3,0,0,0,0,0,0,0,0,0,0,0,0,0,0,0,0,0,0,0,0,0,0,0,0,0,0,0,0,0,0,0,0,0,0,0,0,0,0,0,0,0,0,0,0,0,0,0,0,0,0,0,0,0,0,0,0,0,0,0,0],"split_type":[0,0,0,0,0,0,0,0,0,0,0,0,0,0,0,0,0,0,0,0,0,0,0,0,0,0,0,0,0,0,0,0,0,0,0,0,0,0,0,0,0,0,0,0,0,0,0,0,0,0,0,0,0,0,0,0,0,0,0,0,0,0,0,0,0,0,0,0,0,0,0,0,0,0,0,0,0,0,0,0,0,0,0,0,0,0,0,0,0,0,0,0,0,0,0,0,0,0,0,0,0,0,0,0,0,0,0,0,0,0,0,0,0,0,0,0,0,0,0,0,0,0,0],"sum_hessian":[1.8511E4,5.208E3,1.3303E4,1.722E3,3.486E3,2.905E3,1.0398E4,1.345E3,3.77E2,3.334E3,1.52E2,2.487E3,4.18E2,4.753E3,5.645E3,2.18E2,1.127E3,3.14E2,6.3E1,9.06E2,2.428E3,1.2E2,3.2E1,2.35E2,2.252E3,2.42E2,1.76E2,3.31E2,4.422E3,2.06E2,5.439E3,1.81E2,3.7E1,3.82E2,7.45E2,3.13E2,1E0,4.2E1,2.1E1,8.97E2,9E0,1.363E3,1.065E3,6.3E1,5.7E1,4E0,2.8E1,5.7E1,1.78E2,1.68E3,5.72E2,1.37E2,1.05E2,4.4E1,1.32E2,8.9E1,2.42E2,2.581E3,1.841E3,1.13E2,9.3E1,3.84E2,5.055E3,5.4E1,1.27E2,7E0,3E1,1.11E2,2.71E2,6.8E2,6.5E1,2.5E1,2.88E2,3.3E1,9E0,1.4E1,7E0,3.46E2,5.51E2,4E0,5E0,1.166E3,1.97E2,7.35E2,3.3E2,5.3E1,1E1,2.8E1,2.9E1,1.5E1,1.3E1,1.1E1,4.6E1,1.2E1,1.66E2,1.346E3,3.34E2,3.5E2,2.22E2,6.7E1,7E1,4.9E1,5.6E1,2E0,4.2E1,1.22E2,1E1,8.8E1,1E0,8E0,2.34E2,2.82E2,2.299E3,1.831E3,1E1,8.8E1,2.5E1,8.8E1,5E0,2.73E2,1.11E2,4.815E3,2.4E2],"tree_param":{"num_deleted":"0","num_feature":"17","num_nodes":"123","size_leaf_vector":"1"}},{"base_weights":[-7.3098585E-2,6.3148794E0,-2.5670166E0,1.1250065E1,3.895719E0,-1.3749426E-2,-3.2922604E0,1.3196673E1,5.433872E0,2.0049498E0,6.6961293E0,-7.629264E-1,4.95298E0,-4.2923656E0,-2.435589E0,1.4897837E1,3.9989026E0,4.1660094E0,1.7691381E1,5.253796E0,8.900071E-1,-1.180963E0,7.7668915E0,3.4419413E0,-1.2277759E0,7.515082E0,-3.4353182E0,-4.4456687E0,-3.5935528E0,-3.5367138E0,-1.9402652E0,4.1693726E0,1.730427E1,2.1572502E0,2.6691576E1,8.949809E0,2.3087652E0,2.3986609E1,7.7633348E0,-2.4050353E-2,7.0844016E0,4.242038E0,1.807323E-1,-2.88829E0,8.320422E0,-6.7131443E0,8.382489E0,1.177802E1,-5.7734466E-1,-2.6303382E0,-6.2938815E-1,1.8142277E1,4.0182056E0,-8.575653E0,5.848496E-1,-4.183319E0,-4.794745E0,1.6511412E-1,-3.64216E0,-4.6858554E0,-3.1533036E0,-4.477548E0,-1.8589058E0,2.0835254E0,1.3938123E-1,7.167536E-1,1.3804086E0,1.5302684E0,6.840955E-2,6.063299E-1,1.7527081E0,3.7783673E-1,1.58024E0,6.2142927E-2,8.5269225E-1,1.4835536E0,7.914778E-1,6.810528E-1,-4.5097032E-1,6.287988E-2,-5.3087026E-1,1.1854931E-1,4.8171884E-1,1.1719489E-1,5.913171E-1,-5.476146E-2,1.5139444E-1,-2.1287537E-1,4.5361597E-2,1.299794E-1,2.5656812E0,-4.9068323E-1,-4.8735347E-2,8.0555695E-1,3.4281686E-1,-1.0194037E-1,8.098338E-1,-2.053114E-1,9.584769E-3,-4.043808E-2,-1.9046889E-1,1.9149158E-2,-1.0107018E-1,2.6785484E-1,1.6325035E0,7.6106223E-3,7.173075E-1,-4.7769538E-1,-3.2555768E-1,1.396731E0,-1.1381346E-1,-1.9644098E-1,-2.3740295E-1,-2.4136852E-1,1.2993906E-1,-1.2531659E-1,3.067294E-1,-1.6263016E-1,-1.976758E-1,-1.9764666E-1,-2.7845922E-1,-1.3686284E-1,-1.8477564E-1,-1.804242E-1,-2.822713E-1,-9.827736E-2,-1.1241821E-3],"categories":[],"categories_nodes":[],"categories_segments":[],"categories_sizes":[],"default_left":[0,0,0,0,0,0,0,0,0,0,0,0,0,0,0,0,0,0,0,0,0,0,0,0,0,0,0,0,0,0,0,0,0,0,0,0,0,0,0,0,0,0,0,0,0,0,0,0,0,0,0,0,0,0,0,0,0,0,0,0,0,0,0,0,0,0,0,0,0,0,0,0,0,0,0,0,0,0,0,0,0,0,0,0,0,0,0,0,0,0,0,0,0,0,0,0,0,0,0,0,0,0,0,0,0,0,0,0,0,0,0,0,0,0,0,0,0,0,0,0,0,0,0,0,0,0,0],"id":14,"left_children":[1,3,5,7,9,11,13,15,17,19,21,23,25,27,29,31,33,35,37,39,41,43,45,47,49,51,53,55,57,59,61,63,65,67,69,71,73,75,77,79,81,83,85,87,89,91,93,95,97,99,101,103,105,107,109,111,113,115,117,119,121,123,125,-1,-1,-1,-1,-1,-1,-1,-1,-1,-1,-1,-1,-1,-1,-1,-1,-1,-1,-1,-1,-1,-1,-1,-1,-1,-1,-1,-1,-1,-1,-1,-1,-1,-1,-1,-1,-1,-1,-1,-1,-1,-1,-1,-1,-1,-1,-1,-1,-1,-1,-1,-1,-1,-1,-1,-1,-1,-1,-1,-1,-1,-1,-1,-1],"loss_changes":[2.9469362E5,6.1967344E4,