{"learner":{"attributes":{"best_iteration":"1","best_score":"8.115321477392074","scikit_learn":"{\"_estimator_type\": \"regressor\"}"},"feature_names":["nitrogen_dioxide","ozone","temperature_2m","relative_humidity_2m","precipitation","surface_pressure","wind_u","wind_v","hour_sin","hour_cos","month_sin","month_cos","pm2_5_lag_1","pm2_5_lag_24","pm2_5_rolling_mean_24","pm2_5_rolling_std_24"],"feature_types":["float","float","float","int","float","float","float","float","float","float","float","float","float","float","float","float"],"gradient_booster":{"model":{"cats":{"enc":[],"feature_segments":[],"sorted_idx":[]},"gbtree_model_param":{"num_parallel_tree":"1","num_trees":"52"},"iteration_indptr":[0,1,2,3,4,5,6,7,8,9,10,11,12,13,14,15,16,17,18,19,20,21,22,23,24,25,26,27,28,29,30,31,32,33,34,35,36,37,38,39,40,41,42,43,44,45,46,47,48,49,50,51,52],"tree_info":[0,0,0,0,0,0,0,0,0,0,0,0,0,0,0,0,0,0,0,0,0,0,0,0,0,0,0,0,0,0,0,0,0,0,0,0,0,0,0,0,0,0,0,0,0,0,0,0,0,0,0,0],"trees":[{"base_weights":[6.859488E-2,1.2917048E1,-5.004952E0,2.35893E1,7.63203E0,3.9507347E-1,-6.5071354E0,2.7012304E1,1.3391474E1,5.1025705E0,1.5231921E1,-1.2267706E0,1.0431773E1,-8.513061E0,-4.829533E0,3.0077478E1,1.7351528E1,1.1870874E1,3.0560917E1,1.0015112E1,2.8699856E0,1.2774447E1,2.6133915E1,9.867487E0,-1.9377205E0,1.5354752E1,1.6945313E0,-8.000664E0,-9.196356E0,-5.0802054E0,-3.4314408E0,2.2594309E1,3.4973473E1,7.526181E0,2.623805E1,9.605986E0,1.903733E1,3.308095E1,-3.673215E-1,7.430308E0,1.8515537E1,7.3748994E-1,5.6941166E0,2.398372E0,1.4454982E1,4.38941E1,1.6412924E1,-2.102118E0,2.3577065E1,-3.038715E0,1.2018518E0,2.4028897E0,1.9460457E1,-5.851897E0,5.450454E0,-8.379337E0,-7.3283134E0,-9.248355E0,1.1366868E0,-4.6429644E0,-5.6582513E0,-1.9060256E0,-3.8111377E0,9.653582E-1,1.9569628E0,1.8804463E0,4.514907E-1,6.506733E-1,1.8825935E-1,1.5321544E0,1.2942453E-1,7.5402665E-1,3.2520363E-1,3.946173E-1,1.2510902E0,2.424478E0,1.0983504E0,3.4907886E-1,4.959345E0,7.899652E-1,1.6283005E0,-1.34448055E-2,3.606076E-1,1.6103041E-1,4.390134E-1,-1.2487459E-1,2.5741753E-1,7.596917E-1,-3.0923304E-1,7.159747E-1,2.540262E0,9.657583E-1,3.1765708E-1,-1.5333597E-1,1.5829539E-2,1.5317675E0,-1.1512681E-2,-1.2570274E-1,-2.578015E-1,3.0587235E-1,-8.611708E-2,-3.2255813E-1,3.1864238E-1,1.1137948E0,-2.4641164E-1,5.032589E-1,-3.1965968E-1,1.3377327E-1,1.3577435E0,4.621422E-2,-4.2007428E-1,2.7388334E-2,-3.676479E-1,-4.6810913E-1,-3.608833E-1,-6.386167E-2,1.1007805E-1,-2.0921779E-1,-2.7480596E-1,-3.5667038E-1,-2.696431E-1,-5.019107E-2,-1.8017419E-1,-1.398819E-1,-2.1779211E-1],"categories":[],"categories_nodes":[],"categories_segments":[],"categories_sizes":[],"default_left":[0,0,0,0,0,0,0,0,0,0,0,0,0,0,0,0,0,0,0,0,0,0,0,0,0,0,0,0,0,0,0,0,0,0,0,0,0,0,0,0,0,0,0,0,0,0,0,0,0,0,0,0,0,0,0,0,0,0,0,0,0,0,0,0,0,0,0,0,0,0,0,0,0,0,0,0,0,0,0,0,0,0,0,0,0,0,0,0,0,0,0,0,0,0,0,0,0,0,0,0,0,0,0,0,0,0,0,0,0,0,0,0,0,0,0,0,0,0,0,0,0,0,0,0,0],"id":0,"left_children":[1,3,5,7,9,11,13,15,17,19,21,23,25,27,29,31,33,35,37,39,41,43,45,47,49,51,53,55,57,59,61,63,65,67,69,71,73,75,-1,77,79,81,83,85,87,89,91,93,95,97,99,101,103,105,107,109,111,113,115,117,119,121,123,-1,-1,-1,-1,-1,-1,-1,-1,-1,-1,-1,-1,-1,-1,-1,-1,-1,-1,-1,-1,-1,-1,-1,-1,-1,-1,-1,-1,-1,-1,-1,-1,-1,-1,-1,-1,-1,-1,-1,-1,-1,-1,-1,-1,-1,-1,-1,-1,-1,-1,-1,-1,-1,-1,-1,-1,-1,-1,-1,-1,-1,-1],"loss_changes":[1.206615E6,2.9537206E5,1.0764656E5,6.020225E4,6.732028E4,4.703983E4,3.4895844E4,3.79145E4,1.1072445E4,2.8838156E4,2.3108594E4,1.9643125E4,1.7265309E4,1.5814375E3,1.9647812E3,3.5261188E4,2.730618E4,6.374547E3,3.586502E3,1.7923352E4,1.0902452E4,1.2450469E4,2.6903031E4,2.4664297E4,8.08876E3,1.3619609E4,4.170091E3,6.283125E2,1.0953594E3,1.1853906E3,4.9258105E2,2.0563484E4,4.0205688E4,3.0672861E3,1.7109922E4,5.1492188E3,6.205414E3,4.5860938E3,0E0,2.5329465E4,6.774871E3,6.7329766E3,5.9183125E3,1.3726733E3,9.487758E3,1.071857E4,2.9428594E3,1.8995117E2,1.1769773E4,1.9110654E3,8.75002E3,2.255576E3,1.34994375E4,4.8652612E2,5.82984E3,3.6341406E2,1.9501953E2,3.9679688E2,3.1087643E1,1.0471094E3,7.68E2,2.6285577E2,3.6873438E2,0E0,0E0,0E0,0E0,0E0,0E0,0E0,0E0,0E0,0E0,0E0,0E0,0E0,0E0,0E0,0E0,0E0,0E0,0E0,0E0,0E0,0E0,0E0,0E0,0E0,0E0,0E0,0E0,0E0,0E0,0E0,0E0,0E0,0E0,0E0,0E0,0E0,0E0,0E0,0E0,0E0,0E0,0E0,0E0,0E0,0E0,0E0,0E0,0E0,0E0,0E0,0E0,0E0,0E0,0E0,0E0,0E0,0E0,0E0,0E0,0E0,0E0],"parents":[2147483647,0,0,1,1,2,2,3,3,4,4,5,5,6,6,7,7,8,8,9,9,10,10,11,11,12,12,13,13,14,14,15,15,16,16,17,17,18,18,19,19,20,20,21,21,22,22,23,23,24,24,25,25,26,26,27,27,28,28,29,29,30,30,31,31,32,32,33,33,34,34,35,35,36,36,37,37,39,39,40,40,41,41,42,42,43,43,44,44,45,45,46,46,47,47,48,48,49,49,50,50,51,51,52,52,53,53,54,54,55,55,56,56,57,57,58,58,59,59,60,60,61,61,62,62],"right_children":[2,4,6,8,10,12,14,16,18,20,22,24,26,28,30,32,34,36,38,40,42,44,46,48,50,52,54,56,58,60,62,64,66,68,70,72,74,76,-1,78,80,82,84,86,88,90,92,94,96,98,100,102,104,106,108,110,112,114,116,118,120,122,124,-1,-1,-1,-1,-1,-1,-1,-1,-1,-1,-1,-1,-1,-1,-1,-1,-1,-1,-1,-1,-1,-1,-1,-1,-1,-1,-1,-1,-1,-1,-1,-1,-1,-1,-1,-1,-1,-1,-1,-1,-1,-1,-1,-1,-1,-1,-1,-1,-1,-1,-1,-1,-1,-1,-1,-1,-1,-1,-1,-1,-1,-1],"split_conditions":[-5E-1,-8.660254E-1,-2.4492937E-16,7E1,2.64875E1,2.3141666E1,0E0,1.7243982E1,9.693E2,-4.8195767E0,6.3179165E1,4.883333E0,3.5095833E1,8.660254E-1,1.26E1,-2.5881904E-1,2.79E1,4.5479168E1,-3.230844E0,1.9625E1,5.2E1,9.581E2,-1.0132521E1,-5E-1,1.48E1,-5E-1,1.2600359E1,-5E-1,1.4808333E1,8.660254E-1,6.7791667E0,1.12E2,1.48E1,7.5E1,9.550833E1,9.609E2,5.9E1,5.6940203E0,-3.673215E-1,1E2,7.6E1,1.48E1,-5E-1,-1.3507048E1,9.717E2,4.3E1,6.3E0,5.3E0,5.2E1,1E-1,-7.857997E0,1.5047716E1,6.3E0,1.1E0,6.19E1,-2.4209278E1,-2.6949331E1,1.06E1,2.4E1,8.575E0,2.5881904E-1,9.665E2,-1.8369701E-16,9.653582E-1,1.9569628E0,1.8804463E0,4.514907E-1,6.506733E-1,1.8825935E-1,1.5321544E0,1.2942453E-1,7.5402665E-1,3.2520363E-1,3.946173E-1,1.2510902E0,2.424478E0,1.0983504E0,3.4907886E-1,4.959345E0,7.899652E-1,1.6283005E0,-1.34448055E-2,3.606076E-1,1.6103041E-1,4.390134E-1,-1.2487459E-1,2.5741753E-1,7.596917E-1,-3.0923304E-1,7.159747E-1,2.540262E0,9.657583E-1,3.1765708E-1,-1.5333597E-1,1.5829539E-2,1.5317675E0,-1.1512681E-2,-1.2570274E-1,-2.578015E-1,3.0587235E-1,-8.611708E-2,-3.2255813E-1,3.1864238E-1,1.1137948E0,-2.4641164E-1,5.032589E-1,-3.1965968E-1,1.3377327E-1,1.3577435E0,4.621422E-2,-4.2007428E-1,2.7388334E-2,-3.676479E-1,-4.6810913E-1,-3.608833E-1,-6.386167E-2,1.1007805E-1,-2.0921779E-1,-2.7480596E-1,-3.5667038E-1,-2.696431E-1,-5.019107E-2,-1.8017419E-1,-1.398819E-1,-2.1779211E-1],"split_indices":[10,10,10,3,14,14,8,6,5,6,14,14,14,10,0,8,12,14,6,14,1,5,7,11,12,8,6,8,14,10,14,1,0,1,14,5,1,7,0,3,1,0,8,7,5,3,0,12,3,4,7,6,0,0,12,6,6,0,1,14,8,5,11,0,0,0,0,0,0,0,0,0,0,0,0,0,0,0,0,0,0,0,0,0,0,0,0,0,0,0,0,0,0,0,0,0,0,0,0,0,0,0,0,0,0,0,0,0,0,0,0,0,0,0,0,0,0,0,0,0,0,0,0,0,0],"split_type":[0,0,0,0,0,0,0,0,0,0,0,0,0,0,0,0,0,0,0,0,0,0,0,0,0,0,0,0,0,0,0,0,0,0,0,0,0,0,0,0,0,0,0,0,0,0,0,0,0,0,0,0,0,0,0,0,0,0,0,0,0,0,0,0,0,0,0,0,0,0,0,0,0,0,0,0,0,0,0,0,0,0,0,0,0,0,0,0,0,0,0,0,0,0,0,0,0,0,0,0,0,0,0,0,0,0,0,0,0,0,0,0,0,0,0,0,0,0,0,0,0,0,0,0,0],"sum_hessian":[1.8508E4,5.239E3,1.3269E4,1.734E3,3.505E3,2.888E3,1.0381E4,1.297E3,4.37E2,2.631E3,8.74E2,2.487E3,4.01E2,4.726E3,5.655E3,9.83E2,3.14E2,4.03E2,3.4E1,8.21E2,1.81E3,7.15E2,1.59E2,1.49E2,2.338E3,2.56E2,1.45E2,2.708E3,2.018E3,4.793E3,8.62E2,3.91E2,5.92E2,1.5E2,1.64E2,3.08E2,9.5E1,3.2E1,2E0,6.31E2,1.9E2,1.032E3,7.78E2,1E2,6.15E2,5.5E1,1.04E2,8E1,6.9E1,1.731E3,6.07E2,6.2E1,1.94E2,4.8E1,9.7E1,1.725E3,9.83E2,2.008E3,1E1,2.734E3,2.059E3,1.73E2,6.89E2,3.28E2,6.3E1,5.37E2,5.5E1,6E1,9E1,1.38E2,2.6E1,1.1E2,1.98E2,3.4E1,6.1E1,1.2E1,2E1,6.29E2,2E0,1.61E2,2.9E1,8.94E2,1.38E2,4.33E2,3.45E2,3.6E1,6.4E1,5.94E2,2.1E1,1.1E1,4.4E1,8E1,2.4E1,5.7E1,2.3E1,5.3E1,1.6E1,1.389E3,3.42E2,2.26E2,3.81E2,1.9E1,4.3E1,1.74E2,2E1,1E0,4.7E1,8.7E1,1E1,4E0,1.721E3,3E0,9.8E2,1.898E3,1.1E2,3E0,7E0,1.782E3,9.52E2,3.1E2,1.749E3,1.14E2,5.9E1,2.43E2,4.46E2],"tree_param":{"num_deleted":"0","num_feature":"16","num_nodes":"125","size_leaf_vector":"1"}},{"base_weights":[-7.4267485E-3,1.2260967E1,-4.8069863E0,2.2136126E1,7.4238205E0,1.4619942E-1,-6.2049775E0,2.1251076E1,4.154732E1,6.397331E0,2.1408749E1,-1.8112885E0,6.1700783E0,-8.114071E0,-4.5863357E0,1.1857625E1,2.3156784E1,5.133532E1,2.9173975E1,1.0725397E1,4.801441E0,3.1337484E1,1.2023613E1,-2.1426044E0,8.27036E0,1.0684727E1,-2.0082016E0,-7.6423106E0,-8.744193E0,-5.757405E0,-3.5757618E0,1.792394E1,7.7067246E0,9.249786E0,2.4608486E1,5.935826E1,1.1823769E1,3.2697388E1,1.4940174E0,1.669027E1,6.1137004E0,1.6194966E0,8.593257E0,1.6752878E1,4.2925713E1,-1.5537581E0,1.866916E1,-3.8948095E0,-5.259175E-1,2.607866E1,1.2619694E0,1.4502117E1,4.9113292E-1,-2.3221996E0,9.255604E-1,-7.969667E0,-7.065489E0,-8.797543E0,1.0182344E0,-7.8470683E0,-5.346197E0,-3.5861146E-1,-3.6349986E0,5.13015E-1,1.1516203E0,3.2967445E-1,1.8332585E0,1.8782096E-1,8.8965887E-1,1.0255978E0,1.429359E0,4.0010657E0,2.3447568E0,2.8578117E-1,1.0049402E0,1.2050654E0,2.1372852E0,1.0245869E-1,-1.8165207E-2,3.7521225E-1,1.12096E0,4.1655675E-1,1.5608224E-1,2.6431005E-3,2.0370989E-1,3.01303E-1,7.281202E-1,1.7252344E0,2.9089528E-1,1.656614E0,4.130146E0,-2.1566959E-1,1.8505709E-1,5.250053E-1,1.7316134E0,-2.325393E-1,-1.07327424E-1,-1.4357513E-1,9.6371874E-2,1.5672085E0,8.839364E-1,-3.3904558E-1,5.109759E-1,3.916695E-1,9.3322355E-1,-2.3799542E-1,2.992214E-1,3.88306E-2,-2.2482724E-1,-2.4856067E-1,-4.0087357E-1,-3.3371767E-1,-3.8727805E-1,-4.5081756E-1,-3.879871E-1,-3.4190442E-2,1.16583325E-1,-3.9599338E-1,2.5530642E-1,-2.7344233E-1,-1.985933E-1,-1.6427746E-1,2.537077E-1,-1.6840842E-1,-2.1413897E-1],"categories":[],"categories_nodes":[],"categories_segments":[],"categories_sizes":[],"default_left":[0,0,0,0,0,0,0,0,0,0,0,0,0,0,0,0,0,0,0,0,0,0,0,0,0,0,0,0,0,0,0,0,0,0,0,0,0,0,0,0,0,0,0,0,0,0,0,0,0,0,0,0,0,0,0,0,0,0,0,0,0,0,0,0,0,0,0,0,0,0,0,0,0,0,0,0,0,0,0,0,0,0,0,0,0,0,0,0,0,0,0,0,0,0,0,0,0,0,0,0,0,0,0,0,0,0,0,0,0,0,0,0,0,0,0,0,0,0,0,0,0,0,0,0,0],"id":1,"left_children":[1,3,5,7,9,11,13,15,17,19,21,23,25,27,29,31,33,35,37,39,41,43,45,47,49,51,53,55,57,59,61,63,65,67,69,71,73,75,77,79,81,83,85,87,89,91,93,95,97,99,101,103,105,107,-1,109,111,113,115,117,119,121,123,-1,-1,-1,-1,-1,-1,-1,-1,-1,-1,-1,-1,-1,-1,-1,-1,-1,-1,-1,-1,-1,-1,-1,-1,-1,-1,-1,-1,-1,-1,-1,-1,-1,-1,-1,-1,-1,-1,-1,-1,-1,-1,-1,-1,-1,-1,-1,-1,-1,-1,-1,-1,-1,-1,-1,-1,-1,-1,-1,-1,-1,-1],"loss_changes":[1.0963995E6,2.4994681E5,9.267853E4,2.8683688E4,5.0336562E4,3.4761227E4,3.2217656E4,2.9226562E4,7.4645E3,2.2583125E4,2.1987023E4,7.4496895E3,2.6716105E4,1.3565E3,6.6670938E3,6.912449E3,2.7410875E4,1.1978117E4,3.364629E3,2.416018E4,2.8894664E4,1.8886E4,1.1307641E4,6.1025645E3,8.828422E3,1.81263E4,1.7052935E3,4.6221875E2,1.0729688E3,2.2059375E3,5.7727734E2,4.1875703E3,5.174159E3,6.081251E3,1.9607938E4,4.74575E3,2.8948364E2,1.6474297E3,5.899992E0,2.004018E4,3.2847012E3,5.014474E3,1.6661352E4,1.0087377E4,2.2132047E4,6.2503156E2,1.0590252E4,1.3565967E3,6.4621436E3,3.304746E2,3.815611E3,9.263617E3,3.720712E3,1.7216531E3,0E0,2.1011719E2,2.1510547E2,3.9146875E2,2.8420628E1,4.440371E2,3.472578E2,9.071479E2,5.0083594E2,0E0,0E0,0E0,0E0,0E0,0E0,0E0,0E0,0E0,0E0,0E0,0E0,0E0,0E0,0E0,0E0,0E0,0E0,0E0,0E0,0E0,0E0,0E0,0E0,0E0,0E0,0E0,0E0,0E0,0E0,0E0,0E0,0E0,0E0,0E0,0E0,0E0,0E0,0E0,0E0,0E0,0E0,0E0,0E0,0E0,0E0,0E0,0E0,0E0,0E0,0E0,0E0,0E0,0E0,0E0,0E0,0E0,0E0,0E0,0E0,0E0,0E0],"parents":[2147483647,0,0,1,1,2,2,3,3,4,4,5,5,6,6,7,7,8,8,9,9,10,10,11,11,12,12,13,13,14,14,15,15,16,16,17,17,18,18,19,19,20,20,21,21,22,22,23,23,24,24,25,25,26,26,27,27,28,28,29,29,30,30,31,31,32,32,33,33,34,34,35,35,36,36,37,37,38,38,39,39,40,40,41,41,42,42,43,43,44,44,45,45,46,46,47,47,48,48,49,49,50,50,51,51,52,52,53,53,55,55,56,56,57,57,58,58,59,59,60,60,61,61,62,62],"right_children":[2,4,6,8,10,12,14,16,18,20,22,24,26,28,30,32,34,36,38,40,42,44,46,48,50,52,54,56,58,60,62,64,66,68,70,72,74,76,78,80,82,84,86,88,90,92,94,96,98,100,102,104,106,108,-1,110,112,114,116,118,120,122,124,-1,-1,-1,-1,-1,-1,-1,-1,-1,-1,-1,-1,-1,-1,-1,-1,-1,-1,-1,-1,-1,-1,-1,-1,-1,-1,-1,-1,-1,-1,-1,-1,-1,-1,-1,-1,-1,-1,-1,-1,-1,-1,-1,-1,-1,-1,-1,-1,-1,-1,-1,-1,-1,-1,-1,-1,-1,-1,-1,-1,-1,-1],"split_conditions":[-5E-1,-8.660254E-1,-2.4492937E-16,1.38E2,1.6325893E1,1.81E1,0E0,9.597E2,1.749929E1,-6.156615E0,2.4760115E1,1.1502053E1,-7.284421E0,8.660254E-1,-1.8369701E-16,7.2E1,3.7E1,2.2692661E1,7.7E0,9.677E2,5.7E1,7.8E1,4.98E1,0E0,2.164938E0,1.1645842E1,1.4790709E1,-5E-1,7.8781433E0,2.5881904E-1,-1.4348505E1,9.582E2,2.4760115E1,6.6042314E0,3.1E0,1.48E2,1.52E2,8.87E1,9.4E0,2.5881904E-1,4.713054E0,-1.8369701E-16,0E0,-4.8195767E0,1.9054451E1,2.5881904E-1,1.6194675E1,9.673E2,-5E-1,1.534719E0,9.721E2,1.0801227E1,1.02E2,5.2451773E0,9.255604E-1,-1.9399479E1,9.655E2,8.660254E-1,9.632E2,2.24E1,1.13E1,8.660254E-1,9.659258E-1,5.13015E-1,1.1516203E0,3.2967445E-1,1.8332585E0,1.8782096E-1,8.8965887E-1,1.0255978E0,1.429359E0,4.0010657E0,2.3447568E0,2.8578117E-1,1.0049402E0,1.2050654E0,2.1372852E0,1.0245869E-1,-1.8165207E-2,3.7521225E-1,1.12096E0,4.1655675E-1,1.5608224E-1,2.6431005E-3,2.0370989E-1,3.01303E-1,7.281202E-1,1.7252344E0,2.9089528E-1,1.656614E0,4.130146E0,-2.1566959E-1,1.8505709E-1,5.250053E-1,1.7316134E0,-2.325393E-1,-1.07327424E-1,-1.4357513E-1,9.6371874E-2,1.5672085E0,8.839364E-1,-3.3904558E-1,5.109759E-1,3.916695E-1,9.3322355E-1,-2.3799542E-1,2.992214E-1,3.88306E-2,-2.2482724E-1,-2.4856067E-1,-4.0087357E-1,-3.3371767E-1,-3.8727805E-1,-4.5081756E-1,-3.879871E-1,-3.4190442E-2,1.16583325E-1,-3.9599338E-1,2.5530642E-1,-2.7344233E-1,-1.985933E-1,-1.6427746E-1,2.537077E-1,-1.6840842E-1,-2.1413897E-1],"split_indices":[10,10,10,1,15,12,8,5,15,6,15,7,7,10,9,1,1,6,0,5,1,1,12,8,15,15,6,8,15,8,7,5,15,15,0,1,1,12,0,8,15,11,8,6,6,8,6,5,11,15,5,6,1,15,0,6,5,9,5,0,0,11,8,0,0,0,0,0,0,0,0,0,0,0,0,0,0,0,0,0,0,0,0,0,0,0,0,0,0,0,0,0,0,0,0,0,0,0,0,0,0,0,0,0,0,0,0,0,0,0,0,0,0,0,0,0,0,0,0,0,0,0,0,0,0],"split_type":[0,0,0,0,0,0,0,0,0,0,0,0,0,0,0,0,0,0,0,0,0,0,0,0,0,0,0,0,0,0,0,0,0,0,0,0,0,0,0,0,0,0,0,0,0,0,0,0,0,0,0,0,0,0,0,0,0,0,0,0,0,0,0,0,0,0,0,0,0,0,0,0,0,0,0,0,0,0,0,0,0,0,0,0,0,0,0,0,0,0,0,0,0,0,0,0,0,0,0,0,0,0,0,0,0,0,0,0,0,0,0,0,0,0,0,0,0,0,0,0,0,0,0,0,0],"sum_hessian":[1.8618E4,5.235E3,1.3383E4,1.72E3,3.515E3,2.946E3,1.0437E4,1.647E3,7.3E1,3.276E3,2.39E2,2.224E3,7.22E2,4.787E3,5.65E3,2.79E2,1.368E3,3.9E1,3.4E1,8.81E2,2.395E3,1.15E2,1.24E2,2.154E3,7E1,4.65E2,2.57E2,2.745E3,2.042E3,2.615E3,3.035E3,1.12E2,1.67E2,1.3E2,1.238E3,3.2E1,7E0,3E1,4E0,3.83E2,4.98E2,1.303E3,1.092E3,5.2E1,6.3E1,4.1E1,8.3E1,1.033E3,1.121E3,1.9E1,5.1E1,3.38E2,1.27E2,2.54E2,3E0,1.743E3,1.002E3,2.031E3,1.1E1,4.27E2,2.188E3,5.5E1,2.98E3,4.6E1,6.6E1,1.62E2,5E0,8E1,5E1,6.13E2,6.25E2,1E1,2.2E1,5E0,2E0,1.8E1,1.2E1,3E0,1E0,1.48E2,2.35E2,2.85E2,2.13E2,7.96E2,5.07E2,7.65E2,3.27E2,1.9E1,3.3E1,5.2E1,1.1E1,2.7E1,1.4E1,5.6E1,2.7E1,7.2E2,3.13E2,5.73E2,5.48E2,1E1,9E0,2.7E1,2.4E1,1.31E2,2.07E2,6.5E1,6.2E1,1.05E2,1.49E2,2.9E1,1.714E3,6.43E2,3.59E2,1.671E3,3.6E2,5E0,6E0,4.25E2,2E0,2.006E3,1.82E2,3.6E1,1.9E1,2.115E3,8.65E2],"tree_param":{"num_deleted":"0","num_feature":"16","num_nodes":"125","size_leaf_vector":"1"}},{"base_weights":[-4.889176E-2,1.1665576E1,-4.611949E0,2.0945791E1,7.0301456E0,-1.308732E-1,-5.8657064E0,2.4240202E1,1.0676321E1,4.6294155E0,1.4254816E1,-1.4682696E0,8.51453E0,-7.677109E0,-4.3389044E0,1.866514E1,2.893723E1,7.930036E0,2.2106033E1,1.7963521E0,7.998434E0,3.1770267E1,1.2998445E1,2.1246902E1,-1.7780958E0,1.5729672E1,5.1657945E-1,-7.2251954E0,-8.284132E0,-4.5556173E0,-3.128076E0,1.6864819E1,7.003123E1,3.1546486E1,4.3538604E0,-2.1874533E0,9.057665E0,1.490681E1,2.7821135E1,2.7409187E-1,4.2102776E0,6.438413E0,1.3241905E1,8.052462E0,4.3417263E1,1.0747015E1,2.293556E1,1.7824692E0,8.000238E0,-2.6409857E0,8.7703574E-1,5.237303E0,2.4225786E1,-2.5635357E0,8.5030985E0,2.8049994E-1,-7.244572E0,-8.315318E0,6.0634685E-1,-4.124837E0,-5.1529026E0,-1.6594357E0,-3.456261E0,1.1557736E0,3.097677E-1,5.058529E0,5.3379375E-1,7.671638E-1,1.6869599E0,8.8820857E-1,7.5212345E-2,4.3346893E-2,-3.1588855E-1,6.815985E-1,3.503033E-1,1.0673931E0,3.282047E-1,1.5313251E0,5.6843346E-1,8.9090146E-2,-2.3491164E-1,1.324341E-1,3.6594582E-1,3.0819774E-1,2.351863E0,2.1090117E0,5.508166E-1,6.647353E-1,7.4037336E-2,1.7489067E0,3.177451E0,1.7083885E-1,6.3145053E-1,6.1151564E-1,2.0672069E0,8.1574553E-1,-5.572293E-2,2.0040806E-1,-1.544529E-1,-9.723958E-2,2.684556E-1,4.96845E-1,-1.4172569E-1,6.5408355E-1,2.038754E0,1.4334036E-1,-2.3602207E-1,-1.276352E-1,9.8285407E-1,-1.8461756E-1,1.1100878E-1,-3.739657E-1,-3.2843927E-1,-4.2156252E-1,-3.4088397E-1,-5.0719757E-2,6.5783E-2,-1.7994507E-1,-2.568468E-1,-2.597663E-1,3.0326048E-1,-3.1672642E-1,-9.4828755E-3,-1.312E-1,-2.135829E-1],"categories":[],"categories_nodes":[],"categories_segments":[],"categories_sizes":[],"default_left":[0,0,0,0,0,0,0,0,0,0,0,0,0,0,0,0,0,0,0,0,0,0,0,0,0,0,0,0,0,0,0,0,0,0,0,0,0,0,0,0,0,0,0,0,0,0,0,0,0,0,0,0,0,0,0,0,0,0,0,0,0,0,0,0,0,0,0,0,0,0,0,0,0,0,0,0,0,0,0,0,0,0,0,0,0,0,0,0,0,0,0,0,0,0,0,0,0,0,0,0,0,0,0,0,0,0,0,0,0,0,0,0,0,0,0,0,0,0,0,0,0,0,0,0,0],"id":2,"left_children":[1,3,5,7,9,11,13,15,17,19,21,23,25,27,29,31,33,35,37,39,41,43,45,47,49,51,53,55,57,59,61,63,65,67,69,71,73,75,77,79,81,83,85,87,89,91,93,-1,95,97,99,101,103,105,107,109,111,113,115,117,119,121,123,-1,-1,-1,-1,-1,-1,-1,-1,-1,-1,-1,-1,-1,-1,-1,-1,-1,-1,-1,-1,-1,-1,-1,-1,-1,-1,-1,-1,-1,-1,-1,-1,-1,-1,-1,-1,-1,-1,-1,-1,-1,-1,-1,-1,-1,-1,-1,-1,-1,-1,-1,-1,-1,-1,-1,-1,-1,-1,-1,-1,-1,-1],"loss_changes":[9.883073E5,2.22814E5,7.475478E4,5.8135E4,5.9911234E4,3.3658883E4,2.8721156E4,3.3659062E4,1.303957E4,2.4773074E4,1.855614E4,1.7779959E4,2.2497354E4,1.2442812E3,1.46675E3,5.4304203E4,4.5212688E4,3.910205E3,2.9179648E3,5.187414E3,9.616133E3,1.5396129E4,1.7785906E4,6.2014805E3,5.702539E3,1.8147719E4,4.597286E3,3.995E2,5.6565625E2,1.2099219E3,4.0877246E2,3.8604344E4,3.5885664E4,2.2185375E4,2.610058E3,4.4702332E2,2.7855742E3,1.901834E3,1.6826484E3,6.508121E3,2.6311377E3,9.916766E3,1.698891E4,6.693247E2,4.233164E3,9.0480625E3,2.866046E4,0E0,1.4581111E3,5.607507E3,7.755394E3,3.5560554E3,2.0306867E4,1.594752E3,6.462623E3,6.9846E1,3.833125E2,2.92375E2,1.0531508E1,1.4639648E3,9.838047E2,1.091343E3,4.6518457E2,0E0,0E0,0E0,0E0,0E0,0E0,0E0,0E0,0E0,0E0,0E0,0E0,0E0,0E0,0E0,0E0,0E0,0E0,0E0,0E0,0E0,0E0,0E0,0E0,0E0,0E0,0E0,0E0,0E0,0E0,0E0,0E0,0E0,0E0,0E0,0E0,0E0,0E0,0E0,0E0,0E0,0E0,0E0,0E0,0E0,0E0,0E0,0E0,0E0,0E0,0E0,0E0,0E0,0E0,0E0,0E0,0E0,0E0,0E0,0E0,0E0,0E0],"parents":[2147483647,0,0,1,1,2,2,3,3,4,4,5,5,6,6,7,7,8,8,9,9,10,10,11,11,12,12,13,13,14,14,15,15,16,16,17,17,18,18,19,19,20,20,21,21,22,22,23,23,24,24,25,25,26,26,27,27,28,28,29,29,30,30,31,31,32,32,33,33,34,34,35,35,36,36,37,37,38,38,39,39,40,40,41,41,42,42,43,43,44,44,45,45,46,46,48,48,49,49,50,50,51,51,52,52,53,53,54,54,55,55,56,56,57,57,58,58,59,59,60,60,61,61,62,62],"right_children":[2,4,6,8,10,12,14,16,18,20,22,24,26,28,30,32,34,36,38,40,42,44,46,48,50,52,54,56,58,60,62,64,66,68,70,72,74,76,78,80,82,84,86,88,90,92,94,-1,96,98,100,102,104,106,108,110,112,114,116,118,120,122,124,-1,-1,-1,-1,-1,-1,-1,-1,-1,-1,-1,-1,-1,-1,-1,-1,-1,-1,-1,-1,-1,-1,-1,-1,-1,-1,-1,-1,-1,-1,-1,-1,-1,-1,-1,-1,-1,-1,-1,-1,-1,-1,-1,-1,-1,-1,-1,-1,-1,-1,-1,-1,-1,-1,-1,-1,-1,-1,-1,-1,-1,-1],"split_conditions":[-5E-1,-8.660254E-1,-2.4492937E-16,7E1,2.64875E1,2.3141666E1,0E0,6.6692553E0,1.548991E1,-3.7341876E0,4.2066007E0,3.95E0,1.082553E1,8.660254E-1,1.26E1,1.11E2,9.550833E1,3.1E1,6.6E1,-1.8369701E-16,1.98875E1,1.0062807E1,6.3179165E1,9.731E2,1.48E1,0E0,1.22E2,-2.6949331E1,1.4808333E1,8.660254E-1,6.7791667E0,1.2905534E1,4.4E1,1.28E1,1.0886486E0,7.7E0,9.609E2,2.1791544E0,6.2E0,1.9625E1,2.1245832E1,1E2,9.2E0,3.2054274E0,9.633E2,-1.2128531E1,1.3348781E1,1.7824692E0,-1.9831982E1,4.883333E0,6.139453E0,-8.967044E0,6.9666286E0,1.3511894E1,6.2E1,6.6E1,7.8E1,9.4E0,9.627E2,3.110568E0,7.6093183E0,2.0586994E0,5E-1,1.1557736E0,3.097677E-1,5.058529E0,5.3379375E-1,7.671638E-1,1.6869599E0,8.8820857E-1,7.5212345E-2,4.3346893E-2,-3.1588855E-1,6.815985E-1,3.503033E-1,1.0673931E0,3.282047E-1,1.5313251E0,5.6843346E-1,8.9090146E-2,-2.3491164E-1,1.324341E-1,3.6594582E-1,3.0819774E-1,2.351863E0,2.1090117E0,5.508166E-1,6.647353E-1,7.4037336E-2,1.7489067E0,3.177451E0,1.7083885E-1,6.3145053E-1,6.1151564E-1,2.0672069E0,8.1574553E-1,-5.572293E-2,2.0040806E-1,-1.544529E-1,-9.723958E-2,2.684556E-1,4.96845E-1,-1.4172569E-1,6.5408355E-1,2.038754E0,1.4334036E-1,-2.3602207E-1,-1.276352E-1,9.8285407E-1,-1.8461756E-1,1.1100878E-1,-3.739657E-1,-3.2843927E-1,-4.2156252E-1,-3.4088397E-1,-5.0719757E-2,6.5783E-2,-1.7994507E-1,-2.568468E-1,-2.597663E-1,3.0326048E-1,-3.1672642E-1,-9.4828755E-3,-1.312E-1,-2.135829E-1],"split_indices":[10,10,10,3,14,14,8,15,15,7,15,14,15,10,0,1,14,1,1,11,14,6,14,5,12,8,1,6,14,10,14,6,3,12,6,0,5,6,0,14,14,3,12,15,5,7,6,0,6,14,6,7,15,15,3,1,3,0,5,15,15,15,11,0,0,0,0,0,0,0,0,0,0,0,0,0,0,0,0,0,0,0,0,0,0,0,0,0,0,0,0,0,0,0,0,0,0,0,0,0,0,0,0,0,0,0,0,0,0,0,0,0,0,0,0,0,0,0,0,0,0,0,0,0,0],"split_type":[0,0,0,0,0,0,0,0,0,0,0,0,0,0,0,0,0,0,0,0,0,0,0,0,0,0,0,0,0,0,0,0,0,0,0,0,0,0,0,0,0,0,0,0,0,0,0,0,0,0,0,0,0,0,0,0,0,0,0,0,0,0,0,0,0,0,0,0,0,0,0,0,0,0,0,0,0,0,0,0,0,0,0,0,0,0,0,0,0,0,0,0,0,0,0,0,0,0,0,0,0,0,0,0,0,0,0,0,0,0,0,0,0,0,0,0,0,0,0,0,0,0,0,0,0],"sum_hessian":[1.8487E4,5.182E3,1.3305E4,1.725E3,3.457E3,2.909E3,1.0396E4,1.305E3,4.2E2,2.596E3,8.61E2,2.52E3,3.89E2,4.753E3,5.643E3,5.99E2,7.06E2,3.4E2,8E1,1.411E3,1.185E3,5.6E1,8.05E2,3.3E1,2.487E3,2.04E2,1.85E2,2.732E3,2.021E3,4.784E3,8.59E2,5.8E2,1.9E1,6.38E2,6.8E1,3.4E1,3.06E2,3.7E1,4.3E1,8.66E2,5.45E2,9.15E2,2.7E2,1.9E1,3.7E1,6.58E2,1.47E2,1.5E1,1.8E1,1.877E3,6.1E2,9.2E1,1.12E2,1.34E2,5.1E1,7E0,2.725E3,2.014E3,7E0,2.784E3,2E3,1.58E2,7.01E2,3.65E2,2.15E2,1.2E1,7E0,7.7E1,5.61E2,1.1E1,5.7E1,2E1,1.4E1,9.3E1,2.13E2,2E1,1.7E1,3.6E1,7E0,6.65E2,2.01E2,3.64E2,1.81E2,9.1E2,5E0,1.8E1,2.52E2,1E1,9E0,2.8E1,9E0,1.35E2,5.23E2,9.4E1,5.3E1,9E0,9E0,1.18E2,1.759E3,3.75E2,2.35E2,5.8E1,3.4E1,6.8E1,4.4E1,3.8E1,9.6E1,2.6E1,2.5E1,2E0,5E0,2.015E3,7.1E2,1.865E3,1.49E2,2E0,5E0,1.835E3,9.49E2,1.993E3,7E0,3.7E1,1.21E2,3.49E2,3.52E2],"tree_param":{"num_deleted":"0","num_feature":"16","num_nodes":"125","size_leaf_vector":"1"}},{"base_weights":[7.250362E-3,1.1028854E1,-4.3500514E0,1.9700111E1,6.6876106E0,1.7920071E-1,-5.630236E0,2.2780886E1,1.0795144E1,3.849261E0,1.2997313E1,-1.1689653E0,8.747546E0,-7.344379E0,-4.1864367E0,1.1510035E1,2.5224436E1,7.9719214E0,2.2924252E1,8.118491E0,2.297487E0,1.0925303E1,2.2142408E1,1.9721748E1,-1.4776803E0,1.5861766E1,2.6375872E-1,-6.945857E0,-7.8636174E0,-5.547305E0,-3.3300147E0,4.968638E0,2.155253E1,2.7271347E1,1.4072141E1,4.738836E-1,9.2557955E0,1.9870642E1,2.7055767E0,6.1796527E0,1.5397218E1,-1.1216279E0,3.7282434E0,7.368196E-1,1.2468458E1,3.382055E1,1.3035913E1,1.695014E0,9.617413E0,-2.2418103E0,9.888768E-1,2.2217432E1,3.5321414E0,-2.4410834E0,7.1248245E0,-7.2643075E0,-6.5384197E0,-7.902329E0,8.315629E-1,-7.1816344E0,-5.126327E0,-5.6576953E0,-3.223589E0,5.6429577E-1,1.9548266E-1,1.4260892E0,-9.59402E-2,1.1037027E0,1.8071789E0,5.893585E-1,1.6837343E0,2.6811525E-1,-1.0245972E-1,1.1174144E0,4.2402253E-1,1.4405684E-1,1.1006924E0,5.7446194E-1,1.8522082E-1,2.51992E-1,9.852584E-1,-8.003278E-2,4.06679E-1,4.6827826E-1,1.1568954E-1,7.974804E-3,1.1407195E0,-8.370926E-2,6.8313026E-1,8.286641E-1,2.1303651E0,6.0854148E-2,1.129211E0,-3.0534143E-2,8.1181186E-1,2.2260092E-1,-1.3208751E-1,2.2698748E-1,-7.832505E-2,6.430309E-1,1.5035268E0,-7.566716E-2,1.3855816E0,-5.3047933E-2,-3.4516975E-1,-1.3439018E-1,9.342441E-1,-6.443251E-2,-3.6477217E-1,-3.3587357E-1,-1.2021822E-1,-3.9921817E-1,-2.894805E-1,-5.828271E-2,9.2701755E-2,-3.6263213E-1,1.2123358E-1,-2.2492206E-1,-2.8077915E-1,-1.74854E-1,-3.1069943E-1,-1.9924067E-1,-1.4810337E-1],"categories":[],"categories_nodes":[],"categories_segments":[],"categories_sizes":[],"default_left":[0,0,0,0,0,0,0,0,0,0,0,0,0,0,0,0,0,0,0,0,0,0,0,0,0,0,0,0,0,0,0,0,0,0,0,0,0,0,0,0,0,0,0,0,0,0,0,0,0,0,0,0,0,0,0,0,0,0,0,0,0,0,0,0,0,0,0,0,0,0,0,0,0,0,0,0,0,0,0,0,0,0,0,0,0,0,0,0,0,0,0,0,0,0,0,0,0,0,0,0,0,0,0,0,0,0,0,0,0,0,0,0,0,0,0,0,0,0,0,0,0,0,0],"id":3,"left_children":[1,3,5,7,9,11,13,15,17,19,21,23,25,27,29,31,33,35,37,39,41,43,45,47,49,51,53,55,57,59,61,63,65,67,69,71,73,75,-1,77,79,81,83,85,87,89,91,-1,93,95,97,99,101,103,105,107,109,111,113,115,117,119,121,-1,-1,-1,-1,-1,-1,-1,-1,-1,-1,-1,-1,-1,-1,-1,-1,-1,-1,-1,-1,-1,-1,-1,-1,-1,-1,-1,-1,-1,-1,-1,-1,-1,-1,-1,-1,-1,-1,-1,-1,-1,-1,-1,-1,-1,-1,-1,-1,-1,-1,-1,-1,-1,-1,-1,-1,-1,-1,-1,-1],"loss_changes":[8.9191006E5,1.9795119E5,7.717609E4,4.7901125E4,6.2775234E4,3.3902484E4,2.5651094E4,3.5595438E4,1.532941E4,1.60201875E4,2.0374312E4,1.6384508E4,2.4077672E4,9.2684375E2,6.5489844E3,1.5264828E4,2.4041938E4,3.5478047E3,7.0196406E3,9.007262E3,8.697127E3,1.3968031E4,2.0828508E4,4.974758E3,4.714142E3,1.692629E4,3.4135247E3,3.0177344E2,6.9728906E2,1.459625E3,8.391367E2,9.12532E2,1.5103867E4,4.0840938E4,7.127996E3,6.89351E2,3.0081055E3,2.813121E3,0E0,6.673246E3,5.9242637E3,2.3406067E3,9.969406E3,1.5003774E3,1.3060719E4,1.2478477E4,1.2837391E4,0E0,1.566968E3,5.1224014E3,5.378813E3,1.0120922E4,9.19173E3,8.0560394E2,5.9488164E3,2.700547E2,8.654375E2,3.0785938E2,2.2582151E1,3.1976562E2,5.0711328E2,1.5855957E2,6.4753906E2,0E0,0E0,0E0,0E0,0E0,0E0,0E0,0E0,0E0,0E0,0E0,0E0,0E0,0E0,0E0,0E0,0E0,0E0,0E0,0E0,0E0,0E0,0E0,0E0,0E0,0E0,0E0,0E0,0E0,0E0,0E0,0E0,0E0,0E0,0E0,0E0,0E0,0E0,0E0,0E0,0E0,0E0,0E0,0E0,0E0,0E0,0E0,0E0,0E0,0E0,0E0,0E0,0E0,0E0,0E0,0E0,0E0,0E0,0E0,0E0],"parents":[2147483647,0,0,1,1,2,2,3,3,4,4,5,5,6,6,7,7,8,8,9,9,10,10,11,11,12,12,13,13,14,14,15,15,16,16,17,17,18,18,19,19,20,20,21,21,22,22,23,23,24,24,25,25,26,26,27,27,28,28,29,29,30,30,31,31,32,32,33,33,34,34,35,35,36,36,37,37,39,39,40,40,41,41,42,42,43,43,44,44,45,45,46,46,48,48,49,49,50,50,51,51,52,52,53,53,54,54,55,55,56,56,57,57,58,58,59,59,60,60,61,61,62,62],"right_children":[2,4,6,8,10,12,14,16,18,20,22,24,26,28,30,32,34,36,38,40,42,44,46,48,50,52,54,56,58,60,62,64,66,68,70,72,74,76,-1,78,80,82,84,86,88,90,92,-1,94,96,98,100,102,104,106,108,110,112,114,116,118,120,122,-1,-1,-1,-1,-1,-1,-1,-1,-1,-1,-1,-1,-1,-1,-1,-1,-1,-1,-1,-1,-1,-1,-1,-1,-1,-1,-1,-1,-1,-1,-1,-1,-1,-1,-1,-1,-1,-1,-1,-1,-1,-1,-1,-1,-1,-1,-1,-1,-1,-1,-1,-1,-1,-1,-1,-1,-1,-1,-1,-1],"split_conditions":[-5E-1,-8.660254E-1,-2.4492937E-16,7E1,2.5E1,2.3141666E1,0E0,-1.3651119E1,1.478396E1,5E1,1.6325893E1,3.95E0,1.082553E1,8.660254E-1,-2.5881904E-1,3.5095833E1,6.19E1,3.4E1,1.13E2,2.1245832E1,-2.5881904E-1,9.587E2,2.4760115E1,9.731E2,1.48E1,-8.910159E0,1.22E2,7E1,1.4808333E1,2.5881904E-1,3.6833334E0,6E1,9.550833E1,8.138417E0,1.86E2,9.611E2,1.1704166E1,3.8E1,2.7055767E0,7.9125E0,-1.8369701E-16,1.08E1,6.5E1,7.29E1,2.9E1,7.3E1,8.082917E1,1.695014E0,-5E-1,4.883333E0,-7.072233E0,1.2246469E-16,3.06E1,8.5E1,6.2E1,-2.3518269E1,7.9E1,1.39E1,2.4E1,2.24E1,2.4510276E0,1E1,2.5881904E-1,5.6429577E-1,1.9548266E-1,1.4260892E0,-9.59402E-2,1.1037027E0,1.8071789E0,5.893585E-1,1.6837343E0,2.6811525E-1,-1.0245972E-1,1.1174144E0,4.2402253E-1,1.4405684E-1,1.1006924E0,5.7446194E-1,1.8522082E-1,2.51992E-1,9.852584E-1,-8.003278E-2,4.06679E-1,4.6827826E-1,1.1568954E-1,7.974804E-3,1.1407195E0,-8.370926E-2,6.8313026E-1,8.286641E-1,2.1303651E0,6.0854148E-2,1.129211E0,-3.0534143E-2,8.1181186E-1,2.2260092E-1,-1.3208751E-1,2.2698748E-1,-7.832505E-2,6.430309E-1,1.5035268E0,-7.566716E-2,1.3855816E0,-5.3047933E-2,-3.4516975E-1,-1.3439018E-1,9.342441E-1,-6.443251E-2,-3.6477217E-1,-3.3587357E-1,-1.2021822E-1,-3.9921817E-1,-2.894805E-1,-5.828271E-2,9.2701755E-2,-3.6263213E-1,1.2123358E-1,-2.2492206E-1,-2.8077915E-1,-1.74854E-1,-3.1069943E-1,-1.9924067E-1,-1.4810337E-1],"split_indices":[10,10,10,3,13,14,8,7,15,3,15,14,15,10,9,14,13,1,1,14,8,5,15,5,13,7,1,3,14,8,14,1,14,15,1,5,14,1,0,14,11,0,3,13,1,1,14,0,11,14,7,8,13,3,3,7,1,0,1,0,15,1,9,0,0,0,0,0,0,0,0,0,0,0,0,0,0,0,0,0,0,0,0,0,0,0,0,0,0,0,0,0,0,0,0,0,0,0,0,0,0,0,0,0,0,0,0,0,0,0,0,0,0,0,0,0,0,0,0,0,0,0,0],"split_type":[0,0,0,0,0,0,0,0,0,0,0,0,0,0,0,0,0,0,0,0,0,0,0,0,0,0,0,0,0,0,0,0,0,0,0,0,0,0,0,0,0,0,0,0,0,0,0,0,0,0,0,0,0,0,0,0,0,0,0,0,0,0,0,0,0,0,0,0,0,0,0,0,0,0,0,0,0,0,0,0,0,0,0,0,0,0,0,0,0,0,0,0,0,0,0,0,0,0,0,0,0,0,0,0,0,0,0,0,0,0,0,0,0,0,0,0,0,0,0,0,0,0,0],"sum_hessian":[1.857E4,5.261E3,1.3309E4,1.754E3,3.507E3,2.933E3,1.0376E4,1.302E3,4.52E2,2.42E3,1.087E3,2.535E3,3.98E2,4.742E3,5.634E3,2.33E2,1.069E3,3.68E2,8.4E1,6.44E2,1.776E3,8.88E2,1.99E2,3.6E1,2.499E3,2.16E2,1.82E2,2.691E3,2.051E3,2.174E3,3.46E3,1.42E2,9.1E1,9.02E2,1.67E2,5.4E1,3.14E2,7.8E1,6E0,5.1E2,1.34E2,5.24E2,1.252E3,1.17E2,7.71E2,8.6E1,1.13E2,1.4E1,2.2E1,1.908E3,5.91E2,1.42E2,7.4E1,1.31E2,5.1E1,1.501E3,1.19E3,2.042E3,9E0,4.42E2,1.732E3,1.49E2,3.311E3,1.9E1,1.23E2,7E1,2.1E1,5.71E2,3.31E2,1.51E2,1.6E1,1.8E1,3.6E1,1.6E1,2.98E2,9E0,6.9E1,1.61E2,3.49E2,4E1,9.4E1,4.99E2,2.5E1,2.5E2,1.002E3,1.15E2,2E0,6E1,7.11E2,3E1,5.6E1,5.1E1,6.2E1,9E0,1.3E1,1.07E2,1.801E3,2.47E2,3.44E2,6.6E1,7.6E1,6.2E1,1.2E1,1.01E2,3E1,2.8E1,2.3E1,8E0,1.493E3,1.14E3,5E1,1.963E3,7.9E1,3E0,6E0,4.39E2,3E0,7.63E2,9.69E2,3.2E1,1.17E2,8.43E2,2.468E3],"tree_param":{"num_deleted":"0","num_feature":"16","num_nodes":"123","size_leaf_vector":"1"}},{"base_weights":[-8.02243E-2,1.0237309E1,-4.121899E0,1.875645E1,6.0078197E0,1.7238127E-1,-5.3336535E0,2.175816E1,9.920179E0,3.304342E0,1.2109683E1,-1.0488666E0,8.006482E0,-6.9564977E0,-3.9406095E0,2.3914585E1,1.2564196E1,7.3011622E0,2.1265385E1,7.6476064E0,1.7506226E0,9.87561E0,2.1948442E1,2.2831676E1,-1.3247992E0,1.976417E1,4.112993E0,-6.5584297E0,-7.469354E0,-5.2425094E0,-3.1153014E0,1.6914608E1,2.8663094E1,4.189452E0,2.330401E1,1.1980804E1,5.319496E0,1.6710272E1,3.292886E1,6.215891E0,2.0346441E1,-1.5051696E0,3.2580311E0,1.6725605E1,7.88081E0,3.1465282E1,1.3649556E1,1.6797146E0,1.1987406E1,-2.1446884E0,1.1996807E0,7.8249683E0,3.617172E1,-1.0482675E0,7.90001E0,1.0284004E0,-6.5813155E0,-7.499667E0,1.3418927E0,-6.876603E0,-4.822901E0,-5.4697065E0,-3.0071347E0,1.4976753E0,7.013363E-1,1.6006873E0,6.99227E-1,2.6223153E-1,-3.19408E-2,1.5639869E0,7.622295E-2,7.122636E-1,7.6566435E-2,-2.1053527E-1,3.2357967E-1,1.0175844E0,1.5159121E-1,1.1570178E0,2.35831E0,2.4659184E-1,6.353318E-1,1.9678468E0,6.594837E-1,-1.4132531E-1,7.740578E-2,3.985218E-1,9.6895374E-2,2.7220962E0,6.535294E-1,1.5333945E-1,5.6715155E-1,1.2910118E0,3.0334363E0,1.2564507E-1,1.0546366E0,7.4871796E-1,-3.585217E-2,2.1031848E-1,-1.2752323E-1,-7.669925E-2,2.6671675E-1,7.849071E-1,-8.9800715E-2,2.4245787E0,2.9532632E-1,4.6678972E-1,-1.3145877E-1,6.050562E-1,-2.492377E-1,-1.6630456E-1,1.3738483E-1,-3.384215E-1,-2.8537005E-1,-3.845367E-1,-3.3194968E-1,-5.712271E-4,1.078084E-1,-3.093501E-1,-3.8925266E-1,-2.1173759E-1,-2.6213196E-1,-1.9348937E-1,-2.8805313E-1,-1.2437959E-1,-1.686996E-1],"categories":[],"categories_nodes":[],"categories_segments":[],"categories_sizes":[],"default_left":[0,0,0,0,0,0,0,0,0,0,0,0,0,0,0,0,0,0,0,0,0,0,0,0,0,0,0,0,0,0,0,0,0,0,0,0,0,0,0,0,0,0,0,0,0,0,0,0,0,0,0,0,0,0,0,0,0,0,0,0,0,0,0,0,0,0,0,0,0,0,0,0,0,0,0,0,0,0,0,0,0,0,0,0,0,0,0,0,0,0,0,0,0,0,0,0,0,0,0,0,0,0,0,0,0,0,0,0,0,0,0,0,0,0,0,0,0,0,0,0,0,0,0,0,0],"id":4,"left_children":[1,3,5,7,9,11,13,15,17,19,21,23,25,27,29,31,33,35,37,39,41,43,45,47,49,51,53,55,57,59,61,63,65,67,69,71,73,75,77,79,81,83,85,87,89,91,93,-1,95,97,99,101,103,105,107,109,111,113,115,117,119,121,123,-1,-1,-1,-1,-1,-1,-1,-1,-1,-1,-1,-1,-1,-1,-1,-1,-1,-1,-1,-1,-1,-1,-1,-1,-1,-1,-1,-1,-1,-1,-1,-1,-1,-1,-1,-1,-1,-1,-1,-1,-1,-1,-1,-1,-1,-1,-1,-1,-1,-1,-1,-1,-1,-1,-1,-1,-1,-1,-1,-1,-1,-1],"loss_changes":[7.718696E5,1.8761212E5,6.9208984E4,4.56175E4,5.7416414E4,2.8021684E4,2.342275E4,2.5255312E4,1.2918582E4,1.6283547E4,2.3280406E4,1.6727832E4,1.8001193E4,9.2890625E2,5.983508E3,3.4183938E4,2.2118332E4,3.2654512E3,3.8062852E3,1.1436723E4,8.740804E3,1.179718E4,1.5129406E4,2.981961E3,5.1894756E3,1.8914473E4,5.8329243E3,4.764453E2,5.6722656E2,1.4513281E3,8.545156E2,1.5545477E4,3.0045594E4,7.166062E2,1.8712754E4,2.4864092E3,2.8160996E3,2.9766406E3,1.9745254E3,4.7129805E3,8.18833E3,2.279787E3,7.555461E3,2.6307754E4,1.1265582E4,1.3435305E4,8.816447E3,0E0,6.178989E2,4.886616E3,6.9593813E3,4.421559E3,1.5000957E4,2.1094084E3,9.370745E3,7.651904E1,4.023828E2,2.908203E2,8.840416E0,2.2748047E2,4.0389062E2,4.716162E1,6.152461E2,0E0,0E0,0E0,0E0,0E0,0E0,0E0,0E0,0E0,0E0,0E0,0E0,0E0,0E0,0E0,0E0,0E0,0E0,0E0,0E0,0E0,0E0,0E0,0E0,0E0,0E0,0E0,0E0,0E0,0E0,0E0,0E0,0E0,0E0,0E0,0E0,0E0,0E0,0E0,0E0,0E0,0E0,0E0,0E0,0E0,0E0,0E0,0E0,0E0,0E0,0E0,0E0,0E0,0E0,0E0,0E0,0E0,0E0,0E0,0E0,0E0,0E0],"parents":[2147483647,0,0,1,1,2,2,3,3,4,4,5,5,6,6,7,7,8,8,9,9,10,10,11,11,12,12,13,13,14,14,15,15,16,16,17,17,18,18,19,19,20,20,21,21,22,22,23,23,24,24,25,25,26,26,27,27,28,28,29,29,30,30,31,31,32,32,33,33,34,34,35,35,36,36,37,37,38,38,39,39,40,40,41,41,42,42,43,43,44,44,45,45,46,46,48,48,49,49,50,50,51,51,52,52,53,53,54,54,55,55,56,56,57,57,58,58,59,59,60,60,61,61,62,62],"right_children":[2,4,6,8,10,12,14,16,18,20,22,24,26,28,30,32,34,36,38,40,42,44,46,48,50,52,54,56,58,60,62,64,66,68,70,72,74,76,78,80,82,84,86,88,90,92,94,-1,96,98,100,102,104,106,108,110,112,114,116,118,120,122,124,-1,-1,-1,-1,-1,-1,-1,-1,-1,-1,-1,-1,-1,-1,-1,-1,-1,-1,-1,-1,-1,-1,-1,-1,-1,-1,-1,-1,-1,-1,-1,-1,-1,-1,-1,-1,-1,-1,-1,-1,-1,-1,-1,-1,-1,-1,-1,-1,-1,-1,-1,-1,-1,-1,-1,-1,-1,-1,-1,-1,-1,-1],"split_conditions":[-5E-1,-8.660254E-1,-2.4492937E-16,7E1,2.5E1,2.3141666E1,0E0,1.8806784E1,1.548991E1,4.9E1,1.6325893E1,3.825E0,2.7745832E1,8.660254E-1,-2.5881904E-1,-2.5881904E-1,3.32E1,9.609E2,7.0710677E-1,2.67E1,-2.5881904E-1,-6.847607E0,2.4760115E1,9.712E2,1.48E1,1.6876158E1,5.8E1,-2.6949331E1,1.4808333E1,2.5881904E-1,3.6833334E0,3.3E1,6.19E1,9.615E2,-2.5881904E-1,3.5095833E1,2.6301727E0,1.0775574E1,8.87E1,1.73E1,1.34E1,7.0710677E-1,6.6E1,9.637E2,2.64875E1,1.939897E1,8.082917E1,1.6797146E0,-2.0482555E1,4.883333E0,5.793122E0,-8.967044E0,6.1E1,3.9452412E0,1E-1,8.934336E0,-2.5881904E-1,8.660254E-1,9.632E2,8.660254E-1,2.4213274E0,5E-1,8.7E0,1.4976753E0,7.013363E-1,1.6006873E0,6.99227E-1,2.6223153E-1,-3.19408E-2,1.5639869E0,7.622295E-2,7.122636E-1,7.6566435E-2,-2.1053527E-1,3.2357967E-1,1.0175844E0,1.5159121E-1,1.1570178E0,2.35831E0,2.4659184E-1,6.353318E-1,1.9678468E0,6.594837E-1,-1.4132531E-1,7.740578E-2,3.985218E-1,9.6895374E-2,2.7220962E0,6.535294E-1,1.5333945E-1,5.6715155E-1,1.2910118E0,3.0334363E0,1.2564507E-1,1.0546366E0,7.4871796E-1,-3.585217E-2,2.1031848E-1,-1.2752323E-1,-7.669925E-2,2.6671675E-1,7.849071E-1,-8.9800715E-2,2.4245787E0,2.9532632E-1,4.6678972E-1,-1.3145877E-1,6.050562E-1,-2.492377E-1,-1.6630456E-1,1.3738483E-1,-3.384215E-1,-2.8537005E-1,-3.845367E-1,-3.3194968E-1,-5.712271E-4,1.078084E-1,-3.093501E-1,-3.8925266E-1,-2.1173759E-1,-2.6213196E-1,-1.9348937E-1,-2.8805313E-1,-1.2437959E-1,-1.686996E-1],"split_indices":[10,10,10,3,13,14,8,6,15,3,15,14,14,10,9,8,12,5,9,12,8,6,15,5,12,6,3,6,14,8,14,3,13,5,8,14,15,6,12,13,13,9,3,5,14,6,14,0,6,14,6,7,3,15,4,7,8,9,5,10,15,10,12,0,0,0,0,0,0,0,0,0,0,0,0,0,0,0,0,0,0,0,0,0,0,0,0,0,0,0,0,0,0,0,0,0,0,0,0,0,0,0,0,0,0,0,0,0,0,0,0,0,0,0,0,0,0,0,0,0,0,0,0,0,0],"split_type":[0,0,0,0,0,0,0,0,0,0,0,0,0,0,0,0,0,0,0,0,0,0,0,0,0,0,0,0,0,0,0,0,0,0,0,0,0,0,0,0,0,0,0,0,0,0,0,0,0,0,0,0,0,0,0,0,0,0,0,0,0,0,0,0,0,0,0,0,0,0,0,0,0,0,0,0,0,0,0,0,0,0,0,0,0,0,0,0,0,0,0,0,0,0,0,0,0,0,0,0,0,0,0,0,0,0,0,0,0,0,0,0,0,0,0,0,0,0,0,0,0,0,0,0,0],"sum_hessian":[1.8508E4,5.209E3,1.3299E4,1.727E3,3.482E3,2.927E3,1.0372E4,1.288E3,4.39E2,2.414E3,1.068E3,2.533E3,3.94E2,4.789E3,5.583E3,1.042E3,2.46E2,3.58E2,8.1E1,6.35E2,1.779E3,8.72E2,1.96E2,2.8E1,2.505E3,9.7E1,2.97E2,2.704E3,2.085E3,2.164E3,3.419E3,4.23E2,6.19E2,1.39E2,1.07E2,1.05E2,2.53E2,6E1,2.1E1,5.72E2,6.3E1,5.63E2,1.216E3,1.95E2,6.77E2,9E1,1.06E2,1.3E1,1.5E1,1.891E3,6.14E2,5.7E1,4E1,1.26E2,1.71E2,8E0,2.696E3,2.078E3,7E0,4.39E2,1.725E3,1.48E2,3.271E3,7.5E1,3.48E2,5.03E2,1.16E2,1.14E2,2.5E1,7.8E1,2.9E1,8.6E1,1.9E1,2.7E1,2.26E2,4.7E1,1.3E1,1.4E1,7E0,4.79E2,9.3E1,1.6E1,4.7E1,3.93E2,1.7E2,2.65E2,9.51E2,1.6E1,1.79E2,2.84E2,3.93E2,7.7E1,1.3E1,4.3E1,6.3E1,1.2E1,3E0,1.13E2,1.778E3,3.7E2,2.44E2,3.1E1,2.6E1,2.8E1,1.2E1,1.6E1,1.1E2,1.29E2,4.2E1,2E0,6E0,2.215E3,4.81E2,1.694E3,3.84E2,3E0,4E0,2.54E2,1.85E2,7.23E2,1.002E3,2.5E1,1.23E2,1.357E3,1.914E3],"tree_param":{"num_deleted":"0","num_feature":"16","num_nodes":"125","size_leaf_vector":"1"}},{"base_weights":[6.1549384E-2,-2.8581264E0,9.623474E0,4.231528E0,-3.6072183E0,3.1426911E0,1.3484224E1,1.00078535E1,-1.9176633E0,-3.746704E0,2.4459633E1,-1.6362476E0,5.613778E0,1.5022154E1,5.460602E0,2.9092743E0,2.1756407E1,5.388861E0,-4.3738565E0,-5.512226E0,-2.2856123E0,5.0304794E1,1.1568541E1,1.03638115E1,-1.830343E0,1.4005741E1,3.1560128E0,7.823003E0,1.6661497E1,8.793007E0,-2.5791733E0,-3.577407E0,7.3299103E0,6.990998E0,2.9057905E1,4.5877585E0,2.3826606E0,-5.3348517E0,6.900042E-1,-5.851565E0,-3.3495018E-1,1.2552651E0,-3.0562785E0,2.0634386E1,8.087881E1,3.4608164E0,1.8820774E1,8.687214E-1,1.2804323E0,-5.2092643E0,-1.3727806E0,-4.569265E0,1.933706E1,1.0748199E0,1.1823128E1,3.160764E0,1.4852618E1,1.93046E1,1.01524105E1,2.2778783E0,1.4014538E1,1.1592654E0,-3.7615054E0,-3.69963E-1,-2.4207538E-2,4.941279E-1,1.2924825E-1,1.2375653E0,3.949162E-2,1.1842419E0,3.200216E0,-1.3052575E-2,3.994808E-1,-6.666093E-2,-3.1701347E-1,-1.688354E-1,3.7902075E-1,-3.0478638E-1,-1.8911557E-1,1.6625373E-1,-1.5819798E-1,-3.0846572E-2,3.5284075E-1,-1.6976462E-1,-4.8210856E-2,1.0332426E-2,1.7598053E0,5.7470164E0,1.9507204E0,6.1365074E-1,-1.22568466E-1,4.0876648E-1,1.3948911E0,1.4321876E-1,-1.2638347E-1,-2.963901E-1,2.2993703E-1,-9.589768E-2,2.632668E-1,-2.8033292E-1,1.6726218E-1,1.7750534E0,4.9798796E-1,2.3243406E-1,-3.4337934E-2,1.9740162E0,4.355611E-1,1.0550416E-2,5.0459325E-1,1.508256E0,5.472011E-1,1.2983803E0,7.6713854E-1,-1.05509415E-1,5.594381E-1,1.9806997E-1,-3.0120993E-1,9.6225196E-1,7.367343E-2,-1.7554058E-1,7.804174E-1,7.977932E-2,-2.0317157E-1],"categories":[],"categories_nodes":[],"categories_segments":[],"categories_sizes":[],"default_left":[0,0,0,0,0,0,0,0,0,0,0,0,0,0,0,0,0,0,0,0,0,0,0,0,0,0,0,0,0,0,0,0,0,0,0,0,0,0,0,0,0,0,0,0,0,0,0,0,0,0,0,0,0,0,0,0,0,0,0,0,0,0,0,0,0,0,0,0,0,0,0,0,0,0,0,0,0,0,0,0,0,0,0,0,0,0,0,0,0,0,0,0,0,0,0,0,0,0,0,0,0,0,0,0,0,0,0,0,0,0,0,0,0,0,0,0,0,0,0,0,0,0,0],"id":5,"left_children":[1,3,5,7,9,11,13,15,17,19,21,23,25,27,29,31,33,35,37,39,41,43,45,47,49,51,53,55,57,59,61,63,65,67,69,71,-1,73,75,77,79,81,83,85,87,89,91,-1,93,95,97,99,101,103,105,107,109,111,113,115,117,119,121,-1,-1,-1,-1,-1,-1,-1,-1,-1,-1,-1,-1,-1,-1,-1,-1,-1,-1,-1,-1,-1,-1,-1,-1,-1,-1,-1,-1,-1,-1,-1,-1,-1,-1,-1,-1,-1,-1,-1,-1,-1,-1,-1,-1,-1,-1,-1,-1,-1,-1,-1,-1,-1,-1,-1,-1,-1,-1,-1,-1],"loss_changes":[5.2035797E5,7.584819E4,1.0904781E5,4.8503625E4,5.0652938E4,1.9246328E4,3.363025E4,5.864893E4,1.1903979E4,3.314028E4,2.0741078E4,1.3139802E3,2.2107559E4,2.6919562E4,1.18378545E4,1.2643336E4,2.8366406E4,5.4356777E3,2.4173896E3,1.0221172E4,1.919846E4,1.7381129E4,2.522025E3,5.5087396E2,8.40094E2,2.4152477E4,1.4994855E4,1.3947445E4,3.1907031E4,1.0581986E4,5.7897046E2,2.1125498E3,3.1478428E3,9.78243E3,3.1719234E4,2.7237537E3,0E0,1.6692676E3,2.2673022E3,2.7360312E3,3.7276946E3,1.3668299E4,4.0939922E3,3.5622827E3,9.77532E3,1.1762714E3,1.9943984E3,0E0,3.739927E1,4.8534204E2,1.7616572E3,4.7033093E2,2.8294055E4,4.233861E3,1.3512801E4,5.2726943E3,9.844434E3,3.4604906E4,6.898836E3,1.9806052E3,1.1319766E4,2.2141045E3,1.666106E2,0E0,0E0,0E0,0E0,0E0,0E0,0E0,0E0,0E0,0E0,0E0,0E0,0E0,0E0,0E0,0E0,0E0,0E0,0E0,0E0,0E0,0E0,0E0,0E0,0E0,0E0,0E0,0E0,0E0,0E0,0E0,0E0,0E0,0E0,0E0,0E0,0E0,0E0,0E0,0E0,0E0,0E0,0E0,0E0,0E0,0E0,0E0,0E0,0E0,0E0,0E0,0E0,0E0,0E0,0E0,0E0,0E0,0E0,0E0,0E0],"parents":[2147483647,0,0,1,1,2,2,3,3,4,4,5,5,6,6,7,7,8,8,9,9,10,10,11,11,12,12,13,13,14,14,15,15,16,16,17,17,18,18,19,19,20,20,21,21,22,22,23,23,24,24,25,25,26,26,27,27,28,28,29,29,30,30,31,31,32,32,33,33,34,34,35,35,37,37,38,38,39,39,40,40,41,41,42,42,43,43,44,44,45,45,46,46,48,48,49,49,50,50,51,51,52,52,53,53,54,54,55,55,56,56,57,57,58,58,59,59,60,60,61,61,62,62],"right_children":[2,4,6,8,10,12,14,16,18,20,22,24,26,28,30,32,34,36,38,40,42,44,46,48,50,52,54,56,58,60,62,64,66,68,70,72,-1,74,76,78,80,82,84,86,88,90,92,-1,94,96,98,100,102,104,106,108,110,112,114,116,118,120,122,-1,-1,-1,-1,-1,-1,-1,-1,-1,-1,-1,-1,-1,-1,-1,-1,-1,-1,-1,-1,-1,-1,-1,-1,-1,-1,-1,-1,-1,-1,-1,-1,-1,-1,-1,-1,-1,-1,-1,-1,-1,-1,-1,-1,-1,-1,-1,-1,-1,-1,-1,-1,-1,-1,-1,-1,-1,-1,-1,-1],"split_conditions":[1.66E1,4.7E1,5.1E1,2.67E1,3.52E1,-1.8369701E-16,8.660254E-1,-1.8369701E-16,6.123234E-17,0E0,-9.405307E0,3.1E1,2.17E1,-1.8369701E-16,-7.284421E0,-5E-1,9.681E2,5.74E1,1.71E1,1.51E1,7.4E1,2.5E1,9.654E2,3.9E0,-2.5881904E-1,2.6E1,2.93E1,3.3E0,6.9E1,0E0,-5.727565E0,1.5E1,2.14E1,2.12E1,1.94E1,9.4E0,2.3826606E0,3.02E1,1.09E2,1.08E1,-7.206902E0,1.55E1,1.3E1,7.0710677E-1,-7.0710677E-1,7.8E1,4.44E1,8.687214E-1,8.6E0,2.94E1,2.53E1,9.678E2,1.64E1,2.1E0,1.7E0,2.99E1,4.7E1,2.66E1,9.575E2,6.3E1,4.44E1,2.82E1,1.9E1,-3.69963E-1,-2.4207538E-2,4.941279E-1,1.2924825E-1,1.2375653E0,3.949162E-2,1.1842419E0,3.200216E0,-1.3052575E-2,3.994808E-1,-6.666093E-2,-3.1701347E-1,-1.688354E-1,3.7902075E-1,-3.0478638E-1,-1.8911557E-1,1.6625373E-1,-1.5819798E-1,-3.0846572E-2,3.5284075E-1,-1.6976462E-1,-4.8210856E-2,1.0332426E-2,1.7598053E0,5.7470164E0,1.9507204E0,6.1365074E-1,-1.22568466E-1,4.0876648E-1,1.3948911E0,1.4321876E-1,-1.2638347E-1,-2.963901E-1,2.2993703E-1,-9.589768E-2,2.632668E-1,-2.8033292E-1,1.6726218E-1,1.7750534E0,4.9798796E-1,2.3243406E-1,-3.4337934E-2,1.9740162E0,4.355611E-1,1.0550416E-2,5.0459325E-1,1.508256E0,5.472011E-1,1.2983803E0,7.6713854E-1,-1.05509415E-1,5.594381E-1,1.9806997E-1,-3.0120993E-1,9.6225196E-1,7.367343E-2,-1.7554058E-1,7.804174E-1,7.977932E-2,-2.0317157E-1],"split_indices":[13,3,1,2,12,11,11,11,11,8,7,3,2,11,7,11,5,12,12,12,3,2,5,0,8,1,12,0,3,8,7,2,2,2,12,13,0,2,1,13,7,12,13,8,9,1,12,0,0,2,2,5,12,0,0,13,3,2,5,3,13,2,2,0,0,0,0,0,0,0,0,0,0,0,0,0,0,0,0,0,0,0,0,0,0,0,0,0,0,0,0,0,0,0,0,0,0,0,0,0,0,0,0,0,0,0,0,0,0,0,0,0,0,0,0,0,0,0,0,0,0,0,0],"split_type":[0,0,0,0,0,0,0,0,0,0,0,0,0,0,0,0,0,0,0,0,0,0,0,0,0,0,0,0,0,0,0,0,0,0,0,0,0,0,0,0,0,0,0,0,0,0,0,0,0,0,0,0,0,0,0,0,0,0,0,0,0,0,0,0,0,0,0,0,0,0,0,0,0,0,0,0,0,0,0,0,0,0,0,0,0,0,0,0,0,0,0,0,0,0,0,0,0,0,0,0,0,0,0,0,0,0,0,0,0,0,0,0,0,0,0,0,0,0,0,0,0,0,0],"sum_hessian":[1.8637E4,1.4278E4,4.359E3,1.364E3,1.2914E4,1.628E3,2.731E3,7.03E2,6.61E2,1.2851E4,6.3E1,5.55E2,1.073E3,2.291E3,4.4E2,4.39E2,2.64E2,1.66E2,4.95E2,5.818E3,7.033E3,2E1,4.3E1,8E0,5.47E2,2.42E2,8.31E2,4.26E2,1.865E3,3.11E2,1.29E2,1.78E2,2.61E2,8.8E1,1.76E2,1.64E2,2E0,4.16E2,7.9E1,5.46E3,3.58E2,1.257E3,5.776E3,1.1E1,9E0,2.1E1,2.2E1,4E0,4E0,6.4E1,4.83E2,5.4E1,1.88E2,6.71E2,1.6E2,2.57E2,1.69E2,1.325E3,5.4E2,1.39E2,1.72E2,3.1E1,9.8E1,7.9E1,9.9E1,1.69E2,9.2E1,2.2E1,6.6E1,1.54E2,2.2E1,6.8E1,9.6E1,8.4E1,3.32E2,5E1,2.9E1,4.882E3,5.78E2,1.56E2,2.02E2,9.51E2,3.06E2,4.97E3,8.06E2,5E0,6E0,4E0,5E0,8E0,1.3E1,1.1E1,1.1E1,3E0,1E0,6E1,4E0,4.47E2,3.6E1,4.8E1,6E0,6.8E1,1.2E2,2.21E2,4.5E2,1.5E1,1.45E2,1.81E2,7.6E1,3.3E1,1.36E2,4.92E2,8.33E2,4.2E1,4.98E2,1.16E2,2.3E1,1.21E2,5.1E1,2.4E1,7E0,5E0,9.3E1],"tree_param":{"num_deleted":"0","num_feature":"16","num_nodes":"123","size_leaf_vector":"1"}},{"base_weights":[-3.538601E-4,9.362753E0,-3.7312334E0,1.7058084E1,5.5791235E0,1.9825417E-1,-4.8548408E0,1.9704557E1,9.284024E0,3.0227551E0,1.1311085E1,-1.0119475E0,7.6572275E0,-6.3466578E0,-3.583585E0,2.0883915E1,1.6204771E0,7.870264E0,2.5976088E1,6.7224827E0,1.7688789E0,9.663686E0,2.1515444E1,7.707499E0,-1.543419E0,1.4645051E1,-4.742375E-1,-5.9785376E0,-6.833917E0,-6.4866395E0,-3.4802234E0,1.5714198E1,2.5681679E1,7.0034385E0,-4.513413E0,6.024086E0,1.7176573E1,1.4346225E1,2.4494436E0,1.0714549E1,3.5968907E0,1.5841029E0,3.505492E1,4.178126E-1,1.1061995E1,1.2114755E1,4.0074528E1,2.0264132E1,-1.9162998E0,-2.275924E0,7.0941865E-1,3.636726E0,2.0429745E1,-6.5596724E0,1.7459868E0,-6.2784357E0,-5.446837E0,-6.877979E0,1.1122322E0,-5.3523374E0,-7.6493793E0,-4.8691077E0,-3.292196E0,5.110568E-1,1.2629864E0,6.1785925E-2,1.3651875E0,8.7580776E-1,2.2363697E-1,-4.18567E-1,9.800823E-2,5.558826E-1,2.0941675E-1,7.6028126E-1,2.2208796E0,5.312521E-1,2.4983356E0,4.3121657E-1,2.1678865E0,3.2350504E-1,-6.847703E-2,4.3627817E-2,2.687569E-1,1.9562399E0,-3.934927E-2,-6.1545897E-2,3.3398008E-1,5.8494157E-1,-4.3322706E-1,1.1424225E-1,9.1306174E-1,2.4742477E0,8.492282E-1,1.2637423E0,5.5342996E-1,8.0209064E-1,-1.514316E-1,-1.580214E-1,-6.919677E-2,1.9538747E-1,-6.457543E-2,-2.391574E-1,3.8883626E-1,8.1262875E-1,3.063629E0,3.380994E-1,-3.6207065E-1,-7.591909E-2,5.119399E-1,4.7420682E-3,-3.1523132E-1,-2.5361457E-1,-3.1023422E-1,-3.4986657E-1,-2.6869023E-1,-1.9664653E-2,1.12189606E-1,-1.9101661E-1,-3.2302392E-1,-3.971751E-1,-5.0088264E-2,-1.9593881E-1,-3.0149192E-1,3.0085742E-1,-1.6576369E-1],"categories":[],"categories_nodes":[],"categories_segments":[],"categories_sizes":[],"default_left":[0,0,0,0,0,0,0,0,0,0,0,0,0,0,0,0,0,0,0,0,0,0,0,0,0,0,0,0,0,0,0,0,0,0,0,0,0,0,0,0,0,0,0,0,0,0,0,0,0,0,0,0,0,0,0,0,0,0,0,0,0,0,0,0,0,0,0,0,0,0,0,0,0,0,0,0,0,0,0,0,0,0,0,0,0,0,0,0,0,0,0,0,0,0,0,0,0,0,0,0,0,0,0,0,0,0,0,0,0,0,0,0,0,0,0,0,0,0,0,0,0,0,0,0,0],"id":6,"left_children":[1,3,5,7,9,11,13,15,17,19,21,23,25,27,29,31,33,35,37,39,41,43,45,47,49,51,53,55,57,59,61,63,65,67,69,71,73,75,-1,77,79,81,83,85,87,89,91,93,95,97,99,101,103,105,107,109,111,113,115,117,119,121,123,-1,-1,-1,-1,-1,-1,-1,-1,-1,-1,-1,-1,-1,-1,-1,-1,-1,-1,-1,-1,-1,-1,-1,-1,-1,-1,-1,-1,-1,-1,-1,-1,-1,-1,-1,-1,-1,-1,-1,-1,-1,-1,-1,-1,-1,-1,-1,-1,-1,-1,-1,-1,-1,-1,-1,-1,-1,-1,-1,-1,-1,-1],"loss_changes":[6.4328425E5,1.5267797E5,5.814033E4,3.538928E4,5.1529742E4,2.6447428E4,1.9397203E4,2.7457375E4,1.0202535E4,1.1284074E4,1.803164E4,1.1694558E4,2.324683E4,8.0396875E2,1.6370859E3,2.9608188E4,2.6730889E3,6.906414E3,8.396801E3,7.6476445E3,1.1138308E4,1.2096531E4,2.5684734E4,1.7560996E4,3.9241743E3,1.3935254E4,2.5785488E3,3.9489844E2,7.148906E2,2.0832959E2,1.3792891E3,3.0415797E4,2.4789125E4,1.0656492E3,9.654436E2,3.1513125E3,2.921877E3,2.6503096E3,0E0,1.8048533E4,4.9604126E3,4.880478E3,1.4895117E3,1.2883984E3,1.0314758E4,6.060629E3,1.0023844E4,2.623045E3,1.706542E3,1.4110342E3,3.7424287E3,2.7212842E3,2.357164E4,5.121443E2,3.8968596E3,2.8670312E2,2.4613086E2,3.2307812E2,2.1325573E1,1.4338916E2,1.699668E2,6.768262E2,1.0316289E3,0E0,0E0,0E0,0E0,0E0,0E0,0E0,0E0,0E0,0E0,0E0,0E0,0E0,0E0,0E0,0E0,0E0,0E0,0E0,0E0,0E0,0E0,0E0,0E0,0E0,0E0,0E0,0E0,0E0,0E0,0E0,0E0,0E0,0E0,0E0,0E0,0E0,0E0,0E0,0E0,0E0,0E0,0E0,0E0,0E0,0E0,0E0,0E0,0E0,0E0,0E0,0E0,0E0,0E0,0E0,0E0,0E0,0E0,0E0,0E0,0E0,0E0],"parents":[2147483647,0,0,1,1,2,2,3,3,4,4,5,5,6,6,7,7,8,8,9,9,10,10,11,11,12,12,13,13,14,14,15,15,16,16,17,17,18,18,19,19,20,20,21,21,22,22,23,23,24,24,25,25,26,26,27,27,28,28,29,29,30,30,31,31,32,32,33,33,34,34,35,35,36,36,37,37,39,39,40,40,41,41,42,42,43,43,44,44,45,45,46,46,47,47,48,48,49,49,50,50,51,51,52,52,53,53,54,54,55,55,56,56,57,57,58,58,59,59,60,60,61,61,62,62],"right_children":[2,4,6,8,10,12,14,16,18,20,22,24,26,28,30,32,34,36,38,40,42,44,46,48,50,52,54,56,58,60,62,64,66,68,70,72,74,76,-1,78,80,82,84,86,88,90,92,94,96,98,100,102,104,106,108,110,112,114,116,118,120,122,124,-1,-1,-1,-1,-1,-1,-1,-1,-1,-1,-1,-1,-1,-1,-1,-1,-1,-1,-1,-1,-1,-1,-1,-1,-1,-1,-1,-1,-1,-1,-1,-1,-1,-1,-1,-1,-1,-1,-1,-1,-1,-1,-1,-1,-1,-1,-1,-1,-1,-1,-1,-1,-1,-1,-1,-1,-1,-1,-1,-1,-1,-1],"split_conditions":[-5E-1,-8.660254E-1,-2.4492937E-16,7E1,2.5E1,2.3141666E1,0E0,9.550833E1,9.693E2,2.05E1,6.3179165E1,4.883333E0,1.082553E1,8.660254E-1,1.45E1,6.6692553E0,2.82E1,1.548991E1,1.8E1,5.6E1,1.43E2,9.581E2,1.3348781E1,4.6E1,1.48E1,-2.5881904E-1,1.2600359E1,-5E-1,1.4808333E1,7.6875E0,4.7E0,3.6E0,2.8E1,1.749929E1,1.05541664E2,9.606E2,1.16E2,9.727E2,2.4494436E0,1.9054167E1,4.984103E0,2.09E1,8.6E0,1.548991E1,9.714E2,1.6325893E1,4.494964E1,9.739E2,-1.1807366E1,0E0,-7.580077E0,3.23E1,2.1205956E1,1.2202773E1,1.22E2,-2.4209278E1,9.657E2,9.4E0,9.632E2,3.17181E0,9.9E1,8.660254E-1,4.3E1,5.110568E-1,1.2629864E0,6.1785925E-2,1.3651875E0,8.7580776E-1,2.2363697E-1,-4.18567E-1,9.800823E-2,5.558826E-1,2.0941675E-1,7.6028126E-1,2.2208796E0,5.312521E-1,2.4983356E0,4.3121657E-1,2.1678865E0,3.2350504E-1,-6.847703E-2,4.3627817E-2,2.687569E-1,1.9562399E0,-3.934927E-2,-6.1545897E-2,3.3398008E-1,5.8494157E-1,-4.3322706E-1,1.1424225E-1,9.1306174E-1,2.4742477E0,8.492282E-1,1.2637423E0,5.5342996E-1,8.0209064E-1,-1.514316E-1,-1.580214E-1,-6.919677E-2,1.9538747E-1,-6.457543E-2,-2.391574E-1,3.8883626E-1,8.1262875E-1,3.063629E0,3.380994E-1,-3.6207065E-1,-7.591909E-2,5.119399E-1,4.7420682E-3,-3.1523132E-1,-2.5361457E-1,-3.1023422E-1,-3.4986657E-1,-2.6869023E-1,-1.9664653E-2,1.12189606E-1,-1.9101661E-1,-3.2302392E-1,-3.971751E-1,-5.0088264E-2,-1.9593881E-1,-3.0149192E-1,3.0085742E-1,-1.6576369E-1],"split_indices":[10,10,10,3,13,14,8,14,5,2,14,14,15,10,2,15,2,15,2,3,1,5,6,3,13,8,6,8,14,14,13,0,3,15,14,5,1,5,0,14,15,13,0,15,5,15,15,5,6,8,7,2,6,15,1,6,5,0,5,7,3,10,3,0,0,0,0,0,0,0,0,0,0,0,0,0,0,0,0,0,0,0,0,0,0,0,0,0,0,0,0,0,0,0,0,0,0,0,0,0,0,0,0,0,0,0,0,0,0,0,0,0,0,0,0,0,0,0,0,0,0,0,0,0,0],"split_type":[0,0,0,0,0,0,0,0,0,0,0,0,0,0,0,0,0,0,0,0,0,0,0,0,0,0,0,0,0,0,0,0,0,0,0,0,0,0,0,0,0,0,0,0,0,0,0,0,0,0,0,0,0,0,0,0,0,0,0,0,0,0,0,0,0,0,0,0,0,0,0,0,0,0,0,0,0,0,0,0,0,0,0,0,0,0,0,0,0,0,0,0,0,0,0,0,0,0,0,0,0,0,0,0,0,0,0,0,0,0,0,0,0,0,0,0,0,0,0,0,0,0,0,0,0],"sum_hessian":[1.8413E4,5.246E3,1.3167E4,1.728E3,3.518E3,2.928E3,1.0239E4,1.288E3,4.4E2,2.434E3,1.084E3,2.52E3,4.08E2,4.709E3,5.53E3,1.209E3,7.9E1,4.07E2,3.3E1,6.15E2,1.819E3,9.35E2,1.49E2,1.44E2,2.376E3,2.19E2,1.89E2,2.69E3,2.019E3,1.88E2,5.342E3,5.84E2,6.25E2,4.2E1,3.7E1,3.41E2,6.6E1,2.3E1,1E1,2.69E2,3.46E2,1.81E3,9E0,1.23E2,8.12E2,1E2,4.9E1,6.2E1,8.2E1,1.793E3,5.83E2,7.6E1,1.43E2,5E1,1.39E2,1.713E3,9.77E2,2.008E3,1.1E1,9.8E1,9E1,6.34E2,4.708E3,3.72E2,2.12E2,3.9E1,5.86E2,7E0,3.5E1,2.3E1,1.4E1,8.9E1,2.52E2,6.3E1,3E0,2.2E1,1E0,2.54E2,1.5E1,2.19E2,1.27E2,1.525E3,2.85E2,8E0,1E0,9.8E1,2.5E1,7.87E2,2.5E1,3.9E1,6.1E1,3.4E1,1.5E1,3.9E1,2.3E1,4E0,7.8E1,8.99E2,8.94E2,2.24E2,3.59E2,2.5E1,5.1E1,1.31E2,1.2E1,2E0,4.8E1,1.01E2,3.8E1,7E0,1.706E3,6.59E2,3.18E2,1.857E3,1.51E2,5E0,6E0,4.3E1,5.5E1,8.6E1,4E0,3.51E2,2.83E2,1.1E1,4.697E3],"tree_param":{"num_deleted":"0","num_feature":"16","num_nodes":"125","size_leaf_vector":"1"}},{"base_weights":[-2.7552215E-2,8.945627E0,-3.572493E0,1.629945E1,5.3847284E0,1.1545275E-1,-4.6070495E0,1.88871E1,8.498417E0,3.0026243E0,1.0828013E1,-1.5507797E0,3.4086142E0,-6.015198E0,-3.417667E0,1.7682665E1,3.36078E1,6.353028E0,1.7610723E1,6.7111373E0,1.7715149E0,8.835422E0,1.8629889E1,2.6979508E0,-2.4111872E0,4.034864E-2,8.194119E0,-5.6727104E0,-6.4607053E0,-4.443471E0,-2.5405157E0,2.1611708E1,1.0797783E1,4.6367683E0,3.0029041E1,-1.2322083E0,7.6002145E0,1.290537E1,2.56029E1,4.5433044E0,1.3740098E1,1.5481788E0,2.8974855E1,2.0026869E1,7.0960226E0,1.0255322E1,2.5905321E1,1.4591401E1,-2.630118E-1,-4.2832875E0,-1.6709646E0,3.7637465E0,-1.5846763E0,2.8778498E0,1.3140506E1,-5.845799E0,-4.902198E0,-6.488863E0,6.64664E-1,-6.2507153E0,-4.0839777E0,-6.2395244E0,-2.4253151E0,1.17503E0,4.1042842E-2,1.1303811E0,3.6201128E-1,1.942117E0,1.0924512E0,7.1240865E-2,-3.017483E-1,2.96972E-1,6.284802E-1,1.8597735E-1,8.964612E-1,-1.7910121E-1,1.3386574E0,3.621846E-1,7.6218233E-3,1.2163052E-2,9.838137E-1,-1.7775372E-2,1.4045016E-1,3.977207E-1,1.7947762E0,2.811654E0,7.828331E-1,3.295575E-1,2.3825538E0,1.1020411E0,1.7969237E-1,2.0478747E0,7.7143943E-1,-1.3858657E-1,1.2756327E0,-8.408892E-2,4.650267E-1,-1.5909113E-1,-2.6829833E-1,-1.5029335E-2,-1.5470386E-1,3.34974E-1,-3.1559202E-1,1.4419596E-2,-1.9314635E-1,2.4963954E-1,-6.817957E-2,3.800726E-1,1.2383269E0,-3.0342874E-1,-2.6186436E-1,-2.4724033E-1,1.5251055E-2,-3.2987818E-1,-2.6891658E-1,-2.982441E-2,8.9644164E-2,-3.147414E-1,3.1463516E-1,-1.7305128E-1,-2.2628199E-1,-4.58695E-1,-2.94289E-1,-8.461313E-2,-1.4372538E-1],"categories":[],"categories_nodes":[],"categories_segments":[],"categories_sizes":[],"default_left":[0,0,0,0,0,0,0,0,0,0,0,0,0,0,0,0,0,0,0,0,0,0,0,0,0,0,0,0,0,0,0,0,0,0,0,0,0,0,0,0,0,0,0,0,0,0,0,0,0,0,0,0,0,0,0,0,0,0,0,0,0,0,0,0,0,0,0,0,0,0,0,0,0,0,0,0,0,0,0,0,0,0,0,0,0,0,0,0,0,0,0,0,0,0,0,0,0,0,0,0,0,0,0,0,0,0,0,0,0,0,0,0,0,0,0,0,0,0,0,0,0,0,0,0,0],"id":7,"left_children":[1,3,5,7,9,11,13,15,17,19,21,23,25,27,29,31,33,35,37,39,41,43,45,47,49,51,53,55,57,59,61,63,65,-1,67,69,71,73,75,77,79,81,83,85,87,89,91,93,95,97,99,101,103,105,107,109,111,113,115,117,119,121,123,-1,-1,-1,-1,-1,-1,-1,-1,-1,-1,-1,-1,-1,-1,-1,-1,-1,-1,-1,-1,-1,-1,-1,-1,-1,-1,-1,-1,-1,-1,-1,-1,-1,-1,-1,-1,-1,-1,-1,-1,-1,-1,-1,-1,-1,-1,-1,-1,-1,-1,-1,-1,-1,-1,-1,-1,-1,-1,-1,-1,-1,-1],"loss_changes":[5.892691E5,1.372851E5,5.066508E4,3.4378312E4,4.5816938E4,1.5972958E4,1.7347406E4,2.2171219E4,8.255281E3,1.1224016E4,1.6562844E4,7.072857E3,1.5763905E4,6.8765625E2,5.0491016E3,3.1930281E4,1.7529156E4,3.3015156E3,2.7156738E3,9.27823E3,1.1188715E4,1.6579516E4,1.3016766E4,1.1484275E4,2.221162E3,3.4850676E3,1.05859E4,3.303672E2,4.168125E2,1.6578242E3,1.2777383E3,2.9670094E4,1.8070477E4,0E0,5.783883E3,6.4665125E2,2.393002E3,2.379168E3,1.0863555E3,5.571706E3,1.1532436E4,4.405392E3,1.8966045E3,1.7315867E4,1.4939914E4,8.0071953E3,1.7660648E4,1.2396476E4,3.5705728E3,5.255293E2,2.249603E3,5.2186523E3,1.7123088E3,1.7650061E3,1.3270754E4,2.6551562E2,1.12444336E2,2.1175E2,1.3875139E1,2.764336E2,5.7972656E2,4.0464355E1,9.64541E2,0E0,0E0,0E0,0E0,0E0,0E0,0E0,0E0,0E0,0E0,0E0,0E0,0E0,0E0,0E0,0E0,0E0,0E0,0E0,0E0,0E0,0E0,0E0,0E0,0E0,0E0,0E0,0E0,0E0,0E0,0E0,0E0,0E0,0E0,0E0,0E0,0E0,0E0,0E0,0E0,0E0,0E0,0E0,0E0,0E0,0E0,0E0,0E0,0E0,0E0,0E0,0E0,0E0,0E0,0E0,0E0,0E0,0E0,0E0,0E0,0E0,0E0],"parents":[2147483647,0,0,1,1,2,2,3,3,4,4,5,5,6,6,7,7,8,8,9,9,10,10,11,11,12,12,13,13,14,14,15,15,16,16,17,17,18,18,19,19,20,20,21,21,22,22,23,23,24,24,25,25,26,26,27,27,28,28,29,29,30,30,31,31,32,32,34,34,35,35,36,36,37,37,38,38,39,39,40,40,41,41,42,42,43,43,44,44,45,45,46,46,47,47,48,48,49,49,50,50,51,51,52,52,53,53,54,54,55,55,56,56,57,57,58,58,59,59,60,60,61,61,62,62],"right_children":[2,4,6,8,10,12,14,16,18,20,22,24,26,28,30,32,34,36,38,40,42,44,46,48,50,52,54,56,58,60,62,64,66,-1,68,70,72,74,76,78,80,82,84,86,88,90,92,94,96,98,100,102,104,106,108,110,112,114,116,118,120,122,124,-1,-1,-1,-1,-1,-1,-1,-1,-1,-1,-1,-1,-1,-1,-1,-1,-1,-1,-1,-1,-1,-1,-1,-1,-1,-1,-1,-1,-1,-1,-1,-1,-1,-1,-1,-1,-1,-1,-1,-1,-1,-1,-1,-1,-1,-1,-1,-1,-1,-1,-1,-1,-1,-1,-1,-1,-1,-1,-1,-1,-1,-1],"split_conditions":[-5E-1,-8.660254E-1,-2.4492937E-16,7E1,2.5E1,1.48E1,0E0,1.33E2,1.548991E1,2.05E1,1.548991E1,4.6E1,1.2538577E1,8.660254E-1,-1.8369701E-16,2.71E1,5.4834666E0,3.4E1,5E-1,-1.8369701E-16,1.37E2,4.317438E0,2.69E1,1.6719987E0,-5E-1,-7.5518446E0,0E0,8.660254E-1,7.8781433E0,2.5881904E-1,1.48E1,1.48E1,-5E-1,4.6367683E0,5.74E1,7.7E0,1.4728078E1,8.2E1,-1.1910524E1,6.1E1,5E-1,1.15E1,-7.4238915E0,-1.36324E1,1E2,2.0952263E1,2.4760115E1,-5E-1,1.1924412E1,6.1E1,8.1E1,9.027879E0,5.60256E0,1.0152647E1,2.83E1,6.1E1,1.1502053E1,9.659258E-1,2.4E1,2.24E1,2.4363158E0,-2.1190742E1,2.32E1,1.17503E0,4.1042842E-2,1.1303811E0,3.6201128E-1,1.942117E0,1.0924512E0,7.1240865E-2,-3.017483E-1,2.96972E-1,6.284802E-1,1.8597735E-1,8.964612E-1,-1.7910121E-1,1.3386574E0,3.621846E-1,7.6218233E-3,1.2163052E-2,9.838137E-1,-1.7775372E-2,1.4045016E-1,3.977207E-1,1.7947762E0,2.811654E0,7.828331E-1,3.295575E-1,2.3825538E0,1.1020411E0,1.7969237E-1,2.0478747E0,7.7143943E-1,-1.3858657E-1,1.2756327E0,-8.408892E-2,4.650267E-1,-1.5909113E-1,-2.6829833E-1,-1.5029335E-2,-1.5470386E-1,3.34974E-1,-3.1559202E-1,1.4419596E-2,-1.9314635E-1,2.4963954E-1,-6.817957E-2,3.800726E-1,1.2383269E0,-3.0342874E-1,-2.6186436E-1,-2.4724033E-1,1.5251055E-2,-3.2987818E-1,-2.6891658E-1,-2.982441E-2,8.9644164E-2,-3.147414E-1,3.1463516E-1,-1.7305128E-1,-2.2628199E-1,-4.58695E-1,-2.94289E-1,-8.461313E-2,-1.4372538E-1],"split_indices":[10,10,10,3,13,13,8,1,15,2,15,3,6,10,9,2,15,1,9,11,1,15,2,15,8,7,8,9,15,8,2,0,9,0,13,0,6,3,7,3,8,13,7,6,3,15,15,11,7,3,3,15,15,15,2,1,7,9,1,0,15,6,2,0,0,0,0,0,0,0,0,0,0,0,0,0,0,0,0,0,0,0,0,0,0,0,0,0,0,0,0,0,0,0,0,0,0,0,0,0,0,0,0,0,0,0,0,0,0,0,0,0,0,0,0,0,0,0,0,0,0,0,0,0,0],"split_type":[0,0,0,0,0,0,0,0,0,0,0,0,0,0,0,0,0,0,0,0,0,0,0,0,0,0,0,0,0,0,0,0,0,0,0,0,0,0,0,0,0,0,0,0,0,0,0,0,0,0,0,0,0,0,0,0,0,0,0,0,0,0,0,0,0,0,0,0,0,0,0,0,0,0,0,0,0,0,0,0,0,0,0,0,0,0,0,0,0,0,0,0,0,0,0,0,0,0,0,0,0,0,0,0,0,0,0,0,0,0,0,0,0,0,0,0,0,0,0,0,0,0,0,0,0],"sum_hessian":[1.8523E4,5.245E3,1.3278E4,1.71E3,3.535E3,2.909E3,1.0369E4,1.283E3,4.27E2,2.46E3,1.075E3,1.932E3,9.77E2,4.746E3,5.623E3,1.188E3,9.5E1,3.47E2,8E1,6.12E2,1.848E3,8.58E2,2.17E2,3.25E2,1.607E3,5.74E2,4.03E2,2.691E3,2.055E3,2.59E3,3.033E3,7.55E2,4.33E2,4E0,9.1E1,4.9E1,2.98E2,5.2E1,2.8E1,4.69E2,1.43E2,1.834E3,1.4E1,1.14E2,7.44E2,1.02E2,1.15E2,6.4E1,2.61E2,4.54E2,1.153E3,1.74E2,4E2,1.95E2,2.08E2,2.192E3,4.99E2,2.047E3,8E0,4.27E2,2.163E3,9E1,2.943E3,6.92E2,6.3E1,9.9E1,3.34E2,4.2E1,4.9E1,3.2E1,1.7E1,2.25E2,7.3E1,1.9E1,3.3E1,1E0,2.7E1,2.9E2,1.79E2,4.4E1,9.9E1,7.31E2,1.103E3,4E0,1E1,1.1E1,1.03E2,7.36E2,8E0,3.6E1,6.6E1,4.6E1,6.9E1,2.5E1,3.9E1,2.28E2,3.3E1,2.27E2,2.27E2,5.88E2,5.65E2,1.35E2,3.9E1,2.2E2,1.8E2,1.3E2,6.5E1,1.42E2,6.6E1,1.598E3,5.94E2,4.95E2,4E0,1.86E3,1.87E2,4E0,4E0,4.26E2,1E0,9.01E2,1.262E3,7E0,8.3E1,1.12E3,1.823E3],"tree_param":{"num_deleted":"0","num_feature":"16","num_nodes":"125","size_leaf_vector":"1"}},{"base_weights":[1.6925731E-1,9.043155E0,-3.3706458E0,1.6224787E1,5.5127435E0,2.6155844E-1,-4.3827405E0,1.8783663E1,8.522625E0,2.6874783E0,9.909061E0,-9.0816486E-1,7.3740983E0,-5.6332765E0,-3.307944E0,1.4656486E1,2.385555E1,6.2030573E0,1.8738169E1,5.6996813E0,1.3990289E0,8.628378E0,2.0073555E1,6.8777814E0,-1.3708684E0,1.36721735E1,-2.574958E-1,-5.2980895E0,-6.0836897E0,-4.3451853E0,-3.1043332E0,1.0021468E1,2.3620758E1,2.7840715E1,7.3955665E0,5.4082856E0,2.6756775E1,1.56564865E1,2.923755E1,4.524271E0,1.629951E1,-3.0985334E0,2.1279416E0,1.7156713E1,6.5435724E0,1.3667762E1,3.9960316E1,1.855228E1,-7.572213E-1,-2.2257009E0,1.1075807E0,2.8992844E0,1.9562166E1,-6.68456E0,1.3944361E0,1.49914E0,-5.3160086E0,-6.1113515E0,8.1008804E-1,-3.5928414E0,-5.2827673E0,-3.2773764E0,-2.2330937E0,3.853571E-1,1.2694107E0,1.6450373E0,4.6825275E-1,1.5377793E0,1.11422434E-1,-3.5754275E-2,7.830528E-1,5.419787E-1,1.8471582E-1,1.795479E0,2.4651864E-1,5.7709885E-1,1.2765062E0,2.070315E0,2.969224E-1,2.931486E-1,-5.4190762E-2,1.5657524E0,3.8443163E-1,1.24216914E-1,-2.2298022E-1,2.0104729E-1,2.0334236E-2,4.882492E0,7.34302E-1,1.5908253E-1,4.8380136E-1,2.581806E-1,1.2369317E0,2.5523705E0,1.110902E0,-3.854441E-2,1.1431724E0,9.799186E-1,-7.419213E-2,-1.5756448E-1,-6.3305736E-2,-8.1716634E-2,2.1130514E-1,-1.7890866E-1,3.8823783E-1,7.133591E-1,2.2097802E0,-3.3894387E-1,-7.987025E-2,-1.3295519E-2,1.0116929E0,-1.3678116E-1,1.6833325E-1,-2.550988E-1,-2.9323086E-1,-3.1789E-1,-2.7122438E-1,-5.025808E-2,7.3616266E-2,-1.4888023E-1,-2.4561858E-1,-3.2050228E-1,-2.2981267E-1,-1.1773198E-1,-1.7563003E-1,8.446027E-2,-1.2189495E-1],"categories":[],"categories_nodes":[],"categories_segments":[],"categories_sizes":[],"default_left":[0,0,0,0,0,0,0,0,0,0,0,0,0,0,0,0,0,0,0,0,0,0,0,0,0,0,0,0,0,0,0,0,0,0,0,0,0,0,0,0,0,0,0,0,0,0,0,0,0,0,0,0,0,0,0,0,0,0,0,0,0,0,0,0,0,0,0,0,0,0,0,0,0,0,0,0,0,0,0,0,0,0,0,0,0,0,0,0,0,0,0,0,0,0,0,0,0,0,0,0,0,0,0,0,0,0,0,0,0,0,0,0,0,0,0,0,0,0,0,0,0,0,0,0,0,0,0],"id":8,"left_children":[1,3,5,7,9,11,13,15,17,19,21,23,25,27,29,31,33,35,37,39,41,43,45,47,49,51,53,55,57,59,61,63,65,67,69,71,73,75,77,79,81,83,85,87,89,91,93,95,97,99,101,103,105,107,109,111,113,115,117,119,121,123,125,-1,-1,-1,-1,-1,-1,-1,-1,-1,-1,-1,-1,-1,-1,-1,-1,-1,-1,-1,-1,-1,-1,-1,-1,-1,-1,-1,-1,-1,-1,-1,-1,-1,-1,-1,-1,-1,-1,-1,-1,-1,-1,-1,-1,-1,-1,-1,-1,-1,-1,-1,-1,-1,-1,-1,-1,-1,-1,-1,-1,-1,-1,-1,-1],"loss_changes":[5.8075775E5,1.3357744E5,4.8584938E4,3.407425E4,4.3893188E4,2.3975762E4,1.3873672E4,2.69255E4,1.0191371E4,8.351854E3,1.783E4,8.925828E3,1.9565707E4,6.888125E2,1.1609609E3,2.9720531E4,3.8036406E4,5.6707324E3,2.1307012E3,7.9624043E3,4.9568726E3,2.175704E4,1.9071957E4,1.2403789E4,4.95377E3,1.4093137E4,1.9734796E3,3.424297E2,3.922578E2,6.2291797E2,6.9402734E2,1.6768191E4,3.210361E4,3.4945344E4,7.720628E3,3.1622715E3,2.419999E3,2.3053428E3,4.573966E3,4.37575E3,8.0342344E3,1.6144019E3,4.2342144E3,4.649415E4,1.0394973E4,1.0981766E4,6.1441094E3,4.599426E3,1.2862993E3,1.5396709E3,5.1373374E3,2.5490547E3,1.8151898E4,7.4040527E0,4.634815E3,7.2478134E1,2.916953E2,3.0795312E2,1.2299059E1,3.977793E2,2.8241602E2,8.3366406E2,6.258777E2,0E0,0E0,0E0,0E0,0E0,0E0,0E0,0E0,0E0,0E0,0E0,0E0,0E0,0E0,0E0,0E0,0E0,0E0,0E0,0E0,0E0,0E0,0E0,0E0,0E0,0E0,0E0,0E0,0E0,0E0,0E0,0E0,0E0,0E0,0E0,0E0,0E0,0E0,0E0,0E0,0E0,0E0,0E0,0E0,0E0,0E0,0E0,0E0,0E0,0E0,0E0,0E0,0E0,0E0,0E0,0E0,0E0,0E0,0E0,0E0,0E0,0E0,0E0,0E0],"parents":[2147483647,0,0,1,1,2,2,3,3,4,4,5,5,6,6,7,7,8,8,9,9,10,10,11,11,12,12,13,13,14,14,15,15,16,16,17,17,18,18,19,19,20,20,21,21,22,22,23,23,24,24,25,25,26,26,27,27,28,28,29,29,30,30,31,31,32,32,33,33,34,34,35,35,36,36,37,37,38,38,39,39,40,40,41,41,42,42,43,43,44,44,45,45,46,46,47,47,48,48,49,49,50,50,51,51,52,52,53,53,54,54,55,55,56,56,57,57,58,58,59,59,60,60,61,61,62,62],"right_children":[2,4,6,8,10,12,14,16,18,20,22,24,26,28,30,32,34,36,38,40,42,44,46,48,50,52,54,56,58,60,62,64,66,68,70,72,74,76,78,80,82,84,86,88,90,92,94,96,98,100,102,104,106,108,110,112,114,116,118,120,122,124,126,-1,-1,-1,-1,-1,-1,-1,-1,-1,-1,-1,-1,-1,-1,-1,-1,-1,-1,-1,-1,-1,-1,-1,-1,-1,-1,-1,-1,-1,-1,-1,-1,-1,-1,-1,-1,-1,-1,-1,-1,-1,-1,-1,-1,-1,-1,-1,-1,-1,-1,-1,-1,-1,-1,-1,-1,-1,-1,-1,-1,-1,-1,-1,-1],"split_conditions":[-5E-1,-8.660254E-1,-2.4492937E-16,7E1,2.15E1,2.3141666E1,0E0,3.4E0,1.548991E1,5.1E1,6.3179165E1,4.883333E0,1.082553E1,8.660254E-1,5.2E0,3.1658333E1,1.8914675E1,9.703E2,8.87E1,2.67E1,-7.0710677E-1,-8.308866E0,1.8018103E1,4.5E1,1.46E1,-2.5881904E-1,1.0801227E1,-2.6949331E1,1.4808333E1,8.660254E-1,1.26E1,9.71E2,5.33E1,1.48E1,4.8E1,9.606E2,8.2E1,9.68E2,8.660254E-1,6.133442E0,1.34E1,8E0,3.835076E0,9.629E2,2.64875E1,7.89E1,9.9E1,-5E-1,3.5791667E0,0E0,3.604269E0,1.6876158E1,2.0183544E1,9.647E2,6.19E1,5.7E0,9.657E2,6.6E0,9.627E2,9.652E2,5.9E0,1.8065702E0,5.3541665E0,3.853571E-1,1.2694107E0,1.6450373E0,4.6825275E-1,1.5377793E0,1.11422434E-1,-3.5754275E-2,7.830528E-1,5.419787E-1,1.8471582E-1,1.795479E0,2.4651864E-1,5.7709885E-1,1.2765062E0,2.070315E0,2.969224E-1,2.931486E-1,-5.4190762E-2,1.5657524E0,3.8443163E-1,1.24216914E-1,-2.2298022E-1,2.0104729E-1,2.0334236E-2,4.882492E0,7.34302E-1,1.5908253E-1,4.8380136E-1,2.581806E-1,1.2369317E0,2.5523705E0,1.110902E0,-3.854441E-2,1.1431724E0,9.799186E-1,-7.419213E-2,-1.5756448E-1,-6.3305736E-2,-8.1716634E-2,2.1130514E-1,-1.7890866E-1,3.8823783E-1,7.133591E-1,2.2097802E0,-3.3894387E-1,-7.987025E-2,-1.3295519E-2,1.0116929E0,-1.3678116E-1,1.6833325E-1,-2.550988E-1,-2.9323086E-1,-3.1789E-1,-2.7122438E-1,-5.025808E-2,7.3616266E-2,-1.4888023E-1,-2.4561858E-1,-3.2050228E-1,-2.2981267E-1,-1.1773198E-1,-1.7563003E-1,8.446027E-2,-1.2189495E-1],"split_indices":[10,10,10,3,13,14,8,0,15,3,14,14,15,10,13,14,15,5,12,12,8,6,6,3,12,8,6,6,14,10,0,5,13,0,3,5,3,5,8,15,13,12,15,5,14,13,12,11,14,8,6,6,6,5,12,12,5,12,5,5,12,15,14,0,0,0,0,0,0,0,0,0,0,0,0,0,0,0,0,0,0,0,0,0,0,0,0,0,0,0,0,0,0,0,0,0,0,0,0,0,0,0,0,0,0,0,0,0,0,0,0,0,0,0,0,0,0,0,0,0,0,0,0,0,0,0,0],"split_type":[0,0,0,0,0,0,0,0,0,0,0,0,0,0,0,0,0,0,0,0,0,0,0,0,0,0,0,0,0,0,0,0,0,0,0,0,0,0,0,0,0,0,0,0,0,0,0,0,0,0,0,0,0,0,0,0,0,0,0,0,0,0,0,0,0,0,0,0,0,0,0,0,0,0,0,0,0,0,0,0,0,0,0,0,0,0,0,0,0,0,0,0,0,0,0,0,0,0,0,0,0,0,0,0,0,0,0,0,0,0,0,0,0,0,0,0,0,0,0,0,0,0,0,0,0,0,0],"sum_hessian":[1.8486E4,5.271E3,1.3215E4,1.736E3,3.535E3,2.88E3,1.0335E4,1.302E3,4.34E2,2.153E3,1.382E3,2.474E3,4.06E2,4.775E3,5.56E3,7.2E2,5.82E2,3.55E2,7.9E1,6.44E2,1.509E3,1.229E3,1.53E2,1.38E2,2.336E3,2.22E2,1.84E2,2.745E3,2.03E3,9.09E2,4.651E3,4.76E2,2.44E2,4.68E2,1.14E2,3.43E2,1.2E1,6.3E1,1.6E1,5.81E2,6.3E1,2.1E2,1.299E3,2.4E2,9.89E2,1.17E2,3.6E1,5.4E1,8.4E1,1.737E3,5.99E2,7.9E1,1.43E2,3.7E1,1.47E2,7E0,2.738E3,2.022E3,8E0,5.07E2,4.02E2,3.878E3,7.73E2,4.15E2,6.1E1,1.47E2,9.7E1,4.2E2,4.8E1,5.8E1,5.6E1,8.1E1,2.62E2,8E0,4E0,4.6E1,1.7E1,1E1,6E0,4.69E2,1.12E2,2.2E1,4.1E1,4.1E1,1.69E2,6.18E2,6.81E2,6E0,2.34E2,4.78E2,5.11E2,6.7E1,5E1,2.1E1,1.5E1,1E1,4.4E1,2E0,8.2E1,8.83E2,8.54E2,3.19E2,2.8E2,3.4E1,4.5E1,1.19E2,2.4E1,3.6E1,1E0,1.36E2,1.1E1,2E0,5E0,1.977E3,7.61E2,1.482E3,5.4E2,2E0,6E0,3.48E2,1.59E2,1.49E2,2.53E2,7.9E2,3.088E3,3.8E1,7.35E2],"tree_param":{"num_deleted":"0","num_feature":"16","num_nodes":"127","size_leaf_vector":"1"}},{"base_weights":[2.4506515E-2,8.1553755E0,-3.1689122E0,1.4934373E1,4.853436E0,2.8525242E-1,-4.136759E0,1.7243425E1,7.9939036E0,3.0929658E0,1.0845323E1,-8.161716E-1,7.0307755E0,-5.0056553E0,-3.4273458E0,2.086517E1,1.1805444E1,6.415411E0,1.8807621E1,4.8205523E0,7.028747E-1,8.79977E0,1.952467E1,1.3447152E1,-1.0536585E0,1.6306864E1,3.8037357E0,-5.441541E0,-4.2861505E0,-4.2636046E0,-2.6410189E0,2.2229992E1,-4.1839182E-2,7.6903896E0,2.6176773E1,-2.2801054E0,7.431498E0,8.116599E0,2.7089886E1,3.6760015E0,9.401628E0,-4.7413152E-1,5.407817E0,8.113221E0,4.7694794E1,1.073699E1,3.604858E1,1.3546761E0,5.3677936E0,-1.7399333E0,9.8912936E-1,3.6949117E0,3.0106113E1,7.090477E-2,9.448671E0,-5.58341E0,-3.6637049E0,-3.8507955E0,-5.102017E0,-5.610505E0,-4.069986E0,-4.455412E0,-2.4127784E0,6.651308E-1,1.3210007E0,2.3068793E-1,-1.3718699E-1,2.576393E0,3.390385E-1,1.597764E0,2.1635349E-1,-1.0737064E-2,-3.0502215E-1,1.0539861E0,3.3190414E-1,8.491597E-2,1.0771576E0,1.1285762E0,2.5408177E0,3.3069536E-1,6.896667E-2,4.8208658E-2,6.669929E-1,4.702702E-3,-1.6248417E-1,2.1796493E-2,4.610036E-1,2.1598704E-1,6.6197485E-1,3.4323888E0,4.410831E-1,1.6873734E0,4.8387066E-1,4.4889122E-1,2.114012E0,5.458456E-1,-7.2397105E-2,6.079417E-2,-1.0897733E-1,-7.79328E-2,2.0296359E-1,-3.287312E-1,5.2666384E-1,2.0674484E0,2.9247296E-1,-2.0307028E-1,1.909537E-1,9.492596E-1,-1.2137272E-2,-2.0962934E-1,-2.8837362E-1,-1.520782E-1,-2.3559912E-1,-2.296232E-1,-1.6419427E-1,-2.5947222E-1,-6.440497E-2,-3.0614603E-1,-2.198695E-1,-1.7695704E-1,-2.2479914E-1,-2.2716478E-1,1.0652598E-1,-8.884653E-2,-1.4964728E-1],"categories":[],"categories_nodes":[],"categories_segments":[],"categories_sizes":[],"default_left":[0,0,0,0,0,0,0,0,0,0,0,0,0,0,0,0,0,0,0,0,0,0,0,0,0,0,0,0,0,0,0,0,0,0,0,0,0,0,0,0,0,0,0,0,0,0,0,0,0,0,0,0,0,0,0,0,0,0,0,0,0,0,0,0,0,0,0,0,0,0,0,0,0,0,0,0,0,0,0,0,0,0,0,0,0,0,0,0,0,0,0,0,0,0,0,0,0,0,0,0,0,0,0,0,0,0,0,0,0,0,0,0,0,0,0,0,0,0,0,0,0,0,0,0,0],"id":9,"left_children":[1,3,5,7,9,11,13,15,17,19,21,23,25,27,29,31,33,35,37,39,41,43,45,47,49,51,53,55,57,59,61,63,65,67,69,71,73,75,77,79,81,83,85,87,89,91,93,-1,95,97,99,101,103,105,107,109,111,113,115,117,119,121,123,-1,-1,-1,-1,-1,-1,-1,-1,-1,-1,-1,-1,-1,-1,-1,-1,-1,-1,-1,-1,-1,-1,-1,-1,-1,-1,-1,-1,-1,-1,-1,-1,-1,-1,-1,-1,-1,-1,-1,-1,-1,-1,-1,-1,-1,-1,-1,-1,-1,-1,-1,-1,-1,-1,-1,-1,-1,-1,-1,-1,-1,-1],"loss_changes":[4.7999388E5,1.1661444E5,4.4374156E4,2.7218375E4,3.696018E4,2.159639E4,6.37375E3,2.496325E4,7.1850312E3,1.1194703E4,1.3960422E4,8.47916E3,1.2151168E4,1.4375312E3,3.744125E3,2.188675E4,3.0196031E4,3.3302207E3,4.5615977E3,8.218348E3,6.3100566E3,1.6863395E4,2.1539184E4,4.374977E3,3.4490269E3,1.8162488E4,6.4050933E3,7.1022656E2,6.0619727E2,6.985E2,1.2092422E3,2.6580781E4,6.1644904E2,1.5640646E4,1.4255219E4,3.143055E2,3.4985176E3,2.1177974E3,2.0691406E3,8.499344E3,1.0420932E4,1.4385557E3,4.3175156E3,1.231073E4,8.354002E3,2.1115469E3,8.392594E3,0E0,1.0369828E3,2.394876E3,4.8481846E3,4.0019548E3,1.3393828E4,2.8654128E3,1.1187716E4,6.6214844E2,1.27190674E2,4.6971094E2,1.9671582E2,1.875332E2,5.317969E2,1.9952393E2,9.608262E2,0E0,0E0,0E0,0E0,0E0,0E0,0E0,0E0,0E0,0E0,0E0,0E0,0E0,0E0,0E0,0E0,0E0,0E0,0E0,0E0,0E0,0E0,0E0,0E0,0E0,0E0,0E0,0E0,0E0,0E0,0E0,0E0,0E0,0E0,0E0,0E0,0E0,0E0,0E0,0E0,0E0,0E0,0E0,0E0,0E0,0E0,0E0,0E0,0E0,0E0,0E0,0E0,0E0,0E0,0E0,0E0,0E0,0E0,0E0,0E0,0E0,0E0],"parents":[2147483647,0,0,1,1,2,2,3,3,4,4,5,5,6,6,7,7,8,8,9,9,10,10,11,11,12,12,13,13,14,14,15,15,16,16,17,17,18,18,19,19,20,20,21,21,22,22,23,23,24,24,25,25,26,26,27,27,28,28,29,29,30,30,31,31,32,32,33,33,34,34,35,35,36,36,37,37,38,38,39,39,40,40,41,41,42,42,43,43,44,44,45,45,46,46,48,48,49,49,50,50,51,51,52,52,53,53,54,54,55,55,56,56,57,57,58,58,59,59,60,60,61,61,62,62],"right_children":[2,4,6,8,10,12,14,16,18,20,22,24,26,28,30,32,34,36,38,40,42,44,46,48,50,52,54,56,58,60,62,64,66,68,70,72,74,76,78,80,82,84,86,88,90,92,94,-1,96,98,100,102,104,106,108,110,112,114,116,118,120,122,124,-1,-1,-1,-1,-1,-1,-1,-1,-1,-1,-1,-1,-1,-1,-1,-1,-1,-1,-1,-1,-1,-1,-1,-1,-1,-1,-1,-1,-1,-1,-1,-1,-1,-1,-1,-1,-1,-1,-1,-1,-1,-1,-1,-1,-1,-1,-1,-1,-1,-1,-1,-1,-1,-1,-1,-1,-1,-1,-1,-1,-1,-1],"split_conditions":[-5E-1,-8.660254E-1,-2.4492937E-16,7E1,2.99E1,2.3141666E1,7.9E1,2.71E1,7.29E1,8.516305E0,6.3179165E1,3.95E0,2.7745832E1,7.1E0,6.123234E-17,1.8806784E1,1.21E2,3.1E1,7E1,2.12E1,2.61E1,2.6E0,1.3615304E1,9.731E2,1.48E1,1.4790709E1,9.598E2,9.659258E-1,2.77E1,-9.659258E-1,4.5E0,1.43E1,2.15E1,3.7E0,8.082917E1,9.64E2,1.1704166E1,5E-1,2.64E1,2.06E1,-1.8369701E-16,2.3509665E1,2.5329166E1,9.634E2,2.61E1,9.588E2,4.4E1,1.3546761E0,-1.9831982E1,4.5E1,3.4192948E0,5.2E1,6.1E1,8.4E1,3.5095833E1,-8.660254E-1,3.2E1,6.123234E-17,1.71E1,8.660254E-1,1.7E1,5.7E1,1.5E1,6.651308E-1,1.3210007E0,2.3068793E-1,-1.3718699E-1,2.576393E0,3.390385E-1,1.597764E0,2.1635349E-1,-1.0737064E-2,-3.0502215E-1,1.0539861E0,3.3190414E-1,8.491597E-2,1.0771576E0,1.1285762E0,2.5408177E0,3.3069536E-1,6.896667E-2,4.8208658E-2,6.669929E-1,4.702702E-3,-1.6248417E-1,2.1796493E-2,4.610036E-1,2.1598704E-1,6.6197485E-1,3.4323888E0,4.410831E-1,1.6873734E0,4.8387066E-1,4.4889122E-1,2.114012E0,5.458456E-1,-7.2397105E-2,6.079417E-2,-1.0897733E-1,-7.79328E-2,2.0296359E-1,-3.287312E-1,5.2666384E-1,2.0674484E0,2.9247296E-1,-2.0307028E-1,1.909537E-1,9.492596E-1,-1.2137272E-2,-2.0962934E-1,-2.8837362E-1,-1.520782E-1,-2.3559912E-1,-2.296232E-1,-1.6419427E-1,-2.5947222E-1,-6.440497E-2,-3.0614603E-1,-2.198695E-1,-1.7695704E-1,-2.2479914E-1,-2.2716478E-1,1.0652598E-1,-8.884653E-2,-1.4964728E-1],"split_indices":[10,10,10,3,13,14,3,2,13,6,14,14,14,12,9,6,1,1,1,13,12,4,6,5,12,6,5,9,2,9,13,12,12,12,14,5,14,9,2,2,11,6,14,5,12,5,3,0,6,3,6,3,3,1,14,11,1,9,13,11,1,1,1,0,0,0,0,0,0,0,0,0,0,0,0,0,0,0,0,0,0,0,0,0,0,0,0,0,0,0,0,0,0,0,0,0,0,0,0,0,0,0,0,0,0,0,0,0,0,0,0,0,0,0,0,0,0,0,0,0,0,0,0,0,0],"split_type":[0,0,0,0,0,0,0,0,0,0,0,0,0,0,0,0,0,0,0,0,0,0,0,0,0,0,0,0,0,0,0,0,0,0,0,0,0,0,0,0,0,0,0,0,0,0,0,0,0,0,0,0,0,0,0,0,0,0,0,0,0,0,0,0,0,0,0,0,0,0,0,0,0,0,0,0,0,0,0,0,0,0,0,0,0,0,0,0,0,0,0,0,0,0,0,0,0,0,0,0,0,0,0,0,0,0,0,0,0,0,0,0,0,0,0,0,0,0,0,0,0,0,0,0,0],"sum_hessian":[1.8484E4,5.212E3,1.3272E4,1.706E3,3.506E3,2.905E3,1.0367E4,1.279E3,4.27E2,2.711E3,7.95E2,2.498E3,4.07E2,4.657E3,5.71E3,7.66E2,5.13E2,3.74E2,5.3E1,1.573E3,1.138E3,6.45E2,1.5E2,4E1,2.458E3,1.04E2,3.03E2,2.896E3,1.761E3,2.765E3,2.945E3,7.19E2,4.7E1,4E2,1.13E2,3.9E1,3.35E2,2.4E1,2.9E1,1.26E3,3.13E2,9.11E2,2.27E2,6.35E2,1E1,9.9E1,5.1E1,1.4E1,2.6E1,1.84E3,6.18E2,5.5E1,4.9E1,1.83E2,1.2E2,2.68E3,2.16E2,1.152E3,6.09E2,3.44E2,2.421E3,3.27E2,2.618E3,2.31E2,4.88E2,1.7E1,3E1,7E0,3.93E2,8.9E1,2.4E1,2.6E1,1.3E1,1.7E1,3.18E2,1.7E1,7E0,2.6E1,3E0,5.52E2,7.08E2,1E2,2.13E2,7.57E2,1.54E2,9.9E1,1.28E2,3.66E2,2.69E2,6E0,4E0,3E0,9.6E1,1E1,4.1E1,1.4E1,1.2E1,2.38E2,1.602E3,3.38E2,2.8E2,2.2E1,3.3E1,3.3E1,1.6E1,8.7E1,9.6E1,6E1,6E1,3.16E2,2.364E3,1.38E2,7.8E1,4.96E2,6.56E2,5.95E2,1.4E1,2.39E2,1.05E2,1.082E3,1.339E3,3.23E2,4E0,1.251E3,1.367E3],"tree_param":{"num_deleted":"0","num_feature":"16","num_nodes":"125","size_leaf_vector":"1"}},{"base_weights":[-3.2381516E-2,7.681031E0,-3.0740414E0,1.412354E1,4.51477E0,1.0053374E-1,-3.9783802E0,1.3236252E1,2.9996948E1,3.7798138E0,1.441337E1,-1.174541E0,3.8316164E0,-2.8905659E0,-4.486225E0,5.0187573E0,1.4861519E1,4.6453815E0,2.675971E1,6.8603525E0,2.7315338E0,2.6359167E1,8.42524E0,1.13788E0,-1.8550974E0,8.022451E0,-7.328149E-1,-3.976493E0,-2.3145518E0,-4.981095E0,-3.8897262E0,4.921171E1,4.169195E0,1.5802246E1,1.1162297E0,3.0141449E1,3.112049E0,1.8068972E1,4.889484E0,4.432951E-1,5.466261E0,1.6011879E1,3.3659077E1,-2.842442E0,1.5081155E1,1.0436521E-1,1.5666562E1,-1.323151E0,-3.8402033E0,1.1317725E1,-2.5951523E-2,-1.4917164E0,6.542944E0,-3.2972813E0,-4.602647E0,-2.206878E0,-5.4226885E0,-4.568347E0,-5.509602E0,-4.325828E0,-2.8946238E0,2.7586634E0,6.341371E-1,4.4037223E-1,4.9623247E-2,-1.0119494E-1,8.221831E-1,1.775654E-2,1.6832956E0,1.9381069E0,1.0706888E0,8.9838535E-1,-3.2808718E-1,2.024744E0,3.58743E-1,6.25242E-1,2.0070875E-1,-1.2813166E-2,2.4434574E-1,3.8953406E-1,1.23699084E-1,1.4467239E0,1.0998662E-1,6.705424E-1,2.1512E0,7.81743E-2,-3.442087E-1,3.8257936E-1,1.8252032E0,-7.721409E-2,2.3504817E-1,2.7402243E-1,1.0255255E0,-9.720975E-2,2.691823E-2,-1.4385377E-1,-2.7771065E-1,1.7528804E-1,7.161414E-1,-2.3224238E-1,1.701811E-1,3.1701602E-2,-1.625406E-1,1.3265798E-2,7.7460164E-1,-1.3289428E-1,-2.2984722E-1,4.878614E-1,-2.3342097E-1,-9.407531E-2,-1.4861783E-1,-2.9359215E-1,-1.2194766E-1,-2.1647923E-1,-2.7818945E-1,-1.9409023E-1,-2.821588E-1,-2.0415139E-1,-2.5380287E-1,-2.8396627E-1,-1.3798085E-1],"categories":[],"categories_nodes":[],"categories_segments":[],"categories_sizes":[],"default_left":[0,0,0,0,0,0,0,0,0,0,0,0,0,0,0,0,0,0,0,0,0,0,0,0,0,0,0,0,0,0,0,0,0,0,0,0,0,0,0,0,0,0,0,0,0,0,0,0,0,0,0,0,0,0,0,0,0,0,0,0,0,0,0,0,0,0,0,0,0,0,0,0,0,0,0,0,0,0,0,0,0,0,0,0,0,0,0,0,0,0,0,0,0,0,0,0,0,0,0,0,0,0,0,0,0,0,0,0,0,0,0,0,0,0,0,0,0,0,0,0,0],"id":10,"left_children":[1,3,5,7,9,11,13,15,17,19,21,23,25,27,29,31,33,-1,35,37,39,41,43,45,47,49,51,53,55,57,59,61,63,65,67,69,71,73,75,77,79,81,83,85,87,89,91,93,95,97,99,101,103,105,107,109,111,113,115,117,119,-1,-1,-1,-1,-1,-1,-1,-1,-1,-1,-1,-1,-1,-1,-1,-1,-1,-1,-1,-1,-1,-1,-1,-1,-1,-1,-1,-1,-1,-1,-1,-1,-1,-1,-1,-1,-1,-1,-1,-1,-1,-1,-1,-1,-1,-1,-1,-1,-1,-1,-1,-1,-1,-1,-1,-1,-1,-1,-1,-1],"loss_changes":[4.3188084E5,1.0613169E5,3.7901906E4,2.37575E4,2.5349953E4,1.3934195E4,5.6633594E3,2.1641656E4,1.58429375E4,1.0482836E4,1.7017375E4,3.4375703E3,1.4275947E4,2.0380879E3,2.0478438E3,9.931885E3,1.7529156E4,0E0,6.8636055E3,1.8136492E4,1.5191297E4,5.503793E3,1.2192339E4,7.4611216E3,1.7763398E3,1.031723E4,1.9864874E3,4.6667773E2,7.045488E2,8.089922E2,1.3674883E3,3.8909863E2,3.9106274E3,1.4554375E4,2.1681143E3,4.888086E3,1.8424261E3,2.9759633E4,4.6358535E3,4.113892E3,7.673301E3,6.183461E3,8.145672E3,1.0970254E3,1.5955305E4,3.5311074E3,1.5158457E3,1.5409495E3,5.71709E2,6.4290977E3,1.8216654E3,1.2173645E3,1.9059775E3,4.4233838E2,5.9996484E2,5.1022168E2,8.0829834E1,4.876211E2,3.4164062E2,3.8165625E2,3.497544E2,0E0,0E0,0E0,0E0,0E0,0E0,0E0,0E0,0E0,0E0,0E0,0E0,0E0,0E0,0E0,0E0,0E0,0E0,0E0,0E0,0E0,0E0,0E0,0E0,0E0,0E0,0E0,0E0,0E0,0E0,0E0,0E0,0E0,0E0,0E0,0E0,0E0,0E0,0E0,0E0,0E0,0E0,0E0,0E0,0E0,0E0,0E0,0E0,0E0,0E0,0E0,0E0,0E0,0E0,0E0,0E0,0E0,0E0,0E0,0E0],"parents":[2147483647,0,0,1,1,2,2,3,3,4,4,5,5,6,6,7,7,8,8,9,9,10,10,11,11,12,12,13,13,14,14,15,15,16,16,18,18,19,19,20,20,21,21,22,22,23,23,24,24,25,25,26,26,27,27,28,28,29,29,30,30,31,31,32,32,33,33,34,34,35,35,36,36,37,37,38,38,39,39,40,40,41,41,42,42,43,43,44,44,45,45,46,46,47,47,48,48,49,49,50,50,51,51,52,52,53,53,54,54,55,55,56,56,57,57,58,58,59,59,60,60],"right_children":[2,4,6,8,10,12,14,16,18,20,22,24,26,28,30,32,34,-1,36,38,40,42,44,46,48,50,52,54,56,58,60,62,64,66,68,70,72,74,76,78,80,82,84,86,88,90,92,94,96,98,100,102,104,106,108,110,112,114,116,118,120,-1,-1,-1,-1,-1,-1,-1,-1,-1,-1,-1,-1,-1,-1,-1,-1,-1,-1,-1,-1,-1,-1,-1,-1,-1,-1,-1,-1,-1,-1,-1,-1,-1,-1,-1,-1,-1,-1,-1,-1,-1,-1,-1,-1,-1,-1,-1,-1,-1,-1,-1,-1,-1,-1,-1,-1,-1,-1,-1,-1],"split_conditions":[-5E-1,-8.660254E-1,-2.4492937E-16,1.33E2,1.6325893E1,1.74E1,1.8E1,9.597E2,5.4834666E0,-6.847607E0,2.0952263E1,1.9136381E0,-8.741912E0,-2.5881904E-1,7E0,2.21E1,1.39E1,4.6453815E0,9.625E2,9.65E2,5.7E1,7.8E1,4.25E1,9.353074E0,1E-1,1.1199065E1,1.2600359E1,8.660254E-1,2.77E1,8.660254E-1,7.0710677E-1,5.9E1,7.4E1,1.634673E0,9.706E2,1.749929E1,-2.5881904E-1,4.2E1,1.0606601E0,1.39E1,2.86E1,-4.8195767E0,1.749929E1,2.63E1,1.7025013E1,4.4E0,1.82E1,1.27E1,4.3E1,4.6E1,9.6E1,5.303033E0,5E-1,9.643E2,1.63E1,1.2538577E1,7.8E0,3E1,2.22E1,2.71E1,1.48E1,2.7586634E0,6.341371E-1,4.4037223E-1,4.9623247E-2,-1.0119494E-1,8.221831E-1,1.775654E-2,1.6832956E0,1.9381069E0,1.0706888E0,8.9838535E-1,-3.2808718E-1,2.024744E0,3.58743E-1,6.25242E-1,2.0070875E-1,-1.2813166E-2,2.4434574E-1,3.8953406E-1,1.23699084E-1,1.4467239E0,1.0998662E-1,6.705424E-1,2.1512E0,7.81743E-2,-3.442087E-1,3.8257936E-1,1.8252032E0,-7.721409E-2,2.3504817E-1,2.7402243E-1,1.0255255E0,-9.720975E-2,2.691823E-2,-1.4385377E-1,-2.7771065E-1,1.7528804E-1,7.161414E-1,-2.3224238E-1,1.701811E-1,3.1701602E-2,-1.625406E-1,1.3265798E-2,7.7460164E-1,-1.3289428E-1,-2.2984722E-1,4.878614E-1,-2.3342097E-1,-9.407531E-2,-1.4861783E-1,-2.9359215E-1,-1.2194766E-1,-2.1647923E-1,-2.7818945E-1,-1.9409023E-1,-2.821588E-1,-2.0415139E-1,-2.5380287E-1,-2.8396627E-1,-1.3798085E-1],"split_indices":[10,10,10,1,15,12,1,5,15,6,15,15,7,9,12,2,0,0,5,5,1,1,12,7,4,15,6,10,2,10,9,1,1,15,5,15,9,1,7,0,2,6,15,2,6,0,2,12,1,1,1,15,9,5,2,6,12,2,2,2,2,0,0,0,0,0,0,0,0,0,0,0,0,0,0,0,0,0,0,0,0,0,0,0,0,0,0,0,0,0,0,0,0,0,0,0,0,0,0,0,0,0,0,0,0,0,0,0,0,0,0,0,0,0,0,0,0,0,0,0,0],"split_type":[0,0,0,0,0,0,0,0,0,0,0,0,0,0,0,0,0,0,0,0,0,0,0,0,0,0,0,0,0,0,0,0,0,0,0,0,0,0,0,0,0,0,0,0,0,0,0,0,0,0,0,0,0,0,0,0,0,0,0,0,0,0,0,0,0,0,0,0,0,0,0,0,0,0,0,0,0,0,0,0,0,0,0,0,0,0,0,0,0,0,0,0,0,0,0,0,0,0,0,0,0,0,0,0,0,0,0,0,0,0,0,0,0,0,0,0,0,0,0,0,0],"sum_hessian":[1.8406E4,5.205E3,1.3201E4,1.714E3,3.491E3,2.927E3,1.0274E4,1.625E3,8.9E1,3.251E3,2.4E2,2.182E3,7.45E2,3.272E3,7.002E3,2.69E2,1.356E3,3E0,8.6E1,8.24E2,2.427E3,7.9E1,1.61E2,4.96E2,1.686E3,3.88E2,3.57E2,1.132E3,2.14E3,3.823E3,3.179E3,4E0,2.65E2,1.269E3,8.7E1,7.5E1,1.1E1,1.22E2,7.02E2,1.322E3,1.105E3,3.4E1,4.5E1,6E1,1.01E2,4.64E2,3.2E1,1.331E3,3.55E2,2.75E2,1.13E2,3.24E2,3.3E1,5.46E2,5.86E2,2.07E3,7E1,2.152E3,1.671E3,2.208E3,9.71E2,3E0,1E0,1.07E2,1.58E2,4.4E1,1.225E3,8.6E1,1E0,3.6E1,3.9E1,4E0,7E0,3.9E1,8.3E1,7.1E1,6.31E2,1.143E3,1.79E2,6.21E2,4.84E2,1.7E1,1.7E1,1.5E1,3E1,2.9E1,3.1E1,7.6E1,2.5E1,3.42E2,1.22E2,1.1E1,2.1E1,9.98E2,3.33E2,2.29E2,1.26E2,7.7E1,1.98E2,4.8E1,6.5E1,1.47E2,1.77E2,2E1,1.3E1,3.68E2,1.78E2,2E0,5.84E2,1.455E3,6.15E2,6E1,1E1,1.74E3,4.12E2,1.29E2,1.542E3,1.673E3,5.35E2,4.3E1,9.28E2],"tree_param":{"num_deleted":"0","num_feature":"16","num_nodes":"121","size_leaf_vector":"1"}},{"base_weights":[-9.412157E-2,7.130716E0,-2.9335177E0,1.3010955E1,4.2492766E0,-3.24321E0,5.6387625E0,1.511889E1,6.69613E0,2.7542698E0,8.896769E0,-4.4528737E0,-2.2135596E0,-7.823523E-1,9.570502E0,1.6122356E1,-2.1812522E0,4.383186E0,1.6285233E1,5.588805E-1,5.276367E0,2.2294859E1,7.9574842E0,-2.2892795E0,-4.972458E0,-1.0852115E-2,-2.747355E0,-4.8393235E0,2.1399605E0,-7.3106855E-1,1.5825E1,1.7152376E1,-2.573354E0,1.1164525E1,-3.3614554E0,3.9027379E0,3.6465275E1,1.3140115E1,2.4945097E1,2.3880552E-1,7.4087596E0,4.9312277E0,3.485265E1,2.781018E0,3.336617E1,6.230122E0,1.5393178E1,1.1835507E0,-2.424856E0,-4.6889286E0,-5.3418717E0,1.6701982E0,-2.2512627E0,-5.351709E0,-2.644364E0,-5.774237E0,4.7224995E-1,7.9119873E0,-2.298703E0,7.1931815E0,-2.3775487E0,2.401014E1,3.722947E0,7.2794706E-1,1.4710423E0,-3.2769307E-1,2.9446492E-1,6.417343E-1,7.034292E-2,3.294673E-1,-2.4237947E-1,-2.3038176E-1,2.4734138E-1,4.5929757E-1,2.5794752E0,2.9893187E-1,9.734689E-1,1.8228196E0,2.772996E-1,6.474162E-2,-8.1460334E-2,3.0619022E-1,2.1769001E0,2.9121095E-1,-7.9812296E-2,-2.6312983E-2,4.1056123E0,4.8867127E-1,-2.2321045E-1,1.2614006E0,2.18857E0,-7.329777E-2,3.9764276E-1,1.3835909E0,4.262769E-1,-1.4911488E-1,8.745454E-2,1.3321583E-1,-2.3532057E-1,-2.6860926E-1,6.820621E-2,-1.9830786E-1,1.3438566E-1,5.0514517E-3,-1.6590236E-1,-2.1967056E-1,-3.201038E-1,-1.3717072E-1,-1.6950255E-2,-4.5716482E-1,-1.997299E-1,8.077417E-2,-7.256868E-2,1.1548866E0,1.4566337E-1,-2.2587843E-1,5.26514E-1,6.614832E-1,2.0461594E-1,-1.5053226E-1,6.0724825E-1,1.4325404E0,-1.9421476E-1,-1.731814E-1,4.408693E-1],"categories":[],"categories_nodes":[],"categories_segments":[],"categories_sizes":[],"default_left":[0,0,0,0,0,0,0,0,0,0,0,0,0,0,0,0,0,0,0,0,0,0,0,0,0,0,0,0,0,0,0,0,0,0,0,0,0,0,0,0,0,0,0,0,0,0,0,0,0,0,0,0,0,0,0,0,0,0,0,0,0,0,0,0,0,0,0,0,0,0,0,0,0,0,0,0,0,0,0,0,0,0,0,0,0,0,0,0,0,0,0,0,0,0,0,0,0,0,0,0,0,0,0,0,0,0,0,0,0,0,0,0,0,0,0,0,0,0,0,0,0,0,0,0,0],"id":11,"left_children":[1,3,5,7,9,11,13,15,17,19,21,23,25,27,29,31,33,35,37,39,41,43,45,47,49,51,53,55,57,59,61,63,65,67,69,71,73,75,77,79,81,83,85,87,89,91,93,-1,95,97,99,101,103,105,107,109,111,113,115,117,119,121,123,-1,-1,-1,-1,-1,-1,-1,-1,-1,-1,-1,-1,-1,-1,-1,-1,-1,-1,-1,-1,-1,-1,-1,-1,-1,-1,-1,-1,-1,-1,-1,-1,-1,-1,-1,-1,-1,-1,-1,-1,-1,-1,-1,-1,-1,-1,-1,-1,-1,-1,-1,-1,-1,-1,-1,-1,-1,-1,-1,-1,-1,-1],"loss_changes":[3.7752278E5,8.791566E4,3.5090453E4,2.2621031E4,2.4196336E4,1.5871906E4,1.164596E4,2.223875E4,9.443434E3,1.4609154E4,1.0494344E4,6.578492E3,8.101199E3,2.096966E3,1.8438883E4,2.3325844E4,1.1558308E3,5.206264E3,1.932832E3,3.0940054E3,1.2363484E4,1.1789611E4,1.010234E4,4.0591875E3,4.6995312E2,5.069357E3,1.4734219E3,3.702008E2,2.657056E3,1.4392382E3,1.7542758E4,3.603447E4,2.1944797E3,7.972467E1,1.0079651E3,3.0705508E3,1.5889951E3,2.7391934E3,4.487298E3,2.6652153E3,2.6581235E3,7.091498E3,2.345111E4,1.1075238E3,1.8595156E3,8.576514E3,1.2328551E4,0E0,2.6390752E3,3.5732812E2,4.2304297E2,4.420933E3,1.4482529E3,1.8325146E2,1.2177539E3,3.412058E2,2.8734478E1,3.3486282E3,1.7270527E3,3.0150775E2,8.7323224E2,1.3832863E4,2.7031843E3,0E0,0E0,0E0,0E0,0E0,0E0,0E0,0E0,0E0,0E0,0E0,0E0,0E0,0E0,0E0,0E0,0E0,0E0,0E0,0E0,0E0,0E0,0E0,0E0,0E0,0E0,0E0,0E0,0E0,0E0,0E0,0E0,0E0,0E0,0E0,0E0,0E0,0E0,0E0,0E0,0E0,0E0,0E0,0E0,0E0,0E0,0E0,0E0,0E0,0E0,0E0,0E0,0E0,0E0,0E0,0E0,0E0,0E0,0E0,0E0,0E0,0E0],"parents":[2147483647,0,0,1,1,2,2,3,3,4,4,5,5,6,6,7,7,8,8,9,9,10,10,11,11,12,12,13,13,14,14,15,15,16,16,17,17,18,18,19,19,20,20,21,21,22,22,23,23,24,24,25,25,26,26,27,27,28,28,29,29,30,30,31,31,32,32,33,33,34,34,35,35,36,36,37,37,38,38,39,39,40,40,41,41,42,42,43,43,44,44,45,45,46,46,48,48,49,49,50,50,51,51,52,52,53,53,54,54,55,55,56,56,57,57,58,58,59,59,60,60,61,61,62,62],"right_children":[2,4,6,8,10,12,14,16,18,20,22,24,26,28,30,32,34,36,38,40,42,44,46,48,50,52,54,56,58,60,62,64,66,68,70,72,74,76,78,80,82,84,86,88,90,92,94,-1,96,98,100,102,104,106,108,110,112,114,116,118,120,122,124,-1,-1,-1,-1,-1,-1,-1,-1,-1,-1,-1,-1,-1,-1,-1,-1,-1,-1,-1,-1,-1,-1,-1,-1,-1,-1,-1,-1,-1,-1,-1,-1,-1,-1,-1,-1,-1,-1,-1,-1,-1,-1,-1,-1,-1,-1,-1,-1,-1,-1,-1,-1,-1,-1,-1,-1,-1,-1,-1,-1,-1,-1],"split_conditions":[-5E-1,-8.660254E-1,2.2520834E1,7E1,2.64875E1,0E0,-2.5881904E-1,9.550833E1,1.478396E1,-3.9333692E0,4.092163E0,-2.4492937E-16,-2.4492937E-16,1.5773695E1,2.64E1,1.48E1,1.0454309E1,9.717E2,8.87E1,1.48E1,1E2,1.0086537E1,6.3179165E1,3.5791667E0,8.660254E-1,8.3E1,1.48E1,9.65E2,1.0152647E1,1.6E0,1.082553E1,6E0,2.12E1,4.5E0,-1.2192568E1,-1.4844469E1,2E-1,9.643E2,8.660254E-1,7.6E1,9.6E1,2.78E1,1.94E1,3.2054274E0,3.5E0,9.591E2,-1.0305584E1,1.1835507E0,9.719E2,-2.6949331E1,1.4808333E1,1.5E1,9.62E2,7.725E0,9.689E2,4E1,2.4E0,-1.7731956E1,2.0952263E1,6.0624466E0,6.68E1,6.3E0,6.2E1,7.2794706E-1,1.4710423E0,-3.2769307E-1,2.9446492E-1,6.417343E-1,7.034292E-2,3.294673E-1,-2.4237947E-1,-2.3038176E-1,2.4734138E-1,4.5929757E-1,2.5794752E0,2.9893187E-1,9.734689E-1,1.8228196E0,2.772996E-1,6.474162E-2,-8.1460334E-2,3.0619022E-1,2.1769001E0,2.9121095E-1,-7.9812296E-2,-2.6312983E-2,4.1056123E0,4.8867127E-1,-2.2321045E-1,1.2614006E0,2.18857E0,-7.329777E-2,3.9764276E-1,1.3835909E0,4.262769E-1,-1.4911488E-1,8.745454E-2,1.3321583E-1,-2.3532057E-1,-2.6860926E-1,6.820621E-2,-1.9830786E-1,1.3438566E-1,5.0514517E-3,-1.6590236E-1,-2.1967056E-1,-3.201038E-1,-1.3717072E-1,-1.6950255E-2,-4.5716482E-1,-1.997299E-1,8.077417E-2,-7.256868E-2,1.1548866E0,1.4566337E-1,-2.2587843E-1,5.26514E-1,6.614832E-1,2.0461594E-1,-1.5053226E-1,6.0724825E-1,1.4325404E0,-1.9421476E-1,-1.731814E-1,4.408693E-1],"split_indices":[10,10,14,3,14,8,8,14,15,7,15,10,10,6,2,0,15,5,12,0,3,6,14,14,10,3,2,5,15,0,15,0,2,0,6,6,4,5,8,3,3,2,2,15,0,5,7,0,5,6,14,2,5,14,5,3,0,7,15,15,12,0,3,0,0,0,0,0,0,0,0,0,0,0,0,0,0,0,0,0,0,0,0,0,0,0,0,0,0,0,0,0,0,0,0,0,0,0,0,0,0,0,0,0,0,0,0,0,0,0,0,0,0,0,0,0,0,0,0,0,0,0,0,0,0],"split_type":[0,0,0,0,0,0,0,0,0,0,0,0,0,0,0,0,0,0,0,0,0,0,0,0,0,0,0,0,0,0,0,0,0,0,0,0,0,0,0,0,0,0,0,0,0,0,0,0,0,0,0,0,0,0,0,0,0,0,0,0,0,0,0,0,0,0,0,0,0,0,0,0,0,0,0,0,0,0,0,0,0,0,0,0,0,0,0,0,0,0,0,0,0,0,0,0,0,0,0,0,0,0,0,0,0,0,0,0,0,0,0,0,0,0,0,0,0,0,0,0,0,0,0,0,0],"sum_hessian":[1.8401E4,5.191E3,1.321E4,1.706E3,3.485E3,1.275E4,4.6E2,1.278E3,4.28E2,2.638E3,8.47E2,5.861E3,6.889E3,1.75E2,2.85E2,1.208E3,7E1,3.46E2,8.2E1,1.411E3,1.227E3,5.4E1,7.93E2,1.136E3,4.725E3,1.344E3,5.545E3,7.3E1,1.02E2,1.08E2,1.77E2,1.145E3,6.3E1,5E0,6.5E1,3.42E2,4E0,6.2E1,2E1,1.349E3,6.2E1,1.214E3,1.3E1,2E1,3.4E1,6.45E2,1.48E2,5E0,1.131E3,2.681E3,2.044E3,7.68E2,5.76E2,2.09E2,5.336E3,6.2E1,1.1E1,4.4E1,5.8E1,1.8E1,9E1,1.05E2,7.2E1,9.47E2,1.98E2,4.3E1,2E1,4E0,1E0,8E0,5.7E1,3.7E1,3.05E2,2E0,2E0,3E1,3.2E1,1.2E1,8E0,8.62E2,4.87E2,6.1E1,1E0,1.068E3,1.46E2,8E0,5E0,1E1,1E1,2.1E1,1.3E1,1.18E2,5.27E2,5.2E1,9.6E1,9.98E2,1.33E2,6E0,2.675E3,2.035E3,9E0,1.17E2,6.51E2,1.8E2,3.96E2,1.12E2,9.7E1,5.116E3,2.2E2,2E1,4.2E1,7E0,4E0,1E1,3.4E1,5E1,8E0,5E0,1.3E1,8.7E1,3E0,9E1,1.5E1,3E1,4.2E1],"tree_param":{"num_deleted":"0","num_feature":"16","num_nodes":"125","size_leaf_vector":"1"}},{"base_weights":[6.224147E-2,7.1625214E0,-2.7203631E0,1.3023099E1,4.289711E0,2.1843548E-1,-3.5472846E0,1.5098617E1,6.4584627E0,2.8106227E0,8.769795E0,-7.4464506E-1,6.0125995E0,-4.7000623E0,-2.5704672E0,1.7646488E1,5.9215617E0,4.302673E0,1.678209E1,4.8360687E-1,4.815931E0,2.236698E1,7.731137E0,6.5075493E0,-1.1933625E0,1.0794609E1,-1.9500966E-1,-4.854444E0,-3.9963884E0,-3.671664E0,-1.8926042E0,1.0215677E1,2.0800415E1,3.3995766E-2,1.2150189E1,5.06693E0,-5.2102656E0,1.1210967E1,2.6584513E1,-8.866485E-1,1.6588663E0,5.4500666E0,-6.7816377E-1,5.0976152E0,3.3430954E1,5.721447E0,1.628418E1,1.5175302E1,-1.4567393E0,-2.190451E0,2.5837848E-1,1.8445026E0,1.576126E1,-5.96454E0,1.7436284E0,-4.5964527E0,-5.1952686E0,-2.5911412E-1,-4.048907E0,-5.0792193E0,-3.3194807E0,-5.0240054E0,-1.7888091E0,1.1703607E0,2.9061595E-1,1.140327E0,5.0356644E-3,-1.9493286E-1,6.488796E-2,8.837202E-1,-2.661575E-3,3.1101298E-1,-6.196616E-2,-4.9644247E-1,-8.2029894E-2,6.660566E-1,-3.7061434E-2,1.5896219E0,5.771809E-1,2.2054982E-1,-5.913043E-2,1.2963398E0,7.5383544E-2,2.612297E-1,1.0854172E0,1.3846187E-1,-2.2036715E-1,5.623399E-1,-2.6254186E-1,2.5925076E0,1.2829355E0,-4.4021484E-1,3.1920835E-1,3.9005932E-1,1.4833616E0,6.1926556E-1,1.27253E0,-1.7025699E-1,1.4939295E-1,-1.309739E-1,7.8192525E-2,1.8231909E-1,-1.09229885E-1,8.4342957E-1,3.2242783E-3,5.040535E-1,1.9654807E0,2.9362226E-1,-3.1790414E-1,-1.9678554E-2,1.1079749E0,8.975809E-2,-2.3101631E-1,-2.6164648E-1,7.898821E-2,-1.4005166E-1,3.0802312E-1,-1.569248E-1,-2.0872831E-1,-2.1740885E-1,-3.022364E-1,-1.3959605E-1,-1.8818925E-1,-1.8412504E-1,-2.8936023E-1,-1.9279961E-1,-8.378174E-2],"categories":[],"categories_nodes":[],"categories_segments":[],"categories_sizes":[],"default_left":[0,0,0,0,0,0,0,0,0,0,0,0,0,0,0,0,0,0,0,0,0,0,0,0,0,0,0,0,0,0,0,0,0,0,0,0,0,0,0,0,0,0,0,0,0,0,0,0,0,0,0,0,0,0,0,0,0,0,0,0,0,0,0,0,0,0,0,0,0,0,0,0,0,0,0,0,0,0,0,0,0,0,0,0,0,0,0,0,0,0,0,0,0,0,0,0,0,0,0,0,0,0,0,0,0,0,0,0,0,0,0,0,0,0,0,0,0,0,0,0,0,0,0,0,0,0,0],"id":12,"left_children":[1,3,5,7,9,11,13,15,17,19,21,23,25,27,29,31,33,35,37,39,41,43,45,47,49,51,53,55,57,59,61,63,65,67,69,71,73,75,77,79,81,83,85,87,89,91,93,95,97,99,101,103,105,107,109,111,113,115,117,119,121,123,125,-1,-1,-1,-1,-1,-1,-1,-1,-1,-1,-1,-1,-1,-1,-1,-1,-1,-1,-1,-1,-1,-1,-1,-1,-1,-1,-1,-1,-1,-1,-1,-1,-1,-1,-1,-1,-1,-1,-1,-1,-1,-1,-1,-1,-1,-1,-1,-1,-1,-1,-1,-1,-1,-1,-1,-1,-1,-1,-1,-1,-1,-1,-1,-1],"loss_changes":[3.653117E5,8.759406E4,3.2282953E4,2.3228469E4,2.3134758E4,1.6287636E4,1.1661711E4,3.0292062E4,9.119342E3,1.2265592E4,1.2071586E4,8.152993E3,1.2351001E4,4.9704688E2,4.1836797E3,2.3622188E4,1.041428E4,2.520124E3,3.5793086E3,1.9629447E3,4.9231055E3,1.1484717E4,1.3778324E4,1.010085E4,3.4138044E3,1.0417162E4,2.0460756E3,3.1852344E2,1.6794434E2,1.0429824E3,1.1211221E3,1.75805E4,2.9605844E4,7.356412E2,9.304119E3,2.3205825E3,4.2164886E2,1.1952666E3,1.5912969E3,8.8793933E2,2.3679053E3,4.5274805E3,1.9020337E3,1.6499182E3,3.966457E3,6.3615605E3,1.7138398E4,1.6915459E3,6.7698315E2,2.255851E3,7.9619814E3,2.2720789E3,1.9801348E4,2.516222E2,5.9864126E3,3.478125E2,4.343789E2,2.2939023E2,8.4024414E1,2.743994E2,3.9101562E2,9.233447E1,7.812549E2,0E0,0E0,0E0,0E0,0E0,0E0,0E0,0E0,0E0,0E0,0E0,0E0,0E0,0E0,0E0,0E0,0E0,0E0,0E0,0E0,0E0,0E0,0E0,0E0,0E0,0E0,0E0,0E0,0E0,0E0,0E0,0E0,0E0,0E0,0E0,0E0,0E0,0E0,0E0,0E0,0E0,0E0,0E0,0E0,0E0,0E0,0E0,0E0,0E0,0E0,0E0,0E0,0E0,0E0,0E0,0E0,0E0,0E0,0E0,0E0,0E0,0E0,0E0,0E0],"parents":[2147483647,0,0,1,1,2,2,3,3,4,4,5,5,6,6,7,7,8,8,9,9,10,10,11,11,12,12,13,13,14,14,15,15,16,16,17,17,18,18,19,19,20,20,21,21,22,22,23,23,24,24,25,25,26,26,27,27,28,28,29,29,30,30,31,31,32,32,33,33,34,34,35,35,36,36,37,37,38,38,39,39,40,40,41,41,42,42,43,43,44,44,45,45,46,46,47,47,48,48,49,49,50,50,51,51,52,52,53,53,54,54,55,55,56,56,57,57,58,58,59,59,60,60,61,61,62,62],"right_children":[2,4,6,8,10,12,14,16,18,20,22,24,26,28,30,32,34,36,38,40,42,44,46,48,50,52,54,56,58,60,62,64,66,68,70,72,74,76,78,80,82,84,86,88,90,92,94,96,98,100,102,104,106,108,110,112,114,116,118,120,122,124,126,-1,-1,-1,-1,-1,-1,-1,-1,-1,-1,-1,-1,-1,-1,-1,-1,-1,-1,-1,-1,-1,-1,-1,-1,-1,-1,-1,-1,-1,-1,-1,-1,-1,-1,-1,-1,-1,-1,-1,-1,-1,-1,-1,-1,-1,-1,-1,-1,-1,-1,-1,-1,-1,-1,-1,-1,-1,-1,-1,-1,-1,-1,-1,-1],"split_conditions":[-5E-1,-8.660254E-1,-2.4492937E-16,7E1,2.64875E1,2.3141666E1,0E0,1.7960176E1,1.548991E1,-5.8778524E0,4.092163E0,4.883333E0,1.082553E1,8.660254E-1,-2.5881904E-1,-5E-1,3.32E1,1.06E1,7.0710677E-1,6.123234E-17,2.87E1,1.0086537E1,6.3179165E1,4.7E1,1.1595834E1,-2.5881904E-1,1.2600359E1,8.660254E-1,4.2E1,2.5881904E-1,1.48E1,3.4E1,1.48E1,4.3E1,-2.5881904E-1,3.4341667E1,1.23E1,1.2538577E1,8.5E1,4.2E1,-8.113777E0,1E2,4.984103E0,3.3217661E0,2.93E1,2.7E1,1.3615304E1,7E0,5.8E0,5.086527E0,-6.0541883E0,-1.9982552E1,2.97E1,1.1645842E1,6.19E1,-2.6949331E1,1.4808333E1,4E1,-9.706093E0,8.660254E-1,2.5221913E0,2.8798118E0,3.7625E0,1.1703607E0,2.9061595E-1,1.140327E0,5.0356644E-3,-1.9493286E-1,6.488796E-2,8.837202E-1,-2.661575E-3,3.1101298E-1,-6.196616E-2,-4.9644247E-1,-8.2029894E-2,6.660566E-1,-3.7061434E-2,1.5896219E0,5.771809E-1,2.2054982E-1,-5.913043E-2,1.2963398E0,7.5383544E-2,2.612297E-1,1.0854172E0,1.3846187E-1,-2.2036715E-1,5.623399E-1,-2.6254186E-1,2.5925076E0,1.2829355E0,-4.4021484E-1,3.1920835E-1,3.9005932E-1,1.4833616E0,6.1926556E-1,1.27253E0,-1.7025699E-1,1.4939295E-1,-1.309739E-1,7.8192525E-2,1.8231909E-1,-1.09229885E-1,8.4342957E-1,3.2242783E-3,5.040535E-1,1.9654807E0,2.9362226E-1,-3.1790414E-1,-1.9678554E-2,1.1079749E0,8.975809E-2,-2.3101631E-1,-2.6164648E-1,7.898821E-2,-1.4005166E-1,3.0802312E-1,-1.569248E-1,-2.0872831E-1,-2.1740885E-1,-3.022364E-1,-1.3959605E-1,-1.8818925E-1,-1.8412504E-1,-2.8936023E-1,-1.9279961E-1,-8.378174E-2],"split_indices":[10,10,10,3,14,14,8,6,15,7,15,14,15,9,9,8,12,0,9,9,2,6,14,3,14,8,6,10,3,8,2,3,0,3,8,14,0,6,3,3,6,3,15,15,12,3,6,0,12,15,7,7,2,15,12,6,14,3,7,10,15,15,14,0,0,0,0,0,0,0,0,0,0,0,0,0,0,0,0,0,0,0,0,0,0,0,0,0,0,0,0,0,0,0,0,0,0,0,0,0,0,0,0,0,0,0,0,0,0,0,0,0,0,0,0,0,0,0,0,0,0,0,0,0,0,0,0],"split_type":[0,0,0,0,0,0,0,0,0,0,0,0,0,0,0,0,0,0,0,0,0,0,0,0,0,0,0,0,0,0,0,0,0,0,0,0,0,0,0,0,0,0,0,0,0,0,0,0,0,0,0,0,0,0,0,0,0,0,0,0,0,0,0,0,0,0,0,0,0,0,0,0,0,0,0,0,0,0,0,0,0,0,0,0,0,0,0,0,0,0,0,0,0,0,0,0,0,0,0,0,0,0,0,0,0,0,0,0,0,0,0,0,0,0,0,0,0,0,0,0,0,0,0,0,0,0,0],"sum_hessian":[1.8488E4,5.205E3,1.3283E4,1.711E3,3.494E3,2.917E3,1.0366E4,1.299E3,4.12E2,2.628E3,8.66E2,2.502E3,4.15E2,4.753E3,5.613E3,1.016E3,2.83E2,3.42E2,7E1,1.217E3,1.411E3,6E1,8.06E2,1.45E2,2.357E3,2.34E2,1.81E2,3.893E3,8.6E2,2.137E3,3.476E3,3.04E2,7.12E2,1.46E2,1.37E2,3.17E2,2.5E1,4.6E1,2.4E1,5.62E2,6.55E2,1.265E3,1.46E2,2.4E1,3.6E1,6.54E2,1.52E2,6.9E1,7.6E1,1.397E3,9.6E2,8.4E1,1.5E2,4.5E1,1.36E2,2.224E3,1.669E3,1.2E1,8.48E2,4.25E2,1.712E3,1.1E2,3.366E3,7.5E1,2.29E2,6.49E2,6.3E1,3.5E1,1.11E2,9.4E1,4.3E1,2.68E2,4.9E1,1E1,1.5E1,3.9E1,7E0,1.7E1,7E0,2.9E1,5.33E2,3E0,6.52E2,1.249E3,1.6E1,7.6E1,7E1,1.5E1,9E0,9E0,2.7E1,2.8E1,6.26E2,9.4E1,5.8E1,5.6E1,1.3E1,5.3E1,2.3E1,1.254E3,1.43E2,4.02E2,5.58E2,8E0,7.6E1,1.22E2,2.8E1,1E0,4.4E1,1.24E2,1.2E1,8E0,2.216E3,1.66E3,9E0,9E0,3E0,1.06E2,7.42E2,2.45E2,1.8E2,7.86E2,9.26E2,4.2E1,6.8E1,1.73E2,3.193E3],"tree_param":{"num_deleted":"0","num_feature":"16","num_nodes":"127","size_leaf_vector":"1"}},{"base_weights":[-2.7375363E-2,6.568823E0,-2.6089256E0,1.1805678E1,3.9748209E0,1.5112095E-1,-3.380118E0,1.3821352E1,5.669852E0,3.327968E0,1.2662663E1,-1.0882047E0,3.2262487E0,-4.456052E0,-2.4697292E0,1.9930166E1,1.0694047E1,5.311719E0,2.115202E0,3.1863894E0,2.3911478E1,2.879639E0,1.9008606E1,2.012951E0,-1.7813864E0,6.2253523E0,-1.6692287E0,-4.1886344E0,-4.8080425E0,-3.1728332E0,-1.6682941E0,4.7725735E1,1.7093695E1,9.104862E0,2.4709389E1,-3.5427744E0,6.1903067E0,1.8331856E0,5.1373477E0,8.0194193E-1,6.425292E1,1.5024051E1,-3.7201967E0,2.5421349E1,6.9274673E0,9.9811125E0,-1.8638557E-1,-3.992937E0,-9.854312E-1,8.087025E0,-9.169868E-1,-4.5877657E0,-3.674826E-1,-5.5216417E0,-4.1024423E0,-4.8377686E0,1.141883E0,-4.6532803E0,-2.9233212E0,-5.420974E0,-1.5787477E0,1.5087718E-1,3.8702734E0,4.9277264E-1,1.2462289E0,-8.7949913E-4,6.0364074E-1,3.468404E0,1.0570173E0,-6.749655E-2,-3.3053082E-1,2.9858455E-1,2.2643998E0,-2.435325E-3,2.3023812E-1,3.4288976E-1,7.944902E-2,-5.3344935E-1,6.0863143E-1,4.6997614E0,5.505907E-1,-1.2627114E-1,1.0721439E0,-3.2762536E-1,9.280207E-2,2.144542E0,8.9270926E-1,6.477664E-1,-4.402472E-1,-1.738765E-1,1.0841761E0,5.5949926E-2,-2.5367185E-1,-2.3738733E-1,-8.430592E-2,4.0091924E-2,-1.04120694E-1,1.0852134E-1,5.45491E-1,-2.6203713E-1,8.517342E-2,-1.717658E-1,-3.745524E-1,1.00903355E-1,-1.09106384E-1,-2.8469023E-1,-4.4803567E-2,-2.9574233E-1,-2.0138574E-1,-2.5243467E-1,-2.1227463E-1,-2.6279164E-2,9.164404E-2,-2.3583214E-1,2.9793283E-1,-1.0839593E-1,-1.5749004E-1,-1.3353321E-1,-2.836225E-1,-4.079659E-2,-1.0069394E-1],"categories":[],"categories_nodes":[],"categories_segments":[],"categories_sizes":[],"default_left":[0,0,0,0,0,0,0,0,0,0,0,0,0,0,0,0,0,0,0,0,0,0,0,0,0,0,0,0,0,0,0,0,0,0,0,0,0,0,0,0,0,0,0,0,0,0,0,0,0,0,0,0,0,0,0,0,0,0,0,0,0,0,0,0,0,0,0,0,0,0,0,0,0,0,0,0,0,0,0,0,0,0,0,0,0,0,0,0,0,0,0,0,0,0,0,0,0,0,0,0,0,0,0,0,0,0,0,0,0,0,0,0,0,0,0,0,0,0,0,0,0],"id":13,"left_children":[1,3,5,7,9,11,13,15,17,19,21,23,25,27,29,31,33,35,-1,37,39,41,43,45,47,49,51,53,55,57,59,61,63,65,67,69,71,73,75,77,79,81,83,85,87,89,91,93,95,97,99,101,103,105,107,109,111,113,115,117,119,-1,-1,-1,-1,-1,-1,-1,-1,-1,-1,-1,-1,-1,-1,-1,-1,-1,-1,-1,-1,-1,-1,-1,-1,-1,-1,-1,-1,-1,-1,-1,-1,-1,-1,-1,-1,-1,-1,-1,-1,-1,-1,-1,-1,-1,-1,-1,-1,-1,-1,-1,-1,-1,-1,-1,-1,-1,-1,-1,-1],"loss_changes":[3.1516203E5,7.067353E4,2.8314164E4,2.1243766E4,1.9531477E4,1.1078522E4,1.0173047E4,2.4564922E4,5.390618E3,9.374484E3,1.4907148E4,4.45769E3,1.2269896E4,4.2828906E2,3.169418E3,3.3716703E4,1.8929773E4,3.3281973E3,0E0,8.496807E3,2.0458463E4,7.7504004E3,1.1134984E4,6.64371E3,2.9780059E3,6.8951035E3,1.206458E3,2.8928516E2,3.6810547E2,1.0945645E3,8.769033E2,5.2843516E4,2.2370414E4,2.0956258E4,1.2400355E4,2.534407E2,3.0373877E3,9.931125E3,8.0413047E3,2.0863547E3,1.1633043E4,3.8841519E3,1.00716077E3,1.1792695E4,5.045376E3,1.2990283E4,1.9067618E3,7.7205615E2,2.4465432E3,6.8405723E3,1.23259E3,3.0216284E2,9.610963E2,1.2390625E2,3.2207812E2,2.3341797E2,1.3637702E1,3.179082E2,4.3285742E2,2.7040771E1,8.530635E2,0E0,0E0,0E0,0E0,0E0,0E0,0E0,0E0,0E0,0E0,0E0,0E0,0E0,0E0,0E0,0E0,0E0,0E0,0E0,0E0,0E0,0E0,0E0,0E0,0E0,0E0,0E0,0E0,0E0,0E0,0E0,0E0,0E0,0E0,0E0,0E0,0E0,0E0,0E0,0E0,0E0,0E0,0E0,0E0,0E0,0E0,0E0,0E0,0E0,0E0,0E0,0E0,0E0,0E0,0E0,0E0,0E0,0E0,0E0,0E0],"parents":[2147483647,0,0,1,1,2,2,3,3,4,4,5,5,6,6,7,7,8,8,9,9,10,10,11,11,12,12,13,13,14,14,15,15,16,16,17,17,19,19,20,20,21,21,22,22,23,23,24,24,25,25,26,26,27,27,28,28,29,29,30,30,31,31,32,32,33,33,34,34,35,35,36,36,37,37,38,38,39,39,40,40,41,41,42,42,43,43,44,44,45,45,46,46,47,47,48,48,49,49,50,50,51,51,52,52,53,53,54,54,55,55,56,56,57,57,58,58,59,59,60,60],"right_children":[2,4,6,8,10,12,14,16,18,20,22,24,26,28,30,32,34,36,-1,38,40,42,44,46,48,50,52,54,56,58,60,62,64,66,68,70,72,74,76,78,80,82,84,86,88,90,92,94,96,98,100,102,104,106,108,110,112,114,116,118,120,-1,-1,-1,-1,-1,-1,-1,-1,-1,-1,-1,-1,-1,-1,-1,-1,-1,-1,-1,-1,-1,-1,-1,-1,-1,-1,-1,-1,-1,-1,-1,-1,-1,-1,-1,-1,-1,-1,-1,-1,-1,-1,-1,-1,-1,-1,-1,-1,-1,-1,-1,-1,-1,-1,-1,-1,-1,-1,-1,-1],"split_conditions":[-5E-1,-8.660254E-1,-2.4492937E-16,7E1,1.6325893E1,1.66E1,0E0,6.4E1,1.23E2,1E2,4.25E1,4.8E1,-7.072233E0,8.660254E-1,2.5881904E-1,2.4213274E0,1.33E2,3.1E1,2.115202E0,6.1E1,2.5881904E-1,2.0952263E1,4.494964E1,1.7141303E0,-5E-1,1.3511894E1,0E0,1.6E0,7.8781433E0,2.5881904E-1,1.41E1,1.55E1,6.75342E0,9.599E2,6.2784657E0,7.7E0,9.727E2,-3.9333692E0,2.92E1,2.7E1,1.64E1,-5E-1,7.2E1,9.601E2,6.9E1,-5E-1,3.29E1,9.675E2,7.6E1,-2.5881904E-1,9.3E1,3.06E1,5.3733087E0,9.5E1,1.57E1,6.6E0,9.627E2,2.24E1,1.9277108E0,5E0,2.32E1,1.5087718E-1,3.8702734E0,4.9277264E-1,1.2462289E0,-8.7949913E-4,6.0364074E-1,3.468404E0,1.0570173E0,-6.749655E-2,-3.3053082E-1,2.9858455E-1,2.2643998E0,-2.435325E-3,2.3023812E-1,3.4288976E-1,7.944902E-2,-5.3344935E-1,6.0863143E-1,4.6997614E0,5.505907E-1,-1.2627114E-1,1.0721439E0,-3.2762536E-1,9.280207E-2,2.144542E0,8.9270926E-1,6.477664E-1,-4.402472E-1,-1.738765E-1,1.0841761E0,5.5949926E-2,-2.5367185E-1,-2.3738733E-1,-8.430592E-2,4.0091924E-2,-1.04120694E-1,1.0852134E-1,5.45491E-1,-2.6203713E-1,8.517342E-2,-1.717658E-1,-3.745524E-1,1.00903355E-1,-1.09106384E-1,-2.8469023E-1,-4.4803567E-2,-2.9574233E-1,-2.0138574E-1,-2.5243467E-1,-2.1227463E-1,-2.6279164E-2,9.164404E-2,-2.3583214E-1,2.9793283E-1,-1.0839593E-1,-1.5749004E-1,-1.3353321E-1,-2.836225E-1,-4.079659E-2,-1.0069394E-1],"split_indices":[10,10,10,3,15,12,8,1,1,3,12,3,7,10,9,15,1,1,0,1,9,15,15,15,8,15,8,12,15,8,2,12,15,5,15,0,5,7,2,1,12,9,3,5,3,11,2,5,3,8,1,12,15,3,2,12,5,0,15,12,2,0,0,0,0,0,0,0,0,0,0,0,0,0,0,0,0,0,0,0,0,0,0,0,0,0,0,0,0,0,0,0,0,0,0,0,0,0,0,0,0,0,0,0,0,0,0,0,0,0,0,0,0,0,0,0,0,0,0,0,0],"split_type":[0,0,0,0,0,0,0,0,0,0,0,0,0,0,0,0,0,0,0,0,0,0,0,0,0,0,0,0,0,0,0,0,0,0,0,0,0,0,0,0,0,0,0,0,0,0,0,0,0,0,0,0,0,0,0,0,0,0,0,0,0,0,0,0,0,0,0,0,0,0,0,0,0,0,0,0,0,0,0,0,0,0,0,0,0,0,0,0,0,0,0,0,0,0,0,0,0,0,0,0,0,0,0,0,0,0,0,0,0,0,0,0,0,0,0,0,0,0,0,0,0],"sum_hessian":[1.8506E4,5.205E3,1.3301E4,1.723E3,3.482E3,2.905E3,1.0396E4,1.296E3,4.27E2,3.242E3,2.4E2,2.071E3,8.34E2,4.763E3,5.633E3,4.37E2,8.59E2,4.24E2,3E0,3.221E3,2.1E1,9.5E1,1.45E2,3.78E2,1.693E3,5.17E2,3.17E2,2.714E3,2.049E3,2.999E3,2.634E3,3.9E1,3.98E2,7.73E2,8.6E1,3.8E1,3.86E2,1.903E3,1.318E3,1.4E1,7E0,3.3E1,6.2E1,9.4E1,5.1E1,8.1E1,2.97E2,4.47E2,1.246E3,4.1E2,1.07E2,9.7E1,2.2E2,1.61E2,2.553E3,2.039E3,1E1,4.3E2,2.569E3,6E1,2.574E3,1.6E1,2.3E1,2.08E2,1.9E2,1.9E2,5.83E2,5E0,8.1E1,2.3E1,1.5E1,3.85E2,1E0,1.134E3,7.69E2,8.87E2,4.31E2,7E0,7E0,4E0,3E0,9E0,2.4E1,4.1E1,2.1E1,2.7E1,6.7E1,3.7E1,1.4E1,3.8E1,4.3E1,2.35E2,6.2E1,3.36E2,1.11E2,4.74E2,7.72E2,1.33E2,2.77E2,4E1,6.7E1,7.1E1,2.6E1,9.5E1,1.25E2,1.55E2,6E0,9.8E1,2.455E3,1.498E3,5.41E2,3E0,7E0,4.28E2,2E0,5.95E2,1.974E3,6E0,5.4E1,9.36E2,1.638E3],"tree_param":{"num_deleted":"0","num_feature":"16","num_nodes":"121","size_leaf_vector":"1"}},{"base_weights":[-7.563823E-2,6.1473565E0,-2.505978E0,1.1012055E1,3.7613747E0,6.1771674E-3,-3.2193727E0,1.1839547E1,1.3540853E0,2.363036E0,8.379881E0,-7.896831E-1,5.264597E0,-2.8557932E0,-4.1820188E0,9.2753725E0,1.7510006E1,-1.0634072E0,2.7465174E0,3.6078587E0,6.2284714E-1,9.09991E0,-1.1325036E1,5.80017E0,-1.223186E0,9.545285E0,-3.0413507E-2,-3.4817257E0,-2.2570968E0,-4.3348722E0,-2.3523705E0,8.193861E0,2.1447577E1,2.437892E1,1.1514746E1,1.3499874E1,-1.4010077E0,5.9614625E0,1.1573672E0,-2.4847582E-1,4.1805587E0,1.4713368E1,6.323963E0,-3.6207647E0,-6.8059075E-1,-1.8311917E0,1.4269959E1,-1.8268583E0,5.868524E-1,2.5363104E0,1.797326E1,-5.4331217E0,1.7844688E0,-3.769883E0,-2.8130548E0,-3.2201343E0,-1.9394064E0,-4.3960805E0,-2.459134E0,-7.130717E-1,-3.172745E0,2.5373998E-1,6.6852236E-1,-2.6125374E-1,1.699095E0,4.332175E-1,1.7041258E0,1.9316565E-1,8.809957E-1,1.2718907E-1,1.0602261E0,1.0739335E0,-1.328267E-1,2.0554923E-1,5.746119E-1,-3.6149222E-2,3.0860493E-1,-6.454071E-2,1.0858714E-1,6.2031525E-1,1.0560606E-1,2.1886723E-1,1.2588347E0,1.4079489E-1,7.749047E-1,-4.374376E-1,6.0288887E-2,-1.05157E-3,-2.0109425E-1,-8.198624E-2,9.661419E-1,1.4919574E-2,-1.1243554E-1,-6.19885E-2,1.7284906E-1,3.7965462E-1,-3.0704236E-1,1.14641E0,-1.7874046E-1,2.7264443E-1,-2.906548E-1,-9.531758E-3,9.8635E-1,-1.551358E-1,-2.1791492E-1,-1.15881614E-1,-1.7321391E-1,-1.8632077E-1,-1.3277318E-1,-2.1442561E-1,-9.181576E-2,-2.3149315E-1,-2.0474432E-1,-4.7912013E-2,-1.9514194E-1,-5.2839357E-2,2.8260374E-1,-1.8467428E-1,-7.909226E-2],"categories":[],"categories_nodes":[],"categories_segments":[],"categories_sizes":[],"default_left":[0,0,0,0,0,0,0,0,0,0,0,0,0,0,0,0,0,0,0,0,0,0,0,0,0,0,0,0,0,0,0,0,0,0,0,0,