{"learner":{"attributes":{"best_iteration":"81","best_score":"8.134693487404126","scikit_learn":"{\"_estimator_type\": \"regressor\"}"},"feature_names":["nitrogen_dioxide","ozone","temperature_2m","relative_humidity_2m","precipitation","surface_pressure","wind_u","wind_v","hour_sin","hour_cos","month_sin","month_cos","pm2_5_lag_1","pm2_5_lag_24","pm2_5_rolling_mean_24","pm2_5_rolling_std_24"],"feature_types":["float","float","float","int","float","float","float","float","float","float","float","float","float","float","float","float"],"gradient_booster":{"model":{"cats":{"enc":[],"feature_segments":[],"sorted_idx":[]},"gbtree_model_param":{"num_parallel_tree":"1","num_trees":"132"},"iteration_indptr":[0,1,2,3,4,5,6,7,8,9,10,11,12,13,14,15,16,17,18,19,20,21,22,23,24,25,26,27,28,29,30,31,32,33,34,35,36,37,38,39,40,41,42,43,44,45,46,47,48,49,50,51,52,53,54,55,56,57,58,59,60,61,62,63,64,65,66,67,68,69,70,71,72,73,74,75,76,77,78,79,80,81,82,83,84,85,86,87,88,89,90,91,92,93,94,95,96,97,98,99,100,101,102,103,104,105,106,107,108,109,110,111,112,113,114,115,116,117,118,119,120,121,122,123,124,125,126,127,128,129,130,131,132],"tree_info":[0,0,0,0,0,0,0,0,0,0,0,0,0,0,0,0,0,0,0,0,0,0,0,0,0,0,0,0,0,0,0,0,0,0,0,0,0,0,0,0,0,0,0,0,0,0,0,0,0,0,0,0,0,0,0,0,0,0,0,0,0,0,0,0,0,0,0,0,0,0,0,0,0,0,0,0,0,0,0,0,0,0,0,0,0,0,0,0,0,0,0,0,0,0,0,0,0,0,0,0,0,0,0,0,0,0,0,0,0,0,0,0,0,0,0,0,0,0,0,0,0,0,0,0,0,0,0,0,0,0,0,0],"trees":[{"base_weights":[-1.0216138E-2,-1.4825492E-1,3.5839214E1,-1.3558562E1,1.7838506E-1,2.8561596E1,5.418613E1,-1.7146536E1,-1.0023039E1,1.4328301E-1,8.9763775E0,2.5395548E1,5.343449E1,3.8765766E1,6.670981E1,-1.9821095E1,-1.5700128E1,-1.1276617E1,-7.5467997E0,-3.1272717E0,1.6106382E-1,1.3536655E1,7.8001957E0,2.2490067E1,4.1069435E1,3.215879E1,5.7542486E0,1.5628814E1,4.968304E1,2.5473363E0,4.617253E0,-7.053766E-1,-1.0032552E0,-8.293813E-1,-1.471244E1,-1.2505857E1,-9.997612E0,-7.1140094E0,-1.0422534E1,-3.4499986E0,2.6284044E0,1.5865386E-1,5.069663E0,1.1925232E1,2.131169E1,8.732996E0,3.3188765E0,1.2663404E1,2.382886E1,8.033581E-1,2.1816015E0,2.1051105E1,2.2509806E0,-2.02919E0,1.9023832E1,5.6163784E1,2.088018E1,-7.3901993E-1,-1.9479285E-1,-5.821432E-1,-6.749357E-1,-5.189618E-1,-3.2611626E-1,-3.893943E-1,-2.9254982E-1,-1.3479285E-1,-5.4045624E-1,-2.252893E-1,-1.09394304E-1,2.239567E-1,-1.2182436E-1,7.784529E-3,7.944523E-2,-5.182436E-2,3.0985326E-1,5.405878E-1,1.0596081E0,1.939054E-1,1.1624092E0,2.6349834E-1,4.6176037E-1,1.14016175E-1,4.9624857E-1,9.034643E-1,2.725297E-1,1.0719296E0,1.7951702E0,1.1150297E0,2.1390538E-1,-1.4109464E-1,-1.1094618E-2,6.537094E-1,1.3083581E0,1.5398425E0,3.1511815E0,2.918738E-1,1.3471081E0],"categories":[],"categories_nodes":[],"categories_segments":[],"categories_sizes":[],"default_left":[0,0,0,0,0,0,0,0,0,0,0,0,0,0,0,0,0,0,0,0,0,0,0,0,0,0,0,0,0,0,0,0,0,0,0,0,0,0,0,0,0,0,0,0,0,0,0,0,0,0,0,0,0,0,0,0,0,0,0,0,0,0,0,0,0,0,0,0,0,0,0,0,0,0,0,0,0,0,0,0,0,0,0,0,0,0,0,0,0,0,0,0,0,0,0,0,0],"id":0,"left_children":[1,3,5,7,9,11,13,15,17,19,21,23,25,27,29,31,33,35,37,39,41,43,45,47,49,51,-1,53,55,-1,-1,-1,-1,-1,57,59,61,63,65,67,69,71,73,75,77,79,81,83,85,-1,-1,87,-1,89,91,93,95,-1,-1,-1,-1,-1,-1,-1,-1,-1,-1,-1,-1,-1,-1,-1,-1,-1,-1,-1,-1,-1,-1,-1,-1,-1,-1,-1,-1,-1,-1,-1,-1,-1,-1,-1,-1,-1,-1,-1,-1],"loss_changes":[3.4575488E5,3.0487862E5,3.423625E4,2.0822438E4,2.098262E4,1.3920281E4,1.1897922E4,2.8609688E3,2.5099688E3,3.93619E3,1.3426172E3,7.000336E3,2.3843809E4,8.316844E3,1.14589375E4,1.1286719E2,2.266875E2,7.4439844E2,2.7931738E2,6.889175E2,7.954784E2,4.224121E2,8.7811426E2,1.6584688E3,9.6479297E2,1.4808027E3,0E0,8.179431E2,3.3072227E3,0E0,0E0,0E0,0E0,0E0,1.3573828E2,8.103516E1,2.983496E2,1.6721094E2,7.540747E1,4.5252734E2,1.9838828E2,2.8490515E2,2.335979E2,2.558457E2,1.7992114E2,2.6264258E2,2.4493826E2,6.8134375E2,2.9822656E3,0E0,0E0,1.3513037E2,0E0,3.671793E0,1.2538843E2,1.3653242E3,3.8985718E2,0E0,0E0,0E0,0E0,0E0,0E0,0E0,0E0,0E0,0E0,0E0,0E0,0E0,0E0,0E0,0E0,0E0,0E0,0E0,0E0,0E0,0E0,0E0,0E0,0E0,0E0,0E0,0E0,0E0,0E0,0E0,0E0,0E0,0E0,0E0,0E0,0E0,0E0,0E0,0E0],"parents":[2147483647,0,0,1,1,2,2,3,3,4,4,5,5,6,6,7,7,8,8,9,9,10,10,11,11,12,12,13,13,14,14,15,15,16,16,17,17,18,18,19,19,20,20,21,21,22,22,23,23,24,24,25,25,27,27,28,28,34,34,35,35,36,36,37,37,38,38,39,39,40,40,41,41,42,42,43,43,44,44,45,45,46,46,47,47,48,48,51,51,53,53,54,54,55,55,56,56],"right_children":[2,4,6,8,10,12,14,16,18,20,22,24,26,28,30,32,34,36,38,40,42,44,46,48,50,52,-1,54,56,-1,-1,-1,-1,-1,58,60,62,64,66,68,70,72,74,76,78,80,82,84,86,-1,-1,88,-1,90,92,94,96,-1,-1,-1,-1,-1,-1,-1,-1,-1,-1,-1,-1,-1,-1,-1,-1,-1,-1,-1,-1,-1,-1,-1,-1,-1,-1,-1,-1,-1,-1,-1,-1,-1,-1,-1,-1,-1,-1,-1,-1],"split_conditions":[3.68E1,1.69E1,5.4579166E1,8.8E0,2.78E1,1.56E1,1E2,4.2E0,1.37E1,2.31E1,-5E-1,1.12E2,6.123234E-17,-1.4082751E1,9.615E2,2E1,7E0,1.11E1,9.683E2,9.8E1,7.7E1,3.9508335E1,9.663E2,2.1866667E1,2.5191668E1,9.668E2,5.7542486E0,2.9E1,7.8995834E1,2.5473363E0,4.617253E0,-7.053766E-1,-1.0032552E0,-8.293813E-1,4.6570835E1,1.2246469E-16,8.4E1,4.8E0,3.2958333E0,4.8E0,5.3E1,2.8E0,9.589E2,1.35E2,-9.660883E0,-1.0404028E1,8.584692E0,-4.3109956E0,9.9E0,8.033581E-1,2.1816015E0,7.1E1,2.2509806E0,4.8E0,7.6E1,6.5229164E1,2.2E0,-7.3901993E-1,-1.9479285E-1,-5.821432E-1,-6.749357E-1,-5.189618E-1,-3.2611626E-1,-3.893943E-1,-2.9254982E-1,-1.3479285E-1,-5.4045624E-1,-2.252893E-1,-1.09394304E-1,2.239567E-1,-1.2182436E-1,7.784529E-3,7.944523E-2,-5.182436E-2,3.0985326E-1,5.405878E-1,1.0596081E0,1.939054E-1,1.1624092E0,2.6349834E-1,4.6176037E-1,1.14016175E-1,4.9624857E-1,9.034643E-1,2.725297E-1,1.0719296E0,1.7951702E0,1.1150297E0,2.1390538E-1,-1.4109464E-1,-1.1094618E-2,6.537094E-1,1.3083581E0,1.5398425E0,3.1511815E0,2.918738E-1,1.3471081E0],"split_indices":[12,12,14,12,12,0,1,12,12,12,8,1,11,6,5,1,12,12,5,1,1,14,5,14,14,5,0,3,14,0,0,0,0,0,14,8,1,0,14,0,3,0,5,1,6,7,7,7,0,0,0,1,0,0,1,14,0,0,0,0,0,0,0,0,0,0,0,0,0,0,0,0,0,0,0,0,0,0,0,0,0,0,0,0,0,0,0,0,0,0,0,0,0,0,0,0,0],"split_type":[0,0,0,0,0,0,0,0,0,0,0,0,0,0,0,0,0,0,0,0,0,0,0,0,0,0,0,0,0,0,0,0,0,0,0,0,0,0,0,0,0,0,0,0,0,0,0,0,0,0,0,0,0,0,0,0,0,0,0,0,0,0,0,0,0,0,0,0,0,0,0,0,0,0,0,0,0,0,0,0,0,0,0,0,0,0,0,0,0,0,0,0,0,0,0,0,0],"sum_hessian":[6.9867E4,6.96E4,2.67E2,1.654E3,6.7946E4,1.93E2,7.4E1,8.19E2,8.35E2,6.7677E4,2.69E2,1.73E2,2E1,3.5E1,3.9E1,2.83E2,5.36E2,5.52E2,2.83E2,3.65E2,6.7312E4,5.3E1,2.16E2,1.48E2,2.5E1,1.6E1,4E0,1.2E1,2.3E1,2.6E1,1.3E1,1.4E1,2.69E2,2.74E2,2.62E2,2.77E2,2.75E2,2.49E2,3.4E1,3.46E2,1.9E1,6.728E4,3.2E1,4.6E1,7E0,1.78E2,3.8E1,1.9E1,1.29E2,3E0,2.2E1,1E1,6E0,2E0,1E1,1.8E1,5E0,2.6E2,2E0,1.55E2,1.22E2,2.46E2,2.9E1,1.59E2,9E1,2E0,3.2E1,1.87E2,1.59E2,1.4E1,5E0,6.7142E4,1.38E2,5E0,2.7E1,4.3E1,3E0,1E0,6E0,2.4E1,1.54E2,3.4E1,4E0,1E1,9E0,1.1E2,1.9E1,9E0,1E0,1E0,1E0,7E0,3E0,5E0,1.3E1,2E0,3E0],"tree_param":{"num_deleted":"0","num_feature":"16","num_nodes":"97","size_leaf_vector":"1"}},{"base_weights":[-3.5136482E-3,-1.3514273E-1,3.3665096E1,-1.2812104E1,1.672714E-1,2.9123411E1,6.818009E1,-1.6115343E1,-9.565544E0,1.3503122E-1,8.044177E0,2.2131985E1,4.608605E1,4.067594E1,1.308929E2,-1.8695543E1,-1.4763542E1,-1.0729942E1,-7.0171843E0,-3.1624513E0,1.5289277E-1,1.2745542E1,6.8800974E0,1.5891145E1,2.6081764E1,3.3713104E1,6.5728226E1,9.1962224E-1,4.7458794E1,7.1345444E0,9.1272765E-1,-7.090744E-1,-9.488689E-1,-7.800948E-1,-1.38827715E1,-1.1864836E1,-9.532184E0,-7.802473E0,-5.1092725E0,-5.1640534E0,-2.1528273E0,1.501622E-1,5.416706E0,1.0358766E1,1.1764225E0,8.117613E0,3.3416378E0,1.3470716E1,1.7875305E0,1.4220016E1,2.9054518E1,1.1552532E0,3.687042E1,4.004953E0,5.174026E1,9.807703E-1,2.4931777E0,-6.9836944E-1,-3.3107516E-1,-6.2827337E-1,-5.232014E-1,-4.8157692E-1,-1.4680887E-2,-4.186403E-1,-2.9609287E-1,-2.1349244E-1,-4.521257E-1,-2.1177255E-1,-4.389685E-1,-1.4819297E-1,4.2058628E-2,7.3809745E-3,7.439448E-2,1.3187744E-1,6.5761614E-1,2.2187551E-2,5.3996813E-1,3.5180572E-1,4.7159225E-1,3.2670394E-1,-3.4302664E-3,7.490968E-1,-4.8760172E-2,5.863444E-1,1.3465953E0,1.113262E0,1.7283128E0,1.435986E0,2.1033564E0,2.8934171E0,1.5941035E0],"categories":[],"categories_nodes":[],"categories_segments":[],"categories_sizes":[],"default_left":[0,0,0,0,0,0,0,0,0,0,0,0,0,0,0,0,0,0,0,0,0,0,0,0,0,0,0,0,0,0,0,0,0,0,0,0,0,0,0,0,0,0,0,0,0,0,0,0,0,0,0,0,0,0,0,0,0,0,0,0,0,0,0,0,0,0,0,0,0,0,0,0,0,0,0,0,0,0,0,0,0,0,0,0,0,0,0,0,0,0,0],"id":1,"left_children":[1,3,5,7,9,11,13,15,17,19,21,23,25,27,29,31,33,35,37,39,41,43,45,47,49,51,53,-1,55,-1,-1,-1,-1,-1,57,59,61,63,65,67,69,71,73,75,-1,77,79,81,-1,83,85,-1,87,-1,89,-1,-1,-1,-1,-1,-1,-1,-1,-1,-1,-1,-1,-1,-1,-1,-1,-1,-1,-1,-1,-1,-1,-1,-1,-1,-1,-1,-1,-1,-1,-1,-1,-1,-1,-1,-1],"loss_changes":[3.1067594E5,2.677051E5,4.0808812E4,1.7294062E4,1.7319264E4,2.7798125E4,4.814653E4,2.53175E3,2.3667969E3,4.0011973E3,1.4337383E3,3.874625E3,1.47963125E4,2.6034648E3,9.355391E3,7.817969E1,1.7696875E2,6.522031E2,3.5118066E2,7.285193E2,9.702506E2,1.14604E3,9.58125E2,2.8832031E3,3.2893594E3,6.5528516E2,1.0821484E3,0E0,1.6017188E2,0E0,0E0,0E0,0E0,0E0,7.2796875E1,1.4823047E2,2.5326758E2,1.4669922E2,2.222207E2,3.7239307E2,5.974093E2,2.2947119E2,7.1775745E2,1.9616016E2,0E0,1.695791E2,6.536683E2,1.411791E3,0E0,4.1309717E2,2.336289E3,0E0,1.896211E2,0E0,1.0211719E2,0E0,0E0,0E0,0E0,0E0,0E0,0E0,0E0,0E0,0E0,0E0,0E0,0E0,0E0,0E0,0E0,0E0,0E0,0E0,0E0,0E0,0E0,0E0,0E0,0E0,0E0,0E0,0E0,0E0,0E0,0E0,0E0,0E0,0E0,0E0,0E0],"parents":[2147483647,0,0,1,1,2,2,3,3,4,4,5,5,6,6,7,7,8,8,9,9,10,10,11,11,12,12,13,13,14,14,15,15,16,16,17,17,18,18,19,19,20,20,21,21,22,22,23,23,24,24,25,25,26,26,28,28,34,34,35,35,36,36,37,37,38,38,39,39,40,40,41,41,42,42,43,43,45,45,46,46,47,47,49,49,50,50,52,52,54,54],"right_children":[2,4,6,8,10,12,14,16,18,20,22,24,26,28,30,32,34,36,38,40,42,44,46,48,50,52,54,-1,56,-1,-1,-1,-1,-1,58,60,62,64,66,68,70,72,74,76,-1,78,80,82,-1,84,86,-1,88,-1,90,-1,-1,-1,-1,-1,-1,-1,-1,-1,-1,-1,-1,-1,-1,-1,-1,-1,-1,-1,-1,-1,-1,-1,-1,-1,-1,-1,-1,-1,-1,-1,-1,-1,-1,-1,-1],"split_conditions":[3.68E1,1.69E1,1.56E1,8.8E0,2.78E1,1.03E2,6.123234E-17,4.2E0,1.37E1,2.31E1,-5E-1,6.1E1,-9.349296E0,1.4689891E1,-2.5E0,2E1,7E0,1.11E1,8.660254E-1,-5E-1,7.7E1,8.779768E0,3.1924933E-1,2.7210794E1,-1.2206789E1,1.17E2,-1.7542303E0,9.1962224E-1,-1.0114259E1,7.1345444E0,9.1272765E-1,-7.090744E-1,-9.488689E-1,-7.800948E-1,1.5505546E1,5E-1,1.729289E1,7.4E1,1.5098404E1,9.682E2,7.1E1,2.8E0,9.648E2,3.8E1,1.1764225E0,-6.8098574E0,7.2834487E0,9.658E2,1.7875305E0,8.7E1,9.531033E0,1.1552532E0,0E0,4.004953E0,9.618E2,9.807703E-1,2.4931777E0,-6.9836944E-1,-3.3107516E-1,-6.2827337E-1,-5.232014E-1,-4.8157692E-1,-1.4680887E-2,-4.186403E-1,-2.9609287E-1,-2.1349244E-1,-4.521257E-1,-2.1177255E-1,-4.389685E-1,-1.4819297E-1,4.2058628E-2,7.3809745E-3,7.439448E-2,1.3187744E-1,6.5761614E-1,2.2187551E-2,5.3996813E-1,3.5180572E-1,4.7159225E-1,3.2670394E-1,-3.4302664E-3,7.490968E-1,-4.8760172E-2,5.863444E-1,1.3465953E0,1.113262E0,1.7283128E0,1.435986E0,2.1033564E0,2.8934171E0,1.5941035E0],"split_indices":[12,12,0,12,12,1,11,12,12,12,8,1,7,15,6,1,12,12,9,9,1,15,7,15,6,1,6,0,6,0,0,0,0,0,15,9,15,1,6,5,1,0,5,1,0,7,15,5,0,1,15,0,8,0,5,0,0,0,0,0,0,0,0,0,0,0,0,0,0,0,0,0,0,0,0,0,0,0,0,0,0,0,0,0,0,0,0,0,0,0,0],"split_type":[0,0,0,0,0,0,0,0,0,0,0,0,0,0,0,0,0,0,0,0,0,0,0,0,0,0,0,0,0,0,0,0,0,0,0,0,0,0,0,0,0,0,0,0,0,0,0,0,0,0,0,0,0,0,0,0,0,0,0,0,0,0,0,0,0,0,0,0,0,0,0,0,0,0,0,0,0,0,0,0,0,0,0,0,0,0,0,0,0,0,0],"sum_hessian":[7.01E4,6.9828E4,2.72E2,1.626E3,6.8202E4,2.42E2,3E1,8.04E2,8.22E2,6.7925E4,2.77E2,1.73E2,6.9E1,2.2E1,8E0,2.72E2,5.32E2,5.62E2,2.6E2,3.65E2,6.756E4,5.3E1,2.24E2,6.9E1,1.04E2,4.4E1,2.5E1,6E0,1.6E1,7E0,1E0,1.9E1,2.53E2,2.64E2,2.68E2,2.84E2,2.78E2,1.82E2,7.8E1,1.21E2,2.44E2,6.7526E4,3.4E1,4.5E1,8E0,1.65E2,5.9E1,6.3E1,6E0,2.2E1,8.2E1,1.2E1,3.2E1,1E1,1.5E1,2E0,1.4E1,2.64E2,4E0,1.84E2,1E2,2.75E2,3E0,1.37E2,4.5E1,6.6E1,1.2E1,9.8E1,2.3E1,1.92E2,5.2E1,6.7399E4,1.27E2,2.6E1,8E0,2E0,4.3E1,9.4E1,7.1E1,3E1,2.9E1,5.7E1,6E0,2E1,2E0,3.9E1,4.3E1,1.5E1,1.7E1,1E1,5E0],"tree_param":{"num_deleted":"0","num_feature":"16","num_nodes":"91","size_leaf_vector":"1"}},{"base_weights":[6.8495497E-3,-1.2746154E-1,3.4596638E1,-1.2254404E1,1.6217081E-1,2.9502325E1,7.0443436E1,-1.5349848E1,-9.109437E0,1.2852305E-1,8.23266E0,2.412803E1,4.4133236E1,4.522821E1,1.2391563E2,-8.9194936E-1,-1.4086351E1,-1.0197358E1,-6.7152734E0,-3.3951392E0,1.4301068E-1,1.1613665E1,7.0455613E0,1.8806416E1,3.0345411E1,3.331614E1,6.032285E1,3.3934044E1,4.660777E0,6.6864443E0,8.8990945E-1,-7.527056E-1,-1.3056357E1,-1.1311978E1,-9.101711E0,-8.464058E0,-5.915718E0,-4.622694E0,-1.941431E0,1.4075463E-1,3.3153634E0,9.5079775E0,2.043886E1,8.104565E0,2.431069E0,1.5738407E1,2.8126513E1,3.709076E1,1.9614435E1,7.290141E-1,3.4992893E1,2.2160852E0,3.7602024E0,9.1094345E-1,2.0245142E0,-6.5436906E-1,-1.154479E-1,-5.346098E-2,-5.6729776E-1,-4.7338548E-1,-3.196323E-1,-4.6665666E-1,-3.3368945E-1,-3.4000733E-1,-1.480156E-1,-2.0945302E-1,-3.615931E-1,-1.3816594E-1,9.832715E-2,-1.2881862E-1,7.1483166E-3,5.887536E-2,6.224287E-1,6.869175E-1,4.138964E-1,1.5964723E-1,1.0804971E0,4.195938E-1,9.8430075E-2,-1.3922308E-1,2.1016598E-1,4.669592E-1,1.0216125E0,1.0538791E0,3.4046752E0,1.3091968E0,3.3814619E0,7.356531E-1,1.5524992E0,1.1891878E0,1.8924197E0],"categories":[],"categories_nodes":[],"categories_segments":[],"categories_sizes":[],"default_left":[0,0,0,0,0,0,0,0,0,0,0,0,0,0,0,0,0,0,0,0,0,0,0,0,0,0,0,0,0,0,0,0,0,0,0,0,0,0,0,0,0,0,0,0,0,0,0,0,0,0,0,0,0,0,0,0,0,0,0,0,0,0,0,0,0,0,0,0,0,0,0,0,0,0,0,0,0,0,0,0,0,0,0,0,0,0,0,0,0,0,0],"id":2,"left_children":[1,3,5,7,9,11,13,15,17,19,21,23,25,27,29,-1,31,33,35,37,39,41,43,45,47,49,51,53,-1,-1,-1,-1,55,57,59,61,63,65,67,69,71,73,75,77,79,81,83,85,87,-1,89,-1,-1,-1,-1,-1,-1,-1,-1,-1,-1,-1,-1,-1,-1,-1,-1,-1,-1,-1,-1,-1,-1,-1,-1,-1,-1,-1,-1,-1,-1,-1,-1,-1,-1,-1,-1,-1,-1,-1,-1],"loss_changes":[3.254979E5,2.4513625E5,4.7410375E4,1.5708859E4,1.850941E4,1.7727906E4,3.888986E4,2.3244844E3,2.0412969E3,3.4658765E3,1.0540195E3,5.285625E3,9.023117E3,9.844266E3,8.033422E3,0E0,3.496953E2,5.748242E2,3.0788184E2,4.8711816E2,4.8338684E2,1.1436504E3,1.016291E3,2.3595547E3,5.0632188E3,7.4641016E2,2.3816172E3,1.4259961E3,0E0,0E0,0E0,0E0,6.0804688E1,8.217578E1,2.2205664E2,5.907129E1,4.4774756E2,1.394187E2,4.197713E2,4.0636328E2,9.225653E2,1.9848926E2,1.9355371E2,2.8670508E2,3.9067627E2,2.0919883E3,5.044416E3,1.421693E4,1.3928076E3,0E0,2.5209766E2,0E0,0E0,0E0,0E0,0E0,0E0,0E0,0E0,0E0,0E0,0E0,0E0,0E0,0E0,0E0,0E0,0E0,0E0,0E0,0E0,0E0,0E0,0E0,0E0,0E0,0E0,0E0,0E0,0E0,0E0,0E0,0E0,0E0,0E0,0E0,0E0,0E0,0E0,0E0,0E0],"parents":[2147483647,0,0,1,1,2,2,3,3,4,4,5,5,6,6,7,7,8,8,9,9,10,10,11,11,12,12,13,13,14,14,16,16,17,17,18,18,19,19,20,20,21,21,22,22,23,23,24,24,25,25,26,26,27,27,32,32,33,33,34,34,35,35,36,36,37,37,38,38,39,39,40,40,41,41,42,42,43,43,44,44,45,45,46,46,47,47,48,48,50,50],"right_children":[2,4,6,8,10,12,14,16,18,20,22,24,26,28,30,-1,32,34,36,38,40,42,44,46,48,50,52,54,-1,-1,-1,-1,56,58,60,62,64,66,68,70,72,74,76,78,80,82,84,86,88,-1,90,-1,-1,-1,-1,-1,-1,-1,-1,-1,-1,-1,-1,-1,-1,-1,-1,-1,-1,-1,-1,-1,-1,-1,-1,-1,-1,-1,-1,-1,-1,-1,-1,-1,-1,-1,-1,-1,-1,-1,-1],"split_conditions":[3.68E1,1.69E1,1.56E1,8.8E0,2.78E1,1.07E2,6.123234E-17,4.2E0,1.37E1,2.12E1,-2.5881904E-1,4.19375E1,-9.349296E0,7.8995834E1,-4E0,-8.9194936E-1,7E0,1.11E1,-4.3149867E0,4.8E0,7.7E1,9.531033E0,9.662E2,9.9E0,2.7210794E1,2.70375E1,6.8E0,1.4689891E1,4.660777E0,6.6864443E0,8.8990945E-1,-7.527056E-1,4.6570835E1,9.559E2,8.1E1,5E-1,6.8E0,9.682E2,7.1E1,1.54E1,3.1383333E1,2.0625E1,-9.660883E0,9.3E1,2.5881904E-1,6.807988E0,4.658019E0,6.5229164E1,9.9E0,7.290141E-1,1.17E2,2.2160852E0,3.7602024E0,9.1094345E-1,2.0245142E0,-6.5436906E-1,-1.154479E-1,-5.346098E-2,-5.6729776E-1,-4.7338548E-1,-3.196323E-1,-4.6665666E-1,-3.3368945E-1,-3.4000733E-1,-1.480156E-1,-2.0945302E-1,-3.615931E-1,-1.3816594E-1,9.832715E-2,-1.2881862E-1,7.1483166E-3,5.887536E-2,6.224287E-1,6.869175E-1,4.138964E-1,1.5964723E-1,1.0804971E0,4.195938E-1,9.8430075E-2,-1.3922308E-1,2.1016598E-1,4.669592E-1,1.0216125E0,1.0538791E0,3.4046752E0,1.3091968E0,3.3814619E0,7.356531E-1,1.5524992E0,1.1891878E0,1.8924197E0],"split_indices":[12,12,0,12,12,1,11,12,12,12,8,14,7,14,6,0,12,12,6,0,1,15,5,0,15,14,0,15,0,0,0,0,14,5,1,8,0,5,1,14,14,14,6,3,8,6,7,14,0,0,1,0,0,0,0,0,0,0,0,0,0,0,0,0,0,0,0,0,0,0,0,0,0,0,0,0,0,0,0,0,0,0,0,0,0,0,0,0,0,0,0],"split_type":[0,0,0,0,0,0,0,0,0,0,0,0,0,0,0,0,0,0,0,0,0,0,0,0,0,0,0,0,0,0,0,0,0,0,0,0,0,0,0,0,0,0,0,0,0,0,0,0,0,0,0,0,0,0,0,0,0,0,0,0,0,0,0,0,0,0,0,0,0,0,0,0,0,0,0,0,0,0,0,0,0,0,0,0,0,0,0,0,0,0,0],"sum_hessian":[7.0061E4,6.9791E4,2.7E2,1.627E3,6.8164E4,2.38E2,3.2E1,8.18E2,8.09E2,6.7882E4,2.82E2,1.76E2,6.2E1,2.3E1,9E0,2.71E2,5.47E2,5.54E2,2.55E2,2.77E2,6.7605E4,7.1E1,2.11E2,9.7E1,7.9E1,3.9E1,2.3E1,2E1,3E0,8E0,1E0,2.75E2,2.72E2,2.7E2,2.84E2,7.7E1,1.78E2,1.49E2,1.28E2,6.7558E4,4.7E1,5.9E1,1.2E1,1.71E2,4E1,7.5E1,2.2E1,4.7E1,3.2E1,4E0,3.5E1,1.3E1,1E1,7E0,1.3E1,2.71E2,1E0,1E0,2.69E2,2.48E2,3.6E1,4.9E1,2.8E1,1.36E2,4.2E1,1.3E2,1.9E1,1.06E2,2.2E1,5.4E1,6.7504E4,3.9E1,8E0,1.1E1,4.8E1,1E0,1.1E1,1.63E2,8E0,1E1,3E1,3.3E1,4.2E1,2E1,2E0,3.6E1,1.1E1,2.4E1,8E0,9E0,2.6E1],"tree_param":{"num_deleted":"0","num_feature":"16","num_nodes":"91","size_leaf_vector":"1"}},{"base_weights":[3.6076945E-3,-9.406282E-2,2.87315E1,-1.1193946E1,1.3458936E-1,1.9040087E1,6.0455086E1,-1.2739956E1,-7.7101264E0,1.14849396E-1,9.884296E0,1.0534126E1,3.1712984E1,4.6384136E1,6.8661942E0,-1.4177051E1,-9.185991E0,-6.1453075E0,-1.0258423E1,-5.305003E0,1.353587E-1,1.3803879E1,3.7183108E0,2.07387E1,-1.4429612E0,2.3421503E1,4.0045975E1,2.6550724E1,7.282338E1,-1.5893463E1,-1.289612E1,-1.0403496E1,-4.6783767E0,-6.418752E0,3.5235935E-1,-8.21541E0,-1.1550499E1,-5.93165E0,2.8567681E0,1.3369699E-1,2.8245246E0,2.1564213E1,7.5343738E0,1.2536859E1,4.0132248E-1,1.5013381E1,4.786396E1,-7.274373E0,1.597278E0,1.7536175E1,3.078565E1,1.5938112E1,4.6598747E1,5.3275914E0,2.9733322E1,1.367628E0,7.635611E1,-7.9748183E-1,-2.5921246E-1,-6.849942E-1,-5.279805E-1,-4.9768206E-1,-7.6213545E-1,1.2124694E-2,-3.7933233E-1,1.734133E-1,-3.3296642E-1,-4.4446525E-1,5.870104E-3,-5.942508E-1,-2.7519628E-1,-2.4132457E-1,-5.6545764E-1,6.879581E-1,-3.1615394E-1,5.8636805E-3,1.8808235E-1,6.581365E-1,1.7213227E0,5.073784E-1,2.3160947E-2,8.0791503E-1,3.0448696E-1,3.3157024E-1,-3.235917E-1,1.0191071E0,3.5049602E-1,2.5019205E0,7.0734787E-1,-4.5669398E-1,-3.064394E-2,-3.207754E-1,2.1045242E-1,9.5859635E-1,2.2822177E-1,1.6602805E0,7.61219E-1,9.059025E-1,2.7694446E-1,1.9920071E0,3.1806922E0,6.783976E-1,-6.2243226E-3,-1.4940381E-1,1.5610608E0,4.0066485E0,1.5380396E0],"categories":[],"categories_nodes":[],"categories_segments":[],"categories_sizes":[],"default_left":[0,0,0,0,0,0,0,0,0,0,0,0,0,0,0,0,0,0,0,0,0,0,0,0,0,0,0,0,0,0,0,0,0,0,0,0,0,0,0,0,0,0,0,0,0,0,0,0,0,0,0,0,0,0,0,0,0,0,0,0,0,0,0,0,0,0,0,0,0,0,0,0,0,0,0,0,0,0,0,0,0,0,0,0,0,0,0,0,0,0,0,0,0,0,0,0,0,0,0,0,0,0,0,0,0,0,0],"id":3,"left_children":[1,3,5,7,9,11,13,15,17,19,21,23,25,27,-1,29,31,33,35,37,39,41,43,45,47,49,51,53,55,57,59,61,63,65,-1,67,69,71,73,75,-1,77,79,81,83,85,87,89,91,93,95,97,99,101,103,-1,105,-1,-1,-1,-1,-1,-1,-1,-1,-1,-1,-1,-1,-1,-1,-1,-1,-1,-1,-1,-1,-1,-1,-1,-1,-1,-1,-1,-1,-1,-1,-1,-1,-1,-1,-1,-1,-1,-1,-1,-1,-1,-1,-1,-1,-1,-1,-1,-1,-1,-1],"loss_changes":[1.9625916E5,1.7692384E5,7.17137E4,7.4798906E3,1.3144381E4,1.9392445E4,5.3119266E4,4.8392656E3,1.6715762E3,7.577876E3,3.2838691E3,1.3596467E4,4.1058438E3,2.323675E4,0E0,1.3142656E3,1.5044434E3,1.0264512E3,3.3802148E2,1.3313853E3,6.351971E3,3.924417E3,1.6037749E3,8.599443E3,9.3352136E2,1.150416E3,4.786371E3,1.8003887E3,1.1241797E3,9.2375E1,6.0841406E2,3.315625E2,8.891354E2,6.5817773E2,0E0,3.7727783E2,1.328086E2,1.365791E3,1.9885641E3,4.0457954E3,0E0,3.5451426E3,8.822578E2,2.5181812E2,1.7985511E3,2.0485244E3,2.5269531E1,2.1736963E2,7.5946765E2,4.2173633E2,9.698633E1,1.03673096E2,5.705703E2,2.2632442E2,1.3104414E3,0E0,6.3478125E2,0E0,0E0,0E0,0E0,0E0,0E0,0E0,0E0,0E0,0E0,0E0,0E0,0E0,0E0,0E0,0E0,0E0,0E0,0E0,0E0,0E0,0E0,0E0,0E0,0E0,0E0,0E0,0E0,0E0,0E0,0E0,0E0,0E0,0E0,0E0,0E0,0E0,0E0,0E0,0E0,0E0,0E0,0E0,0E0,0E0,0E0,0E0,0E0,0E0,0E0],"parents":[2147483647,0,0,1,1,2,2,3,3,4,4,5,5,6,6,7,7,8,8,9,9,10,10,11,11,12,12,13,13,15,15,16,16,17,17,18,18,19,19,20,20,21,21,22,22,23,23,24,24,25,25,26,26,27,27,28,28,29,29,30,30,31,31,32,32,33,33,35,35,36,36,37,37,38,38,39,39,41,41,42,42,43,43,44,44,45,45,46,46,47,47,48,48,49,49,50,50,51,51,52,52,53,53,54,54,56,56],"right_children":[2,4,6,8,10,12,14,16,18,20,22,24,26,28,-1,30,32,34,36,38,40,42,44,46,48,50,52,54,56,58,60,62,64,66,-1,68,70,72,74,76,-1,78,80,82,84,86,88,90,92,94,96,98,100,102,104,-1,106,-1,-1,-1,-1,-1,-1,-1,-1,-1,-1,-1,-1,-1,-1,-1,-1,-1,-1,-1,-1,-1,-1,-1,-1,-1,-1,-1,-1,-1,-1,-1,-1,-1,-1,-1,-1,-1,-1,-1,-1,-1,-1,-1,-1,-1,-1,-1,-1,-1,-1],"split_conditions":[3.9508335E1,1.54E1,6.8E0,1.1416667E1,3.1383333E1,8.9E1,6.123234E-17,6.8E0,3.3143299E0,2.2E0,1.5169868E0,1.3686702E1,5.4579166E1,9.8E1,6.8661942E0,7.141667E0,5.0063853E0,1.0635556E1,4.6376452E0,1.06E2,2.1648676E1,5.7E1,5.797924E0,5.4579166E1,1.6E0,1.08E2,2.78E1,2.1648676E1,-9.349296E0,9E1,5E-1,9.713E2,-1.0611581E0,7E0,3.5235935E-1,8.6E1,1.56E1,1.0635556E1,-7.580077E0,6.8E0,2.8245246E0,-2.5881904E-1,6.123234E-17,2.2E0,9.649E2,9.617E2,7.3E1,8.5E1,5.2E1,-9.599231E0,2.951051E1,-4.7278466E0,-6.518007E0,9.661E2,-9.659258E-1,1.367628E0,8.3E1,-7.9748183E-1,-2.5921246E-1,-6.849942E-1,-5.279805E-1,-4.9768206E-1,-7.6213545E-1,1.2124694E-2,-3.7933233E-1,1.734133E-1,-3.3296642E-1,-4.4446525E-1,5.870104E-3,-5.942508E-1,-2.7519628E-1,-2.4132457E-1,-5.6545764E-1,6.879581E-1,-3.1615394E-1,5.8636805E-3,1.8808235E-1,6.581365E-1,1.7213227E0,5.073784E-1,2.3160947E-2,8.0791503E-1,3.0448696E-1,3.3157024E-1,-3.235917E-1,1.0191071E0,3.5049602E-1,2.5019205E0,7.0734787E-1,-4.5669398E-1,-3.064394E-2,-3.207754E-1,2.1045242E-1,9.5859635E-1,2.2822177E-1,1.6602805E0,7.61219E-1,9.059025E-1,2.7694446E-1,1.9920071E0,3.1806922E0,6.783976E-1,-6.2243226E-3,-1.4940381E-1,1.5610608E0,4.0066485E0,1.5380396E0],"split_indices":[14,14,0,14,14,1,11,0,7,0,7,15,14,1,0,14,15,15,15,1,15,3,15,14,0,1,13,15,7,1,9,5,7,1,0,1,0,15,7,0,0,8,11,0,5,5,3,3,1,7,15,7,7,5,9,0,3,0,0,0,0,0,0,0,0,0,0,0,0,0,0,0,0,0,0,0,0,0,0,0,0,0,0,0,0,0,0,0,0,0,0,0,0,0,0,0,0,0,0,0,0,0,0,0,0,0,0],"split_type":[0,0,0,0,0,0,0,0,0,0,0,0,0,0,0,0,0,0,0,0,0,0,0,0,0,0,0,0,0,0,0,0,0,0,0,0,0,0,0,0,0,0,0,0,0,0,0,0,0,0,0,0,0,0,0,0,0,0,0,0,0,0,0,0,0,0,0,0,0,0,0,0,0,0,0,0,0,0,0,0,0,0,0,0,0,0,0,0,0,0,0,0,0,0,0,0,0,0,0,0,0,0,0,0,0,0,0],"sum_hessian":[6.9944E4,6.9708E4,2.36E2,1.406E3,6.8302E4,1.82E2,5.4E1,9.72E2,4.34E2,6.8165E4,1.37E2,1.1E2,7.2E1,4.7E1,7E0,6.9E2,2.82E2,2.71E2,1.63E2,2.56E2,6.7909E4,8.3E1,5.4E1,5.9E1,5.1E1,3.8E1,3.4E1,2.8E1,1.9E1,2.9E2,4E2,2.21E2,6.1E1,2.66E2,5E0,6.6E1,9.7E1,2.38E2,1.8E1,6.7908E4,1E0,3.6E1,4.7E1,1.4E1,4E1,5E1,9E0,1.7E1,3.4E1,2.3E1,1.5E1,8E0,2.6E1,4E0,2.4E1,2E0,1.7E1,2.88E2,2E0,2.94E2,1.06E2,2.05E2,1.6E1,2.3E1,3.8E1,6E0,2.6E2,6.1E1,5E0,9.1E1,6E0,1.99E2,3.9E1,8E0,1E1,6.7603E4,3.05E2,2.3E1,1.3E1,3.4E1,1.3E1,8E0,6E0,2.1E1,1.9E1,2.9E1,2.1E1,8E0,1E0,1.3E1,4E0,8E0,2.6E1,2E1,3E0,1.2E1,3E0,6E0,2E0,2.1E1,5E0,1E0,3E0,1E0,2.3E1,1.5E1,2E0],"tree_param":{"num_deleted":"0","num_feature":"16","num_nodes":"107","size_leaf_vector":"1"}},{"base_weights":[3.6561715E-3,-1.237334E-1,3.1314566E1,-1.1106849E1,1.424945E-1,2.448573E1,4.8126514E1,-1.3973976E1,-8.271132E0,1.1563054E-1,7.1032023E0,2.217567E1,7.83102E1,1.07278885E2,4.3660435E1,-8.0895203E-1,-1.2762689E1,-9.354659E0,-6.0142484E0,-2.7129173E0,1.3159157E-1,1.1067937E1,6.2300177E0,1.8384495E1,3.1164793E1,1.4722432E0,5.087022E0,6.3569274E0,6.960069E-1,6.090106E1,2.6190327E1,-6.7980045E-1,-1.1910021E1,-1.0311955E1,-8.350108E0,-6.824322E0,-3.9385686E0,-4.7326083E0,-1.8650719E0,1.306209E-1,5.5807033E0,8.304451E0,1.0093021E0,7.137367E0,2.392435E0,1.2680854E1,2.1379015E1,2.451455E1,4.2242016E1,7.267909E1,2.1038244E0,1.794476E1,3.873662E1,-5.9790736E-1,-1.804307E-1,-5.456923E-1,-4.577074E-1,-4.5753103E-1,-3.645336E-1,-4.6086287E-1,-3.139988E-1,-1.5794425E-1,-3.8269863E-1,-1.9334356E-1,-4.1499993E-1,-5.261869E-3,-1.4177053E-1,-1.8039043E-1,6.5697245E-3,4.2819738E-1,-1.5431404E-2,5.0296646E-1,3.154919E-1,3.7155074E-1,1.2646994E-1,3.544259E-1,-8.103261E-2,-4.6263048E-1,6.8824637E-1,1.1150984E0,5.2459496E-1,1.3656383E0,2.5193003E-1,1.7309554E0,3.6949406E0,3.7891514E0,1.8741284E-1,1.1586642E0,1.641959E-1,2.1601238E0,1.0582206E0],"categories":[],"categories_nodes":[],"categories_segments":[],"categories_sizes":[],"default_left":[0,0,0,0,0,0,0,0,0,0,0,0,0,0,0,0,0,0,0,0,0,0,0,0,0,0,0,0,0,0,0,0,0,0,0,0,0,0,0,0,0,0,0,0,0,0,0,0,0,0,0,0,0,0,0,0,0,0,0,0,0,0,0,0,0,0,0,0,0,0,0,0,0,0,0,0,0,0,0,0,0,0,0,0,0,0,0,0,0,0,0],"id":4,"left_children":[1,3,5,7,9,11,13,15,17,19,21,23,25,27,29,-1,31,33,35,37,39,41,43,45,47,-1,-1,-1,-1,49,51,-1,53,55,57,59,61,63,65,67,69,71,-1,73,75,77,79,81,83,85,-1,87,89,-1,-1,-1,-1,-1,-1,-1,-1,-1,-1,-1,-1,-1,-1,-1,-1,-1,-1,-1,-1,-1,-1,-1,-1,-1,-1,-1,-1,-1,-1,-1,-1,-1,-1,-1,-1,-1,-1],"loss_changes":[2.7955872E5,2.041093E5,3.1426531E4,1.3315766E4,1.2743257E4,2.3628297E4,1.6714672E4,1.9837031E3,1.98075E3,3.065446E3,8.380752E2,6.1406797E3,6.163676E3,7.500574E3,2.1597047E4,0E0,2.1750781E2,4.533789E2,4.3215918E2,6.435923E2,3.563601E2,9.914629E2,7.385244E2,2.137125E3,3.1634336E3,0E0,0E0,0E0,0E0,5.3671406E3,3.4429297E3,0E0,6.5515625E1,9.730664E1,1.6990234E2,1.9612012E2,2.0467224E2,3.1380835E2,4.60763E2,1.9568518E2,2.1347485E2,6.6038574E1,0E0,2.18E2,8.218571E2,1.3400107E3,6.8040234E2,1.9333027E3,2.2680273E3,4.423E3,0E0,1.9169199E3,2.6277148E2,0E0,0E0,0E0,0E0,0E0,0E0,0E0,0E0,0E0,0E0,0E0,0E0,0E0,0E0,0E0,0E0,0E0,0E0,0E0,0E0,0E0,0E0,0E0,0E0,0E0,0E0,0E0,0E0,0E0,0E0,0E0,0E0,0E0,0E0,0E0,0E0,0E0,0E0],"parents":[2147483647,0,0,1,1,2,2,3,3,4,4,5,5,6,6,7,7,8,8,9,9,10,10,11,11,12,12,13,13,14,14,16,16,17,17,18,18,19,19,20,20,21,21,22,22,23,23,24,24,29,29,30,30,32,32,33,33,34,34,35,35,36,36,37,37,38,38,39,39,40,40,41,41,43,43,44,44,45,45,46,46,47,47,48,48,49,49,51,51,52,52],"right_children":[2,4,6,8,10,12,14,16,18,20,22,24,26,28,30,-1,32,34,36,38,40,42,44,46,48,-1,-1,-1,-1,50,52,-1,54,56,58,60,62,64,66,68,70,72,-1,74,76,78,80,82,84,86,-1,88,90,-1,-1,-1,-1,-1,-1,-1,-1,-1,-1,-1,-1,-1,-1,-1,-1,-1,-1,-1,-1,-1,-1,-1,-1,-1,-1,-1,-1,-1,-1,-1,-1,-1,-1,-1,-1,-1,-1],"split_conditions":[3.68E1,1.69E1,5.4579166E1,8.8E0,2.78E1,3.2374477E1,2.17E1,4.2E0,1.37E1,2.31E1,-5E-1,1.4689891E1,3.1E1,9.621E2,2.490001E1,-8.0895203E-1,7E0,1.11E1,8.660254E-1,-5E-1,1.5152727E1,8.779768E0,9.662E2,7.5710797E0,7.0710677E-1,1.4722432E0,5.087022E0,6.3569274E0,6.960069E-1,9.024581E0,7.0710677E-1,-6.7980045E-1,4.6570835E1,5E-1,2.5881904E-1,-8.660254E-1,1.5068842E1,9.682E2,6.3E1,4.2E0,8.6E1,-7.715332E0,1.0093021E0,9.2E1,7.321301E0,-9.659258E-1,-5.368252E0,-8.660254E-1,-1.45E0,7.2E1,2.1038244E0,7.8995834E1,8E1,-5.9790736E-1,-1.804307E-1,-5.456923E-1,-4.577074E-1,-4.5753103E-1,-3.645336E-1,-4.6086287E-1,-3.139988E-1,-1.5794425E-1,-3.8269863E-1,-1.9334356E-1,-4.1499993E-1,-5.261869E-3,-1.4177053E-1,-1.8039043E-1,6.5697245E-3,4.2819738E-1,-1.5431404E-2,5.0296646E-1,3.154919E-1,3.7155074E-1,1.2646994E-1,3.544259E-1,-8.103261E-2,-4.6263048E-1,6.8824637E-1,1.1150984E0,5.2459496E-1,1.3656383E0,2.5193003E-1,1.7309554E0,3.6949406E0,3.7891514E0,1.8741284E-1,1.1586642E0,1.641959E-1,2.1601238E0,1.0582206E0],"split_indices":[12,12,14,12,12,15,13,12,12,12,8,15,3,5,15,0,12,12,9,9,15,15,5,6,9,0,0,0,0,6,9,0,14,9,9,9,6,5,3,13,3,7,0,3,15,9,7,10,7,3,0,14,3,0,0,0,0,0,0,0,0,0,0,0,0,0,0,0,0,0,0,0,0,0,0,0,0,0,0,0,0,0,0,0,0,0,0,0,0,0,0],"split_type":[0,0,0,0,0,0,0,0,0,0,0,0,0,0,0,0,0,0,0,0,0,0,0,0,0,0,0,0,0,0,0,0,0,0,0,0,0,0,0,0,0,0,0,0,0,0,0,0,0,0,0,0,0,0,0,0,0,0,0,0,0,0,0,0,0,0,0,0,0,0,0,0,0,0,0,0,0,0,0,0,0,0,0,0,0,0,0,0,0,0,0],"sum_hessian":[7.0086E4,6.9803E4,2.83E2,1.651E3,6.8152E4,2.03E2,8E1,8.19E2,8.32E2,6.7891E4,2.61E2,1.96E2,7E0,4E0,7.6E1,2.86E2,5.33E2,5.6E2,2.72E2,3.8E2,6.7511E4,4.5E1,2.16E2,1.4E2,5.6E1,3E0,4E0,3E0,1E0,3.7E1,3.9E1,2.62E2,2.71E2,2.82E2,2.78E2,1.94E2,7.8E1,1.11E2,2.69E2,6.75E4,1.1E1,3.6E1,9E0,1.74E2,4.2E1,5E1,9E1,3.7E1,1.9E1,2.1E1,1.6E1,2.5E1,1.4E1,2.69E2,2E0,1.8E2,1.02E2,1.54E2,1.24E2,3.3E1,1.61E2,6.6E1,1.2E1,9.1E1,2E1,9.6E1,1.73E2,1.3E1,6.7487E4,7E0,4E0,1.7E1,1.9E1,1.63E2,1.1E1,1.9E1,2.3E1,2E0,4.8E1,8.2E1,8E0,3.2E1,5E0,1.7E1,2E0,2E1,1E0,1.8E1,7E0,1E1,4E0],"tree_param":{"num_deleted":"0","num_feature":"16","num_nodes":"91","size_leaf_vector":"1"}},{"base_weights":[1.4327554E-3,-1.1508096E-1,2.995921E1,-1.0698402E1,1.3762659E-1,2.5031563E1,6.473947E1,-1.3407396E1,-8.016038E0,1.110413E-1,6.6659365E0,1.7308947E1,3.2936264E1,3.8138565E1,1.1447414E2,-1.5467031E1,-1.2277692E1,-8.920954E0,-6.02502E0,-3.0223484E0,1.2413046E-1,4.044475E0,8.251954E0,1.8271599E1,3.0851743E0,2.7487253E1,5.290588E1,2.651195E1,3.0463133E0,6.786067E-1,6.160356E0,-4.565064E-1,-7.7975667E-1,-6.5242827E-1,-5.7225055E-1,-9.84055E0,-7.9629273E0,-8.980153E0,-5.492047E0,-4.030937E0,-1.7948674E0,1.2204574E-1,2.8787925E0,-6.9124436E-1,5.5922246E0,7.863541E0,9.78727E-1,1.6787552E1,3.217533E1,-2.5396497E0,5.375559E-1,2.8255165E1,8.167399E0,2.127173E1,6.2268833E1,6.025815E-2,2.8018301E1,-4.5143086E-1,-5.353762E-1,-4.3308565E-1,-3.220413E-1,-2.3650053E-1,-5.500514E-1,-3.1268352E-1,-2.0706058E-1,-1.7514482E-1,-3.2478985E-1,-1.2787674E-1,9.1561556E-2,-1.6103552E-1,6.206335E-3,5.996216E-2,3.4148806E-1,1.6151893E-1,-2.9312357E-1,3.8268712E-1,1.8201832E-1,4.101529E-1,8.5640706E-2,5.2208805E-1,9.2587596E-1,-4.8301186E-2,2.0290713E0,-2.4638443E-1,7.454761E-2,1.2936696E0,2.2361002E0,4.7190934E-1,7.710624E-2,1.2761859E0,-1.0600486E-1,1.3897237E0,3.5066667E0,2.6977012E-1,1.45834E0],"categories":[],"categories_nodes":[],"categories_segments":[],"categories_sizes":[],"default_left":[0,0,0,0,0,0,0,0,0,0,0,0,0,0,0,0,0,0,0,0,0,0,0,0,0,0,0,0,0,0,0,0,0,0,0,0,0,0,0,0,0,0,0,0,0,0,0,0,0,0,0,0,0,0,0,0,0,0,0,0,0,0,0,0,0,0,0,0,0,0,0,0,0,0,0,0,0,0,0,0,0,0,0,0,0,0,0,0,0,0,0,0,0,0,0],"id":5,"left_children":[1,3,5,7,9,11,13,15,17,19,21,23,25,27,29,31,33,35,37,39,41,43,45,47,49,51,53,55,-1,-1,-1,-1,-1,-1,-1,57,59,61,63,65,67,69,71,73,75,77,-1,79,81,83,-1,85,87,89,91,-1,93,-1,-1,-1,-1,-1,-1,-1,-1,-1,-1,-1,-1,-1,-1,-1,-1,-1,-1,-1,-1,-1,-1,-1,-1,-1,-1,-1,-1,-1,-1,-1,-1,-1,-1,-1,-1,-1,-1],"loss_changes":[2.4415986E5,1.8635694E5,4.4824766E4,1.1700594E4,1.1810684E4,1.4019656E4,3.9292703E4,1.6877969E3,1.4218438E3,2.7802651E3,1.1141455E3,1.6278125E3,1.1277086E4,4.4784336E3,8.02075E3,8.653906E1,1.8829688E2,4.158789E2,3.5860645E2,3.4188794E2,3.8727393E2,7.808146E2,5.981045E2,1.8327383E3,4.1538025E2,1.1638047E3,5.7839766E3,6.1428906E2,0E0,0E0,0E0,0E0,0E0,0E0,0E0,1.0183203E2,2.4202539E2,2.7434717E2,2.0250195E2,1.7768384E2,3.6143372E2,4.695857E2,3.302376E2,5.6648724E2,2.9404077E2,3.346914E2,0E0,9.7031445E2,2.8250957E3,6.509835E1,0E0,2.3727031E3,2.7541718E1,7.503452E2,2.9308984E3,0E0,2.5835156E2,0E0,0E0,0E0,0E0,0E0,0E0,0E0,0E0,0E0,0E0,0E0,0E0,0E0,0E0,0E0,0E0,0E0,0E0,0E0,0E0,0E0,0E0,0E0,0E0,0E0,0E0,0E0,0E0,0E0,0E0,0E0,0E0,0E0,0E0,0E0,0E0,0E0,0E0],"parents":[2147483647,0,0,1,1,2,2,3,3,4,4,5,5,6,6,7,7,8,8,9,9,10,10,11,11,12,12,13,13,14,14,15,15,16,16,17,17,18,18,19,19,20,20,21,21,22,22,23,23,24,24,25,25,26,26,27,27,35,35,36,36,37,37,38,38,39,39,40,40,41,41,42,42,43,43,44,44,45,45,47,47,48,48,49,49,51,51,52,52,53,53,54,54,56,56],"right_children":[2,4,6,8,10,12,14,16,18,20,22,24,26,28,30,32,34,36,38,40,42,44,46,48,50,52,54,56,-1,-1,-1,-1,-1,-1,-1,58,60,62,64,66,68,70,72,74,76,78,-1,80,82,84,-1,86,88,90,92,-1,94,-1,-1,-1,-1,-1,-1,-1,-1,-1,-1,-1,-1,-1,-1,-1,-1,-1,-1,-1,-1,-1,-1,-1,-1,-1,-1,-1,-1,-1,-1,-1,-1,-1,-1,-1,-1,-1,-1],"split_conditions":[3.68E1,1.69E1,1.56E1,8.8E0,2.78E1,8.7E1,6.123234E-17,4.2E0,1.37E1,2.12E1,-2.5881904E-1,9.681E2,6.8E0,9.6E1,5E-1,1.6E1,7E0,1.11E1,-8.660254E-1,2.5881904E-1,7.7E1,1.39E1,1.34E2,9.671E2,9.744E2,3.2526913E0,9.8E1,2.17E1,3.0463133E0,6.786067E-1,6.160356E0,-4.565064E-1,-7.7975667E-1,-6.5242827E-1,-5.7225055E-1,1.2246469E-16,7.0710677E-1,-4.2330546E0,4.8E0,9.682E2,7.1E1,1.12E1,2.78E1,3.1394665E0,6.123234E-17,9.1E1,9.78727E-1,-1.8369701E-16,-8.660254E-1,2.27E1,5.375559E-1,-7.715332E0,4.8E0,9.695E2,-9.349296E0,6.025815E-2,3.5E1,-4.5143086E-1,-5.353762E-1,-4.3308565E-1,-3.220413E-1,-2.3650053E-1,-5.500514E-1,-3.1268352E-1,-2.0706058E-1,-1.7514482E-1,-3.2478985E-1,-1.2787674E-1,9.1561556E-2,-1.6103552E-1,6.206335E-3,5.996216E-2,3.4148806E-1,1.6151893E-1,-2.9312357E-1,3.8268712E-1,1.8201832E-1,4.101529E-1,8.5640706E-2,5.2208805E-1,9.2587596E-1,-4.8301186E-2,2.0290713E0,-2.4638443E-1,7.454761E-2,1.2936696E0,2.2361002E0,4.7190934E-1,7.710624E-2,1.2761859E0,-1.0600486E-1,1.3897237E0,3.5066667E0,2.6977012E-1,1.45834E0],"split_indices":[12,12,0,12,12,1,11,12,12,12,9,5,0,1,8,1,12,12,9,9,1,13,1,5,5,7,1,13,0,0,0,0,0,0,0,8,9,7,0,5,1,13,13,7,11,3,0,11,9,2,0,7,0,5,7,0,1,0,0,0,0,0,0,0,0,0,0,0,0,0,0,0,0,0,0,0,0,0,0,0,0,0,0,0,0,0,0,0,0,0,0,0,0,0,0],"split_type":[0,0,0,0,0,0,0,0,0,0,0,0,0,0,0,0,0,0,0,0,0,0,0,0,0,0,0,0,0,0,0,0,0,0,0,0,0,0,0,0,0,0,0,0,0,0,0,0,0,0,0,0,0,0,0,0,0,0,0,0,0,0,0,0,0,0,0,0,0,0,0,0,0,0,0,0,0,0,0,0,0,0,0,0,0,0,0,0,0,0,0,0,0,0,0],"sum_hessian":[6.9948E4,6.9678E4,2.7E2,1.624E3,6.8054E4,2.38E2,3.2E1,8.06E2,8.18E2,6.7779E4,2.75E2,1.22E2,1.16E2,2.2E1,1E1,2.81E2,5.25E2,5.6E2,2.58E2,2.81E2,6.7498E4,1.05E2,1.7E2,1.14E2,8E0,9.3E1,2.3E1,1.6E1,6E0,1E0,9E0,7E0,2.74E2,2.65E2,2.6E2,2.81E2,2.79E2,3.7E1,2.21E2,1.53E2,1.28E2,6.7448E4,5E1,2.6E1,7.9E1,1.66E2,4E0,1.05E2,9E0,5E0,3E0,8.9E1,4E0,6E0,1.7E1,1E0,1.5E1,1.51E2,1.3E2,1.88E2,9.1E1,1.3E1,2.4E1,1.39E2,8.2E1,1.28E2,2.5E1,1.06E2,2.2E1,4.1E1,6.7407E4,3.6E1,1.4E1,1.5E1,1.1E1,3.7E1,4.2E1,1.57E2,9E0,2.4E1,8.1E1,2E0,7E0,3E0,2E0,8E1,9E0,3E0,1E0,5E0,1E0,4E0,1.3E1,1E0,1.4E1],"tree_param":{"num_deleted":"0","num_feature":"16","num_nodes":"95","size_leaf_vector":"1"}},{"base_weights":[8.7356026E-4,-9.584825E0,2.010919E-1,-1.103902E1,-6.372642E0,1.04917064E-1,1.99971E1,-1.2775301E1,-8.729324E0,-7.121405E0,-2.7006102E-1,8.991362E-2,5.4695954E0,1.4859576E1,4.34301E1,-7.848153E-1,-1.2412366E1,-8.959948E0,-1.3188677E0,-5.2088847E0,-8.379959E0,4.150624E0,-3.3555384E0,-3.9701345E0,1.1704184E-1,4.9678407E0,2.507529E0,7.5734663E0,2.7388811E1,3.2330597E1,8.892515E1,-1.183731E1,-6.9916815E-1,-7.9985967E0,-1.0674997E1,3.3143153E0,-1.7517863E-1,-8.381121E0,-3.4372056E0,-7.2660003E0,-9.992002E0,1.8327022E0,1.2627264E0,2.4204028E0,-5.565899E0,-4.9463644E0,1.0702037E0,1.1080815E-1,8.523326E0,2.2706926E0,9.95994E0,1.1835748E1,-1.2413594E-1,1.935615E1,3.3354546E1,1.8340572E1,6.599562E1,5.8419685E0,1.0865429E1,-5.933281E-1,-2.1321593E-1,-4.788696E-1,-3.410688E-1,-2.9359093E-1,-5.720543E-1,2.2593181E-1,5.0261147E-2,-4.6180144E-1,2.1246878E-2,-3.0911595E-1,-8.940013E-2,2.574889E-1,-3.7822857E-1,-5.7909673E-1,-4.1965994E-1,2.5423953E-1,-9.639324E-2,1.8919411E-1,5.54008E-2,-9.990924E-2,-3.9410743E-1,-1.7384678E-1,-3.9463362E-1,1.2647946E-1,-4.2614108E-1,-3.036033E-1,5.856916E-3,1.0199324E-1,7.7310413E-1,2.4602596E-1,-6.2769435E-2,3.753446E-1,1.2330906E0,4.7125894E-1,2.0997496E0,-1.9221906E-1,2.04814E-1,1.1043948E0,1.9804196E-1,1.4036436E0,2.2402084E0,8.365345E-2,1.2343401E0,3.4511418E0,6.660467E-1,1.3246012E-1,6.360552E-1],"categories":[],"categories_nodes":[],"categories_segments":[],"categories_sizes":[],"default_left":[0,0,0,0,0,0,0,0,0,0,0,0,0,0,0,0,0,0,0,0,0,0,0,0,0,0,0,0,0,0,0,0,0,0,0,0,0,0,0,0,0,0,0,0,0,0,0,0,0,0,0,0,0,0,0,0,0,0,0,0,0,0,0,0,0,0,0,0,0,0,0,0,0,0,0,0,0,0,0,0,0,0,0,0,0,0,0,0,0,0,0,0,0,0,0,0,0,0,0,0,0,0,0,0,0,0,0],"id":6,"left_children":[1,3,5,7,9,11,13,15,17,19,21,23,25,27,29,-1,31,33,35,37,39,41,43,45,47,49,-1,51,53,55,57,59,-1,61,63,65,-1,67,69,71,73,75,-1,77,79,81,83,85,87,89,91,93,95,97,99,101,103,-1,105,-1,-1,-1,-1,-1,-1,-1,-1,-1,-1,-1,-1,-1,-1,-1,-1,-1,-1,-1,-1,-1,-1,-1,-1,-1,-1,-1,-1,-1,-1,-1,-1,-1,-1,-1,-1,-1,-1,-1,-1,-1,-1,-1,-1,-1,-1,-1,-1],"loss_changes":[1.3414094E5,6.609375E3,1.3034311E5,3.8305938E3,2.0451621E3,5.48344E3,3.9202938E4,3.9778906E2,7.145176E2,9.167461E2,6.959237E2,7.483943E3,4.0104468E3,2.4714574E4,2.6918383E4,0E0,2.8798438E2,5.9390625E2,1.5332187E2,8.760415E2,3.5658203E2,9.8097705E2,3.9647906E2,2.2244517E3,3.535888E3,2.5221616E3,0E0,5.710295E3,4.146453E3,2.1867355E4,2.2699227E4,3.2246094E1,0E0,4.3277148E2,4.663711E2,9.3622055E0,0E0,4.3304224E2,4.64307E2,5.7646924E2,1.442793E2,2.5439668E2,0E0,1.1912109E1,1.6605176E2,1.6090674E3,1.0575533E3,2.6404148E3,2.2178174E3,1.1647717E3,2.1951172E3,7.7466924E3,1.0049096E3,1.8050371E3,2.1287148E3,3.766627E3,1.3129531E3,0E0,2.7285828E1,0E0,0E0,0E0,0E0,0E0,0E0,0E0,0E0,0E0,0E0,0E0,0E0,0E0,0E0,0E0,0E0,0E0,0E0,0E0,0E0,0E0,0E0,0E0,0E0,0E0,0E0,0E0,0E0,0E0,0E0,0E0,0E0,0E0,0E0,0E0,0E0,0E0,0E0,0E0,0E0,0E0,0E0,0E0,0E0,0E0,0E0,0E0,0E0],"parents":[2147483647,0,0,1,1,2,2,3,3,4,4,5,5,6,6,7,7,8,8,9,9,10,10,11,11,12,12,13,13,14,14,16,16,17,17,18,18,19,19,20,20,21,21,22,22,23,23,24,24,25,25,27,27,28,28,29,29,30,30,31,31,33,33,34,34,35,35,37,37,38,38,39,39,40,40,41,41,43,43,44,44,45,45,46,46,47,47,48,48,49,49,50,50,51,51,52,52,53,53,54,54,55,55,56,56,58,58],"right_children":[2,4,6,8,10,12,14,16,18,20,22,24,26,28,30,-1,32,34,36,38,40,42,44,46,48,50,-1,52,54,56,58,60,-1,62,64,66,-1,68,70,72,74,76,-1,78,80,82,84,86,88,90,92,94,96,98,100,102,104,-1,106,-1,-1,-1,-1,-1,-1,-1,-1,-1,-1,-1,-1,-1,-1,-1,-1,-1,-1,-1,-1,-1,-1,-1,-1,-1,-1,-1,-1,-1,-1,-1,-1,-1,-1,-1,-1,-1,-1,-1,-1,-1,-1,-1,-1,-1,-1,-1,-1],"split_conditions":[1.54E1,6.8E0,3.3633335E1,9.670834E0,6.8479433E0,9.9E0,9.9E0,3.2958333E0,9.8E1,-5E-1,9.657E2,2.2458334E1,2.1648676E1,8.9E1,-8.660254E-1,-7.848153E-1,9.707E2,5.2623286E0,5.5304937E0,-9.708279E0,1.4493866E0,8.5E1,2.2E1,6.8E0,9.4E1,2.1866667E1,2.507529E0,1.3686702E1,1.07E2,9.6E1,-2.5E0,9.8E1,-6.9916815E-1,1.1858334E1,-8.227681E0,2.79E1,-1.7517863E-1,7.1E1,3.1998641E0,3.3E1,5.8E1,1.2925E1,1.2627264E0,5E0,7.6291475E0,7.6291475E0,9.658E2,1.6E0,1.1192007E1,8.327598E-16,6.3E1,5.4579166E1,2.8E0,5.3813868E0,4.8E0,-1.2279324E1,9.024581E0,5.8419685E0,3.1E1,-5.933281E-1,-2.1321593E-1,-4.788696E-1,-3.410688E-1,-2.9359093E-1,-5.720543E-1,2.2593181E-1,5.0261147E-2,-4.6180144E-1,2.1246878E-2,-3.0911595E-1,-8.940013E-2,2.574889E-1,-3.7822857E-1,-5.7909673E-1,-4.1965994E-1,2.5423953E-1,-9.639324E-2,1.8919411E-1,5.54008E-2,-9.990924E-2,-3.9410743E-1,-1.7384678E-1,-3.9463362E-1,1.2647946E-1,-4.2614108E-1,-3.036033E-1,5.856916E-3,1.0199324E-1,7.7310413E-1,2.4602596E-1,-6.2769435E-2,3.753446E-1,1.2330906E0,4.7125894E-1,2.0997496E0,-1.9221906E-1,2.04814E-1,1.1043948E0,1.9804196E-1,1.4036436E0,2.2402084E0,8.365345E-2,1.2343401E0,3.4511418E0,6.660467E-1,1.3246012E-1,6.360552E-1],"split_indices":[14,0,14,14,15,0,0,14,1,10,5,14,15,1,10,0,5,15,15,6,7,1,1,0,1,14,0,15,1,1,6,1,0,14,7,2,0,1,15,3,3,14,0,1,15,15,5,0,6,7,1,14,0,7,0,6,6,0,1,0,0,0,0,0,0,0,0,0,0,0,0,0,0,0,0,0,0,0,0,0,0,0,0,0,0,0,0,0,0,0,0,0,0,0,0,0,0,0,0,0,0,0,0,0,0,0,0],"split_type":[0,0,0,0,0,0,0,0,0,0,0,0,0,0,0,0,0,0,0,0,0,0,0,0,0,0,0,0,0,0,0,0,0,0,0,0,0,0,0,0,0,0,0,0,0,0,0,0,0,0,0,0,0,0,0,0,0,0,0,0,0,0,0,0,0,0,0,0,0,0,0,0,0,0,0,0,0,0,0,0,0,0,0,0,0,0,0,0,0,0,0,0,0,0,0,0,0,0,0,0,0,0,0,0,0,0,0],"sum_hessian":[6.9891E4,1.429E3,6.8462E4,9.82E2,4.47E2,6.8132E4,3.3E2,5.58E2,4.24E2,3.98E2,4.9E1,6.7943E4,1.89E2,2.72E2,5.8E1,5.7E1,5.01E2,4.11E2,1.3E1,1.6E2,2.38E2,2E1,2.9E1,4.5E2,6.7493E4,1.88E2,1E0,1.73E2,9.9E1,4.8E1,1E1,3.73E2,1.28E2,2.67E2,1.44E2,4E0,9E0,5.6E1,1.04E2,1.44E2,9.4E1,1.9E1,1E0,8E0,2.1E1,3.77E2,7.3E1,6.7444E4,4.9E1,1.23E2,6.5E1,1.11E2,6.2E1,4.4E1,5.5E1,3.5E1,1.3E1,7E0,3E0,3.71E2,2E0,1.11E2,1.56E2,2.1E1,1.23E2,2E0,2E0,5.1E1,5E0,3.8E1,6.6E1,3E0,1.41E2,4.4E1,5E1,1E1,9E0,3E0,5E0,9E0,1.2E1,2.53E2,1.24E2,6.4E1,9E0,6.8E1,6.7376E4,2.6E1,2.3E1,7E1,5.3E1,5.7E1,8E0,1.04E2,7E0,3.3E1,2.9E1,3.7E1,7E0,4E1,1.5E1,1E1,2.5E1,1.2E1,1E0,1E0,2E0],"tree_param":{"num_deleted":"0","num_feature":"16","num_nodes":"107","size_leaf_vector":"1"}},{"base_weights":[-1.803664E-3,-8.3868885E0,1.6366172E-1,-1.0203011E1,-5.184247E0,1.1412072E-1,2.7749414E1,-1.0658346E1,-5.5493183E0,-7.3588014E-1,-7.6594896E0,1.0021514E-1,2.0803148E1,1.3068838E1,4.3452602E1,-1.295016E1,-1.0118873E1,-1.8896496E0,-6.8417907E0,2.181985E0,-4.38313E0,-7.8115225E0,1.0057726E0,8.978474E-2,8.488017E0,4.818871E0,6.569036E1,7.743427E0,3.030398E1,2.7846811E1,6.218892E1,-1.3454145E1,-8.01439E0,-8.654839E0,-1.0987318E1,-4.6870694E0,1.3338673E0,-8.037121E0,-4.168806E0,-3.3146188E0,4.5065007E0,1.2529793E-1,-6.8608027E0,-8.180393E0,1.3868964E0,-5.5769734E0,1.08495206E-1,1.4328457E1,-1.1492957E0,-7.1701655E0,8.63674E0,5.1803093E0,1.1903372E0,1.118905E0,1.4588173E1,1.8203505E0,1.8128086E1,1.7043232E1,3.001651E1,1.8833971E-1,6.437514E1,-6.827819E-1,-3.4902245E-1,-4.4078723E-1,-2.2441304E-1,-5.753319E-1,-3.9090943E-1,-6.195068E-1,-5.049061E-1,-2.5148594E-1,-2.2948075E-2,1.2961541E-1,-7.5824074E-2,-4.2736068E-1,-7.185041E-2,-3.0407703E-1,-1.3355307E-1,1.2262206E-2,-2.850743E-1,6.84418E-2,6.141111E-1,-2.2194861E-1,7.5448796E-2,-3.7640527E-1,-7.954421E-2,-4.432985E-1,-1.3387625E-1,-2.803844E-1,2.5593385E-1,-3.4144157E-1,-3.453002E-2,4.6896567E-3,1.555489E-1,4.7425914E-1,1.3571461E0,-1.7728655E-1,6.489944E-1,-1.523421E-1,-3.9564976E-1,7.4080193E-1,-8.4912114E-2,3.579727E-1,-6.7663014E-2,7.6008004E-1,-3.3517838E-3,1.53047E-1,1.0064561E0,9.7269297E-1,4.220867E-3,4.7658926E-1,1.5637008E0,3.4008546E0,1.4125305E0],"categories":[],"categories_nodes":[],"categories_segments":[],"categories_sizes":[],"default_left":[0,0,0,0,0,0,0,0,0,0,0,0,0,0,0,0,0,0,0,0,0,0,0,0,0,0,0,0,0,0,0,0,0,0,0,0,0,0,0,0,0,0,0,0,0,0,0,0,0,0,0,0,0,0,0,0,0,0,0,0,0,0,0,0,0,0,0,0,0,0,0,0,0,0,0,0,0,0,0,0,0,0,0,0,0,0,0,0,0,0,0,0,0,0,0,0,0,0,0,0,0,0,0,0,0,0,0,0,0,0,0,0,0],"id":7,"left_children":[1,3,5,7,9,11,13,15,17,19,21,23,25,27,29,31,33,35,37,39,41,43,-1,45,47,49,51,53,55,57,59,61,63,65,67,69,71,73,75,77,79,81,83,85,87,89,91,93,95,97,99,-1,-1,101,103,-1,105,107,109,-1,111,-1,-1,-1,-1,-1,-1,-1,-1,-1,-1,-1,-1,-1,-1,-1,-1,-1,-1,-1,-1,-1,-1,-1,-1,-1,-1,-1,-1,-1,-1,-1,-1,-1,-1,-1,-1,-1,-1,-1,-1,-1,-1,-1,-1,-1,-1,-1,-1,-1,-1,-1,-1],"loss_changes":[9.707787E4,7.8224844E3,9.376784E4,1.7695469E3,5.411671E3,1.9702871E4,2.7787547E4,8.395156E2,3.607434E2,1.8932303E3,1.4915098E3,5.987621E3,3.2687973E4,5.7313164E3,1.5519547E4,2.5535547E2,7.186211E2,2.046376E2,1.518103E2,1.2798547E3,8.833218E2,1.0801504E3,0E0,7.2490806E3,4.8007896E3,1.6639668E3,1.6590098E4,2.2961792E3,4.546582E2,2.8539648E2,3.0783203E3,7.5552734E1,5.6435547E0,4.8982617E2,3.7133984E2,1.507666E1,4.3388138E1,1.1901782E2,4.1051605E1,2.5630573E2,1.6910201E3,1.898472E2,1.6737183E2,1.1193691E3,3.6803326E2,1.3716191E3,3.0075928E3,3.0319346E3,1.1633923E3,3.456665E0,1.7494604E3,0E0,0E0,4.12886E2,2.2576611E2,0E0,1.4943506E2,3.2540894E2,3.9741406E2,0E0,1.3675625E3,0E0,0E0,0E0,0E0,0E0,0E0,0E0,0E0,0E0,0E0,0E0,0E0,0E0,0E0,0E0,0E0,0E0,0E0,0E0,0E0,0E0,0E0,0E0,0E0,0E0,0E0,0E0,0E0,0E0,0E0,0E0,0E0,0E0,0E0,0E0,0E0,0E0,0E0,0E0,0E0,0E0,0E0,0E0,0E0,0E0,0E0,0E0,0E0,0E0,0E0,0E0,0E0],"parents":[2147483647,0,0,1,1,2,2,3,3,4,4,5,5,6,6,7,7,8,8,9,9,10,10,11,11,12,12,13,13,14,14,15,15,16,16,17,17,18,18,19,19,20,20,21,21,23,23,24,24,25,25,26,26,27,27,28,28,29,29,30,30,31,31,32,32,33,33,34,34,35,35,36,36,37,37,38,38,39,39,40,40,41,41,42,42,43,43,44,44,45,45,46,46,47,47,48,48,49,49,50,50,53,53,54,54,56,56,57,57,58,58,60,60],"right_children":[2,4,6,8,10,12,14,16,18,20,22,24,26,28,30,32,34,36,38,40,42,44,-1,46,48,50,52,54,56,58,60,62,64,66,68,70,72,74,76,78,80,82,84,86,88,90,92,94,96,98,100,-1,-1,102,104,-1,106,108,110,-1,112,-1,-1,-1,-1,-1,-1,-1,-1,-1,-1,-1,-1,-1,-1,-1,-1,-1,-1,-1,-1,-1,-1,-1,-1,-1,-1,-1,-1,-1,-1,-1,-1,-1,-1,-1,-1,-1,-1,-1,-1,-1,-1,-1,-1,-1,-1,-1,-1,-1,-1,-1,-1],"split_conditions":[1.39E1,4.5247607E0,9.9E1,1.56E1,-7.128052E-1,2.951051E1,3.68E1,1.4980603E0,-5E-1,6.123234E-17,2.7210794E1,8.5E1,1.56E1,1.21E2,-7.890681E0,8.9E0,-5E-1,7E0,7.0710677E-1,3.9E1,-1.7542303E0,8.4E1,1.0057726E0,1.6E0,3.9333692E0,-1.9791904E1,5.5E1,1.0861443E1,2.3469809E1,1.08E2,1E2,2.2780048E1,5.3E1,3.6E1,5.4E1,4.7E1,4.0325823E0,8.556838E0,8.9E0,1.65E1,6.8E0,4.8275404E0,6.5E1,1.02E2,5.141334E0,3.68E1,2.78E1,9.74669E0,-2.5881904E-1,8.789918E0,-8.660254E-1,5.1803093E0,1.1903372E0,6.123234E-17,3.14E1,1.8203505E0,3.9E1,1.07E2,1.6E0,1.8833971E-1,2.951051E1,-6.827819E-1,-3.4902245E-1,-4.4078723E-1,-2.2441304E-1,-5.753319E-1,-3.9090943E-1,-6.195068E-1,-5.049061E-1,-2.5148594E-1,-2.2948075E-2,1.2961541E-1,-7.5824074E-2,-4.2736068E-1,-7.185041E-2,-3.0407703E-1,-1.3355307E-1,1.2262206E-2,-2.850743E-1,6.84418E-2,6.141111E-1,-2.2194861E-1,7.5448796E-2,-3.7640527E-1,-7.954421E-2,-4.432985E-1,-1.3387625E-1,-2.803844E-1,2.5593385E-1,-3.4144157E-1,-3.453002E-2,4.6896567E-3,1.555489E-1,4.7425914E-1,1.3571461E0,-1.7728655E-1,6.489944E-1,-1.523421E-1,-3.9564976E-1,7.4080193E-1,-8.4912114E-2,3.579727E-1,-6.7663014E-2,7.6008004E-1,-3.3517838E-3,1.53047E-1,1.0064561E0,9.7269297E-1,4.220867E-3,4.7658926E-1,1.5637008E0,3.4008546E0,1.4125305E0],"split_indices":[13,15,1,0,7,15,13,15,10,11,15,1,0,1,7,13,10,13,8,1,6,3,0,0,7,6,1,6,6,1,1,6,1,3,3,1,15,6,13,2,0,15,1,1,15,13,13,15,8,7,10,0,0,11,2,0,3,1,0,0,15,0,0,0,0,0,0,0,0,0,0,0,0,0,0,0,0,0,0,0,0,0,0,0,0,0,0,0,0,0,0,0,0,0,0,0,0,0,0,0,0,0,0,0,0,0,0,0,0,0,0,0,0],"split_type":[0,0,0,0,0,0,0,0,0,0,0,0,0,0,0,0,0,0,0,0,0,0,0,0,0,0,0,0,0,0,0,0,0,0,0,0,0,0,0,0,0,0,0,0,0,0,0,0,0,0,0,0,0,0,0,0,0,0,0,0,0,0,0,0,0,0,0,0,0,0,0,0,0,0,0,0,0,0,0,0,0,0,0,0,0,0,0,0,0,0,0,0,0,0,0,0,0,0,0,0,0,0,0,0,0,0,0,0,0,0,0,0,0],"sum_hessian":[6.9967E4,1.353E3,6.8614E4,8.62E2,4.91E2,6.8492E4,1.22E2,7.84E2,7.8E1,1.76E2,3.15E2,6.8447E4,4.5E1,6.4E1,5.8E1,1.45E2,6.39E2,2.1E1,5.7E1,9.8E1,7.8E1,3.14E2,1E0,6.8363E4,8.4E1,3.4E1,1.1E1,5E1,1.4E1,3.3E1,2.5E1,1.3E2,1.5E1,2.42E2,3.97E2,1.1E1,1E1,3.8E1,1.9E1,2.9E1,6.9E1,2.8E1,5E1,3.02E2,1.2E1,2.24E2,6.8139E4,5.2E1,3.2E1,8E0,2.6E1,5E0,6E0,2.6E1,2.4E1,8E0,6E0,7E0,2.6E1,1E0,2.4E1,1.25E2,5E0,1.1E1,4E0,5.2E1,1.9E2,1.49E2,2.48E2,1E1,1E0,7E0,3E0,3.5E1,3E0,7E0,1.2E1,1.2E1,1.7E1,5E1,1.9E1,6E0,2.2E1,4.4E1,6E0,2.68E2,3.4E1,4E0,8E0,1.78E2,4.6E1,6.7808E4,3.31E2,3.9E1,1.3E1,2.8E1,4E0,2E0,6E0,1.6E1,1E1,7E0,1.9E1,2.3E1,1E0,1E0,5E0,6E0,1E0,2E0,2.4E1,2.1E1,3E0],"tree_param":{"num_deleted":"0","num_feature":"16","num_nodes":"113","size_leaf_vector":"1"}},{"base_weights":[7.320717E-3,-1.02848426E-1,2.6628202E1,-9.2603855E0,1.2219855E-1,2.2699194E1,5.7473686E1,-1.1671561E1,-6.9397955E0,9.753137E-2,5.9964542E0,1.9178612E1,3.9856094E1,3.735525E1,9.799872E1,-1.3506819E1,-1.070531E1,-7.7774167E0,-5.170291E0,-2.4234462E0,1.0808481E-1,9.996191E0,5.0609074E0,2.0936695E1,1.0662782E1,5.9109505E1,2.2150913E1,2.7668665E1,3.8224685E0,5.307489E0,6.159817E-1,-6.8908244E-1,-1.1121083E1,-1.1316678E1,-1.0023552E1,-8.6044655E0,-6.923549E0,-4.795331E0,-8.003185E0,-3.5586183E0,-1.0210216E0,1.0418048E-1,1.2818656E0,7.7400637E0,1.4318573E1,6.0274396E0,3.0244598E0,2.2983719E1,1.5078536E1,3.416203E0,1.3756957E1,1.2589387E0,3.1808088E0,2.9550434E1,8.836543E0,6.9080514E-1,1.5682555E0,-5.6367534E-1,-1.5227771E-1,-5.7004476E-1,-3.5246217E-1,-5.0202113E-1,-1.392436E-1,-1.7657667E-1,-4.3405366E-1,-1.8015191E-1,-3.5650212E-1,-2.904949E-1,-2.0048705E-1,-2.1132238E-1,-4.283463E-1,-1.4905304E-1,-3.668479E-1,-8.417045E-2,1.5602121E-1,5.2506193E-3,-9.5017456E-2,-7.359942E-2,1.1377491E-1,6.907503E-1,2.793919E-1,1.0778308E-1,7.472013E-1,3.1701514E-1,3.971612E-2,-3.0040964E-2,2.3894684E-1,1.0364304E0,1.7931973E0,5.223933E-1,1.3549125E0,3.9467356E-1,-1.561427E-1,2.5366846E-1,7.9981965E-1,5.820983E-1,1.7502121E0,-1.2453065E-1,5.1859254E-1],"categories":[],"categories_nodes":[],"categories_segments":[],"categories_sizes":[],"default_left":[0,0,0,0,0,0,0,0,0,0,0,0,0,0,0,0,0,0,0,0,0,0,0,0,0,0,0,0,0,0,0,0,0,0,0,0,0,0,0,0,0,0,0,0,0,0,0,0,0,0,0,0,0,0,0,0,0,0,0,0,0,0,0,0,0,0,0,0,0,0,0,0,0,0,0,0,0,0,0,0,0,0,0,0,0,0,0,0,0,0,0,0,0,0,0,0,0,0,0],"id":8,"left_children":[1,3,5,7,9,11,13,15,17,19,21,23,25,27,29,31,33,35,37,39,41,43,45,47,49,51,53,55,-1,-1,-1,-1,57,59,61,63,65,67,69,71,73,75,77,79,81,83,85,87,89,91,93,-1,-1,95,97,-1,-1,-1,-1,-1,-1,-1,-1,-1,-1,-1,-1,-1,-1,-1,-1,-1,-1,-1,-1,-1,-1,-1,-1,-1,-1,-1,-1,-1,-1,-1,-1,-1,-1,-1,-1,-1,-1,-1,-1,-1,-1,-1,-1],"loss_changes":[2.0565356E5,1.439183E5,3.371992E4,9.291203E3,9.875747E3,1.4819406E4,2.2428836E4,1.3095234E3,1.2285273E3,1.8060763E3,1.0158633E3,3.0106094E3,1.3348734E4,6.594584E3,5.6760234E3,2.9664062E1,1.1247656E2,3.493125E2,2.5691992E2,4.4690063E2,3.096338E2,4.060205E2,4.4038232E2,1.7879766E3,8.2746924E2,1.4565156E3,2.1033555E3,5.907617E2,0E0,0E0,0E0,0E0,7.5166016E0,1.9546875E1,4.4003906E0,8.204297E1,1.7315332E2,1.7436816E2,2.9794434E1,3.1855286E2,3.5638782E2,1.1254364E2,6.162849E2,4.0656592E2,9.711035E1,2.520122E2,4.9262744E2,3.0326172E3,2.4441885E3,4.0525256E2,4.4389502E2,0E0,0E0,1.0575215E3,1.9973895E2,0E0,0E0,0E0,0E0,0E0,0E0,0E0,0E0,0E0,0E0,0E0,0E0,0E0,0E0,0E0,0E0,0E0,0E0,0E0,0E0,0E0,0E0,0E0,0E0,0E0,0E0,0E0,0E0,0E0,0E0,0E0,0E0,0E0,0E0,0E0,0E0,0E0,0E0,0E0,0E0,0E0,0E0,0E0,0E0],"parents":[2147483647,0,0,1,1,2,2,3,3,4,4,5,5,6,6,7,7,8,8,9,9,10,10,11,11,12,12,13,13,14,14,15,15,16,16,17,17,18,18,19,19,20,20,21,21,22,22,23,23,24,24,25,25,26,26,27,27,32,32,33,33,34,34,35,35,36,36,37,37,38,38,39,39,40,40,41,41,42,42,43,43,44,44,45,45,46,46,47,47,48,48,49,49,50,50,53,53,54,54],"right_children":[2,4,6,8,10,12,14,16,18,20,22,24,26,28,30,32,34,36,38,40,42,44,46,48,50,52,54,56,-1,-1,-1,-1,58,60,62,64,66,68,70,72,74,76,78,80,82,84,86,88,90,92,94,-1,-1,96,98,-1,-1,-1,-1,-1,-1,-1,-1,-1,-1,-1,-1,-1,-1,-1,-1,-1,-1,-1,-1,-1,-1,-1,-1,-1,-1,-1,-1,-1,-1,-1,-1,-1,-1,-1,-1,-1,-1,-1,-1,-1,-1,-1,-1],"split_conditions":[3.68E1,1.69E1,1.56E1,8.8E0,2.78E1,6.5229164E1,6.123234E-17,4.2E0,1.37E1,2.12E1,-5E-1,8E1,2.7210794E1,7.8995834E1,-2.5E0,6.8E0,7E0,1.11E1,9.684E2,4.8E0,2.8E0,7.7918158E0,9.648E2,9.633E2,7.0710677E-1,9.624E2,9.64E2,1.4689891E1,3.8224685E0,5.307489E0,6.159817E-1,-6.8908244E-1,9.9E1,1.56E1,4.6570835E1,9.567E2,2.9E1,2.8E0,3.1396022E0,3.68E1,3.1955228E0,7.321301E0,1.54E1,2.0954166E1,2.4E1,9.2E1,1.39E1,6.8E0,2.1648676E1,9.4E1,-8.660254E-1,1.2589387E0,3.1808088E0,3.68E1,2.9E1,6.9080514E-1,1.5682555E0,-5.6367534E-1,-1.5227771E-1,-5.7004476E-1,-3.5246217E-1,-5.0202113E-1,-1.392436E-1,-1.7657667E-1,-4.3405366E-1,-1.8015191E-1,-3.5650212E-1,-2.904949E-1,-2.0048705E-1,-2.1132238E-1,-4.283463E-1,-1.4905304E-1,-3.668479E-1,-8.417045E-2,1.5602121E-1,5.2506193E-3,-9.5017456E-2,-7.359942E-2,1.1377491E-1,6.907503E-1,2.793919E-1,1.0778308E-1,7.472013E-1,3.1701514E-1,3.971612E-2,-3.0040964E-2,2.3894684E-1,1.0364304E0,1.7931973E0,5.223933E-1,1.3549125E0,3.9467356E-1,-1.561427E-1,2.5366846E-1,7.9981965E-1,5.820983E-1,1.7502121E0,-1.2453065E-1,5.1859254E-1],"split_indices":[12,12,0,12,12,14,11,12,12,12,8,3,15,14,6,0,12,12,5,0,0,15,5,5,8,5,5,15,0,0,0,0,3,0,14,5,3,0,15,13,6,15,14,14,3,3,13,0,15,3,10,0,0,13,3,0,0,0,0,0,0,0,0,0,0,0,0,0,0,0,0,0,0,0,0,0,0,0,0,0,0,0,0,0,0,0,0,0,0,0,0,0,0,0,0,0,0,0,0],"split_type":[0,0,0,0,0,0,0,0,0,0,0,0,0,0,0,0,0,0,0,0,0,0,0,0,0,0,0,0,0,0,0,0,0,0,0,0,0,0,0,0,0,0,0,0,0,0,0,0,0,0,0,0,0,0,0,0,0,0,0,0,0,0,0,0,0,0,0,0,0,0,0,0,0,0,0,0,0,0,0,0,0,0,0,0,0,0,0,0,0,0,0,0,0,0,0,0,0,0,0],"sum_hessian":[7.012E4,6.9832E4,2.88E2,1.674E3,6.8158E4,2.57E2,3.1E1,8.19E2,8.55E2,6.7874E4,2.84E2,2.15E2,4.2E1,2.2E1,9E0,2.78E2,5.41E2,5.78E2,2.77E2,2.82E2,6.7592E4,5.2E1,2.32E2,1.77E2,3.8E1,1.9E1,2.3E1,1.9E1,3E0,8E0,1E0,2.45E2,3.3E1,2.77E2,2.64E2,2.89E2,2.89E2,2.47E2,3E1,1.55E2,1.27E2,6.7369E4,2.23E2,3.6E1,1.6E1,1.56E2,7.6E1,1.29E2,4.8E1,1.2E1,2.6E1,3E0,1.6E1,1.4E1,9E0,5E0,1.4E1,3.2E1,1E0,2.7E2,7E0,2.63E2,1E0,5E0,2.84E2,1.8E1,2.71E2,1.05E2,1.42E2,5E0,2.5E1,1.36E2,1.9E1,1.1E2,1.7E1,6.7342E4,2.7E1,5.9E1,1.64E2,8E0,2.8E1,1E0,1.5E1,1.47E2,9E0,2.5E1,5.1E1,1.12E2,1.7E1,3.6E1,1.2E1,7E0,5E0,6E0,2E1,4E0,1E1,1E0,8E0],"tree_param":{"num_deleted":"0","num_feature":"16","num_nodes":"99","size_leaf_vector":"1"}},{"base_weights":[6.94177E-3,-8.540896E-2,2.3964207E1,-8.773911E0,1.1964988E-1,1.8688612E1,3.687623E1,-1.1057353E1,-6.5190353E0,9.437076E-2,5.89676E0,1.3928892E1,2.2305716E1,4.5325594E0,3.4233547E1,-1.2693296E1,-1.0215522E1,-7.340535E0,-4.7762823E0,-1.998186E0,1.0484113E-1,2.7624485E0,6.86921E0,9.779231E0,1.8913221E1,1.708127E1,3.812584E1,2.1670704E1,4.412296E1,-9.082806E0,-6.4666414E-1,-1.0948721E1,-9.369938E0,-7.8595138E0,-6.003198E0,-5.335942E0,-2.4580863E0,-2.2803473E0,2.8591726E0,1.0253363E-1,4.552553E0,6.4326577E0,5.48142E-1,4.705034E0,8.460063E0,1.1205706E1,-5.0148897E0,-9.4999963E-1,2.1278011E1,2.4143929E1,9.611917E0,6.6224396E1,2.1958462E1,1.4065999E1,3.5074226E1,3.1636703E1,3.2971916E0,-4.7254905E-1,-1.9230743E-1,-5.4831374E-1,-1.5172067E-1,-9.075403E-2,-4.6963125E-1,-4.2704663E-1,-3.5470673E-1,-3.4087107E-1,-1.7567016E-1,-3.7831494E-1,-2.4399705E-1,-2.4874006E-1,-5.6572437E-2,-7.59057E-2,-1.9590399E-1,-1.3427125E-1,2.515601E-1,7.56323E-2,4.998959E-3,-4.336817E-2,2.6399383E-1,-2.804E-1,3.8101155E-1,1.20980896E-1,-1.5560508E-1,1.508126E-1,2.8851122E-1,2.6545447E-1,4.7013125E-1,7.760081E-1,4.7647855E-1,-4.1977763E-1,1.8701553E-3,2.77208E-2,-1.0688744E-1,1.5481917E0,8.810033E-1,1.0534264E0,2.1344092E0,2.8662634E-1,5.4862946E-1,2.2973414E-1,4.158825E0,1.1309675E0,2.6808333E-1,8.6111003E-1,8.6351395E-2,-8.934689E-3,1.914764E0,4.956247E-1,1.7422192E0],"categories":[],"categories_nodes":[],"categories_segments":[],"categories_sizes":[],"default_left":[0,0,0,0,0,0,0,0,0,0,0,0,0,0,0,0,0,0,0,0,0,0,0,0,0,0,0,0,0,0,0,0,0,0,0,0,0,0,0,0,0,0,0,0,0,0,0,0,0,0,0,0,0,0,0,0,0,0,0,0,0,0,0,0,0,0,0,0,0,0,0,0,0,0,0,0,0,0,0,0,0,0,0,0,0,0,0,0,0,0,0,0,0,0,0,0,0,0,0,0,0,0,0,0,0,0,0,0,0],"id":9,"left_children":[1,3,5,7,9,11,13,15,17,19,21,23,25,-1,27,29,31,33,35,37,39,41,43,45,47,49,51,53,55,57,-1,59,61,63,65,67,69,71,73,75,77,79,81,83,85,87,89,91,93,95,97,99,101,103,105,107,-1,-1,-1,-1,-1,-1,-1,-1,-1,-1,-1,-1,-1,-1,-1,-1,-1,-1,-1,-1,-1,-1,-1,-1,-1,-1,-1,-1,-1,-1,-1,-1,-1,-1,-1,-1,-1,-1,-1,-1,-1,-1,-1,-1,-1,-1,-1,-1,-1,-1,-1,-1,-1],"loss_changes":[1.5498786E5,1.24330234E5,1.7634734E4,8.212453E3,9.955737E3,3.0120703E3,7.839164E3,9.6933594E2,1.127457E3,1.487428E3,8.862676E2,1.5938047E3,8.275105E3,0E0,8.361758E3,1.1387109E2,2.2723828E2,3.3454297E2,3.281001E2,4.697688E2,6.9272345E2,5.816157E2,7.3828906E2,1.0902637E3,1.8051641E3,4.1464707E3,1.0357098E4,3.0741895E3,9.084656E3,2.2103271E0,0E0,5.484375E0,2.6488281E1,1.443789E2,2.9635303E2,1.7767285E2,1.7132602E2,3.935188E2,2.4232845E2,2.4301605E2,1.4255072E2,4.288114E2,3.2263278E2,1.5888525E2,3.3320898E2,1.7752246E2,8.571452E1,1.0119543E1,6.5904297E2,1.4959238E3,1.5879956E2,9.020609E3,7.615918E1,9.0491943E2,1.3694629E3,1.6057656E3,0E0,0E0,0E0,0E0,0E0,0E0,0E0,0E0,0E0,0E0,0E0,0E0,0E0,0E0,0E0,0E0,0E0,0E0,0E0,0E0,0E0,0E0,0E0,0E0,0E0,0E0,0E0,0E0,0E0,0E0,0E0,0E0,0E0,0E0,0E0,0E0,0E0,0E0,0E0,0E0,0E0,0E0,0E0,0E0,0E0,0E0,0E0,0E0,0E0,0E0,0E0,0E0,0E0],"parents":[2147483647,0,0,1,1,2,2,3,3,4,4,5,5,6,6,7,7,8,8,9,9,10,10,11,11,12,12,14,14,15,15,16,16,17,17,18,18,19,19,20,20,21,21,22,22,23,23,24,24,25,25,26,26,27,27,28,28,29,29,31,31,32,32,33,33,34,34,35,35,36,36,37,37,38,38,39,39,40,40,41,41,42,42,43,43,44,44,45,45,46,46,47,47,48,48,49,49,50,50,51,51,52,52,53,53,54,54,55,55],"right_children":[2,4,6,8,10,12,14,16,18,20,22,24,26,-1,28,30,32,34,36,38,40,42,44,46,48,50,52,54,56,58,-1,60,62,64,66,68,70,72,74,76,78,80,82,84,86,88,90,92,94,96,98,100,102,104,106,108,-1,-1,-1,-1,-1,-1,-1,-1,-1,-1,-1,-1,-1,-1,-1,-1,-1,-1,-1,-1,-1,-1,-1,-1,-1,-1,-1,-1,-1,-1,-1,-1,-1,-1,-1,-1,-1,-1,-1,-1,-1,-1,-1,-1,-1,-1,-1,-1,-1,-1,-1,-1,-1],"split_conditions":[3.68E1,1.69E1,5.4579166E1,8.8E0,2.78E1,6.123234E-17,3.3E1,4.2E0,1.37E1,2.31E1,-7.0710677E-1,3.9508335E1,6.123234E-17,4.5325594E0,1E2,2E1,7E0,7.0710677E-1,9.659258E-1,1.01E2,7.7E1,6.123234E-17,4.9E1,9.658E2,-1.2206789E1,5.6E1,2.17E1,2.4E1,9.626E2,8.875E0,-6.4666414E-1,2.5980762E1,2E1,1.11E1,5.7E1,-8.660254E-1,-1.8000513E0,9.66E2,1.86E1,2.31E1,9.589E2,3.5E1,6.8E1,2.17E1,2.21E1,2.17E1,-8.660254E-1,7.7E1,-6.811736E0,1.77E2,9.6E2,7E1,9.647E2,9.661E2,-9.659258E-1,-1.8369701E-16,3.2971916E0,-4.7254905E-1,-1.9230743E-1,-5.4831374E-1,-1.5172067E-1,-9.075403E-2,-4.6963125E-1,-4.2704663E-1,-3.5470673E-1,-3.4087107E-1,-1.7567016E-1,-3.7831494E-1,-2.4399705E-1,-2.4874006E-1,-5.6572437E-2,-7.59057E-2,-1.9590399E-1,-1.3427125E-1,2.515601E-1,7.56323E-2,4.998959E-3,-4.336817E-2,2.6399383E-1,-2.804E-1,3.8101155E-1,1.20980896E-1,-1.5560508E-1,1.508126E-1,2.8851122E-1,2.6545447E-1,4.7013125E-1,7.760081E-1,4.7647855E-1,-4.1977763E-1,1.8701553E-3,2.77208E-2,-1.0688744E-1,1.5481917E0,8.810033E-1,1.0534264E0,2.1344092E0,2.8662634E-1,5.4862946E-1,2.2973414E-1,4.158825E0,1.1309675E0,2.6808333E-1,8.6111003E-1,8.6351395E-2,-8.934689E-3,1.914764E0,4.956247E-1,1.7422192E0],"split_indices":[12,12,14,12,12,9,1,12,12,12,9,14,11,0,1,1,12,9,9,1,1,11,1,5,6,3,13,2,5,14,0,6,3,12,1,9,6,5,2,14,5,3,1,13,2,13,9,1,6,1,5,3,5,5,9,9,0,0,0,0,0,0,0,0,0,0,0,0,0,0,0,0,0,0,0,0,0,0,0,0,0,0,0,0,0,0,0,0,0,0,0,0,0,0,0,0,0,0,0,0,0,0,0,0,0,0,0,0,0],"split_type":[0,0,0,0,0,0,0,0,0,0,0,0,0,0,0,0,0,0,0,0,0,0,0,0,0,0,0,0,0,0,0,0,0,0,0,0,0,0,0,0,0,0,0,0,0,0,0,0,0,0,0,0,0,0,0,0,0,0,0,0,0,0,0,0,0,0,0,0,0,0,0,0,0,0,0,0,0,0,0,0,0,0,0,0,0,0,0,0,0,0,0,0,0,0,0,0,0,0,0,0,0,0,0,0,0,0,0,0,0],"sum_hessian":[7.005E4,6.9782E4,2.68E2,1.608E3,6.8174E4,1.92E2,7.6E1,7.97E2,8.11E2,6.7878E4,2.96E2,8.5E1,1.07E2,2E0,7.4E1,2.66E2,5.31E2,5.49E2,2.62E2,3.37E2,6.7541E4,7.1E1,2.25E2,4.8E1,3.7E1,8.2E1,2.5E1,3.4E1,4E1,1.9E1,2.47E2,2.78E2,2.53E2,3.92E2,1.57E2,2.1E2,5.2E1,3.19E2,1.8E1,6.7507E4,3.4E1,2.6E1,4.5E1,9.7E1,1.28E2,4.4E1,4E0,4E0,3.3E1,4.1E1,4.1E1,8E0,1.7E1,2.3E1,1.1E1,2.7E1,1.3E1,1.7E1,2E0,2.77E2,1E0,1E0,2.52E2,2.02E2,1.9E2,1.17E2,4E1,3.3E1,1.77E2,1.7E1,3.5E1,2.19E2,1E2,5E0,1.3E1,1.21E2,6.7386E4,4E0,3E1,2E0,2.4E1,3E1,1.5E1,3.9E1,5.8E1,3.1E1,9.7E1,1E1,3.4E1,2E0,2E0,2E0,2E0,7E0,2.6E1,3.7E1,4E0,1.2E1,2.9E1,2E0,6E0,1.6E1,1E0,1.8E1,5E0,1E0,1E1,4E0,2.3E1],"tree_param":{"num_deleted":"0","num_feature":"16","num_nodes":"109","size_leaf_vector":"1"}},{"base_weights":[4.019187E-3,-8.9846574E-2,2.4030533E1,-8.358684E0,1.10124856E-1,2.0007717E1,5.5814335E1,-1.0494648E1,-6.2614512E0,8.8216856E-2,5.6038375E0,1.4277265E1,2.6261808E1,3.525451E1,9.340853E1,-1.2105335E1,-9.675934E0,-7.781523E0,-5.5372877E0,-1.9112036E0,9.619035E-2,5.0833106E0,1.072743E1,6.6952662E0,1.6126163E1,2.0477135E1,3.9440674E1,2.257706E1,3.1592643E0,5.060684E0,5.7905436E-1,-4.2295977E-1,-1.230171E1,-1.0424574E1,-9.14725E0,-8.330061E0,-6.671555E0,-7.2651286E0,-4.8983397E0,-2.170378E0,2.9644961E0,9.444898E-2,2.5391989E0,6.03753E0,3.089607E0,1.2591053E1,1.1274529E0,-5.2782784E0,9.656448E0,1.4579077E1,2.9056168E1,1.9073984E1,1.913543E0,4.474656E1,7.2221227E0,2.9163967E1,9.941901E0,-6.244413E-1,-4.8154503E-1,-5.2387303E-1,-1.5709774E-1,-4.6647927E-1,-3.650777E-1,-4.1841063E-1,-4.3246415E-2,-3.679756E-1,-2.1935168E-1,-2.6859996E-1,-3.9609566E-1,-2.6441368E-1,-1.7316864E-1,-1.5084216E-1,-4.0986184E-2,4.7732033E-2,3.8752374E-1,4.78333E-3,-9.7913615E-2,-1.4403139E-1,1.9318953E-1,-6.467191E-3,3.1149256E-1,-6.1305936E-2,2.396395E-1,2.5866935E-1,7.359358E-1,7.973597E-2,-1.8540336E-2,-4.5398197E-1,7.748149E-2,2.7735206E-1,5.804232E-1,1.2134756E0,5.900287E-1,2.9500587E0,3.8969257E-1,1.3560258E0,8.523719E-1,1.3338652E0,2.517987E0,4.827578E-1,-1.23576164E-1,4.1920206E-1,1.5270644E0,5.743963E-1,1.6643668E-2],"categories":[],"categories_nodes":[],"categories_segments":[],"categories_sizes":[],"default_left":[0,0,0,0,0,0,0,0,0,0,0,0,0,0,0,0,0,0,0,0,0,0,0,0,0,0,0,0,0,0,0,0,0,0,0,0,0,0,0,0,0,0,0,0,0,0,0,0,0,0,0,0,0,0,0,0,0,0,0,0,0,0,0,0,0,0,0,0,0,0,0,0,0,0,0,0,0,0,0,0,0,0,0,0,0,0,0,0,0,0,0,0,0,0,0,0,0,0,0,0,0,0,0,0,0],"id":10,"left_children":[1,3,5,7,9,11,13,15,17,19,21,23,25,27,29,31,33,35,37,39,41,43,45,47,49,51,53,55,-1,-1,-1,-1,57,59,61,63,65,67,69,71,73,75,77,79,81,83,85,87,89,91,93,95,-1,97,99,101,103,-1,-1,-1,-1,-1,-1,-1,-1,-1,-1,-1,-1,-1,-1,-1,-1,-1,-1,-1,-1,-1,-1,-1,-1,-1,-1,-1,-1,-1,-1,-1,-1,-1,-1,-1,-1,-1,-1,-1,-1,-1,-1,-1,-1,-1,-1,-1,-1],"loss_changes":[1.576318E5,1.1512472E5,3.366133E4,7.2987812E3,8.1813237E3,8.333867E3,1.9894828E4,9.5496875E2,8.727617E2,1.0796566E3,6.655488E2,1.7004023E3,7.959453E3,6.009371E3,5.214586E3,8.925781E1,1.19953125E2,1.0638086E2,5.903828E2,3.4635736E2,2.8667303E2,4.5124707E2,4.151819E2,1.00827734E3,1.6367832E3,1.3173398E3,5.4890586E3,1.0416807E3,0E0,0E0,0E0,0E0,6.6601562E0,5.104297E1,4.192578E1,4.231836E1,1.1387744E2,1.4519385E2,2.1501367E2,2.9020715E2,1.2726884E2,1.6863757E2,3.5572485E2,1.9768555E2,6.086152E2,2.395E2,4.091765E0,1.6980217E2,1.1208301E2,2.2445469E3,5.9071562E3,8.0958203E2,0E0,1.5978906E3,1.6537274E2,3.014746E1,1.00166626E2,0E0,0E0,0E0,0E0,0E0,0E0,0E0,0E0,0E0,0E0,0E0,0E0,0E0,0E0,0E0,0E0,0E0,0E0,0E0,0E0,0E0,0E0,0E0,0E0,0E0,0E0,0E0,0E0,0E0,0E0,0E0,0E0,0E0,0E0,0E0,0E0,0E0,0E0,0E0,0E0,0E0,0E0,0E0,0E0,0E0,0E0,0E0,0E0],"parents":[2147483647,0,0,1,1,2,2,3,3,4,4,5,5,6,6,7,7,8,8,9,9,10,10,11,11,12,12,13,13,14,14,15,15,16,16,17,17,18,18,19,19,20,20,21,21,22,22,23,23,24,24,25,25,26,26,27,27,32,32,33,33,34,34,35,35,36,36,37,37,38,38,39,39,40,40,41,41,42,42,43,43,44,44,45,45,46,46,47,47,48,48,49,49,50,50,51,51,53,53,54,54,55,55,56,56],"right_children":[2,4,6,8,10,12,14,16,18,20,22,24,26,28,30,32,34,36,38,40,42,44,46,48,50,52,54,56,-1,-1,-1,-1,58,60,62,64,66,68,70,72,74,76,78,80,82,84,86,88,90,92,94,96,-1,98,100,102,104,-1,-1,-1,-1,-1,-1,-1,-1,-1,-1,-1,-1,-1,-1,-1,-1,-1,-1,-1,-1,-1,-1,-1,-1,-1,-1,-1,-1,-1,-1,-1,-1,-1,-1,-1,-1,-1,-1,-1,-1,-1,-1,-1,-1,-1,-1,-1,-1],"split_conditions":[3.68E1,1.69E1,1.56E1,8.8E0,2.78E1,8.7E1,-8.660254E-1,4.2E0,1.11E1,2.12E1,9.8E1,1.94E1,-7.715332E0,1.02E2,5.5E1,2E1,2.29E1,5E-1,-5E-1,1.01E2,7.7E1,9.648E2,3.12E1,5.4E1,4.2448153E0,1.77E2,5.3813868E0,2.06E1,3.1592643E0,5.060684E0,5.7905436E-1,-4.2295977E-1,9.9E0,1.40349245E1,9.9E0,2.8499084E1,6.9E1,-5.466403E0,9.659258E-1,6.8E0,6.8E0,8.7164135E0,-5E-1,-1.3305703E1,-8.660254E-1,2.25E1,6.123234E-17,9.9E0,-1.5098404E1,-8.660254E-1,5.351976E0,1.3018096E1,1.913543E0,4.8E0,9.671E2,1.58E1,7E1,-6.244413E-1,-4.8154503E-1,-5.2387303E-1,-1.5709774E-1,-4.6647927E-1,-3.650777E-1,-4.1841063E-1,-4.3246415E-2,-3.679756E-1,-2.1935168E-1,-2.6859996E-1,-3.9609566E-1,-2.6441368E-1,-1.7316864E-1,-1.5084216E-1,-4.0986184E-2,4.7732033E-2,3.8752374E-1,4.78333E-3,-9.7913615E-2,-1.4403139E-1,1.9318953E-1,-6.467191E-3,3.1149256E-1,-6.1305936E-2,2.396395E-1,2.5866935E-1,7.359358E-1,7.973597E-2,-1.8540336E-2,-4.5398197E-1,7.748149E-2,2.7735206E-1,5.804232E-1,1.2134756E0,5.900287E-1,2.9500587E0,3.8969257E-1,1.3560258E0,8.523719E-1,1.3338652E0,2.517987E0,4.827578E-1,-1.23576164E-1,4.1920206E-1,1.5270644E0,5.743963E-1,1.6643668E-2],"split_indices":[12,12,0,12,12,1,10,12,12,12,1,2,7,1,1,1,2,9,9,1,1,5,2,1,7,1,7,2,0,0,0,0,0,15,0,15,1,7,9,0,0,15,9,7,9,2,9,0,6,10,7,6,0,0,5,2,1,0,0,0,0,0,0,0,0,0,0,0,0,0,0,0,0,0,0,0,0,0,0,0,0,0,0,0,0,0,0,0,0,0,0,0,0,0,0,0,0,0,0,0,0,0,0,0,0],"split_type":[0,0,0,0,0,0,0,0,0,0,0,0,0,0,0,0,0,0,0,0,0,0,0,0,0,0,0,0,0,0,0,0,0,0,0,0,0,0,0,0,0,0,0,0,0,0,0,0,0,0,0,0,0,0,0,0,0,0,0,0,0,0,0,0,0,0,0,0,0,0,0,0,0,0,0,0,0,0,0,0,0,0,0,0,0,0,0,0,0,0,0,0,0,0,0,0,0,0,0,0,0,0,0,0,0],"sum_hessian":[6.9893E4,6.9622E4,2.71E2,1.643E3,6.7979E4,2.42E2,2.9E1,8.12E2,8.31E2,6.771E4,2.69E2,1.28E2,1.14E2,2E1,9E0,2.69E2,5.43E2,2.65E2,5.66E2,2.68E2,6.7442E4,2.46E2,2.3E1,2.6E1,1.02E2,8.1E1,3.3E1,1.5E1,5E0,8E0,1E0,1.6E1,2.53E2,2.17E2,3.26E2,1.73E2,9.2E1,1.5E2,4.16E2,2.55E2,1.3E1,6.7395E4,4.7E1,1.65E2,8.1E1,1.9E1,4E0,5E0,2.1E1,9.3E1,9E0,7.7E1,4E0,2.8E1,5E0,9E0,6E0,2.33E2,2E1,2.15E2,2E0,2.93E2,3.3E1,1.72E2,1E0,6.9E1,2.3E1,4.1E1,1.09E2,3.25E2,9.1E1,1.56E2,9.9E1,1E1,3E0,6.7356E4,3.9E1,9E0,3.8E1,5E0,1.6E2,2.3E1,5.8E1,5E0,1.4E1,3E0,1E0,3E0,2E0,8E0,1.3E1,1.9E1,7.4E1,3E0,6E0,1.3E1,6.4E1,8E0,2E1,4E0,1E0,1E0,8E0,5E0,1E0],"tree_param":{"num_deleted":"0","num_feature":"16","num_nodes":"105","size_leaf_vector":"1"}},{"base_weights":[1.1431248E-3,-8.4846005E-2,2.1652018E1,-7.9840713E0,1.0536058E-1,1.8536634E1,4.8583393E1,-1.0020439E1,-5.9652195E0,8.326208E-2,5.555967E0,1.5026706E1,2.7658258E1,2.706561E1,7.50183E1,-1.1592405E1,-9.207168E0,-6.762042E0,-4.3439884E0,-2.1525116E0,9.266169E-2,8.526631E0,4.753747E0,6.6083155E0,1.6711222E1,3.8729675E1,1.6112934E1,3.2268997E1,1.2147902E1,4.6805134E0,7.215902E-1,-3.8428727E-1,-1.1681339E1,-1.0295661E1,-8.781528E0,-7.5752525E0,-5.9391336E0,-6.1725225E0,-3.584814E0,-2.829302E0,-8.4602654E-1,8.857973E-2,1.3542382E0,6.243826E0,1.3530653E1,5.61895E0,2.2113502E0,-2.3538673E0,1.0217599E1,1.4151022E1,2.4216942E1,4.9338047E1,2.6559008E1,1.7467787E1,-2.0807163E-1,3.992123E1,8.9816135E-1,7.223831E-1,1.6227579E-2,-5.9582144E-1,-4.897998E-1,-3.8383898E-1,-5.3491956E-1,-4.4832158E-1,-3.5513607E-1,-1.3796495E-1,-3.8274035E-1,-3.0038214E-1,1.1717053E-1,-2.063047E-1,-3.4696695E-1,-2.1355417E-1,-6.899176E-2,-1.7356737E-1,-3.9989367E-2,-9.959703E-2,7.357193E-2,4.5012445E-3,-7.1314536E-2,1.3231236E-1,-3.2229625E-2,6.1863655E-1,2.1915498E-1,7.493687E-2,7.094489E-1,5.5773073E-1,2.6102087E-1,2.1174477E-1,-6.002106E-2,-3.9429462E-1,2.3776679E-1,5.8486646E-1,1.3227224E-2,7.420876E-1,1.5286434E-1,9.591994E-1,2.3511605E0,1.4506312E-1,2.6029508E0,1.569915E0,7.2344655E-1,4.4834438E-1,1.0655326E0,5.28062E-1,2.1527178E0],"categories":[],"categories_nodes":[],"categories_segments":[],"categories_sizes":[],"default_left":[0,0,0,0,0,0,0,0,0,0,0,0,0,0,0,0,0,0,0,0,0,0,0,0,0,0,0,0,0,0,0,0,0,0,0,0,0,0,0,0,0,0,0,0,0,0,0,0,0,0,0,0,0,0,0,0,0,0,0,0,0,0,0,0,0,0,0,0,0,0,0,0,0,0,0,0,0,0,0,0,0,0,0,0,0,0,0,0,0,0,0,0,0,0,0,0,0,0,0,0,0,0,0,0,0],"id":11,"left_children":[1,3,5,7,9,11,13,15,17,19,21,23,25,27,29,31,33,35,37,39,41,43,45,47,49,51,53,55,57,-1,-1,-1,59,61,63,65,67,69,71,73,75,77,79,81,83,85,87,89,91,93,95,97,99,101,-1,103,-1,-1,-1,-1,-1,-1,-1,-1,-1,-1,-1,-1,-1,-1,-1,-1,-1,-1,-1,-1,-1,-1,-1,-1,-1,-1,-1,-1,-1,-1,-1,-1,-1,-1,-1,-1,-1,-1,-1,-1,-1,-1,-1,-1,-1,-1,-1,-1,-1],"loss_changes":[1.2989171E5,1.04413016E5,2.2256242E4,6.6578047E3,8.17329E3,7.5564375E3,1.38965625E4,9.313594E2,1.0338047E3,1.4205673E3,6.124424E2,2.4704922E3,8.067922E3,9.27583E2,1.2166102E4,5.0703125E0,1.5977344E2,3.2306836E2,3.582329E2,2.4783972E2,3.4648102E2,5.6664014E2,4.6710693E2,1.0591567E3,2.5589414E3,3.0794023E3,1.0340977E3,5.9653906E2,1.5845624E2,0E0,0E0,0E0,7.1875E-1,7.185742E1,5.8929688E1,8.347266E1,1.7182324E2,9.533716E1,2.906958E2,2.3958899E2,2.6318137E2,1.4700146E2,5.6210986E2,4.1334204E2,1.1338965E2,2.9916455E2,3.986044E2,4.3078296E2,3.35646E2,8.358457E2,3.344875E3,1.9969648E3,5.98834E2,8.8694824E2,0E0,1.8921289E2,0E0,0E0,0E0,0E0,0E0,0E0,0E0,0E0,0E0,0E0,0E0,0E0,0E0,0E0,0E0,0E0,0E0,0E0,0E0,0E0,0E0,0E0,0E0,0E0,0E0,0E0,0E0,0E0,0E0,0E0,0E0,0E0,0E0,0E0,0E0,0E0,0E0,0E0,0E0,0E0,0E0,0E0,0E0,0E0,0E0,0E0,0E0,0E0,0E0],"parents":[2147483647,0,0,1,1,2,2,3,3,4,4,5,5,6,6,7,7,8,8,9,9,10,10,11,11,12,12,13,13,14,14,15,15,16,16,17,17,18,18,19,19,20,20,21,21,22,22,23,23,24,24,25,25,26,26,27,27,28,28,32,32,33,33,34,34,35,35,36,36,37,37,38,38,39,39,40,40,41,41,42,42,43,43,44,44,45,45,46,46,47,47,48,48,49,49,50,50,51,51,52,52,53,53,55,55],"right_children":[2,4,6,8,10,12,14,16,18,20,22,24,26,28,30,32,34,36,38,40,42,44,46,48,50,52,54,56,58,-1,-1,-1,60,62,64,66,68,70,72,74,76,78,80,82,84,86,88,90,92,94,96,98,100,102,-1,104,-1,-1,-1,-1,-1,-1,-1,-1,-1,-1,-1,-1,-1,-1,-1,-1,-1,-1,-1,-1,-1,-1,-1,-1,-1,-1,-1,-1,-1,-1,-1,-1,-1,-1,-1,-1,-1,-1,-1,-1,-1,-1,-1,-1,-1,-1,-1,-1,-1],"split_conditions":[3.68E1,1.69E1,1.56E1,8.8E0,2.78E1,5.4579166E1,-8.660254E-1,4.2E0,1.37E1,2.12E1,-5E-1,2.04E1,2.490001E1,1.4493866E0,-2.5E0,2.2E1,2.09E1,1.11E1,-4.3149867E0,6.8E0,2.8E0,7.7918158E0,7.0978284E-1,5E-1,1.4689891E1,1.0070757E1,9.695E2,5.1E1,2.27E1,4.6805134E0,7.215902E-1,-3.8428727E-1,6.8E0,4.3791666E0,9.9E0,9.567E2,4.19375E1,2.9894712E0,6.8E0,2.68E1,1.7016666E1,4.8275404E0,9.657E2,2.0954166E1,-9.660883E0,3.9331713E0,-8.980088E0,9.9E0,3E-1,9.654E2,-8.660254E-1,1.56E1,2.8E0,1.87E1,-2.0807163E-1,2.9E1,8.9816135E-1,7.223831E-1,1.6227579E-2,-5.9582144E-1,-4.897998E-1,-3.8383898E-1,-5.3491956E-1,-4.4832158E-1,-3.5513607E-1,-1.3796495E-1,-3.8274035E-1,-3.0038214E-1,1.1717053E-1,-2.063047E-1,-3.4696695E-1,-2.1355417E-1,-6.899176E-2,-1.7356737E-1,-3.9989367E-2,-9.959703E-2,7.357193E-2,4.5012445E-3,-7.1314536E-2,1.3231236E-1,-3.2229625E-2,6.1863655E-1,2.1915498E-1,7.493687E-2,7.094489E-1,5.5773073E-1,2.6102087E-1,2.1174477E-1,-6.002106E-2,-3.9429462E-1,2.3776679E-1,5.8486646E-1,1.3227224E-2,7.420876E-1,1.5286434E-1,9.591994E-1,2.3511605E0,1.4506312E-1,2.6029508E0,1.569915E0,7.2344655E-1,4.4834438E-1,1.0655326E0,5.28062E-1,2.1527178E0],"split_indices":[12,12,0,12,12,14,10,12,12,12,8,2,15,7,6,3,2,12,6,0,0,15,7,8,15,6,5,3,2,0,0,0,0,14,0,5,14,15,0,2,14,15,5,14,6,15,6,0,4,5,10,2,0,2,0,3,0,0,0,0,0,0,0,0,0,0,0,0,0,0,0,0,0,0,0,0,0,0,0,0,0,0,0,0,0,0,0,0,0,0,0,0,0,0,0,0,0,0,0,0,0,0,0,0,0],"split_type":[0,0,0,0,0,0,0,0,0,0,0,0,0,0,0,0,0,0,0,0,0,0,0,0,0,0,0,0,0,0,0,0,0,0,0,0,0,0,0,0,0,0,0,0,0,0,0,0,0,0,0,0,0,0,0,0,0,0,0,0,0,0,0,0,0,0,0,0,0,0,0,0,0,0,0,0,0,0,0,0,0,0,0,0,0,0,0,0,0,0,0,0,0,0,0,0,0,0,0,0,0,0,0,0,0],"sum_hessian":[6.9767E4,6.9492E4,2.75E2,1.633E3,6.7859E4,2.48E2,2.7E1,8.11E2,8.22E2,6.7586E4,2.73E2,1.81E2,6.7E1,1.6E1,1.1E1,2.72E2,5.39E2,5.49E2,2.73E2,2.82E2,6.7304E4,5.6E1,2.17E2,3.1E1,1.5E2,3.3E1,3.4E1,1.1E1,5E0,8E0,3E0,8E0,2.64E2,1.45E2,3.94E2,2.72E2,2.77E2,7.8E1,1.95E2,1.85E2,9.7E1,6.7088E4,2.16E2,4E1,1.6E1,1.61E2,5.6E1,9E0,2.2E1,1.14E2,3.6E1,1.6E1,1.7E1,3.2E1,2E0,6E0,5E0,4E0,1E0,2.3E2,3.4E1,2.2E1,1.23E2,3.51E2,4.3E1,5E0,2.67E2,2.75E2,2E0,2.3E1,5.5E1,1.48E2,4.7E1,1.4E2,4.5E1,6.5E1,3.2E1,6.7025E4,6.3E1,1.31E2,8.5E1,8E0,3.2E1,1E0,1.5E1,9E0,1.52E2,3.5E1,2.1E1,5E0,4E0,1.9E1,3E0,1.07E2,7E0,3.1E1,5E0,1E0,1.5E1,1.1E1,6E0,1.1E1,2.1E1,1E0,5E0],"tree_param":{"num_deleted":"0","num_feature":"16","num_nodes":"105","size_leaf_vector":"1"}},{"base_weights":[7.2605954E-3,-7.81869E-2,2.1276949E1,-7.5187225E0,9.909216E-2,1.8103298E1,4.7120586E1,-9.509165E0,-5.6032467E0,7.848552E-2,5.2547226E0,1.4082186E1,2.9393219E1,2.9105623E1,7.171756E1,-1.1054007E1,-8.669308E0,-6.3433123E0,-4.0475426E0,-1.7372869E0,8.831128E-2,8.306449E0,4.751878E0,1.8719286E1,1.0201429E1,4.120878E1,1.6686956E1,2.23155E1,2.8940551E0,4.4724903E0,6.9453055E-1,-5.640621E-1,-8.894205E0,-9.474351E0,-8.337937E0,-6.995465E0,-5.6756034E0,-6.779905E0,-3.6516793E0,-2.5427668E0,-6.171634E-1,8.5234046E-2,1.432325E0,5.718596E0,1.390332E1,5.53915E0,2.363347E0,1.3788839E1,2.5227945E1,-6.2359905E0,1.0751411E1,2.8105438E1,5.1888073E1,4.350591E0,2.113182E1,2.670554E1,9.816172E0,-4.5147762E-1,-1.20844126E-1,-3.668745E-1,-4.9415013E-1,-2.6861075E-1,-4.2274123E-1,-3.6472884E-1,-2.9800326E-1,-3.519118E-1,-2.6005718E-1,-1.0907467E-1,-4.2067072E-1,-2.1788208E-1,-1.2715751E-1,-6.1174046E-2,-1.6665326E-1,-9.666794E-2,1.00089215E-1,8.583232E-2,4.237388E-3,-2.6879594E-1,1.1581919E-1,3.209003E-1,6.787955E-2,1.9060974E-1,7.265607E-1,4.9712902E-1,2.5926653E-1,1.8498212E-1,-1.9627863E-1,3.974476E-1,8.871811E-1,2.4062276E-2,1.3766454E0,-7.129393E-2,-3.6820343E-1,4.4288293E-1,8.077057E-1,1.6312288E0,7.191462E-1,7.035332E-1,2.6686122E0,3.7086025E-1,-2.6386213E-1,-2.0113595E-1,1.1800723E0,4.9452588E-1,1.4539747E0,1.2297773E-1,6.439796E-1],"categories":[],"categories_nodes":[],"categories_segments":[],"categories_sizes":[],"default_left":[0,0,0,0,0,0,0,0,0,0,0,0,0,0,0,0,0,0,0,0,0,0,0,0,0,0,0,0,0,0,0,0,0,0,0,0,0,0,0,0,0,0,0,0,0,0,0,0,0,0,0,0,0,0,0,0,0,0,0,0,0,0,0,0,0,0,0,0,0,0,0,0,0,0,0,0,0,0,0,0,0,0,0,0,0,0,0,0,0,0,0,0,0,0,0,0,0,0,0,0,0,0,0,0,0,0,0],"id":12,"left_children":[1,3,5,7,9,11,13,15,17,19,21,23,25,27,29,31,33,35,37,39,41,43,45,47,49,51,53,55,-1,-1,-1,-1,57,59,61,63,65,67,69,71,73,75,77,79,81,83,85,87,89,91,93,95,97,99,101,103,105,-1,-1,-1,-1,-1,-1,-1,-1,-1,-1,-1,-1,-1,-1,-1,-1,-1,-1,-1,-1,-1,-1,-1,-1,-1,-1,-1,-1,-1,-1,-1,-1,-1,-1,-1,-1,-1,-1,-1,-1,-1,-1,-1,-1,-1,-1,-1,-1,-1,-1],"loss_changes":[1.2718077E5,9.1935984E4,2.211218E4,6.130828E3,7.2321064E3,1.0981E4,1.1206023E4,9.3433594E2,9.287715E2,1.209921E3,3.7639062E2,3.1741875E3,9.070902E3,2.420747E3,1.1062309E4,3.5121094E1,5.9460938E1,2.0414844E2,2.6728564E2,3.277472E2,2.7881085E2,4.56396E2,4.288086E2,2.347746E3,1.0072363E3,3.1595E3,1.7175684E3,6.706875E2,0E0,0E0,0E0,0E0,5.354248E0,5.3229492E1,8.4921875E1,4.2930664E1,1.4570996E2,2.295271E2,1.7517163E2,2.169596E2,5.347154E2,5.323874E1,9.393616E2,7.36405E1,1.4302002E1,2.2265625E2,5.187545E2,1.01373047E3,1.9831582E3,1.12044525E1,8.902822E2,5.85E2,2.031875E2,3.3439087E2,1.585877E3,1.9140527E2,1.0354047E2,0E0,0E0,0E0,0E0,0E0,0E0,0E0,0E0,0E0,0E0,0E0,0E0,0E0,0E0,0E0,0E0,0E0,0E0,0E0,0E0,0E0,0E0,0E0,0E0,0E0,0E0,0E0,0E0,0E0,0E0,0E0,0E0,0E0,0E0,0E0,0E0,0E0,0E0,0E0,0E0,0E0,0E0,0E0,0E0,0E0,0E0,0E0,0E0,0E0,0E0],"parents":[2147483647,0,0,1,1,2,2,3,3,4,4,5,5,6,6,7,7,8,8,9,9,10,10,11,11,12,12,13,13,14,14,15,15,16,16,17,17,18,18,19,19,20,20,21,21,22,22,23,23,24,24,25,25,26,26,27,27,32,32,33,33,34,34,35,35,36,36,37,37,38,38,39,39,40,40,41,41,42,42,43,43,44,44,45,45,46,46,47,47,48,48,49,49,50,50,51,51,52,52,53,53,54,54,55,55,56,56],"right_children":[2,4,6,8,10,12,14,16,18,20,22,24,26,28,30,32,34,36,38,40,42,44,46,48,50,52,54,56,-1,-1,-1,-1,58,60,62,64,66,68,70,72,74,76,78,80,82,84,86,88,90,92,94,96,98,100,102,104,106,-1,-1,-1,-1,-1,-1,-1,-1,-1,-1,-1,-1,-1,-1,-1,-1,-1,-1,-1,-1,-1,-1,-1,-1,-1,-1,-1,-1,-1,-1,-1,-1,-1,-1,-1,-1,-1,-1,-1,-1,-1,-1,-1,-1,-1,-1,-1,-1,-1,-1],"split_conditions":[3.68E1,1.69E1,1.56E1,8.8E0,2.78E1,5.4579166E1,-8.660254E-1,4.2E0,1.37E1,2.31E1,-7.0710677E-1,5.8E1,2.490001E1,7.8995834E1,-2.5E0,6.8E0,2.1E1,1.11E1,-8.660254E-1,2.38E1,2.8E0,7.4735756E0,7.5825495E-1,1.2139711E1,-9.659258E-1,6.5229164E1,-5E-1,1.4493866E0,2.8940551E0,4.4724903E0,6.9453055E-1,-5.640621E-1,9.9E1,4.3791666E0,2.4E1,7.0710677E-1,-1.153514E1,-4.2330546E0,4.8E0,5.4510403E0,4.8E0,2.1866667E1,-8.660254E-1,3.33E1,-1.0456907E1,3.9331713E0,2.65E1,-1.8369701E-16,1.94E1,1E0,-5E-1,2.044684E1,1.6E0,-1.8467703E0,-1.9405914E1,8.894926E0,2.4881992E0,-4.5147762E-1,-1.20844126E-1,-3.668745E-1,-4.9415013E-1,-2.6861075E-1,-4.2274123E-1,-3.6472884E-1,-2.9800326E-1,-3.519118E-1,-2.6005718E-1,-1.0907467E-1,-4.2067072E-1,-2.1788208E-1,-1.2715751E-1,-6.1174046E-2,-1.6665326E-1,-9.666794E-2,1.00089215E-1,8.583232E-2,4.237388E-3,-2.6879594E-1,1.1581919E-1,3.209003E-1,6.787955E-2,1.9060974E-1,7.265607E-1,4.9712902E-1,2.5926653E-1,1.8498212E-1,-1.9627863E-1,3.974476E-1,8.871811E-1,2.4062276E-2,1.3766454E0,-7.129393E-2,-3.6820343E-1,4.4288293E-1,8.077057E-1,1.6312288E0,7.191462E-1,7.035332E-1,2.6686122E0,3.7086025E-1,-2.6386213E-1,-2.0113595E-1,1.1800723E0,4.9452588E-1,1.4539747E0,1.2297773E-1,6.439796E-1],"split_indices":[12,12,0,12,12,14,10,12,12,12,8,3,15,14,6,0,2,12,9,2,0,15,7,15,9,14,9,7,0,0,0,0,3,14,3,9,6,7,0,15,0,14,9,2,7,15,2,9,2,0,10,15,0,7,6,15,7,0,0,0,0,0,0,0,0,0,0,0,0,0,0,0,0,0,0,0,0,0,0,0,0,0,0,0,0,0,0,0,0,0,0,0,0,0,0,0,0,0,0,0,0,0,0,0,0,0,0],"split_type":[0,0,0,0,0,0,0,0,0,0,0,0,0,0,0,0,0,0,0,0,0,0,0,0,0,0,0,0,0,0,0,0,0,0,0,0,0,0,0,0,0,0,0,0,0,0,0,0,0,0,0,0,0,0,0,0,0,0,0,0,0,0,0,0,0,0,0,0,0,0,0,0,0,0,0,0,0,0,0,0,0,0,0,0,0,0,0,0,0,0,0,0,0,0,0,0,0,0,0,0,0,0,0,0,0,0,0],"sum_hessian":[6.9976E4,6.9697E4,2.79E2,1.621E3,6.8076E4,2.5E2,2.9E1,7.93E2,8.28E2,6.7806E4,2.7E2,1.86E2,6.4E1,1.8E1,1.1E1,2.75E2,5.18E2,5.59E2,2.69E2,3.64E2,6.7442E4,3.6E1,2.34E2,8.3E1,1.03E2,3.2E1,3.2E1,1.6E1,2E0,8E0,3E0,2.45E2,3E1,1.43E2,3.75E2,2.78E2,2.81E2,3.2E1,2.37E2,2.11E2,1.53E2,6.7289E4,1.53E2,2.6E1,1E1,1.75E2,5.9E1,4.9E1,3.4E1,3E0,1E2,1.6E1,1.6E1,9E0,2.3E1,1.1E1,5E0,2.9E1,1E0,2.6E1,1.17E2,1.6E1,3.59E2,2.11E2,6.7E1,6.9E1,2.12E2,9E0,2.3E1,1.43E2,9.4E1,8E1,1.31E2,1.02E2,5.1E1,1.9E1,6.727E4,1.7E1,1.36E2,2.2E1,4E0,1E0,9E0,1.1E1,1.64E2,4.9E1,1E1,2.1E1,2.8E1,3E0,3.1E1,1E0,2E0,7.6E1,2.4E1,1.1E1,5E0,1E0,1.5E1,7E0,2E0,2E0,2.1E1,2E0,9E0,2E0,3E0],"tree_param":{"num_deleted":"0","num_feature":"16","num_nodes":"107","size_leaf_vector":"1"}},{"base_weights":[6.5404144E-3,-7.407587E-2,2.0523214E1,-7.210821E0,9.46861E-2,1.7294088E1,4.8160416E1,-9.00345E0,-5.4446664E0,7.553397E-2,4.907712E0,1.267577E1,2.7265778E1,2.7900574E1,8.1838066E1,-1.0368459E1,-8.297476E0,-6.1425323E0,-4.015722E0,-2.018508E0,8.42728E-2,5.3335214E0,-3.7487316E-1,1.470733E1,7.5058794E0,1.885424E1,3.9815376E1,4.1217255E1,1.446869E1,4.428965E0,5.291749E-1,-3.2339057E-1,-5.287487E-1,-8.89556E0,-7.6149216E0,-6.5971794E0,-4.86108E0,-5.1123624E0,-3.481337E0,-2.5330255E0,3.5153174E-1,8.329315E-2,5.5726743E0,8.404907E0,4.596139E0,-2.5352232E0,2.1540008E-1,1.0376804E1,1.8278603E1,2.6874692E0,1.0628571E1,1.2947518E-1,1.950511E1,1.1837021E1,4.366447E1,2.227303E0,3.6467028E-1,2.437268E-1,8.0295545E-1,-4.5181188E-1,-3.0223984E-1,-2.5994617E-1,-3.8618365E-1,1.3329501E-1,-3.3136138E-1,-2.2135639E-1,-4.3182036E-1,-1.9110298E-1,-3.1285754E-1,-2.6101434E-1,-1.4233294E-1,-1.1704153E-1,-5.3760356E-1,-4.45061E-2,2.024726E-1,4.0011066E-3,5.379946E-2,4.7235575E-1,1.2272824E-1,4.9987483E-1,1.7353168E-1,2.4452224E-1,-1.5944341E-1,-5.557949E-2,-3.086159E-1,7.5324535E-1,3.2553813E-1,1.161408E0,6.224246E-1,-1.0794002E-1,3.6447117E-1,2.025655E-1,6.0520405E-1,8.4391636E-1,1.4214367E0,1.0520983E-1,6.872089E-1,1.3520796E0,2.4775052E0],"categories":[],"categories_nodes":[],"categories_segments":[],"categories_sizes":[],"default_left":[0,0,0,0,0,0,0,0,0,0,0,0,0,0,0,0,0,0,0,0,0,0,0,0,0,0,0,0,0,0,0,0,0,0,0,0,0,0,0,0,0,0,0,0,0,0,0,0,0,0,0,0,0,0,0,0,0,0,0,0,0,0,0,0,0,0,0,0,0,0,0,0,0,0,0,0,0,0,0,0,0,0,0,0,0,0,0,0,0,0,0,0,0,0,0,0,0,0,0],"id":13,"left_children":[1,3,5,7,9,11,13,15,17,19,21,23,25,27,29,31,33,35,37,39,41,43,45,47,49,51,53,55,57,-1,-1,-1,-1,59,61,63,65,67,69,71,73,75,77,79,81,83,-1,85,87,89,91,-1,93,95,97,-1,-1,-1,-1,-1,-1,-1,-1,-1,-1,-1,-1,-1,-1,-1,-1,-1,-1,-1,-1,-1,-1,-1,-1,-1,-1,-1,-1,-1,-1,-1,-1,-1,-1,-1,-1,-1,-1,-1,-1,-1,-1,-1,-1],"loss_changes":[1.15366484E5,8.3680766E4,2.353071E4,5.0325E3,6.256232E3,1.0983281E4,1.6821184E4,6.800781E2,7.840742E2,1.2373241E3,6.0708154E2,1.6751055E3,7.377539E3,2.8021328E3,3.865961E3,1.466836E2,1.4821484E2,2.8428516E2,1.3984424E2,3.4354932E2,3.6152814E2,5.2530176E2,2.2337137E2,1.6816504E3,7.2375684E2,4.5763086E2,2.713879E3,6.914414E2,8.956494E1,0E0,0E0,0E0,0E0,5.60625E1,2.6581055E1,1.2844727E2,2.0095898E2,1.0311719E2,1.8821533E2,3.3973242E2,2.3777286E2,2.1849435E2,1.2178259E2,3.3464136E2,4.8070312E2,7.080725E1,0E0,9.3500684E2,1.5865156E3,4.840849E2,2.4210718E2,0E0,5.984297E2,6.388965E1,1.2038281E3,0E0,0E0,0E0,0E0,0E0,0E0,0E0,0E0,0E0,0E0,0E0,0E0,0E0,0E0,0E0,0E0,0E0,0E0,0E0,0E0,0E0,0E0,0E0,0E0,0E0,0E0,0E0,0E0,0E0,0E0,0E0,0E0,0E0,0E0,0E0,0E0,0E0,0E0,0E0,0E0,0E0,0E0,0E0,0E0],"parents":[2147483647,0,0,1,1,2,2,3,3,4,4,5,5,6,6,7,7,8,8,9,9,10,10,11,11,12,12,13,13,14,14,15,15,16,16,17,17,18,18,19,19,20,20,21,21,22,22,23,23,24,24,25,25,26,26,27,27,28,28,33,33,34,34,35,35,36,36,37,37,38,38,39,39,40,40,41,41,42,42,43,43,44,44,45,45,47,47,48,48,49,49,50,50,52,52,53,53,54,54],"right_children":[2,4,6,8,10,12,14,16,18,20,22,24,26,28,30,32,34,36,38,40,42,44,46,48,50,52,54,56,58,-1,-1,-1,-1,60,62,64,66,68,70,72,74,76,78,80,82,84,-1,86,88,90,92,-1,94,96,98,-1,-1,-1,-1,-1,-1,-1,-1,-1,-1,-1,-1,-1,-1,-1,-1,-1,-1,-1,-1,-1,-1,-1,-1,-1,-1,-1,-1,-1,-1,-1,-1,-1,-1,-1,-1,-1,-1,-1,-1,-1,-1,-1,-1],"split_conditions":[3.68E1,1.69E1,1.56E1,8.8E0,2.78E1,1.02E2,6.123234E-17,4.2E0,1.37E1,2.12E1,9.683E2,8E1,4.8E0,6E1,5.5E1,2E1,7E0,7.0710677E-1,-2.5881904E-1,7.1E1,1.07E2,-5E-1,9.808157E0,9.531033E0,7.0710677E-1,1.04E2,1.1672785E1,4.961791E1,3.8E1,4.428965E0,5.291749E-1,-3.2339057E-1,-5.287487E-1,8.5E1,-9.659258E-1,1.9E1,9.704E2,5.2623286E0,-1.00968485E1,1.9258644E1,6.8E0,2.8E0,-8.660254E-1,-5E-1,2.97E1,8.779768E0,2.1540008E-1,-1.0027487E1,1.6289192E1,5.4E1,-8.660254E-1,1.2947518E-1,6.2E1,1.03E2,-8.917245E0,2.227303E0,3.6467028E-1,2.437268E-1,8.0295545E-1,-4.5181188E-1,-3.0223984E-1,-2.5994617E-1,-3.8618365E-1,1.3329501E-1,-3.3136138E-1,-2.2135639E-1,-4.3182036E-1,-1.9110298E-1,-3.1285754E-1,-2.6101434E-1,-1.4233294E-1,-1.1704153E-1,-5.3760356E-1,-4.45061E-2,2.024726E-1,4.0011066E-3,5.379946E-2,4.7235575E-1,1.2272824E-1,4.9987483E-1,1.7353168E-1,2.4452224E-1,-1.5944341E-1,-5.557949E-2,-3.086159E-1,7.5324535E-1,3.2553813E-1,1.161408E0,6.224246E-1,-1.0794002E-1,3.6447117E-1,2.025655E-1,6.0520405E-1,8.4391636E-1,1.4214367E0,1.0520983E-1,6.872089E-1,1.3520796E0,2.4775052E0],"split_indices":[12,12,0,12,12,1,11,12,12,12,5,3,0,3,1,1,12,9,9,1,1,8,7,15,8,1,15,15,1,0,0,0,0,1,8,3,5,15,7,15,0,0,10,10,2,15,0,7,15,1,10,0,3,1,7,0,0,0,0,0,0,0,0,0,0,0,0,0,0,0,0,0,0,0,0,0,0,0,0,0,0,0,0,0,0,0,0,0,0,0,0,0,0,0,0,0,0,0,0],"split_type":[0,0,0,0,0,0,0,0,0,0,0,0,0,0,0,0,0,0,0,0,0,0,0,0,0,0,0,0,0,0,0,0,0,0,0,0,0,0,0,0,0,0,0,0,0,0,0,0,0,0,0,0,0,0,0,0,0,0,0,0,0,0,0,0,0,0,0,0,0,0,0,0,0,0,0,0,0,0,0,0,0,0,0,0,0,0,0,0,0,0,0,0,0,0,0,0,0,0,0],"sum_hessian":[6.9749E4,6.9477E4,2.72E2,1.604E3,6.7873E4,2.45E2,2.7E1,7.94E2,8.1E2,6.7605E4,2.68E2,1.69E2,7.6E1,1.8E1,9E0,2.66E2,5.28E2,5.42E2,2.68E2,2.8E2,6.7325E4,2.48E2,2E1,1.2E2,4.9E1,4.7E1,2.9E1,8E0,1E1,8E0,1E0,1.5E1,2.51E2,2.75E2,2.53E2,3.97E2,1.45E2,8.5E1,1.83E2,2.3E2,5E1,6.7314E4,1.1E1,4.6E1,2.02E2,1.4E1,6E0,5.6E1,6.4E1,2E1,2.9E1,2E0,4.5E1,4E0,2.5E1,7E0,1E0,2E0,8E0,2.6E2,1.5E1,1.3E1,2.4E2,1E0,3.96E2,1.32E2,1.3E1,4.2E1,4.3E1,4.7E1,1.36E2,2.26E2,4E0,3.8E1,1.2E1,6.7094E4,2.2E2,4E0,7E0,3.4E1,1.2E1,1.95E2,7E0,1.1E1,3E0,2.4E1,3.2E1,3.3E1,3.1E1,1E1,1E1,6E0,2.3E1,3.7E1,8E0,1E0,3E0,8E0,1.7E1],"tree_param":{"num_deleted":"0","num_feature":"16","num_nodes":"99","size_leaf_vector":"1"}},{"base_weights":[1.2577877E-3,-7.345247E-2,1.8847387E1,-6.8008547E0,8.8943355E-2,1.5905357E1,4.1680748E1,-8.5546665E0,-5.0892563E0,7.06667E-2,4.7060847E0,1.2652602E1,2.4455257E1,2.2829914E1,7.8984505E1,-9.93586E0,-7.867369E0,-6.352498E0,-4.4312997E0,-1.9243125E0,7.8800485E-2,5.918139E0,2.7864344E0,1.0657846E1,1.7808722E1,3.795259E1,1.6537273E1,1.1876666E1,2.949934E1,4.2733736E0,5.1594555E-1,-5.524274E-1,-9.521067E0,-8.840409E0,-7.5459275E0,-7.0848346E0,-5.621784E0,-5.546876E0,-3.859991E0,-2.767198E0,-4.5931962E-1,-2.3977673E0,7.964115E-2,1.3471911E1,5.340154E0,-1.9280611E-1,3.91099E0,1.290027E1,6.916758E0,7.835281E0,2.1574234E1,2.9078552E1,2.4755852E0,6.1229367E0,2.11932E1,-4.293518E-2,1.3387119E1,1.0854994E0,2.0798943E0,-1.7081486E-1,-4.7826272E-1,-4.5019028E-1,-2.3415327E-1,-3.808274E-1,-2.3799717E-1,-3.5660562E-1,-1.5194464E-2,4.6978187E-2,-2.83658E-1,-2.3589697E-1,-3.1331122E-1,-2.5331926E-1,-1.632741E-1,-1.7553322E-1,-3.918906E-2,1.05675094E-1,-8.062159E-2,-5.3999585E-1,-2.9872457E-2,3.8466342E-3,8.562716E-2,4.2145562E-1,1.5974973E0,2.2278492E-1,3.6599198E-1,-1.9783138E-1,1.2681103E-1,9.457613E-2,3.0791983E-1,5.743025E-1,1.3205888E0,-1.9989316E-1,4.3517146E-1,-1.21340826E-1,5.30152E-1,6.082771E-1,1.4428525E0,1.501503E0,3.7014887E-1,4.5022544E-1,-2.0262563E-1,1.1584048E0,-2.1517895E-1,3.9452872E-1,8.10312E-1],"categories":[],"categories_nodes":[],"categories_segments":[],"categories_sizes":[],"default_left":[0,0,0,0,0,0,0,0,0,0,0,0,0,0,0,0,0,0,0,0,0,0,0,0,0,0,0,0,0,0,0,0,0,0,0,0,0,0,0,0,0,0,0,0,0,0,0,0,0,0,0,0,0,0,0,0,0,0,0,0,0,0,0,0,0,0,0,0,0,0,0,0,0,0,0,0,0,0,0,0,0,0,0,0,0,0,0,0,0,0,0,0,0,0,0,0,0,0,0,0,0,0,0,0,0],"id":14,"left_children":[1,3,5,7,9,11,13,15,17,19,21,23,25,27,29,31,33,35,37,39,41,43,45,47,49,51,53,55,57,-1,-1,-1,59,61,63,65,67,69,71,73,75,77,79,81,83,85,87,89,91,93,95,97,-1,99,101,-1,103,-1,-1,-1,-1,-1,-1,-1,-1,-1,-1,-1,-1,-1,-1,-1,-1,-1,-1,-1,-1,-1,-1,-1,-1,-1,-1,-1,-1,-1,-1,-1,-1,-1,-1,-1,-1,-1,-1,-1,-1,-1,-1,-1,-1,-1,-1,-1,-1],"loss_changes":[9.877394E4,7.6339195E4,1.7944922E4,4.900461E3,5.757234E3,6.559832E3,1.9996207E4,6.9265234E2,6.6669727E2,1.102937E3,6.0939746E2,1.6718203E3,6.5327734E3,1.2567871E3,3.5696367E3,1.7574219E1,1.0438281E2,1.12146484E2,3.310381E2,3.3953967E2,1.4110959E2,6.440762E2,3.5588806E2,1.0265234E3,1.6711602E3,1.02209375E3,2.0037236E3,2.038573E2,3.2202734E2,0E0,0E0,0E0,2.1542969E1,4.61416E1,4.5984375E1,4.207373E1,5.488379E1,8.075049E1,2.4810742E2,2.5530408E2,3.0601654E2,3.4145807E2,2.991225E2,7.556813E2,2.3703027E2,3.1818195E2,3.378208E2,1.2635107E3,1.0488391E3,4.5177673E2,2.0471992E3,1.0767969E2,0E0,4.7631018E2,1.6103115E3,0E0,1.1582397E1,0E0,0E0,0E0,0E0,0E0,0E0,0E0,0E0,0E0,0E0,0E0,0E0,0E0,0E0,0E0,0E0,0E0,0E0,0E0,0E0,0E0,0E0,0E0,0E0,0E0,0E0,0E0,0E0,0E0,0E0,0E0,0E0,0E0,0E0,0E0,0E0,0E0,0E0,0E0,0E0,0E0,0E0,0E0,0E0,0E0,0E0,0E0,0E0],"parents":[2147483647,0,0,1,1,2,2,3,3,4,4,5,5,6,6,7,7,8,8,9,9,10,10,11,11,12,12,13,13,14,14,15,15,16,16,17,17,18,18,19,19,20,20,21,21,22,22,23,23,24,24,25,25,26,26,27,27,28,28,32,32,33,33,34,34,35,35,36,36,37,37,38,38,39,39,40,40,41,41,42,42,43,43,44,44,45,45,46,46,47,47,48,48,49,49,50,50,51,51,53,53,54,54,56,56],"right_children":[2,4,6,8,10,12,14,16,18,20,22,24,26,28,30,32,34,36,38,40,42,44,46,48,50,52,54,56,58,-1,-1,-1,60,62,64,66,68,70,72,74,76,78,80,82,84,86,88,90,92,94,96,98,-1,100,102,-1,104,-1,-1,-1,-1,-1,-1,-1,-1,-1,-1,-1,-1,-1,-1,-1,-1,-1,-1,-1,-1,-1,-1,-1,-1,-1,-1,-1,-1,-1,-1,-1,-1,-1,-1,-1,-1,-1,-1,-1,-1,-1,-1,-1,-1,-1,-1,-1,-1],"split_conditions":[3.68E1,1.69E1,1.56E1,8.8E0,2.78E1,5.4579166E1,6.123234E-17,4.2E0,1.11E1,2.12E1,9.645E2,1.4689891E1,2.1648676E1,3.68E1,-2.5E0,1E0,2.01E1,6.123234E-17,-2.5881904E-1,6.8E0,1.1858334E1,1.12E1,-8.660254E-1,9.62E2,1.99E1,9.626E2,-2.5881904E-1,-1.2279324E1,2.35E1,4.2733736E0,5.1594555E-1,-5.524274E-1,1.9833333E0,3.7E0,2.4666632E1,4.6570835E1,9.559E2,4.336298E0,2.8E0,2.63E1,5.187185E0,-9.659258E-1,6.8E0,6.123234E-17,9.63E2,1.39E1,2.12E1,9.616E2,-8.660254E-1,-8.660254E-1,2.8E0,-8.660254E-1,2.4755852E0,4.8E0,9.695E2,-4.293518E-2,9.606E2,1.0854994E0,2.0798943E0,-1.7081486E-1,-4.7826272E-1,-4.5019028E-1,-2.3415327E-1,-3.808274E-1,-2.3799717E-1,-3.5660562E-1,-1.5194464E-2,4.6978187E-2,-2.83658E-1,-2.3589697E-1,-3.1331122E-1,-2.5331926E-1,-1.632741E-1,-1.7553322E-1,-3.918906E-2,1.05675094E-1,-8.062159E-2,-5.3999585E-1,-2.9872457E-2,3.8466342E-3,8.562716E-2,4.2145562E-1,1.5974973E0,2.2278492E-1,3.6599198E-1,-1.9783138E-1,1.2681103E-1,9.457613E-2,3.0791983E-1,5.743025E-1,1.3205888E0,-1.9989316E-1,4.3517146E-1,-1.21340826E-1,5.30152E-1,6.082771E-1,1.4428525E0,1.501503E0,3.7014887E-1,4.5022544E-1,-2.0262563E-1,1.1584048E0,-2.1517895E-1,3.9452872E-1,8.10312E-1],"split_indices":[12,12,0,12,12,14,11,12,12,12,5,15,15,13,6,0,2,9,9,0,14,13,9,5,2,5,9,6,2,0,0,0,14,4,6,14,5,15,0,2,15,9,0,11,5,13,2,5,9,9,0,10,0,0,5,0,5,0,0,0,0,0,0,0,0,0,0,0,0,0,0,0,0,0,0,0,0,0,0,0,0,0,0,0,0,0,0,0,0,0,0,0,0,0,0,0,0,0,0,0,0,0,0,0,0],"split_type":[0,0,0,0,0,0,0,0,0,0,0,0,0,0,0,0,0,0,0,0,0,0,0,0,0,0,0,0,0,0,0,0,0,0,0,0,0,0,0,0,0,0,0,0,0,0,0,0,0,0,0,0,0,0,0,0,0,0,0,0,0,0,0,0,0,0,0,0,0,0,0,0,0,0,0,0,0,0,0,0,0,0,0,0,0,0,0,0,0,0,0,0,0,0,0,0,0,0,0,0,0,0,0,0,0],"sum_hessian":[7.015E4,6.9874E4,2.76E2,1.646E3,6.8228E4,2.46E2,3E1,8.11E2,8.35E2,6.796E4,2.68E2,1.8E2,6.6E1,2.1E1,9E0,2.65E2,5.46E2,2.83E2,5.52E2,2.75E2,6.7685E4,1.63E2,1.05E2,1.32E2,4.8E1,2.3E1,4.3E1,9E0,1.2E1,8E0,1E0,6.5E1,2E2,1.29E2,4.17E2,1.37E2,1.46E2,1.84E2,3.68E2,1.74E2,1.01E2,2.2E1,6.7663E4,1E1,1.53E2,2.9E1,7.6E1,8.1E1,5.1E1,1.4E1,3.4E1,1.5E1,8E0,1.4E1,2.9E1,1E0,8E0,9E0,3E0,2E0,1.98E2,1.23E2,6E0,4.05E2,1.2E1,1.36E2,1E0,1E0,1.45E2,8.9E1,9.5E1,1.19E2,2.49E2,1.26E2,4.8E1,3.1E1,7E1,3E0,1.9E1,6.7552E4,1.11E2,9E0,1E0,1.08E2,4.5E1,1.2E1,1.7E1,4.1E1,3.5E1,7.5E1,6E0,7E0,4.4E1,3E0,1.1E1,1.6E1,1.8E1,1.4E1,1E0,1.1E1,3E0,2.7E1,2E0,4E0,4E0],"tree_param":{"num_deleted":"0","num_feature":"16","num_nodes":"105","size_leaf_vector":"1"}},{"base_weights":[5.396122E-3,-6.6634126E-2,1.8212326E1,-6.513654E0,8.643711E-2,1.3814227E1,2.9199625E1,-8.161141E0,-4.8437777E0,6.875426E-2,4.58173E0,1.0613244E1,2.243178E1,4.375008E0,2.486581E1,-9.427027E0,-7.4929643E0,-5.4512978E0,-3.582948E0,-1.3531256E0,7.624946E-2,2.62949E0,5.7349906E0,8.654111E0,1.6635208E1,1.8544182E1,2.8021944E0,3.5019836E1,1.4855279E1,-6.291149E0,-9.620673E0,-8.130694E0,-7.0350957E0,-6.0659056E0,-4.7145777E0,-5.128268E0,-3.0446596E0,-3.5590377E-2,-2.1577938E0,7.546998E-2,5.915402E0,5.4144044E0,4.7146E-1,5.091327E0,1.2405643E1,1.7477672E-1,9.566835E0,1.2974259E1,2.3443254E1,2.5377502E1,1.1523263E1,4.7625584E1,2.4833195E1,6.615165E0,2.512983E1,-3.3116987E-1,-1.1556796E-1,-3.0681446E-1,-4.846556E-1,-2.94031E-1,-4.2089897E-1,-3.5304987E-1,3.0689001E-2,-3.056843E-1,-5.4865886E-2,-1.8485051E-1,-2.8241348E-1,-1.4979795E-1,-3.1243604E-1,-1.5700741E-1,2.1203175E-1,-3.339193E-2,1.8324205E-1,-1.1749085E-1,2.0241602E-1,3.8015977E-3,-1.862944E-1,6.2665336E-2,4.6972084E-1,-1.0022789E-1,3.1032073E-1,7.1360275E-2,-3.3478573E-1,2.7753538E-1,7.675836E-2,1.8923442E-1,6.7635393E-1,2.9274827E-1,-3.2406196E-1,3.426391E-1,6.2386894E-1,6.762401E-1,-5.9684752E-3,1.2672437E0,4.961987E-1,2.6657003E-1,1.4560077E0,-3.8944837E-2,6.8977123E-1,8.943357E-2,2.5385945E0,1.397016E0,7.9515934E-1,4.82294E-1,4.144779E-2,1.4783968E0,4.282394E-1],"categories":[],"categories_nodes":[],"categories_segments":[],"categories_sizes":[],"default_left":[0,0,0,0,0,0,0,0,0,0,0,0,0,0,0,0,0,0,0,0,0,0,0,0,0,0,0,0,0,0,0,0,0,0,0,0,0,0,0,0,0,0,0,0,0,0,0,0,0,0,0,0,0,0,0,0,0,0,0,0,0,0,0,0,0,0,0,0,0,0,0,0,0,0,0,0,0,0,0,0,0,0,0,0,0,0,0,0,0,0,0,0,0,0,0,0,0,0,0,0,0,0,0,0,0,0,0],"id":15,"left_children":[1,3,5,7,9,11,13,15,17,19,21,23,25,-1,27,29,31,33,35,37,39,41,43,45,47,49,-1,51,53,55,57,59,61,63,65,67,69,71,73,75,77,79,81,83,85,87,89,91,93,95,97,99,101,103,105,-1,-1,-1,-1,-1,-1,-1,-1,-1,-1,-1,-1,-1,-1,-1,-1,-1,-1,-1,-1,-1,-1,-1,-1,-1,-1,-1,-1,-1,-1,-1,-1,-1,-1,-1,-1,-1,-1,-1,-1,-1,-1,-1,-1,-1,-1,-1,-1,-1,-1,-1,-1],"loss_changes":[9.1853836E4,6.88474E4,1.2933836E4,4.41175E3,5.4166626E3,5.2512656E3,1.7532008E4,6.1703125E2,5.978496E2,7.2352905E2,5.860547E2,1.5903184E3,5.8862383E3,0E0,7.00166E3,1.0768555E2,9.960156E1,2.1681543E2,2.0482056E2,3.7734674E2,3.0689655E2,6.044502E2,6.538789E2,8.7286816E2,5.6817773E2,2.0584023E3,0E0,3.4400703E3,3.1356377E3,9.81427E0,5.890625E0,9.141504E1,6.773242E1,6.2612305E1,2.175918E2,1.413523E2,1.517528E2,3.206319E2,2.7288257E2,1.4451889E2,1.3420142E2,2.709806E2,4.068558E2,2.4305737E2,8.41543E1,4.9163654E2,7.2023047E2,1.818291E2,3.1271484E1,1.6453623E3,7.375095E2,2.0724375E3,1.6608691E2,3.9534003E2,9.9655273E2,0E0,0E0,0E0,0E0,0E0,0E0,0E0,0E0,0E0,0E0,0E0,0E0,0E0,0E0,0E0,0E0,0E0,0E0,0E0,0E0,0E0,0E0,0E0,0E0,0E0,0E0,0E0,0E0,0E0,0E0,0E0,0E0,0E0,0E0,0E0,0E0,0E0,0E0,0E0,0E0,0E0,0E0,0E0,0E0,0E0,0E0,0E0,0E0,0E0,0E0,0E0,0E0],"parents":[2147483647,0,0,1,1,2,2,3,3,4,4,5,5,6,6,7,7,8,8,9,9,10,10,11,11,12,12,14,14,15,15,16,16,17,17,18,18,19,19,20,20,21,21,22,22,23,23,24,24,25,25,27,27,28,28,29,29,30,30,31,31,32,32,33,33,34,34,35,35,36,36,37,37,38,38,39,39,40,40,41,41,42,42,43,43,44,44,45,45,46,46,47,47,48,48,49,49,50,50,51,51,52,52,53,53,54,54],"right_children":[2,4,6,8,10,12,14,16,18,20,22,24,26,-1,28,30,32,34,36,38,40,42,44,46,48,50,-1,52,54,56,58,60,62,64,66,68,70,72,74,76,78,80,82,84,86,88,90,92,94,96,98,100,102,104,106,-1,-1,-1,-1,-1,-1,-1,-1,-1,-1,-1,-1,-1,-1,-1,-1,-1,-1,-1,-1,-1,-1,-1,-1,-1,-1,-1,-1,-1,-1,-1,-1,-1,-1,-1,-1,-1,-1,-1,-1,-1,-1,-1,-1,-1,-1,-1,-1,-1,-1,-1,-1],"split_conditions":[3.68E1,1.69E1,5.4579166E1,8.8E0,2.78E1,1.5505546E1,3.3E1,4.2E0,1.37E1,2.31E1,-2.5881904E-1,1.7236E1,7.3E1,4.375008E0,2.490001E1,2E1,2.29E1,2.5881904E-1,-5E-1,5.187185E0,1.5152727E1,6.123234E-17,1.2875153E1,-8.660254E-1,1.0823498E1,4.6570835E1,2.8021944E0,-3.2118988E0,9.5E1,8.875E0,2.2E1,4.3791666E0,9.7E1,4.6570835E1,0E0,-4.2330546E0,3.9508335E1,9.659258E-1,1.06E2,1.40349245E1,-5E-1,3.6E1,1.1247202E1,3.52125E1,1.92E1,1.0823498E1,6.123234E-17,3.33E1,4.6570835E1,2.02875E1,-8.660254E-1,1.56E1,1.729289E1,7.8995834E1,1.4400411E1,-3.3116987E-1,-1.1556796E-1,-3.0681446E-1,-4.846556E-1,-2.94031E-1,-4.2089897E-1,-3.5304987E-1,3.0689001E-2,-3.056843E-1,-5.4865886E-2,-1.8485051E-1,-2.8241348E-1,-1.4979795E-1,-3.1243604E-1,-1.5700741E-1,2.1203175E-1,-3.339193E-2,1.8324205E-1,-1.1749085E-1,2.0241602E-1,3.8015977E-3,-1.862944E-1,6.2665336E-2,4.6972084E-1,-1.0022789E-1,3.1032073E-1,7.1360275E-2,-3.3478573E-1,2.7753538E-1,7.675836E-2,1.8923442E-1,6.7635393E-1,2.9274827E-1,-3.2406196E-1,3.426391E-1,6.2386894E-1,6.762401E-1,-5.9684752E-3,1.2672437E0,4.961987E-1,2.6657003E-1,1.4560077E0,-3.8944837E-2,6.8977123E-1,8.943357E-2,2.5385945E0,1.397016E0,7.9515934E-1,4.82294E-1,4.144779E-2,1.4783968E0,4.282394E-1],"split_indices":[12,12,14,12,12,15,1,12,12,12,9,6,3,0,15,1,2,9,9,15,15,11,15,9,15,14,0,6,1,14,3,14,3,14,8,7,14,9,1,15,9,3,15,14,2,15,11,2,14,14,9,2,15,14,6,0,0,0,0,0,0,0,0,0,0,0,0,0,0,0,0,0,0,0,0,0,0,0,0,0,0,0,0,0,0,0,0,0,0,0,0,0,0,0,0,0,0,0,0,0,0,0,0,0,0,0,0],"split_type":[0,0,0,0,0,0,0,0,0,0,0,0,0,0,0,0,0,0,0,0,0,0,0,0,0,0,0,0,0,0,0,0,0,0,0,0,0,0,0,0,0,0,0,0,0,0,0,0,0,0,0,0,0,0,0,0,0,0,0,0,0,0,0,0,0,0,0,0,0,0,0,0,0,0,0,0,0,0,0,0,0,0,0,0,0,0,0,0,0,0,0,0,0,0,0,0,0,0,0,0,0,0,0,0,0,0,0],"sum_hessian":[7.0038E4,6.9763E4,2.75E2,1.617E3,6.8146E4,1.98E2,7.7E1,8.12E2,8.05E2,6.788E4,2.66E2,1.46E2,5.2E1,4E0,7.3E1,2.76E2,5.36E2,5.41E2,2.64E2,3.55E2,6.7525E4,1E2,1.66E2,1.12E2,3.4E1,4.8E1,4E0,3.5E1,3.8E1,1.8E1,2.58E2,2.17E2,3.19E2,2.91E2,2.5E2,6.6E1,1.98E2,1.35E2,2.2E2,6.7517E4,8E0,4.3E1,5.7E1,1.53E2,1.3E1,1.1E1,1.01E2,2.4E1,1E1,2.3E1,2.5E1,1.4E1,2.1E1,2.2E1,1.6E1,1.6E1,2E0,7E0,2.51E2,2.7E1,1.9E2,3.18E2,1E0,2.88E2,3E0,1.22E2,1.28E2,2.4E1,4.2E1,1.96E2,2E0,1.16E2,1.9E1,2.14E2,6E0,6.7508E4,9E0,4E0,4E0,4E0,3.9E1,5.1E1,6E0,1.35E2,1.8E1,2E0,1.1E1,6E0,5E0,5.4E1,4.7E1,2.3E1,1E0,8E0,2E0,4E0,1.9E1,4E0,2.1E1,1E0,1.3E1,1.4E1,7E0,1.4E1,8E0,1.2E1,4E0],"tree_param":{"num_deleted":"0","num_feature":"16","num_nodes":"107","size_leaf_vector":"1"}},{"base_weights":[4.3782853E-3,-6.7548454E-2,1.8149967E1,-6.2344136E0,8.148339E-2,1.4947007E1,4.128245E1,-7.7391844E0,-4.718384E0,6.549268E-2,3.9900208E0,1.6537258E1,5.29952E0,2.4885582E1,7.181386E1,-8.957482E0,-7.0806427E0,-5.333584E0,-3.400202E0,-1.7141426E0,7.258988E-2,4.6445217E0,5.124913E-1,1.188876E1,2.1782034E1,1.7596025E-3,7.948327E0,1.5420749E1,4.070455E1,5.0201076E-1,3.84936E0,-4.9879822E-1,-8.585948E0,-8.13845E0,-6.734818E0,-5.911354E0,-4.755343E0,-5.4158225E0,-3.1087856E0,-2.4233947E0,-5.291573E-1,6.922497E-2,1.2208529E0,6.411682E0,3.7138758E0,-2.711318E0,2.5666368E0,1.4738494E1,7.8658714E0,1.4749977E1,2.8097168E1,4.164234E0,-7.491047E0,1.2104091E1,2.7838888E0,1.9240952E1,4.597714E-1,5.1219916E0,2.5855873E0,-4.3850437E-1,-3.1714413E-1,-4.092848E-1,-1.7206436E-1,-3.4454045E-1,-2.636777E-1,-2.6563784E-1,-3.3313847E-1,-2.4245727E-1,1.9951638E-2,7.4750476E-2,-3.0911443E-1,-2.1348682E-1,-1.2541911E-1,-9.881317E-2,-2.5781712E-1,1.8188874E-1,-5.3641398E-2,3.483899E-3,-8.133121E-2,-2.202683E-1,1.0510319E-1,7.3578644E-1,2.763786E-1,1.15591966E-1,2.809795E-1,-2.5081673E-1,8.137349E-2,2.5869665E-1,5.2964475E-2,8.0882275E-1,2.606031E-1,3.3377132E-1,1.1947113E0,1.0765511E0,6.1994433E-1,8.5676956E-1,1.7722067E0,3.451988E-1,2.9582292E-2,-4.736794E-1,1.0977936E-2,8.227727E-2,6.928025E-1,-1.7937584E-1,1.8446228E-1,3.5695827E-1,1.0839361E0,-4.0888216E-2,4.250376E-1],"categories":[],"categories_nodes":[],"categories_segments":[],"categories_sizes":[],"default_left":[0,0,0,0,0,0,0,0,0,0,0,0,0,0,0,0,0,0,0,0,0,0,0,0,0,0,0,0,0,0,0,0,0,0,0,0,0,0,0,0,0,0,0,0,0,0,0,0,0,0,0,0,0,0,0,0,0,0,0,0,0,0,0,0,0,0,0,0,0,0,0,0,0,0,0,0,0,0,0,0,0,0,0,0,0,0,0,0,0,0,0,0,0,0,0,0,0,0,0,0,0,0,0,0,0,0,0,0,0],"id":16,"left_children":[1,3,5,7,9,11,13,15,17,19,21,23,25,27,29,31,33,35,37,39,41,43,45,47,49,51,53,55,57,-1,-1,-1,59,61,63,65,67,69,71,73,75,77,79,81,83,85,87,89,91,93,95,97,99,101,103,105,-1,107,-1,-1,-1,-1,-1,-1,-1,-1,-1,-1,-1,-1,-1,-1,-1,-1,-1,-1,-1,-1,-1,-1,-1,-1,-1,-1,-1,-1,-1,-1,-1,-1,-1,-1,-1,-1,-1,-1,-1,-1,-1,-1,-1,-1,-1,-1,-1,-1,-1,-1,-1],"loss_changes":[9.123663E4,6.3993688E4,1.9832445E4,3.711621E3,4.2489434E3,3.655793E3,1.4733316E4,5.968711E2,6.476504E2,8.5534314E2,6.2808496E2,4.8365273E3,5.0516467E2,2.815954E3,2.742371E3,2.2191406E1,1.4236523E2,1.5831152E2,1.3823291E2,2.2479956E2,2.6050223E2,3.593794E2,3.049568E2,1.1795186E3,3.8931875E3,4.366465E2,4.8139612E2,2.0358325E2,2.8684443E3,0E0,0E0,0E0,3.3588867E1,2.3632812E-1,5.757422E1,8.82959E1,1.3924707E2,1.7874384E2,1.5169995E2,1.9510352E2,2.3497745E2,5.177527E1,9.8596375E2,4.9865137E2,4.011499E2,1.8818149E2,1.04562164E2,8.060996E2,7.75459E2,4.982959E2,3.4194375E3,8.4007034E1,7.851297E1,2.1539746E2,8.245594E1,1.1074463E2,0E0,6.7158646E1,0E0,0E0,0E0,0E0,0E0,0E0,0E0,0E0,0E0,0E0,0E0,0E0,0E0,0E0,0E0,0E0,0E0,0E0,0E0,0E0,0E0,0E0,0E0,0E0,0E0,0E0,0E0,0E0,0E0,0E0,0E0,0E0,0E0,0E0,0E0,0E0,0E0,0E0,0E0,0E0,0E0,0E0,0E0,0E0,0E0,0E0,0E0,0E0,0E0,0E0,0E0],"parents":[2147483647,0,0,1,1,2,2,3,3,4,4,5,5,6,6,7,7,8,8,9,9,10,10,11,11,12,12,13,13,14,14,15,15,16,16,17,17,18,18,19,19,20,20,21,21,22,22,23,23,24,24,25,25,26,26,27,27,28,28,32,32,33,33,34,34,35,35,36,36,37,37,38,38,39,39,40,40,41,41,42,42,43,43,44,44,45,45,46,46,47,47,48,48,49,49,50,50,51,51,52,52,53,53,54,54,55,55,57,57],"right_children":[2,4,6,8,10,12,14,16,18,20,22,24,26,28,30,32,34,36,38,40,42,44,46,48,50,52,54,56,58,-1,-1,-1,60,62,64,66,68,70,72,74,76,78,80,82,84,86,88,90,92,94,96,98,100,102,104,106,-1,108,-1,-1,-1,-1,-1,-1,-1,-1,-1,-1,-1,-1,-1,-1,-1,-1,-1,-1,-1,-1,-1,-1,-1,-1,-1,-1,-1,-1,-1,-1,-1,-1,-1,-1,-1,-1,-1,-1,-1,-1,-1,-1,-1,-1,-1,-1,-1,-1,-1,-1,-1],"split_conditions":[3.68E1,1.69E1,1.56E1,8.8E0,2.78E1,8.3E1,6.123234E-17,4.2E0,1.37E1,2.12E1,9.665E2,3.68E1,5E-1,2.36E1,5E-1,1E0,2.01E1,1.11E1,-8.660254E-1,6.8E0,2.8E0,0E0,-8.660254E-1,6E1,-9.432563E0,1.2246469E-16,3.68E1,2E1,2.78E1,5.0201076E-1,3.84936E0,-4.9879822E-1,7.2E1,1.56E1,9.9E0,1.2246469E-16,1.5920231E1,9.602E2,-8.184685E0,3.68E1,-2.5881904E-1,9.273243E0,-8.660254E-1,3.8419287E0,9.9E0,4.3190603E0,-5E-1,3.12E1,1E0,9.584E2,2.19E1,2.09E1,9.6E1,9.611E2,9.597E2,1.8E1,4.597714E-1,2.48E1,2.5855873E0,-4.3850437E-1,-3.1714413E-1,-4.092848E-1,-1.7206436E-1,-3.4454045E-1,-2.636777E-1,-2.6563784E-1,-3.3313847E-1,-2.4245727E-1,1.9951638E-2,7.4750476E-2,-3.0911443E-1,-2.1348682E-1,-1.2541911E-1,-9.881317E-2,-2.5781712E-1,1.8188874E-1,-5.3641398E-2,3.483899E-3,-8.133121E-2,-2.202683E-1,1.0510319E-1,7.3578644E-1,2.763786E-1,1.15591966E-1,2.809795E-1,-2.5081673E-1,8.137349E-2,2.5869665E-1,5.2964475E-2,8.0882275E-1,2.606031E-1,3.3377132E-1,1.1947113E0,1.0765511E0,6.1994433E-1,8.5676956E-1,1.7722067E0,3.451988E-1,2.9582292E-2,-4.736794E-1,1.0977936E-2,8.227727E-2,6.928025E-1,-1.7937584E-1,1.8446228E-1,3.5695827E-1,1.0839361E0,-4.0888216E-2,4.250376E-1],"split_indices":[12,12,0,12,12,3,11,12,12,12,5,13,8,2,8,0,2,12,9,0,0,8,9,3,7,8,13,2,13,0,0,0,3,0,0,8,15,5,7,13,8,15,9,15,0,7,8,2,9,5,2,2,3,5,5,2,0,2,0,0,0,0,0,0,0,0,0,0,0,0,0,0,0,0,0,0,0,0,0,0,0,0,0,0,0,0,0,0,0,0,0,0,0,0,0,0,0,0,0,0,0,0,0,0,0,0,0,0,0],"split_type":[0,0,0,0,0,0,0,0,0,0,0,0,0,0,0,0,0,0,0,0,0,0,0,0,0,0,0,0,0,0,0,0,0,0,0,0,0,0,0,0,0,0,0,0,0,0,0,0,0,0,0,0,0,0,0,0,0,0,0,0,0,0,0,0,0,0,0,0,0,0,0,0,0,0,0,0,0,0,0,0,0,0,0,0,0,0,0,0,0,0,0,0,0,0,0,0,0,0,0,0,0,0,0,0,0,0,0,0,0],"sum_hessian":[6.9903E4,6.9628E4,2.75E2,1.642E3,6.7986E4,2.43E2,3.2E1,8.22E2,8.2E2,6.771E4,2.76E2,2.08E2,3.5E1,2.2E1,1E1,2.84E2,5.38E2,5.57E2,2.63E2,2.68E2,6.7442E4,2.32E2,4.4E1,1.12E2,9.6E1,1.2E1,2.3E1,1.5E1,7E0,1E0,9E0,6.9E1,2.15E2,1.27E2,4.11E2,2.74E2,2.83E2,3.1E1,2.32E2,1.67E2,1.01E2,6.7246E4,1.96E2,7.8E1,1.54E2,1.7E1,2.7E1,6.4E1,4.8E1,4.7E1,4.9E1,8E0,4E0,1.2E1,1.1E1,8E0,7E0,2E0,5E0,1.96E2,1.9E1,1.25E2,2E0,3.68E2,4.3E1,1.57E2,1.17E2,2.78E2,5E0,3E0,2.8E1,7.7E1,1.55E2,1.45E2,2.2E1,1.1E1,9E1,6.7229E4,1.7E1,2.6E1,1.7E2,6E0,7.2E1,9E1,6.4E1,1.1E1,6E0,9E0,1.8E1,5.5E1,9E0,4.6E1,2E0,1E1,3.7E1,2.1E1,2.8E1,4E0,4E0,3E0,1E0,2E0,1E1,1E0,1E1,2E0,6E0,1E0,1E0],"tree_param":{"num_deleted":"0","num_feature":"16","num_nodes":"109","size_leaf_vector":"1"}},{"base_weights":[3.8829872E-3,-6.0272504E-2,1.664408E1,-5.8589773E0,7.756708E-2,1.4135912E1,3.8508236E1,-7.3793764E0,-4.410373E0,6.1671454E-2,3.875224E0,7.98048E0,1.8414522E1,2.2475237E1,6.351681E1,-8.596496E0,-6.736665E0,-4.9675107E0,-3.2699304E0,-1.4489571E0,6.934987E-2,4.7442503E0,1.8956296E0,-9.177828E-1,9.305426E0,1.4512196E1,2.7360249E1,1.5048389E1,2.7296674E0,3.467941E0,2.7346927E-1,-2.5852343E-1,-8.723016E0,-7.26052E0,-6.178577E0,-5.3903265E0,-3.8710036E0,-5.766879E0,-2.9290602E0,4.6176862E-2,-2.2367785E0,6.593805E-2,1.4157478E0,5.023606E0,-9.5412445E-1,-1.4593238E0,3.0360584E0,2.6445088E0,-5.24232E-1,7.824143E0,1.3393629E1,9.14982E0,1.8657858E1,2.4074652E0,3.0667181E1,1.6157925E1,-3.986597E-2,-2.5871488E-1,-4.4081256E-1,-3.7073377E-1,-2.3794663E-1,-1.0132251E-1,-3.1179935E-1,1.386683E-1,-2.7089378E-1,-2.1985595E-1,-1.0476041E-3,-1.3313195E-1,-3.528434E-1,-2.0596214E-1,-1.2369293E-1,6.0798496E-2,-1.7323709E-1,-3.6317453E-1,-1.04442336E-1,3.2709793E-3,3.5054648E-1,-1.8145554E-1,1.0562948E-1,2.2681601E-1,4.8148084E-1,-8.938557E-2,7.934078E-2,-1.9978023E-1,1.8978265E-1,8.7052025E-3,1.8026419E-1,3.7914902E-1,-2.3991266E-1,3.100085E-1,6.3065237E-1,4.8627734E-1,2.260584E0,5.199171E-1,-1.5838617E-1,7.520392E-1,1.5333534E0,3.12186E-1,-1.7550148E-1,1.6118368E0,1.06666245E-1,1.957046E-1,8.8702536E-1],"categories":[],"categories_nodes":[],"categories_segments":[],"categories_sizes":[],"default_left":[0,0,0,0,0,0,0,0,0,0,0,0,0,0,0,0,0,0,0,0,0,0,0,0,0,0,0,0,0,0,0,0,0,0,0,0,0,0,0,0,0,0,0,0,0,0,0,0,0,0,0,0,0,0,0,0,0,0,0,0,0,0,0,0,0,0,0,0,0,0,0,0,0,0,0,0,0,0,0,0,0,0,0,0,0,0,0,0,0,0,0,0,0,0,0,0,0,0,0,0,0,0,0],"id":17,"left_children":[1,3,5,7,9,11,13,15,17,19,21,23,25,27,29,31,33,35,37,39,41,43,45,47,49,51,53,55,-1,-1,-1,-1,57,59,61,63,65,67,69,71,73,75,77,79,81,83,85,87,-1,89,91,93,95,97,99,101,-1,-1,-1,-1,-1,-1,-1,-1,-1,-1,-1,-1,-1,-1,-1,-1,-1,-1,-1,-1,-1,-1,-1,-1,-1,-1,-1,-1,-1,-1,-1,-1,-1,-1,-1,-1,-1,-1,-1,-1,-1,-1,-1,-1,-1,-1,-1],"loss_changes":[7.4494266E4,5.5560773E4,1.4152492E4,3.5222148E3,4.0985615E3,