{"learner":{"attributes":{"best_iteration":"43","best_score":"5.813549022496555","scikit_learn":"{\"_estimator_type\": \"regressor\"}"},"feature_names":["temperature_2m","relative_humidity_2m","precipitation","surface_pressure","wind_u","wind_v","hour_sin","hour_cos","month_sin","month_cos","pm10","nitrogen_dioxide","ozone","pm2_5_lag_1","pm2_5_lag_24","pm2_5_rolling_mean_24","pm2_5_rolling_std_24"],"feature_types":["float","int","float","float","float","float","float","float","float","float","float","float","float","float","float","float","float"],"gradient_booster":{"model":{"cats":{"enc":[],"feature_segments":[],"sorted_idx":[]},"gbtree_model_param":{"num_parallel_tree":"1","num_trees":"94"},"iteration_indptr":[0,1,2,3,4,5,6,7,8,9,10,11,12,13,14,15,16,17,18,19,20,21,22,23,24,25,26,27,28,29,30,31,32,33,34,35,36,37,38,39,40,41,42,43,44,45,46,47,48,49,50,51,52,53,54,55,56,57,58,59,60,61,62,63,64,65,66,67,68,69,70,71,72,73,74,75,76,77,78,79,80,81,82,83,84,85,86,87,88,89,90,91,92,93,94],"tree_info":[0,0,0,0,0,0,0,0,0,0,0,0,0,0,0,0,0,0,0,0,0,0,0,0,0,0,0,0,0,0,0,0,0,0,0,0,0,0,0,0,0,0,0,0,0,0,0,0,0,0,0,0,0,0,0,0,0,0,0,0,0,0,0,0,0,0,0,0,0,0,0,0,0,0,0,0,0,0,0,0,0,0,0,0,0,0,0,0,0,0,0,0,0,0],"trees":[{"base_weights":[5.2652445E-2,-2.946318E0,3.7160538E1,-5.765827E0,7.0431557E0,2.535921E1,5.3140606E1,-7.417884E0,-3.3701518E0,8.867917E0,-1.5687774E0,3.0115337E1,1.4813314E1,6.619188E1,3.8790146E1,-3.2389934E0,-7.801324E0,7.469053E-1,-4.3859386E0,5.0488653E0,1.1202245E1,-8.078092E-1,-4.1285458E0,3.5548134E1,1.966312E1,1.7201466E1,6.964143E0,5.9849163E1,9.228059E1,5.0948475E1,2.8785435E1,1.1931962E0,-4.378561E0,-8.626547E0,-6.107636E0,5.8430177E-1,3.558981E1,-6.082616E0,-3.689013E0,4.693132E0,2.3592388E1,6.130118E0,1.3078324E1,1.7367761E-1,-2.8427799E0,-2.7138693E0,-5.5258994E0,4.2731106E1,2.6302343E1,1.2708379E1,3.0884663E1,1.3665317E1,2.384592E1,2.0520906E-1,1.087181E1,6.454433E1,3.5855E1,6.199674E1,1.2716852E2,3.7920242E1,6.116136E1,3.4422565E1,1.6033518E1,2.997772E-1,-2.189081E-1,-5.215582E-1,-1.8063547E-1,-4.6160135E-1,-3.8977602E-1,-2.2178452E-1,-3.3376744E-1,6.49078E-2,-2.5302824E-1,-9.03184E-2,2.2695224E0,-1.2671597E-1,-3.666574E-1,-1.956959E-1,-4.826018E-2,4.4736844E-1,1.5595995E-1,3.9173112E0,-9.1847E-2,4.787191E-1,8.503988E-2,7.1800303E-1,2.3677397E-1,-1.59295E-1,5.5140454E-2,-3.35077E-1,-1.1640953E-1,-1.7009686E-1,6.483292E-2,-2.9673037E-1,-6.80572E-2,4.579403E0,1.9149312E0,1.2306985E0,2.9844542E0,8.0384904E-1,-6.477694E-2,3.4094338E0,1.2578106E0,7.715564E-1,2.2527998E-2,1.5384192E0,2.7334407E-1,-1.0110497E-1,5.6452245E-1,1.965648E-1,1.0084655E0,8.301684E-1,3.29464E0,9.314594E-1,2.268646E0,5.745755E-1,3.2442224E0,3.7078736E0,8.36548E0,2.6458976E0,8.713107E-1,2.2710512E0,3.5718791E0,1.608627E0,2.926318E0,1.3159262E0,2.3478869E-1],"categories":[],"categories_nodes":[],"categories_segments":[],"categories_sizes":[],"default_left":[0,0,0,0,0,0,0,0,0,0,0,0,0,0,0,0,0,0,0,0,0,0,0,0,0,0,0,0,0,0,0,0,0,0,0,0,0,0,0,0,0,0,0,0,0,0,0,0,0,0,0,0,0,0,0,0,0,0,0,0,0,0,0,0,0,0,0,0,0,0,0,0,0,0,0,0,0,0,0,0,0,0,0,0,0,0,0,0,0,0,0,0,0,0,0,0,0,0,0,0,0,0,0,0,0,0,0,0,0,0,0,0,0,0,0,0,0,0,0,0,0,0,0,0,0,0,0],"id":0,"left_children":[1,3,5,7,9,11,13,15,17,19,21,23,25,27,29,31,33,35,37,39,41,43,45,47,49,51,53,55,57,59,61,63,65,67,69,71,73,75,77,79,81,83,85,87,89,91,93,95,97,99,101,103,105,107,109,111,113,115,117,119,121,123,125,-1,-1,-1,-1,-1,-1,-1,-1,-1,-1,-1,-1,-1,-1,-1,-1,-1,-1,-1,-1,-1,-1,-1,-1,-1,-1,-1,-1,-1,-1,-1,-1,-1,-1,-1,-1,-1,-1,-1,-1,-1,-1,-1,-1,-1,-1,-1,-1,-1,-1,-1,-1,-1,-1,-1,-1,-1,-1,-1,-1,-1,-1,-1,-1],"loss_changes":[2.0597806E6,4.8237338E5,2.5965538E5,5.283525E4,5.925839E4,3.957972E4,1.07372625E5,1.263975E4,2.2808004E4,2.7677766E4,1.2822805E3,3.0475781E4,4.566461E3,4.5112E4,3.2836062E4,3.369044E3,1.0065031E4,6.0980312E3,5.149633E3,7.6863984E3,1.8285156E4,1.01911505E3,2.8350098E2,2.27845E4,1.4435664E4,4.161832E3,1.5824685E3,2.573725E4,5.3395344E4,1.44458125E4,1.0733914E4,3.6917666E3,2.4190762E3,2.3759375E3,2.224711E3,4.342431E3,1.9145244E3,5.6256094E3,1.8971172E3,7.7460117E3,3.0775684E4,7.9624727E3,1.4988203E4,1.0804271E3,3.1401978E2,2.168938E2,1.1958496E2,4.0020438E4,7.5498906E3,5.6344863E3,1.3670609E4,2.9565625E3,8.101629E3,5.90706E2,2.3728267E3,1.22878125E4,6.204754E3,4.0672422E3,4.2918656E4,1.6904922E4,7.9160625E3,3.9743594E3,5.7068525E3,0E0,0E0,0E0,0E0,0E0,0E0,0E0,0E0,0E0,0E0,0E0,0E0,0E0,0E0,0E0,0E0,0E0,0E0,0E0,0E0,0E0,0E0,0E0,0E0,0E0,0E0,0E0,0E0,0E0,0E0,0E0,0E0,0E0,0E0,0E0,0E0,0E0,0E0,0E0,0E0,0E0,0E0,0E0,0E0,0E0,0E0,0E0,0E0,0E0,0E0,0E0,0E0,0E0,0E0,0E0,0E0,0E0,0E0,0E0,0E0,0E0,0E0,0E0,0E0],"parents":[2147483647,0,0,1,1,2,2,3,3,4,4,5,5,6,6,7,7,8,8,9,9,10,10,11,11,12,12,13,13,14,14,15,15,16,16,17,17,18,18,19,19,20,20,21,21,22,22,23,23,24,24,25,25,26,26,27,27,28,28,29,29,30,30,31,31,32,32,33,33,34,34,35,35,36,36,37,37,38,38,39,39,40,40,41,41,42,42,43,43,44,44,45,45,46,46,47,47,48,48,49,49,50,50,51,51,52,52,53,53,54,54,55,55,56,56,57,57,58,58,59,59,60,60,61,61,62,62],"right_children":[2,4,6,8,10,12,14,16,18,20,22,24,26,28,30,32,34,36,38,40,42,44,46,48,50,52,54,56,58,60,62,64,66,68,70,72,74,76,78,80,82,84,86,88,90,92,94,96,98,100,102,104,106,108,110,112,114,116,118,120,122,124,126,-1,-1,-1,-1,-1,-1,-1,-1,-1,-1,-1,-1,-1,-1,-1,-1,-1,-1,-1,-1,-1,-1,-1,-1,-1,-1,-1,-1,-1,-1,-1,-1,-1,-1,-1,-1,-1,-1,-1,-1,-1,-1,-1,-1,-1,-1,-1,-1,-1,-1,-1,-1,-1,-1,-1,-1,-1,-1,-1,-1,-1,-1,-1,-1],"split_conditions":[4.87E1,2.06E1,8.24E1,1.09E1,-2.4492937E-16,7.1E1,6.1E1,-5E-1,-5E-1,2.75E1,5.728786E0,-6.9015102E0,2E-1,1.676E2,-8.660254E-1,-8.660254E-1,2.5881904E-1,7.6270836E1,0E0,9.9E1,-1.8369701E-16,8.660254E-1,2.1E1,5.7E1,4.5479168E1,4.00125E1,9.642E2,-6.5244164E0,1.4E2,7.6270836E1,8.2E1,6.5244164E0,-1.9831982E1,6.5E0,3.2805526E-1,9.1546955E0,2.1E1,-2.4492937E-16,1.86E1,-8.660254E-1,2.4E1,-6.483879E0,1E-1,1.2246469E-16,7E1,1.83E1,2.37E1,4.8E1,9.661E2,5.7501755E0,6.3E1,9.4E1,-5E-1,5.5679165E1,6.123234E-17,1.6377901E0,6.1E0,8.082917E1,9.617E2,6.3179165E1,-8.967044E0,1.676E2,8.3E1,2.997772E-1,-2.189081E-1,-5.215582E-1,-1.8063547E-1,-4.6160135E-1,-3.8977602E-1,-2.2178452E-1,-3.3376744E-1,6.49078E-2,-2.5302824E-1,-9.03184E-2,2.2695224E0,-1.2671597E-1,-3.666574E-1,-1.956959E-1,-4.826018E-2,4.4736844E-1,1.5595995E-1,3.9173112E0,-9.1847E-2,4.787191E-1,8.503988E-2,7.1800303E-1,2.3677397E-1,-1.59295E-1,5.5140454E-2,-3.35077E-1,-1.1640953E-1,-1.7009686E-1,6.483292E-2,-2.9673037E-1,-6.80572E-2,4.579403E0,1.9149312E0,1.2306985E0,2.9844542E0,8.0384904E-1,-6.477694E-2,3.4094338E0,1.2578106E0,7.715564E-1,2.2527998E-2,1.5384192E0,2.7334407E-1,-1.0110497E-1,5.6452245E-1,1.965648E-1,1.0084655E0,8.301684E-1,3.29464E0,9.314594E-1,2.268646E0,5.745755E-1,3.2442224E0,3.7078736E0,8.36548E0,2.6458976E0,8.713107E-1,2.2710512E0,3.5718791E0,1.608627E0,2.926318E0,1.3159262E0,2.3478869E-1],"split_indices":[10,10,10,10,8,1,1,8,8,10,4,5,2,10,8,8,6,15,6,1,9,8,12,1,15,15,3,5,12,15,1,5,4,10,4,5,1,8,11,8,12,5,2,8,1,13,13,12,3,5,12,1,8,15,9,4,11,15,3,15,5,10,12,0,0,0,0,0,0,0,0,0,0,0,0,0,0,0,0,0,0,0,0,0,0,0,0,0,0,0,0,0,0,0,0,0,0,0,0,0,0,0,0,0,0,0,0,0,0,0,0,0,0,0,0,0,0,0,0,0,0,0,0,0,0,0,0],"split_type":[0,0,0,0,0,0,0,0,0,0,0,0,0,0,0,0,0,0,0,0,0,0,0,0,0,0,0,0,0,0,0,0,0,0,0,0,0,0,0,0,0,0,0,0,0,0,0,0,0,0,0,0,0,0,0,0,0,0,0,0,0,0,0,0,0,0,0,0,0,0,0,0,0,0,0,0,0,0,0,0,0,0,0,0,0,0,0,0,0,0,0,0,0,0,0,0,0,0,0,0,0,0,0,0,0,0,0,0,0,0,0,0,0,0,0,0,0,0,0,0,0,0,0,0,0,0,0],"sum_hessian":[1.8507E4,1.7124E4,1.383E3,1.3355E4,3.769E3,7.97E2,5.86E2,7.903E3,5.452E3,3.11E3,6.59E2,5.48E2,2.49E2,3.05E2,2.81E2,6.65E2,7.238E3,1.079E3,4.373E3,1.181E3,1.929E3,5.09E2,1.5E2,3.59E2,1.89E2,1.9E2,5.9E1,2.48E2,5.7E1,1.25E2,1.56E2,1.36E2,5.29E2,4.864E3,2.374E3,1.075E3,4E0,1.271E3,3.102E3,1.16E3,2.1E1,5.22E2,1.407E3,3.44E2,1.65E2,7.6E1,7.4E1,2E2,1.59E2,1.18E2,7.1E1,1.26E2,6.4E1,2.2E1,3.7E1,2.06E2,4.2E1,3.2E1,2.5E1,5.7E1,6.8E1,1.07E2,4.9E1,7.3E1,6.3E1,5.8E1,4.71E2,2.808E3,2.056E3,6.04E2,1.77E3,9.55E2,1.2E2,1E0,3E0,3.32E2,9.39E2,2.865E3,2.37E2,3.12E2,8.48E2,6E0,1.5E1,2.93E2,2.29E2,1.219E3,1.88E2,7.4E1,2.7E2,1.8E1,1.47E2,6.5E1,1.1E1,6.7E1,7E0,1.5E1,1.85E2,1.53E2,6E0,9.5E1,2.3E1,8E0,6.3E1,1.11E2,1.5E1,4.6E1,1.8E1,1.9E1,3E0,2.2E1,1.5E1,6E0,2E2,1.6E1,2.6E1,2E0,3E1,1.2E1,1.3E1,3.2E1,2.5E1,2.9E1,3.9E1,1E2,7E0,2.5E1,2.4E1],"tree_param":{"num_deleted":"0","num_feature":"17","num_nodes":"127","size_leaf_vector":"1"}},{"base_weights":[-4.0450813E-3,-2.8616045E0,3.3478592E1,-5.5297933E0,5.960077E0,2.411099E1,4.7796207E1,-6.9402665E-1,-6.259006E0,8.269651E0,-1.9746366E0,2.8008015E1,1.3488563E1,6.0258663E1,3.2640575E1,-2.4845514E0,1.3219932E0,-7.7444572E0,-4.815452E0,3.7817369E0,1.0257846E1,-4.773411E-1,-3.0114112E0,5.020969E-1,2.9436077E1,3.717802E0,1.5424126E1,5.489518E1,8.643297E1,4.4833324E1,2.3990208E1,-8.075282E0,-1.4126112E0,-5.2351815E-1,4.0524707E0,-5.385158E0,-8.231018E0,-6.020962E0,-3.8128257E0,-6.02507E-1,7.01883E0,1.4817719E1,8.20714E0,-3.2508924E0,2.894225E-1,-5.1376367E0,-1.6153903E0,3.3530698E0,-4.766528E0,2.3563505E1,3.4554153E1,9.265457E-1,1.03861265E1,7.2712436E0,1.9855005E1,2.9397188E1,5.839534E1,1.3924898E2,6.125759E1,3.1189632E1,5.5635887E1,2.6888855E1,6.059378E0,1.0796469E-1,-4.3792006E-1,7.6168865E-1,-9.8465934E-2,-5.0127562E-2,4.8126483E-1,-1.630088E-1,2.4825974E-1,-3.3078772E-1,-9.1467336E-2,-4.450206E-1,-3.6961251E-1,-3.4466898E-1,-2.4680339E-1,-3.496461E-1,-1.7913887E-1,-1.8749167E-1,7.8189515E-2,2.8779325E-1,5.958216E-1,7.031142E-1,2.1326296E0,1.0215809E0,3.4356192E-1,-2.1415822E-1,1.806823E-1,-1.9460875E-1,3.236055E-2,-3.522844E-1,-2.0014393E-1,-1.2858474E-1,1.927325E-2,3.707368E-1,4.81655E-2,-3.2005605E-1,1.13547795E-1,7.80504E-1,1.5390747E0,1.5582094E0,2.6355631E0,1.3726386E-1,-3.4029636E-1,1.5982358E-1,8.521519E-1,5.9959304E-2,5.9165317E-1,6.0159665E-1,1.5603894E0,3.3642265E-1,1.9973109E0,3.6485069E0,2.709832E0,2.1981428E0,7.892816E0,3.4165509E0,1.353753E0,-3.765478E-2,2.0109215E0,1.9791435E0,3.659783E0,3.5958531E-1,1.4563463E0,4.1625157E-2,7.048787E-1],"categories":[],"categories_nodes":[],"categories_segments":[],"categories_sizes":[],"default_left":[0,0,0,0,0,0,0,0,0,0,0,0,0,0,0,0,0,0,0,0,0,0,0,0,0,0,0,0,0,0,0,0,0,0,0,0,0,0,0,0,0,0,0,0,0,0,0,0,0,0,0,0,0,0,0,0,0,0,0,0,0,0,0,0,0,0,0,0,0,0,0,0,0,0,0,0,0,0,0,0,0,0,0,0,0,0,0,0,0,0,0,0,0,0,0,0,0,0,0,0,0,0,0,0,0,0,0,0,0,0,0,0,0,0,0,0,0,0,0,0,0,0,0,0,0,0,0],"id":1,"left_children":[1,3,5,7,9,11,13,15,17,19,21,23,25,27,29,31,33,35,37,39,41,43,45,47,49,51,53,55,57,59,61,63,65,67,69,71,73,75,77,79,81,83,85,87,89,91,93,95,97,99,101,103,105,107,109,111,113,115,117,119,121,123,125,-1,-1,-1,-1,-1,-1,-1,-1,-1,-1,-1,-1,-1,-1,-1,-1,-1,-1,-1,-1,-1,-1,-1,-1,-1,-1,-1,-1,-1,-1,-1,-1,-1,-1,-1,-1,-1,-1,-1,-1,-1,-1,-1,-1,-1,-1,-1,-1,-1,-1,-1,-1,-1,-1,-1,-1,-1,-1,-1,-1,-1,-1,-1,-1],"loss_changes":[1.7813448E6,4.0380228E5,1.9520188E5,4.6440562E4,7.302636E4,3.6340375E4,1.07203625E5,6.237294E3,2.4504562E4,2.7497125E4,1.3941321E3,2.5438812E4,4.4815156E3,3.9617E4,2.6663531E4,5.4721226E3,4.098932E3,6.4289375E3,6.9958125E3,1.3472632E4,1.9870766E4,7.8567786E2,1.5678447E3,5.116659E2,1.7700375E4,7.5350995E2,7.0805156E3,2.1933812E4,6.061247E4,1.4182516E4,7.9451953E3,1.0466533E3,7.15645E3,2.3723965E3,2.2053994E3,4.2192637E3,2.5579062E3,2.4599531E3,2.2962344E3,2.7603538E3,3.3086934E3,1.3320344E4,2.3980055E4,5.8236334E2,4.3639606E2,4.264834E2,6.1711475E2,2.0639827E2,1.5257767E2,1.6167734E4,1.8484781E4,4.405829E2,5.19853E2,1.9801831E3,1.1081469E4,7.861748E3,1.02425625E4,2.1428531E4,7.0960625E3,1.4450504E4,1.37340625E4,5.6977344E3,9.546004E2,0E0,0E0,0E0,0E0,0E0,0E0,0E0,0E0,0E0,0E0,0E0,0E0,0E0,0E0,0E0,0E0,0E0,0E0,0E0,0E0,0E0,0E0,0E0,0E0,0E0,0E0,0E0,0E0,0E0,0E0,0E0,0E0,0E0,0E0,0E0,0E0,0E0,0E0,0E0,0E0,0E0,0E0,0E0,0E0,0E0,0E0,0E0,0E0,0E0,0E0,0E0,0E0,0E0,0E0,0E0,0E0,0E0,0E0,0E0,0E0,0E0,0E0,0E0,0E0],"parents":[2147483647,0,0,1,1,2,2,3,3,4,4,5,5,6,6,7,7,8,8,9,9,10,10,11,11,12,12,13,13,14,14,15,15,16,16,17,17,18,18,19,19,20,20,21,21,22,22,23,23,24,24,25,25,26,26,27,27,28,28,29,29,30,30,31,31,32,32,33,33,34,34,35,35,36,36,37,37,38,38,39,39,40,40,41,41,42,42,43,43,44,44,45,45,46,46,47,47,48,48,49,49,50,50,51,51,52,52,53,53,54,54,55,55,56,56,57,57,58,58,59,59,60,60,61,61,62,62],"right_children":[2,4,6,8,10,12,14,16,18,20,22,24,26,28,30,32,34,36,38,40,42,44,46,48,50,52,54,56,58,60,62,64,66,68,70,72,74,76,78,80,82,84,86,88,90,92,94,96,98,100,102,104,106,108,110,112,114,116,118,120,122,124,126,-1,-1,-1,-1,-1,-1,-1,-1,-1,-1,-1,-1,-1,-1,-1,-1,-1,-1,-1,-1,-1,-1,-1,-1,-1,-1,-1,-1,-1,-1,-1,-1,-1,-1,-1,-1,-1,-1,-1,-1,-1,-1,-1,-1,-1,-1,-1,-1,-1,-1,-1,-1,-1,-1,-1,-1,-1,-1,-1,-1,-1,-1,-1,-1],"split_conditions":[3.32E1,1.42E1,5.74E1,-5E-1,-2.4492937E-16,7.4E1,6.3E1,-1.8369701E-16,0E0,-1.8369701E-16,-3.230844E0,-1.6494802E1,-1.1145046E1,1.176E2,-8.660254E-1,-1.6897327E1,0E0,-2.4492937E-16,7.8E0,3.9142895E0,5.4E1,7.2E1,6.123234E-17,4.25E1,4.07E1,9.4E1,9.613E2,1.4214782E0,5.74E1,7.89E1,8.8E1,4.9666667E0,2.6E1,1.06E2,3.5E1,1.2054167E1,5.4E0,-1.8369701E-16,-9.659258E-1,3.9E1,2.3554167E1,7.29E1,8.8E0,2.22E1,-1.6166233E1,2.5881904E-1,1.86E1,7E1,4.98E1,0E0,9.647E2,1.11E1,6.123234E-17,-1.8369701E-16,3.79625E1,1.2246469E-16,9.377888E0,9.617E2,2.0567081E1,2.9E0,7.89E1,2.3E0,4E-1,1.0796469E-1,-4.3792006E-1,7.6168865E-1,-9.8465934E-2,-5.0127562E-2,4.8126483E-1,-1.630088E-1,2.4825974E-1,-3.3078772E-1,-9.1467336E-2,-4.450206E-1,-3.6961251E-1,-3.4466898E-1,-2.4680339E-1,-3.496461E-1,-1.7913887E-1,-1.8749167E-1,7.8189515E-2,2.8779325E-1,5.958216E-1,7.031142E-1,2.1326296E0,1.0215809E0,3.4356192E-1,-2.1415822E-1,1.806823E-1,-1.9460875E-1,3.236055E-2,-3.522844E-1,-2.0014393E-1,-1.2858474E-1,1.927325E-2,3.707368E-1,4.81655E-2,-3.2005605E-1,1.13547795E-1,7.80504E-1,1.5390747E0,1.5582094E0,2.6355631E0,1.3726386E-1,-3.4029636E-1,1.5982358E-1,8.521519E-1,5.9959304E-2,5.9165317E-1,6.0159665E-1,1.5603894E0,3.3642265E-1,1.9973109E0,3.6485069E0,2.709832E0,2.1981428E0,7.892816E0,3.4165509E0,1.353753E0,-3.765478E-2,2.0109215E0,1.9791435E0,3.659783E0,3.5958531E-1,1.4563463E0,4.1625157E-2,7.048787E-1],"split_indices":[13,13,13,8,8,1,1,9,6,9,4,4,4,13,8,4,6,8,13,4,1,1,7,13,13,1,3,4,14,13,1,15,1,12,1,15,13,7,7,12,15,14,14,13,4,6,13,12,13,6,3,11,9,7,15,6,4,3,4,11,14,11,2,0,0,0,0,0,0,0,0,0,0,0,0,0,0,0,0,0,0,0,0,0,0,0,0,0,0,0,0,0,0,0,0,0,0,0,0,0,0,0,0,0,0,0,0,0,0,0,0,0,0,0,0,0,0,0,0,0,0,0,0,0,0,0,0],"split_type":[0,0,0,0,0,0,0,0,0,0,0,0,0,0,0,0,0,0,0,0,0,0,0,0,0,0,0,0,0,0,0,0,0,0,0,0,0,0,0,0,0,0,0,0,0,0,0,0,0,0,0,0,0,0,0,0,0,0,0,0,0,0,0,0,0,0,0,0,0,0,0,0,0,0,0,0,0,0,0,0,0,0,0,0,0,0,0,0,0,0,0,0,0,0,0,0,0,0,0,0,0,0,0,0,0,0,0,0,0,0,0,0,0,0,0,0,0,0,0,0,0,0,0,0,0,0,0],"sum_hessian":[1.8616E4,1.7153E4,1.463E3,1.317E4,3.983E3,8.86E2,5.77E2,1.726E3,1.1444E4,3.085E3,8.98E2,6.47E2,2.39E2,3.15E2,2.62E2,9.14E2,8.12E2,5.638E3,5.806E3,9.48E2,2.137E3,3.68E2,5.3E2,3.2E1,6.15E2,4E1,1.99E2,2.64E2,5.1E1,1.07E2,1.55E2,1.46E2,7.68E2,4.85E2,3.27E2,9.66E2,4.672E3,2.634E3,3.172E3,4.03E2,5.45E2,6.61E2,1.476E3,7.9E1,2.89E2,2.09E2,3.21E2,2.1E1,1.1E1,2.89E2,3.26E2,2.9E1,1.1E1,7.1E1,1.28E2,3.3E1,2.31E2,1.5E1,3.6E1,4.9E1,5.8E1,1.33E2,2.2E1,9E0,1.37E2,2.4E1,7.44E2,4.64E2,2.1E1,3.6E1,2.91E2,7.17E2,2.49E2,2.593E3,2.079E3,1.457E3,1.177E3,2.12E2,2.96E3,1.64E2,2.39E2,4.35E2,1.1E2,6.45E2,1.6E1,1.44E2,1.332E3,6.9E1,1E1,2.2E1,2.67E2,7.6E1,1.33E2,2.17E2,1.04E2,7E0,1.4E1,9E0,2E0,1.39E2,1.5E2,2.77E2,4.9E1,2.4E1,5E0,6E0,5E0,3.1E1,4E1,7.7E1,5.1E1,1.1E1,2.2E1,4.8E1,1.83E2,3E0,1.2E1,2.9E1,7E0,1.1E1,3.8E1,3.2E1,2.6E1,1.4E1,1.19E2,1.4E1,8E0],"tree_param":{"num_deleted":"0","num_feature":"17","num_nodes":"127","size_leaf_vector":"1"}},{"base_weights":[-5.353584E-2,-2.7682812E0,3.267874E1,-5.2428603E0,6.118723E0,2.375073E1,4.6005245E1,-6.805629E0,-3.1215663E0,7.879806E0,-1.6235977E0,3.0839283E1,1.7529154E1,5.792463E1,3.295681E1,-3.1741004E0,-7.139396E0,9.0662265E-1,-4.07345E0,3.9985607E0,9.557035E0,-8.099047E-1,-3.959558E0,3.771034E1,1.4331967E1,1.2410903E1,2.231002E1,5.323864E1,8.4884544E1,4.4537514E1,2.4373552E1,1.2272011E0,-4.2577734E0,-7.8205338E0,-5.6788893E0,6.886868E-1,2.4244068E1,-5.631675E0,-3.3998504E0,1.5542836E-1,6.8097835E0,1.5040166E1,8.061885E0,1.9255142E0,-1.4934528E0,-5.997006E0,-3.3637006E0,3.0878592E1,5.9290386E1,-5.357511E-1,1.9406595E1,6.6523156E0,1.3919481E1,6.9335237E0,2.5444693E1,5.7112656E1,3.1719683E1,1.3789113E2,5.9085537E1,1.5539278E1,4.8403214E1,3.288106E1,2.0398403E1,3.500629E-1,-9.74696E-2,-4.9322543E-1,-1.7394727E-1,-4.2184615E-1,-3.5074142E-1,-2.0528929E-1,-3.0931425E-1,5.5646975E-2,-2.9070497E-1,2.0133677E0,8.365612E-3,-1.3269097E-1,-3.3272707E-1,-1.21910214E-1,-1.9994555E-1,-6.222892E-3,1.0809802E0,2.1850935E-1,4.809943E-1,6.8790215E-1,2.2594635E0,9.126878E-1,3.5051802E-1,-2.5666866E-1,1.5010844E-1,-1.3923343E-1,-1.8537877E-2,-2.1310051E-1,-3.399062E-1,-2.0790218E-1,-7.971772E-2,2.0978513E0,1.242269E0,8.81788E0,1.8856049E0,-2.5846264E-1,9.584166E-2,8.332168E-1,3.0797622E0,4.77941E-1,-1.4318824E-1,8.574578E-1,4.7433782E-1,7.864679E-1,1.5920363E-1,8.176288E-1,1.5908669E0,3.5375803E0,2.5067227E0,2.1518056E0,9.446397E-1,7.6903033E0,3.181551E0,5.301192E-1,3.3068352E0,-8.5208684E-2,1.0982274E0,6.241626E-1,2.589072E0,1.7569987E0,-6.583362E-2,6.598464E-1,1.3149855E0],"categories":[],"categories_nodes":[],"categories_segments":[],"categories_sizes":[],"default_left":[0,0,0,0,0,0,0,0,0,0,0,0,0,0,0,0,0,0,0,0,0,0,0,0,0,0,0,0,0,0,0,0,0,0,0,0,0,0,0,0,0,0,0,0,0,0,0,0,0,0,0,0,0,0,0,0,0,0,0,0,0,0,0,0,0,0,0,0,0,0,0,0,0,0,0,0,0,0,0,0,0,0,0,0,0,0,0,0,0,0,0,0,0,0,0,0,0,0,0,0,0,0,0,0,0,0,0,0,0,0,0,0,0,0,0,0,0,0,0,0,0,0,0,0,0,0,0],"id":2,"left_children":[1,3,5,7,9,11,13,15,17,19,21,23,25,27,29,31,33,35,37,39,41,43,45,47,49,51,53,55,57,59,61,63,65,67,69,71,73,75,77,79,81,83,85,87,89,91,93,95,97,99,101,103,105,107,109,111,113,115,117,119,121,123,125,-1,-1,-1,-1,-1,-1,-1,-1,-1,-1,-1,-1,-1,-1,-1,-1,-1,-1,-1,-1,-1,-1,-1,-1,-1,-1,-1,-1,-1,-1,-1,-1,-1,-1,-1,-1,-1,-1,-1,-1,-1,-1,-1,-1,-1,-1,-1,-1,-1,-1,-1,-1,-1,-1,-1,-1,-1,-1,-1,-1,-1,-1,-1,-1],"loss_changes":[1.6429304E6,3.754945E5,1.6738188E5,4.4251844E4,5.0720875E4,3.6946062E4,8.6276E4,9.2970625E3,2.1733055E4,1.9686297E4,1.3083136E3,4.4374906E4,1.0856828E4,3.2749375E4,2.6050719E4,3.1006782E3,6.9600312E3,5.4966E3,4.7923125E3,9.895313E3,1.7217766E4,9.62078E2,1.9592505E2,3.930197E4,8.913277E3,1.8359805E3,1.11024375E4,1.9363E4,4.9288344E4,1.2139172E4,4.7064375E3,2.3797441E3,2.2407236E3,2.324125E3,1.7649297E3,2.972207E3,3.85115E3,4.19184E3,1.8354453E3,2.3336106E3,3.5845273E3,1.6850305E4,1.7705125E4,7.982095E2,5.947702E2,2.5233887E1,1.9013586E2,1.3261016E4,1.6007244E5,3.6219424E2,9.154477E3,1.3549834E3,2.3426562E3,1.3020782E3,1.0720219E4,1.6820375E4,5.1382656E3,5.5771406E3,9.554672E3,1.6993389E3,1.1609484E4,3.831496E3,4.370211E3,0E0,0E0,0E0,0E0,0E0,0E0,0E0,0E0,0E0,0E0,0E0,0E0,0E0,0E0,0E0,0E0,0E0,0E0,0E0,0E0,0E0,0E0,0E0,0E0,0E0,0E0,0E0,0E0,0E0,0E0,0E0,0E0,0E0,0E0,0E0,0E0,0E0,0E0,0E0,0E0,0E0,0E0,0E0,0E0,0E0,0E0,0E0,0E0,0E0,0E0,0E0,0E0,0E0,0E0,0E0,0E0,0E0,0E0,0E0,0E0,0E0,0E0,0E0,0E0],"parents":[2147483647,0,0,1,1,2,2,3,3,4,4,5,5,6,6,7,7,8,8,9,9,10,10,11,11,12,12,13,13,14,14,15,15,16,16,17,17,18,18,19,19,20,20,21,21,22,22,23,23,24,24,25,25,26,26,27,27,28,28,29,29,30,30,31,31,32,32,33,33,34,34,35,35,36,36,37,37,38,38,39,39,40,40,41,41,42,42,43,43,44,44,45,45,46,46,47,47,48,48,49,49,50,50,51,51,52,52,53,53,54,54,55,55,56,56,57,57,58,58,59,59,60,60,61,61,62,62],"right_children":[2,4,6,8,10,12,14,16,18,20,22,24,26,28,30,32,34,36,38,40,42,44,46,48,50,52,54,56,58,60,62,64,66,68,70,72,74,76,78,80,82,84,86,88,90,92,94,96,98,100,102,104,106,108,110,112,114,116,118,120,122,124,126,-1,-1,-1,-1,-1,-1,-1,-1,-1,-1,-1,-1,-1,-1,-1,-1,-1,-1,-1,-1,-1,-1,-1,-1,-1,-1,-1,-1,-1,-1,-1,-1,-1,-1,-1,-1,-1,-1,-1,-1,-1,-1,-1,-1,-1,-1,-1,-1,-1,-1,-1,-1,-1,-1,-1,-1,-1,-1,-1,-1,-1,-1,-1,-1],"split_conditions":[4.74E1,2.06E1,8.24E1,1.06E1,-2.4492937E-16,6E1,6.2E1,-5E-1,-5E-1,-1.8369701E-16,4.7162814E0,-4.719878E0,9.635408E0,1.676E2,-8.660254E-1,-8.660254E-1,2.5881904E-1,2.91E1,0E0,3.9142895E0,4.7E1,1.82E1,-2.5881904E-1,6.3E0,-1.6494802E1,2.17E1,2.11E1,-6.0541883E0,4.98E1,-5.045538E0,7E1,3.9905083E0,-1.9831982E1,5.5E0,3.2805526E-1,1.0458358E1,-3.6154988E0,-2.4492937E-16,-1.4333142E0,1.749929E1,4.092163E0,6.68E1,8.8E0,8.6E0,2.5881904E-1,9.623E2,9.641E2,-8.660254E-1,-5E-1,2.9E1,5.7E1,8.316858E0,1.1169702E1,7.4E1,9.599E2,2.86E1,2.64E1,5E-1,1.8914675E1,3.4E0,-1.1990819E1,2.96E1,4.3E0,3.500629E-1,-9.74696E-2,-4.9322543E-1,-1.7394727E-1,-4.2184615E-1,-3.5074142E-1,-2.0528929E-1,-3.0931425E-1,5.5646975E-2,-2.9070497E-1,2.0133677E0,8.365612E-3,-1.3269097E-1,-3.3272707E-1,-1.21910214E-1,-1.9994555E-1,-6.222892E-3,1.0809802E0,2.1850935E-1,4.809943E-1,6.8790215E-1,2.2594635E0,9.126878E-1,3.5051802E-1,-2.5666866E-1,1.5010844E-1,-1.3923343E-1,-1.8537877E-2,-2.1310051E-1,-3.399062E-1,-2.0790218E-1,-7.971772E-2,2.0978513E0,1.242269E0,8.81788E0,1.8856049E0,-2.5846264E-1,9.584166E-2,8.332168E-1,3.0797622E0,4.77941E-1,-1.4318824E-1,8.574578E-1,4.7433782E-1,7.864679E-1,1.5920363E-1,8.176288E-1,1.5908669E0,3.5375803E0,2.5067227E0,2.1518056E0,9.446397E-1,7.6903033E0,3.181551E0,5.301192E-1,3.3068352E0,-8.5208684E-2,1.0982274E0,6.241626E-1,2.589072E0,1.7569987E0,-6.583362E-2,6.598464E-1,1.3149855E0],"split_indices":[10,10,10,10,8,1,1,8,8,9,4,5,16,10,8,8,6,11,6,4,1,0,7,11,4,0,0,5,14,4,1,5,4,14,4,5,5,8,4,16,16,14,14,14,7,3,3,8,7,1,1,4,4,1,3,0,0,7,16,11,5,0,11,0,0,0,0,0,0,0,0,0,0,0,0,0,0,0,0,0,0,0,0,0,0,0,0,0,0,0,0,0,0,0,0,0,0,0,0,0,0,0,0,0,0,0,0,0,0,0,0,0,0,0,0,0,0,0,0,0,0,0,0,0,0,0,0],"split_type":[0,0,0,0,0,0,0,0,0,0,0,0,0,0,0,0,0,0,0,0,0,0,0,0,0,0,0,0,0,0,0,0,0,0,0,0,0,0,0,0,0,0,0,0,0,0,0,0,0,0,0,0,0,0,0,0,0,0,0,0,0,0,0,0,0,0,0,0,0,0,0,0,0,0,0,0,0,0,0,0,0,0,0,0,0,0,0,0,0,0,0,0,0,0,0,0,0,0,0,0,0,0,0,0,0,0,0,0,0,0,0,0,0,0,0,0,0,0,0,0,0,0,0,0,0,0,0],"sum_hessian":[1.8487E4,1.7072E4,1.415E3,1.3354E4,3.718E3,8.49E2,5.66E2,7.688E3,5.666E3,3.029E3,6.89E2,3.95E2,4.54E2,2.94E2,2.72E2,6.48E2,7.04E3,1.083E3,4.583E3,9.15E2,2.114E3,5.12E2,1.77E2,2.78E2,1.17E2,2.21E2,2.33E2,2.53E2,4.1E1,1.14E2,1.58E2,1.28E2,5.2E2,4.798E3,2.242E3,1.074E3,9E0,1.381E3,3.202E3,3.87E2,5.28E2,4.51E2,1.663E3,1.02E2,4.1E2,3.8E1,1.39E2,2.13E2,6.5E1,3E1,8.7E1,4.7E1,1.74E2,4E1,1.93E2,2.13E2,4E1,1.2E1,2.9E1,1.4E1,1E2,4.8E1,1.1E2,4.5E1,8.3E1,6.2E1,4.58E2,2.713E3,2.085E3,5.49E2,1.693E3,1.009E3,6.5E1,5E0,4E0,3.54E2,1.027E3,1.231E3,1.971E3,3.83E2,4E0,2.84E2,2.44E2,4.34E2,1.7E1,1.54E2,1.509E3,1.3E1,8.9E1,1.9E2,2.2E2,1.4E1,2.4E1,9.5E1,4.4E1,7.3E1,1.4E2,9E0,5.6E1,1E1,2E1,8.3E1,4E0,3.6E1,1.1E1,9.9E1,7.5E1,1.1E1,2.9E1,8.1E1,1.12E2,6.9E1,1.44E2,2E1,2E1,9E0,3E0,4E0,2.5E1,4E0,1E1,9E0,9.1E1,4.5E1,3E0,5.1E1,5.9E1],"tree_param":{"num_deleted":"0","num_feature":"17","num_nodes":"127","size_leaf_vector":"1"}},{"base_weights":[3.4319364E-2,-2.5753357E0,3.1967695E1,-5.0152707E0,5.8044143E0,2.7050837E1,5.666851E1,-6.44493E0,-3.0671992E0,7.4022884E0,-1.4090506E0,1.96666E1,3.437641E1,2.3590485E1,6.42847E1,-2.9491038E0,-6.767202E0,5.624114E-1,-3.91508E0,3.8564553E0,9.491578E0,-6.787989E-1,-3.7487876E0,1.0635616E1,2.435385E1,4.0498875E1,2.147069E1,3.427424E1,7.166704E0,6.690474E1,1.6043568E1,1.1656209E0,-4.0019264E0,-7.674094E0,-5.870966E0,1.1978815E1,1.9786672E-1,-5.0879254E0,-3.237164E0,7.639752E0,2.4830122E0,1.376074E1,7.500483E0,-3.7125764E0,-2.1610728E-1,-5.579108E0,-3.1089284E0,2.571192E-1,1.3038822E1,3.50299E1,1.6441069E1,5.3824577E1,3.6750683E1,2.335157E1,-6.079179E0,1.2126972E1,4.1419434E1,1.5977758E1,-5.110249E-1,4.2574562E1,7.364845E1,1.0628568E0,4.0780354E-1,-1.4382656E-1,3.1420967E-1,2.3876576E-1,-2.1823719E-1,-3.4725657E-1,-4.103911E-1,-3.5071635E-1,-2.6664668E-1,1.8966597E0,2.994674E-1,-2.4888554E-1,4.251122E-2,-2.0303094E-1,-2.9769585E-1,-1.6673478E-1,2.9405358E-1,9.121829E-1,2.3662293E-1,1.148588E-1,2.7557137E0,6.634085E-1,3.6486974E0,7.958254E-1,3.396035E-1,-2.3482111E-1,1.36771025E-2,4.9124274E-2,-1.0927271E-1,-2.98712E-1,-1.6589928E-2,-2.2818565E-1,-1.0775838E-1,-2.7144837E-1,1.07195534E-1,6.2001616E-1,2.9278533E0,7.9844666E0,1.5037146E0,-1.0329609E-1,8.8928205E-1,1.7003548E0,3.3508337E0,1.6820738E0,2.7497337E0,8.6591876E-1,1.7369219E0,-1.0931416E-1,-4.5518103E-1,2.8125024E-1,7.4515754E-1,1.0500016E-1,2.1689174E0,1.0658585E0,-4.4630003E-1,2.5871716E0,8.052253E-1,3.2157047E0,4.6726427E0],"categories":[],"categories_nodes":[],"categories_segments":[],"categories_sizes":[],"default_left":[0,0,0,0,0,0,0,0,0,0,0,0,0,0,0,0,0,0,0,0,0,0,0,0,0,0,0,0,0,0,0,0,0,0,0,0,0,0,0,0,0,0,0,0,0,0,0,0,0,0,0,0,0,0,0,0,0,0,0,0,0,0,0,0,0,0,0,0,0,0,0,0,0,0,0,0,0,0,0,0,0,0,0,0,0,0,0,0,0,0,0,0,0,0,0,0,0,0,0,0,0,0,0,0,0,0,0,0,0,0,0,0,0,0,0,0,0,0,0,0,0],"id":3,"left_children":[1,3,5,7,9,11,13,15,17,19,21,23,25,27,29,31,33,35,37,39,41,43,45,47,49,51,53,55,57,59,61,63,65,67,69,71,73,75,77,79,81,83,85,87,89,91,93,95,97,99,101,103,105,107,109,111,113,115,-1,117,119,-1,-1,-1,-1,-1,-1,-1,-1,-1,-1,-1,-1,-1,-1,-1,-1,-1,-1,-1,-1,-1,-1,-1,-1,-1,-1,-1,-1,-1,-1,-1,-1,-1,-1,-1,-1,-1,-1,-1,-1,-1,-1,-1,-1,-1,-1,-1,-1,-1,-1,-1,-1,-1,-1,-1,-1,-1,-1,-1,-1],"loss_changes":[1.5476151E6,3.5104688E5,1.68862E5,3.7013375E4,4.4639906E4,6.2721812E4,5.6930875E4,8.618875E3,1.7328395E4,2.344764E4,1.198599E3,2.4546625E4,4.5512125E4,7.65041E3,2.2688688E4,2.8161807E3,5.66075E3,4.4382593E3,3.6123203E3,6.0968887E3,1.684639E4,7.5298645E2,1.7823633E2,5.0348633E3,3.1947812E4,1.7851E4,1.00391875E4,3.7703652E3,3.0740925E3,2.6069938E4,2.789673E2,2.7698533E3,1.6672471E3,1.2992656E3,2.1372031E3,4.9027495E3,3.4987317E3,1.4615234E3,2.5941816E3,9.563035E3,8.333789E3,1.7494281E4,8.0121562E3,2.7972723E2,1.1044749E3,8.509961E1,1.6499158E2,4.3004913E2,4.0402637E3,9.589294E4,5.585867E3,1.994286E4,1.5904656E4,1.1695555E4,1.3315677E2,6.0574707E1,1.449375E3,1.9189053E3,0E0,9.117414E3,1.95005E4,0E0,0E0,0E0,0E0,0E0,0E0,0E0,0E0,0E0,0E0,0E0,0E0,0E0,0E0,0E0,0E0,0E0,0E0,0E0,0E0,0E0,0E0,0E0,0E0,0E0,0E0,0E0,0E0,0E0,0E0,0E0,0E0,0E0,0E0,0E0,0E0,0E0,0E0,0E0,0E0,0E0,0E0,0E0,0E0,0E0,0E0,0E0,0E0,0E0,0E0,0E0,0E0,0E0,0E0,0E0,0E0,0E0,0E0,0E0,0E0],"parents":[2147483647,0,0,1,1,2,2,3,3,4,4,5,5,6,6,7,7,8,8,9,9,10,10,11,11,12,12,13,13,14,14,15,15,16,16,17,17,18,18,19,19,20,20,21,21,22,22,23,23,24,24,25,25,26,26,27,27,28,28,29,29,30,30,31,31,32,32,33,33,34,34,35,35,36,36,37,37,38,38,39,39,40,40,41,41,42,42,43,43,44,44,45,45,46,46,47,47,48,48,49,49,50,50,51,51,52,52,53,53,54,54,55,55,56,56,57,57,59,59,60,60],"right_children":[2,4,6,8,10,12,14,16,18,20,22,24,26,28,30,32,34,36,38,40,42,44,46,48,50,52,54,56,58,60,62,64,66,68,70,72,74,76,78,80,82,84,86,88,90,92,94,96,98,100,102,104,106,108,110,112,114,116,-1,118,120,-1,-1,-1,-1,-1,-1,-1,-1,-1,-1,-1,-1,-1,-1,-1,-1,-1,-1,-1,-1,-1,-1,-1,-1,-1,-1,-1,-1,-1,-1,-1,-1,-1,-1,-1,-1,-1,-1,-1,-1,-1,-1,-1,-1,-1,-1,-1,-1,-1,-1,-1,-1,-1,-1,-1,-1,-1,-1,-1,-1],"split_conditions":[4.87E1,2.04E1,1.271E2,1.06E1,-2.4492937E-16,6.71E1,4.658019E0,-5E-1,-5E-1,2.71E1,5.160658E0,3.604269E0,7.1E1,2.51E1,2.3193102E1,-8.660254E-1,6.5E0,2.4E1,7.6E0,-8.660254E-1,5.6E1,1.2246469E-16,6.123234E-17,-1.6494802E1,5.7E1,2.79E1,9.550833E1,2.2E1,6.7E1,6.3179165E1,2.4574562E1,-1.1883692E1,2.4E1,9.663489E0,5.4E0,2.1E1,-1.7580317E1,2.34E1,2.1766666E1,4.4E1,9.3E0,9.9E1,8.4E0,2.54E1,8.660254E-1,2.37E1,2.21E1,2.9E1,8.082917E1,-8.660254E-1,2.05E1,1.2020128E1,8.082917E1,2.47E1,9.708279E0,-2.5881904E-1,-8.660254E-1,2.93E1,-5.110249E-1,6.3E1,1.45E2,1.0628568E0,4.0780354E-1,-1.4382656E-1,3.1420967E-1,2.3876576E-1,-2.1823719E-1,-3.4725657E-1,-4.103911E-1,-3.5071635E-1,-2.6664668E-1,1.8966597E0,2.994674E-1,-2.4888554E-1,4.251122E-2,-2.0303094E-1,-2.9769585E-1,-1.6673478E-1,2.9405358E-1,9.121829E-1,2.3662293E-1,1.148588E-1,2.7557137E0,6.634085E-1,3.6486974E0,7.958254E-1,3.396035E-1,-2.3482111E-1,1.36771025E-2,4.9124274E-2,-1.0927271E-1,-2.98712E-1,-1.6589928E-2,-2.2818565E-1,-1.0775838E-1,-2.7144837E-1,1.07195534E-1,6.2001616E-1,2.9278533E0,7.9844666E0,1.5037146E0,-1.0329609E-1,8.8928205E-1,1.7003548E0,3.3508337E0,1.6820738E0,2.7497337E0,8.6591876E-1,1.7369219E0,-1.0931416E-1,-4.5518103E-1,2.8125024E-1,7.4515754E-1,1.0500016E-1,2.1689174E0,1.0658585E0,-4.4630003E-1,2.5871716E0,8.052253E-1,3.2157047E0,4.6726427E0],"split_indices":[10,10,10,10,8,10,4,8,8,10,4,4,1,0,4,8,10,1,14,8,1,8,7,4,1,14,15,0,1,15,4,4,1,4,14,0,4,0,15,1,2,14,14,0,8,13,10,1,15,7,0,4,15,0,4,7,7,0,0,1,12,0,0,0,0,0,0,0,0,0,0,0,0,0,0,0,0,0,0,0,0,0,0,0,0,0,0,0,0,0,0,0,0,0,0,0,0,0,0,0,0,0,0,0,0,0,0,0,0,0,0,0,0,0,0,0,0,0,0,0,0],"split_type":[0,0,0,0,0,0,0,0,0,0,0,0,0,0,0,0,0,0,0,0,0,0,0,0,0,0,0,0,0,0,0,0,0,0,0,0,0,0,0,0,0,0,0,0,0,0,0,0,0,0,0,0,0,0,0,0,0,0,0,0,0,0,0,0,0,0,0,0,0,0,0,0,0,0,0,0,0,0,0,0,0,0,0,0,0,0,0,0,0,0,0,0,0,0,0,0,0,0,0,0,0,0,0,0,0,0,0,0,0,0,0,0,0,0,0,0,0,0,0,0,0],"sum_hessian":[1.8569E4,1.7167E4,1.402E3,1.3296E4,3.871E3,1.171E3,2.31E2,7.667E3,5.629E3,3.169E3,7.02E2,5.85E2,5.86E2,4.4E1,1.87E2,6.48E2,7.019E3,1.066E3,4.563E3,1.176E3,1.993E3,5.36E2,1.66E2,2.01E2,3.84E2,3.96E2,1.9E2,2.6E1,1.8E1,1.77E2,1E1,1.32E2,5.16E2,3.485E3,3.534E3,3.2E1,1.034E3,1.669E3,2.894E3,3.12E2,8.64E2,6.32E2,1.361E3,7E1,4.66E2,4.1E1,1.25E2,3.8E1,1.63E2,1.62E2,2.22E2,8.4E1,3.12E2,1.78E2,1.2E1,7E0,1.9E1,1.2E1,6E0,4E1,1.37E2,5E0,5E0,7.4E1,5.8E1,2E1,4.96E2,1.479E3,2.006E3,1.127E3,2.407E3,5E0,2.7E1,1.15E2,9.19E2,7.66E2,9.03E2,2.864E3,3E1,6.6E1,2.46E2,8.62E2,2E0,6.28E2,4E0,1.04E2,1.257E3,5.6E1,1.4E1,2.9E2,1.76E2,3.8E1,3E0,4.8E1,7.7E1,9E0,2.9E1,1.62E2,1E0,5E0,1.57E2,1.5E1,2.07E2,3.5E1,4.9E1,2.69E2,4.3E1,1.18E2,6E1,6E0,6E0,3E0,4E0,1E0,1.8E1,1E1,2E0,2.9E1,1.1E1,9.6E1,4.1E1],"tree_param":{"num_deleted":"0","num_feature":"17","num_nodes":"121","size_leaf_vector":"1"}},{"base_weights":[3.019618E-2,-2.4681711E0,3.102006E1,-4.6085315E0,6.3998685E0,2.1801863E1,4.319669E1,-5.8615584E0,-2.0202E0,7.7153816E0,-9.2573756E-1,2.841294E1,1.6316076E1,5.3702145E1,2.9307022E1,-6.8615265E0,-4.5860157E0,1.4817753E-1,-3.542054E0,3.7393463E0,9.437104E0,-3.6295261E0,-4.1187632E-1,3.5718754E1,1.4455939E1,1.12995E1,2.1166523E1,4.8803066E1,7.9033005E1,4.0947975E1,2.0516336E1,-3.3847916E0,-7.1688294E0,4.2129397E0,-4.776104E0,1.0648115E-2,1.8262007E1,-5.7373962E0,-2.8198786E0,-7.045763E-2,6.550381E0,1.9234337E1,8.380527E0,-2.6651323E-1,-4.727784E0,4.915984E-1,-2.1422708E0,9.761928E1,3.008234E1,1.2354789E1,4.3378273E1,7.222811E0,1.4716478E1,1.6895092E0,2.2902328E1,5.207648E1,3.0187588E1,1.3688751E2,5.68081E1,3.2874584E1,5.276292E1,2.484652E1,1.1445643E1,-3.7881738E-1,-8.745131E-2,-3.3452976E-1,-3.948081E-1,-1.8854912E-1,3.3262417E-1,-2.8916046E-1,-2.0252469E-1,-6.307404E-2,8.981263E-2,1.927706E0,1.3524097E-1,-3.233448E-1,-2.4328525E-1,-9.352174E-2,-1.7321698E-1,-1.7336309E-1,7.762962E-2,3.5061124E-1,-9.984897E-2,7.339064E-1,5.4870067E0,5.6327575E-1,2.3713227E-1,-2.0518778E-1,7.709837E-2,-2.500622E-1,-9.518876E-2,6.2134005E-2,-1.1540576E-1,-1.2511052E-1,1.8274121E-1,6.579066E0,1.05232276E-1,1.438358E0,3.978328E0,3.281952E-1,9.9916476E-1,-3.043723E-3,2.479628E0,1.8913497E-1,6.489032E-1,1.0070566E0,4.9165902E-1,3.3464262E-1,-3.9218864E-1,2.5254938E-1,1.2478461E0,8.624614E-1,2.6754742E0,2.0878165E0,9.6311706E-1,2.373556E0,7.3917155E0,1.3910044E0,3.2163277E0,1.8857468E0,9.6859974E-1,3.141902E0,1.3702301E0,2.1019938E0,1.112457E0,1.0347853E0,1.0555686E-1],"categories":[],"categories_nodes":[],"categories_segments":[],"categories_sizes":[],"default_left":[0,0,0,0,0,0,0,0,0,0,0,0,0,0,0,0,0,0,0,0,0,0,0,0,0,0,0,0,0,0,0,0,0,0,0,0,0,0,0,0,0,0,0,0,0,0,0,0,0,0,0,0,0,0,0,0,0,0,0,0,0,0,0,0,0,0,0,0,0,0,0,0,0,0,0,0,0,0,0,0,0,0,0,0,0,0,0,0,0,0,0,0,0,0,0,0,0,0,0,0,0,0,0,0,0,0,0,0,0,0,0,0,0,0,0,0,0,0,0,0,0,0,0,0,0,0,0],"id":4,"left_children":[1,3,5,7,9,11,13,15,17,19,21,23,25,27,29,31,33,35,37,39,41,43,45,47,49,51,53,55,57,59,61,63,65,67,69,71,73,75,77,79,81,83,85,87,89,91,93,95,97,99,101,103,105,107,109,111,113,115,117,119,121,123,125,-1,-1,-1,-1,-1,-1,-1,-1,-1,-1,-1,-1,-1,-1,-1,-1,-1,-1,-1,-1,-1,-1,-1,-1,-1,-1,-1,-1,-1,-1,-1,-1,-1,-1,-1,-1,-1,-1,-1,-1,-1,-1,-1,-1,-1,-1,-1,-1,-1,-1,-1,-1,-1,-1,-1,-1,-1,-1,-1,-1,-1,-1,-1,-1],"loss_changes":[1.4331959E6,3.2517056E5,1.5407075E5,4.474503E4,3.210775E4,2.811475E4,8.5101125E4,1.1828125E4,1.4860221E4,1.9296781E4,7.0430615E2,3.5784E4,1.0296852E4,3.7964E4,2.5561531E4,5.542172E3,6.859289E3,4.628426E3,4.1788477E3,9.157078E3,2.0231344E4,2.979098E2,6.701745E2,7.835641E4,6.9995723E3,2.8886465E3,7.365328E3,1.57946875E4,6.0371625E4,8.758E3,5.568E3,2.9007192E3,1.6118906E3,1.7195964E3,2.9018281E3,4.1932183E3,4.315353E3,3.8441016E2,1.2129961E3,2.0121818E3,1.9561934E3,7.7150625E4,1.862811E4,1.52059E2,3.758606E1,5.958617E2,3.1587585E2,6.1356625E4,1.17034375E4,5.0374004E3,2.1625674E3,1.9307793E3,2.8748125E3,9.587645E2,7.2460703E3,1.110475E4,4.883289E3,6.6856562E3,6.9282266E3,3.7136797E3,9.2639375E3,3.530418E3,4.2735454E3,0E0,0E0,0E0,0E0,0E0,0E0,0E0,0E0,0E0,0E0,0E0,0E0,0E0,0E0,0E0,0E0,0E0,0E0,0E0,0E0,0E0,0E0,0E0,0E0,0E0,0E0,0E0,0E0,0E0,0E0,0E0,0E0,0E0,0E0,0E0,0E0,0E0,0E0,0E0,0E0,0E0,0E0,0E0,0E0,0E0,0E0,0E0,0E0,0E0,0E0,0E0,0E0,0E0,0E0,0E0,0E0,0E0,0E0,0E0,0E0,0E0,0E0,0E0,0E0],"parents":[2147483647,0,0,1,1,2,2,3,3,4,4,5,5,6,6,7,7,8,8,9,9,10,10,11,11,12,12,13,13,14,14,15,15,16,16,17,17,18,18,19,19,20,20,21,21,22,22,23,23,24,24,25,25,26,26,27,27,28,28,29,29,30,30,31,31,32,32,33,33,34,34,35,35,36,36,37,37,38,38,39,39,40,40,41,41,42,42,43,43,44,44,45,45,46,46,47,47,48,48,49,49,50,50,51,51,52,52,53,53,54,54,55,55,56,56,57,57,58,58,59,59,60,60,61,61,62,62],"right_children":[2,4,6,8,10,12,14,16,18,20,22,24,26,28,30,32,34,36,38,40,42,44,46,48,50,52,54,56,58,60,62,64,66,68,70,72,74,76,78,80,82,84,86,88,90,92,94,96,98,100,102,104,106,108,110,112,114,116,118,120,122,124,126,-1,-1,-1,-1,-1,-1,-1,-1,-1,-1,-1,-1,-1,-1,-1,-1,-1,-1,-1,-1,-1,-1,-1,-1,-1,-1,-1,-1,-1,-1,-1,-1,-1,-1,-1,-1,-1,-1,-1,-1,-1,-1,-1,-1,-1,-1,-1,-1,-1,-1,-1,-1,-1,-1,-1,-1,-1,-1,-1,-1,-1,-1,-1,-1],"split_conditions":[4.87E1,2.21E1,8.24E1,1.25E1,-2.4492937E-16,6E1,6.3E1,0E0,-2.4492937E-16,-1.8369701E-16,1.2246469E-16,-6.0541883E0,5.84E1,1.676E2,-8.660254E-1,-5E-1,-8.660254E-1,2.91E1,0E0,3.9142895E0,9.1E0,9.3E0,8.660254E-1,5.5E1,5.7E1,5E-1,1.6E0,-6.5244164E0,4.98E1,7.89E1,8.3E1,-1.2192568E1,8.660254E-1,2.8E1,8E0,1.79E1,1.57E1,7.3E1,-2.5357096E0,3.7E1,8.6E0,9.8E1,6.6E1,2.54E1,2.5E1,4.7162814E0,9.663489E0,-5E-1,-6.345092E0,9.2E1,-2.4209278E1,8.660254E-1,7.4E1,8.1E1,2.11E1,1.6377901E0,2.64E1,-1.2612079E1,-3.230844E0,8.87E1,8.3E1,-1.8364363E0,7.9E1,-3.7881738E-1,-8.745131E-2,-3.3452976E-1,-3.948081E-1,-1.8854912E-1,3.3262417E-1,-2.8916046E-1,-2.0252469E-1,-6.307404E-2,8.981263E-2,1.927706E0,1.3524097E-1,-3.233448E-1,-2.4328525E-1,-9.352174E-2,-1.7321698E-1,-1.7336309E-1,7.762962E-2,3.5061124E-1,-9.984897E-2,7.339064E-1,5.4870067E0,5.6327575E-1,2.3713227E-1,-2.0518778E-1,7.709837E-2,-2.500622E-1,-9.518876E-2,6.2134005E-2,-1.1540576E-1,-1.2511052E-1,1.8274121E-1,6.579066E0,1.05232276E-1,1.438358E0,3.978328E0,3.281952E-1,9.9916476E-1,-3.043723E-3,2.479628E0,1.8913497E-1,6.489032E-1,1.0070566E0,4.9165902E-1,3.3464262E-1,-3.9218864E-1,2.5254938E-1,1.2478461E0,8.624614E-1,2.6754742E0,2.0878165E0,9.6311706E-1,2.373556E0,7.3917155E0,1.3910044E0,3.2163277E0,1.8857468E0,9.6859974E-1,3.141902E0,1.3702301E0,2.1019938E0,1.112457E0,1.0347853E0,1.0555686E-1],"split_indices":[10,10,10,10,8,1,1,6,8,9,8,5,10,10,8,8,8,11,6,4,14,14,8,12,1,6,11,5,14,14,1,4,8,1,10,10,10,1,4,12,11,1,1,10,13,4,4,8,5,12,4,7,1,1,0,4,0,5,4,13,1,4,12,0,0,0,0,0,0,0,0,0,0,0,0,0,0,0,0,0,0,0,0,0,0,0,0,0,0,0,0,0,0,0,0,0,0,0,0,0,0,0,0,0,0,0,0,0,0,0,0,0,0,0,0,0,0,0,0,0,0,0,0,0,0,0,0],"split_type":[0,0,0,0,0,0,0,0,0,0,0,0,0,0,0,0,0,0,0,0,0,0,0,0,0,0,0,0,0,0,0,0,0,0,0,0,0,0,0,0,0,0,0,0,0,0,0,0,0,0,0,0,0,0,0,0,0,0,0,0,0,0,0,0,0,0,0,0,0,0,0,0,0,0,0,0,0,0,0,0,0,0,0,0,0,0,0,0,0,0,0,0,0,0,0,0,0,0,0,0,0,0,0,0,0,0,0,0,0,0,0,0,0,0,0,0,0,0,0,0,0,0,0,0,0,0,0],"sum_hessian":[1.8509E4,1.7129E4,1.38E3,1.3799E4,3.33E3,7.87E2,5.93E2,9.297E3,4.502E3,2.823E3,5.07E2,3.55E2,4.32E2,3.36E2,2.57E2,5.209E3,4.088E3,1.857E3,2.645E3,8.54E2,1.969E3,8E1,4.27E2,2.32E2,1.23E2,2.14E2,2.18E2,2.84E2,5.2E1,1.09E2,1.48E2,4.24E2,4.785E3,8.6E1,4.002E3,1.844E3,1.3E1,6.53E2,1.992E3,3.63E2,4.91E2,1.9E2,1.779E3,2E1,6E1,2.81E2,1.46E2,1.8E1,2.14E2,1.16E2,7E0,9.9E1,1.15E2,1.8E1,2E2,2.4E2,4.4E1,1.3E1,3.9E1,6.7E1,4.2E1,9.9E1,4.9E1,1.18E2,3.06E2,2.893E3,1.892E3,2E1,6.6E1,1.673E3,2.329E3,1.077E3,7.67E2,5E0,8E0,3.52E2,3.01E2,8.07E2,1.185E3,1.17E2,2.46E2,4.66E2,2.5E1,1.82E2,8E0,9.91E2,7.88E2,6E0,1.4E1,5.4E1,6E0,2.22E2,5.9E1,1.38E2,8E0,1.3E1,5E0,2.1E2,4E0,6.7E1,4.9E1,1E0,6E0,6.3E1,3.6E1,5.3E1,6.2E1,1.2E1,6E0,2.1E1,1.79E2,1E1,2.3E2,2E1,2.4E1,2E0,1.1E1,9E0,3E1,4.8E1,1.9E1,2.9E1,1.3E1,1.1E1,8.8E1,2.4E1,2.5E1],"tree_param":{"num_deleted":"0","num_feature":"17","num_nodes":"127","size_leaf_vector":"1"}},{"base_weights":[4.521766E-2,-2.3217466E0,2.7935753E1,-4.5413346E0,4.767199E0,2.0302355E1,3.9099636E1,-6.530161E-1,-5.112137E0,6.643605E0,-1.6835363E0,2.3906584E1,1.0259926E1,4.6922264E1,2.4361416E1,3.1973767E-1,-4.260754E0,-6.381882E0,-3.8774917E0,9.720395E0,4.3610463E0,3.1111691E-2,-2.4718359E0,3.1771673E1,1.9019909E1,3.064386E0,1.3058997E1,4.9835545E1,2.7307682E1,3.4416584E1,1.8014751E1,4.489751E0,-6.434681E-1,-5.7434072E0,1.3708326E0,-4.2302413E0,-6.834558E0,-5.058177E0,-3.1439314E0,7.3353295E0,1.4293962E1,5.4647837E0,-2.0763192E-2,-5.420886E0,5.395775E-1,-3.2518575E0,-1.279613E0,4.0921223E1,1.4282851E1,4.957319E0,2.1615488E1,5.4244556E0,-2.6349976E0,5.9908705E0,1.670021E1,4.616447E1,7.181608E1,3.8184135E1,1.4962608E1,1.3832586E1,4.1630917E1,4.970249E-1,1.9807194E1,4.3540058E-1,-2.7247066E-2,9.5979995E-1,-4.4285912E-2,-4.6929765E-1,-2.3996496E-1,1.5939127E-1,-3.3868828E-1,-2.862354E-1,-1.1078171E-1,-3.6367688E-1,-3.0293176E-1,-1.4528963E-1,-2.6858965E-1,-1.01341955E-1,-1.8876474E-1,5.6942505E-1,2.5746724E-1,1.3091773E0,6.361076E-1,2.6199904E-1,1.8734893E0,-9.662852E-2,1.06094934E-1,-3.4469718E-1,-1.4596818E-1,8.590385E-2,-9.249838E-2,-2.9755077E-1,-1.3701992E-1,1.22397594E-1,-9.561035E-2,1.7408203E0,6.4200683E0,3.4470224E-1,9.785334E-1,4.9530315E-1,-2.7059433E-1,3.2603898E0,1.044475E0,5.9991163E-1,1.8841708E-1,4.167045E-1,-2.158395E-1,6.282851E-1,1.4791204E-1,9.4069284E-1,-9.764569E-2,2.3496172E0,3.049895E-1,5.119082E0,2.6050863E0,-2.62647E-1,2.093461E0,7.932472E-3,1.0204175E0,-1.8388054E-1,1.1124593E0,1.5745806E0,2.7845547E0,9.086609E-1,-2.1844696E-1,1.0649443E0,8.5810676E-2],"categories":[],"categories_nodes":[],"categories_segments":[],"categories_sizes":[],"default_left":[0,0,0,0,0,0,0,0,0,0,0,0,0,0,0,0,0,0,0,0,0,0,0,0,0,0,0,0,0,0,0,0,0,0,0,0,0,0,0,0,0,0,0,0,0,0,0,0,0,0,0,0,0,0,0,0,0,0,0,0,0,0,0,0,0,0,0,0,0,0,0,0,0,0,0,0,0,0,0,0,0,0,0,0,0,0,0,0,0,0,0,0,0,0,0,0,0,0,0,0,0,0,0,0,0,0,0,0,0,0,0,0,0,0,0,0,0,0,0,0,0,0,0,0,0,0,0],"id":5,"left_children":[1,3,5,7,9,11,13,15,17,19,21,23,25,27,29,31,33,35,37,39,41,43,45,47,49,51,53,55,57,59,61,63,65,67,69,71,73,75,77,79,81,83,85,87,89,91,93,95,97,99,101,103,105,107,109,111,113,115,117,119,121,123,125,-1,-1,-1,-1,-1,-1,-1,-1,-1,-1,-1,-1,-1,-1,-1,-1,-1,-1,-1,-1,-1,-1,-1,-1,-1,-1,-1,-1,-1,-1,-1,-1,-1,-1,-1,-1,-1,-1,-1,-1,-1,-1,-1,-1,-1,-1,-1,-1,-1,-1,-1,-1,-1,-1,-1,-1,-1,-1,-1,-1,-1,-1,-1,-1],"loss_changes":[1.2304031E6,2.7034103E5,1.23454625E5,2.9036062E4,4.960208E4,3.1172188E4,6.699425E4,5.883185E3,1.7861E4,2.2248469E4,1.2490073E3,2.3916688E4,4.6125117E3,2.0639062E4,1.2590055E4,5.3087925E3,2.9803633E3,5.4478594E3,4.996242E3,1.4632203E4,8.821648E3,8.1239404E2,5.8450366E2,3.8299125E4,1.43470625E4,9.020556E2,4.1722207E3,2.363575E4,6.410742E3,1.1155633E4,4.0406875E3,5.2716797E3,5.178768E3,9.2474023E2,1.1314943E3,2.9378633E3,1.53775E3,1.4802383E3,2.5116484E3,7.82691E3,8.30082E3,1.0286512E4,1.5115596E3,7.1996155E1,7.578872E2,5.110464E2,5.9890576E2,8.044356E4,3.186086E3,3.2864272E3,9.208141E3,4.6647205E2,4.049311E2,1.1192915E3,4.3341875E3,9.2990625E3,2.2384422E4,4.5418047E3,2.0928438E3,3.3241025E3,6.5146953E3,1.19755E3,3.1208281E3,0E0,0E0,0E0,0E0,0E0,0E0,0E0,0E0,0E0,0E0,0E0,0E0,0E0,0E0,0E0,0E0,0E0,0E0,0E0,0E0,0E0,0E0,0E0,0E0,0E0,0E0,0E0,0E0,0E0,0E0,0E0,0E0,0E0,0E0,0E0,0E0,0E0,0E0,0E0,0E0,0E0,0E0,0E0,0E0,0E0,0E0,0E0,0E0,0E0,0E0,0E0,0E0,0E0,0E0,0E0,0E0,0E0,0E0,0E0,0E0,0E0,0E0,0E0,0E0],"parents":[2147483647,0,0,1,1,2,2,3,3,4,4,5,5,6,6,7,7,8,8,9,9,10,10,11,11,12,12,13,13,14,14,15,15,16,16,17,17,18,18,19,19,20,20,21,21,22,22,23,23,24,24,25,25,26,26,27,27,28,28,29,29,30,30,31,31,32,32,33,33,34,34,35,35,36,36,37,37,38,38,39,39,40,40,41,41,42,42,43,43,44,44,45,45,46,46,47,47,48,48,49,49,50,50,51,51,52,52,53,53,54,54,55,55,56,56,57,57,58,58,59,59,60,60,61,61,62,62],"right_children":[2,4,6,8,10,12,14,16,18,20,22,24,26,28,30,32,34,36,38,40,42,44,46,48,50,52,54,56,58,60,62,64,66,68,70,72,74,76,78,80,82,84,86,88,90,92,94,96,98,100,102,104,106,108,110,112,114,116,118,120,122,124,126,-1,-1,-1,-1,-1,-1,-1,-1,-1,-1,-1,-1,-1,-1,-1,-1,-1,-1,-1,-1,-1,-1,-1,-1,-1,-1,-1,-1,-1,-1,-1,-1,-1,-1,-1,-1,-1,-1,-1,-1,-1,-1,-1,-1,-1,-1,-1,-1,-1,-1,-1,-1,-1,-1,-1,-1,-1,-1,-1,-1,-1,-1,-1,-1],"split_conditions":[3.32E1,1.4E1,5.74E1,-5E-1,-2.4492937E-16,7.4E1,6.7E1,7.6873226E0,0E0,6.2E1,-5.7553363E0,2.73E1,2.11E1,-5.662214E0,-8.660254E-1,-8.660254E-1,2.29E1,-2.4492937E-16,7.2E0,2.37E1,1E-1,5.8E0,1.79E1,-6.151829E0,-1.8369701E-16,2.4930243E0,9.608E2,1.176E2,2.64E1,2.1791544E0,2.3E0,9.668E2,2.4E1,-2.1894838E1,9.721E2,7.8E0,6.1E0,1.2246469E-16,-1.4333142E0,-8.660254E-1,9.58E2,9.8E1,5E-1,5E0,8.660254E-1,0E0,1.82E1,9.5E0,-5.362307E0,-6.54846E0,-2.0686226E1,-1.8369701E-16,7.6E1,-8.660254E-1,4.153481E0,1E-1,6.19E1,3E0,1.3E2,6.5E1,7.89E1,-1.4109981E1,9.6E1,4.3540058E-1,-2.7247066E-2,9.5979995E-1,-4.4285912E-2,-4.6929765E-1,-2.3996496E-1,1.5939127E-1,-3.3868828E-1,-2.862354E-1,-1.1078171E-1,-3.6367688E-1,-3.0293176E-1,-1.4528963E-1,-2.6858965E-1,-1.01341955E-1,-1.8876474E-1,5.6942505E-1,2.5746724E-1,1.3091773E0,6.361076E-1,2.6199904E-1,1.8734893E0,-9.662852E-2,1.06094934E-1,-3.4469718E-1,-1.4596818E-1,8.590385E-2,-9.249838E-2,-2.9755077E-1,-1.3701992E-1,1.22397594E-1,-9.561035E-2,1.7408203E0,6.4200683E0,3.4470224E-1,9.785334E-1,4.9530315E-1,-2.7059433E-1,3.2603898E0,1.044475E0,5.9991163E-1,1.8841708E-1,4.167045E-1,-2.158395E-1,6.282851E-1,1.4791204E-1,9.4069284E-1,-9.764569E-2,2.3496172E0,3.049895E-1,5.119082E0,2.6050863E0,-2.62647E-1,2.093461E0,7.932472E-3,1.0204175E0,-1.8388054E-1,1.1124593E0,1.5745806E0,2.7845547E0,9.086609E-1,-2.1844696E-1,1.0649443E0,8.5810676E-2],"split_indices":[13,13,13,8,8,1,1,5,6,1,4,14,0,5,8,8,14,8,13,13,2,14,13,5,9,4,3,13,0,4,11,3,1,4,3,14,13,6,4,8,3,1,6,14,8,6,0,11,4,5,5,9,1,8,5,2,14,11,12,12,14,5,1,0,0,0,0,0,0,0,0,0,0,0,0,0,0,0,0,0,0,0,0,0,0,0,0,0,0,0,0,0,0,0,0,0,0,0,0,0,0,0,0,0,0,0,0,0,0,0,0,0,0,0,0,0,0,0,0,0,0,0,0,0,0,0,0],"split_type":[0,0,0,0,0,0,0,0,0,0,0,0,0,0,0,0,0,0,0,0,0,0,0,0,0,0,0,0,0,0,0,0,0,0,0,0,0,0,0,0,0,0,0,0,0,0,0,0,0,0,0,0,0,0,0,0,0,0,0,0,0,0,0,0,0,0,0,0,0,0,0,0,0,0,0,0,0,0,0,0,0,0,0,0,0,0,0,0,0,0,0,0,0,0,0,0,0,0,0,0,0,0,0,0,0,0,0,0,0,0,0,0,0,0,0,0,0,0,0,0,0,0,0,0,0,0,0],"sum_hessian":[1.8636E4,1.7179E4,1.457E3,1.3083E4,4.096E3,8.67E2,5.9E2,1.675E3,1.1408E4,3.173E3,9.23E2,6.37E2,2.3E2,3.84E2,2.06E2,1.32E3,3.55E2,5.622E3,5.786E3,1.35E3,1.823E3,2.91E2,6.32E2,2.42E2,3.95E2,6.5E1,1.65E2,3.33E2,5.1E1,7.8E1,1.28E2,2.47E2,1.073E3,2.81E2,7.4E1,9.79E2,4.643E3,2.215E3,3.571E3,8.89E2,4.61E2,1.456E3,3.67E2,2.4E1,2.67E2,3.81E2,2.51E2,1.58E2,8.4E1,6.2E1,3.33E2,4.6E1,1.9E1,5.7E1,1.08E2,2.88E2,4.5E1,2.6E1,2.5E1,2.1E1,5.7E1,1.2E1,1.16E2,1.34E2,1.13E2,1.2E1,1.061E3,5.6E1,2.25E2,6.1E1,1.3E1,5.61E2,4.18E2,2.96E3,1.683E3,2.83E2,1.932E3,1.291E3,2.28E3,3.1E2,5.79E2,5.2E1,4.09E2,1.447E3,9E0,1.94E2,1.73E2,1.4E1,1E1,1.79E2,8.8E1,5.9E1,3.22E2,3.6E1,2.15E2,1.49E2,9E0,3.6E1,4.8E1,4.2E1,2E1,4E0,3.29E2,8E0,3.8E1,2E0,1.7E1,1.7E1,4E1,9.7E1,1.1E1,2.82E2,6E0,1.6E1,2.9E1,2E0,2.4E1,7E0,1.8E1,7E0,1.4E1,3.5E1,2.2E1,2E0,1E1,1.07E2,9E0],"tree_param":{"num_deleted":"0","num_feature":"17","num_nodes":"127","size_leaf_vector":"1"}},{"base_weights":[-3.5022438E-2,-2.0977433E0,2.8560078E1,-4.1960506E0,5.791403E0,2.0463491E1,3.751836E1,-5.3244495E0,-1.9472849E0,6.9742866E0,-1.003327E0,1.1626739E1,2.4091616E1,3.244253E1,4.8724678E1,-6.228519E0,-4.163959E0,9.875311E-1,-2.851632E0,4.800114E0,9.906081E0,-2.3448994E0,5.0279684E-3,1.3485338E1,2.5930882E0,2.2110079E1,4.918158E1,4.476118E1,2.8066622E1,1.3230045E1,5.0505035E1,-3.1918106E0,-6.4918404E0,4.1526895E0,-4.3475075E0,7.6951396E-1,2.0127083E1,-4.0176497E0,-2.2764273E0,1.6323837E0,6.4109898E0,8.353985E0,1.5138508E1,1.0741814E0,-2.7299867E0,-3.6497147E0,5.980427E-1,5.784444E0,1.545633E1,-1.2486538E0,9.740336E0,1.8136694E1,2.9331522E1,1.4819716E2,2.620747E1,3.7332977E1,5.983687E1,2.1793718E1,3.4932854E1,7.2183523E0,1.683382E0,5.3268593E1,2.5447525E1,-7.5372994E-2,-2.878026E-1,-3.520781E-1,-2.928457E-1,1.2514769E-1,6.6120285E-1,-2.6029536E-1,-1.7933656E-1,7.51327E-2,-1.632614E-1,1.7241385E0,1.2134791E-3,-2.688275E-1,-1.4752436E-1,-1.19814515E-1,2.4038826E-1,-4.6724092E-2,2.3005448E-1,7.849671E-1,2.7166077E-1,3.303437E-1,5.5422705E-1,7.283898E-1,2.283434E0,2.4239372E-1,-5.578285E-2,-3.358504E-2,-1.782767E-1,7.766138E-2,-2.1875934E-1,-9.086249E-3,1.0581384E-1,-2.9143175E-1,3.763571E-1,9.5701236E-1,3.676053E-1,-2.3547883E-1,1.4775209E-1,-7.7638745E-2,6.838619E-1,9.708497E-1,7.1085356E-2,2.3755023E0,1.0945542E0,1.0502772E1,8.1602067E-1,9.1929305E-1,2.59112E0,2.2652001E0,1.1452202E0,4.711923E0,1.9176253E0,7.2212446E-1,1.6804075E0,1.9312048E0,9.8708457E-1,4.5198724E-1,2.8116036E-2,2.7027724E0,-2.1774708E-1,6.838928E-1,2.7833514E0],"categories":[],"categories_nodes":[],"categories_segments":[],"categories_sizes":[],"default_left":[0,0,0,0,0,0,0,0,0,0,0,0,0,0,0,0,0,0,0,0,0,0,0,0,0,0,0,0,0,0,0,0,0,0,0,0,0,0,0,0,0,0,0,0,0,0,0,0,0,0,0,0,0,0,0,0,0,0,0,0,0,0,0,0,0,0,0,0,0,0,0,0,0,0,0,0,0,0,0,0,0,0,0,0,0,0,0,0,0,0,0,0,0,0,0,0,0,0,0,0,0,0,0,0,0,0,0,0,0,0,0,0,0,0,0,0,0,0,0,0,0,0,0,0,0],"id":6,"left_children":[1,3,5,7,9,11,13,15,17,19,21,23,25,27,29,31,33,35,37,39,41,43,45,47,49,51,53,55,57,59,61,63,65,67,69,71,73,75,77,79,81,83,85,87,89,91,93,95,97,99,101,103,105,107,109,111,113,115,117,119,-1,121,123,-1,-1,-1,-1,-1,-1,-1,-1,-1,-1,-1,-1,-1,-1,-1,-1,-1,-1,-1,-1,-1,-1,-1,-1,-1,-1,-1,-1,-1,-1,-1,-1,-1,-1,-1,-1,-1,-1,-1,-1,-1,-1,-1,-1,-1,-1,-1,-1,-1,-1,-1,-1,-1,-1,-1,-1,-1,-1,-1,-1,-1,-1],"loss_changes":[1.0861859E6,2.8435325E5,8.909894E4,3.4418484E4,2.9013883E4,2.0655594E4,3.18085E4,9.452203E3,1.2039125E4,1.9546828E4,7.251026E2,3.1886992E3,2.1881688E4,2.0683188E4,1.0769781E4,4.0382031E3,6.0615156E3,4.4451826E3,2.316168E3,9.006215E3,1.0496086E4,3.0576062E2,6.6754877E2,2.323959E3,9.457302E2,1.1806266E4,7.118435E4,9.5245625E3,1.2289266E4,9.8562036E2,1.0555094E4,1.749189E3,1.5887344E3,1.2539215E3,2.5112422E3,3.1345027E3,3.4622388E3,1.643127E3,1.9849062E3,4.5535996E3,1.0549617E4,4.749828E3,4.527047E3,2.0373923E2,3.5360266E2,1.6910297E2,3.141101E2,7.3196826E2,3.621045E3,3.485363E2,5.54756E2,5.964453E3,1.9383633E4,4.551783E4,4.657E3,7.3580938E3,2.0775906E4,1.34975625E4,7.2561094E3,1.0402594E2,0E0,7.2179688E3,5.9963926E3,0E0,0E0,0E0,0E0,0E0,0E0,0E0,0E0,0E0,0E0,0E0,0E0,0E0,0E0,0E0,0E0,0E0,0E0,0E0,0E0,0E0,0E0,0E0,0E0,0E0,0E0,0E0,0E0,0E0,0E0,0E0,0E0,0E0,0E0,0E0,0E0,0E0,0E0,0E0,0E0,0E0,0E0,0E0,0E0,0E0,0E0,0E0,0E0,0E0,0E0,0E0,0E0,0E0,0E0,0E0,0E0,0E0,0E0,0E0,0E0,0E0,0E0],"parents":[2147483647,0,0,1,1,2,2,3,3,4,4,5,5,6,6,7,7,8,8,9,9,10,10,11,11,12,12,13,13,14,14,15,15,16,16,17,17,18,18,19,19,20,20,21,21,22,22,23,23,24,24,25,25,26,26,27,27,28,28,29,29,30,30,31,31,32,32,33,33,34,34,35,35,36,36,37,37,38,38,39,39,40,40,41,41,42,42,43,43,44,44,45,45,46,46,47,47,48,48,49,49,50,50,51,51,52,52,53,53,54,54,55,55,56,56,57,57,58,58,59,59,61,61,62,62],"right_children":[2,4,6,8,10,12,14,16,18,20,22,24,26,28,30,32,34,36,38,40,42,44,46,48,50,52,54,56,58,60,62,64,66,68,70,72,74,76,78,80,82,84,86,88,90,92,94,96,98,100,102,104,106,108,110,112,114,116,118,120,-1,122,124,-1,-1,-1,-1,-1,-1,-1,-1,-1,-1,-1,-1,-1,-1,-1,-1,-1,-1,-1,-1,-1,-1,-1,-1,-1,-1,-1,-1,-1,-1,-1,-1,-1,-1,-1,-1,-1,-1,-1,-1,-1,-1,-1,-1,-1,-1,-1,-1,-1,-1,-1,-1,-1,-1,-1,-1,-1,-1,-1,-1,-1,-1],"split_conditions":[5.22E1,2.16E1,8.24E1,1.23E1,-2.4492937E-16,2.41E1,8.082917E1,0E0,-5E-1,3.32E1,2.5881904E-1,4.153481E0,9.9E0,3.63E1,-1.5767553E1,-5E-1,-8.660254E-1,2.91E1,7.6E0,-1.8369701E-16,2.88E1,1.7E1,1.2246469E-16,4.4E1,2.24E1,6.71E1,-8.660254E-1,1.25E2,5E-1,3.46E1,-2.9529543E0,6.5244164E0,7.0916667E0,2.17E1,-2.5881904E-1,8.241378E0,-3.6154988E0,0E0,2.1766666E1,2.24E1,8.6E0,2.4816668E1,6.19E1,1.1820833E1,1.0358334E1,7.9E0,1.89E1,-1.0430428E1,7.5E1,1E-1,5.1E1,1E-1,3.79625E1,-6.151829E0,1.94E1,2.73E1,2.77E1,6.68E1,-5.662214E0,1.425E2,1.683382E0,1E-1,9.9E1,-7.5372994E-2,-2.878026E-1,-3.520781E-1,-2.928457E-1,1.2514769E-1,6.6120285E-1,-2.6029536E-1,-1.7933656E-1,7.51327E-2,-1.632614E-1,1.7241385E0,1.2134791E-3,-2.688275E-1,-1.4752436E-1,-1.19814515E-1,2.4038826E-1,-4.6724092E-2,2.3005448E-1,7.849671E-1,2.7166077E-1,3.303437E-1,5.5422705E-1,7.283898E-1,2.283434E0,2.4239372E-1,-5.578285E-2,-3.358504E-2,-1.782767E-1,7.766138E-2,-2.1875934E-1,-9.086249E-3,1.0581384E-1,-2.9143175E-1,3.763571E-1,9.5701236E-1,3.676053E-1,-2.3547883E-1,1.4775209E-1,-7.7638745E-2,6.838619E-1,9.708497E-1,7.1085356E-2,2.3755023E0,1.0945542E0,1.0502772E1,8.1602067E-1,9.1929305E-1,2.59112E0,2.2652001E0,1.1452202E0,4.711923E0,1.9176253E0,7.2212446E-1,1.6804075E0,1.9312048E0,9.8708457E-1,4.5198724E-1,2.8116036E-2,2.7027724E0,-2.1774708E-1,6.838928E-1,2.7833514E0],"split_indices":[10,10,10,10,8,0,15,6,8,10,7,5,11,14,5,8,8,11,14,9,0,0,8,12,0,10,7,12,7,0,5,5,15,0,7,5,5,6,15,0,14,15,14,15,15,14,13,5,12,2,12,2,15,5,11,14,0,14,5,10,0,2,14,0,0,0,0,0,0,0,0,0,0,0,0,0,0,0,0,0,0,0,0,0,0,0,0,0,0,0,0,0,0,0,0,0,0,0,0,0,0,0,0,0,0,0,0,0,0,0,0,0,0,0,0,0,0,0,0,0,0,0,0,0,0],"split_type":[0,0,0,0,0,0,0,0,0,0,0,0,0,0,0,0,0,0,0,0,0,0,0,0,0,0,0,0,0,0,0,0,0,0,0,0,0,0,0,0,0,0,0,0,0,0,0,0,0,0,0,0,0,0,0,0,0,0,0,0,0,0,0,0,0,0,0,0,0,0,0,0,0,0,0,0,0,0,0,0,0,0,0,0,0,0,0,0,0,0,0,0,0,0,0,0,0,0,0,0,0,0,0,0,0,0,0,0,0,0,0,0,0,0,0,0,0,0,0,0,0,0,0,0,0],"sum_hessian":[1.8413E4,1.7175E4,1.238E3,1.3567E4,3.608E3,6.52E2,5.86E2,9.033E3,4.534E3,3.073E3,5.35E2,1.91E2,4.61E2,4.06E2,1.8E2,5.075E3,3.958E3,1.068E3,3.466E3,1.766E3,1.307E3,2.29E2,3.06E2,1.58E2,3.3E1,4.29E2,3.2E1,1.04E2,3.02E2,9E0,1.71E2,4.06E2,4.669E3,8.5E1,3.873E3,1.057E3,1.1E1,1.143E3,2.323E3,5.96E2,1.17E3,1.01E3,2.97E2,2.3E1,2.06E2,4.2E1,2.64E2,3.3E1,1.25E2,2.2E1,1.1E1,2.79E2,1.5E2,5E0,2.7E1,7.2E1,3.2E1,1.6E2,1.42E2,8E0,1E0,1.53E2,1.8E1,2.46E2,1.6E2,2.497E3,2.172E3,7.3E1,1.2E1,1.817E3,2.056E3,8.95E2,1.62E2,6E0,5E0,5.01E2,6.42E2,2.285E3,3.8E1,3.2E2,2.76E2,1.1E2,1.06E3,6.18E2,3.92E2,2.93E2,4E0,8E0,1.5E1,6E1,1.46E2,5E0,3.7E1,1.75E2,8.9E1,4E0,2.9E1,8.5E1,4E1,1.2E1,1E1,3E0,8E0,2.59E2,2E1,4.2E1,1.08E2,3E0,2E0,2.2E1,5E0,4.5E1,2.7E1,1.1E1,2.1E1,1E2,6E1,1.13E2,2.9E1,6E0,2E0,1.51E2,2E0,1.4E1,4E0],"tree_param":{"num_deleted":"0","num_feature":"17","num_nodes":"125","size_leaf_vector":"1"}},{"base_weights":[8.037532E-3,-1.9967726E0,2.8271442E1,-4.1338E0,4.807054E0,2.4218449E1,4.6410404E1,-5.3032107E0,-2.5083966E0,1.5792398E0,7.5718007E0,2.8599651E1,1.4575253E1,1.5206332E1,5.1750023E1,-6.150647E0,-4.438736E0,-3.1237695E0,-6.227903E-1,6.9732385E0,7.093378E-1,1.1654943E1,5.305701E0,2.1264572E1,3.3833004E1,1.5894943E1,-5.750913E0,-2.0882344E0,2.741694E1,4.4121265E1,6.835132E1,-6.778685E0,-5.6157365E0,-4.579289E0,2.141911E0,-3.8165932E0,-2.1660745E0,-7.057595E-1,1.8529627E0,5.6298647E0,3.7481155E1,2.379888E0,-6.492256E-1,9.287234E0,2.02912E1,1.331105E1,4.6042457E0,3.2658123E1,1.5974182E1,5.176273E1,3.0146063E1,2.4458199E0,1.7740623E1,7.692957E-2,-1.288238E1,-6.003049E-1,5.857685E0,-3.1594043E0,3.525849E1,4.66031E1,8.934366E0,9.583078E1,5.136658E1,-3.5290933E-1,-2.6747823E-1,-3.1417224E-1,-2.646966E-1,-1.6364034E-1,-2.5154826E-1,6.7680216E-1,-9.40867E-2,-2.3342061E-1,-1.5437755E-1,-1.1953252E-1,1.4702159E-1,1.0306406E-1,-6.307418E-2,-1.3032447E-1,3.6330858E-1,-1.7194681E-1,2.095853E0,1.2301267E0,1.1126327E-1,-5.5353303E-2,7.655374E-2,1.0393546E0,4.1580805E-1,1.3048767E0,3.8380945E-1,3.177656E0,1.6662966E-1,3.0904412E-1,1.9938653E-2,3.7449002E0,1.2956958E0,4.5306292E-1,1.0253644E0,1.7059969E0,3.445311E0,2.2111173E0,1.3264005E0,3.7471214E-1,-2.3243128E-1,4.177745E-1,1.0131805E0,1.1255874E-1,-1.2362557E-1,-6.948679E-1,-1.1906376E-1,1.0376946E-1,4.2342225E-1,-4.891781E-1,5.834306E-1,6.4555806E-1,1.8764371E0,1.6185719E0,2.8215961E0,1.6316567E-1,6.976378E-1,6.2495027E0,3.1772745E0,1.0517972E0,3.0027082E0],"categories":[],"categories_nodes":[],"categories_segments":[],"categories_sizes":[],"default_left":[0,0,0,0,0,0,0,0,0,0,0,0,0,0,0,0,0,0,0,0,0,0,0,0,0,0,0,0,0,0,0,0,0,0,0,0,0,0,0,0,0,0,0,0,0,0,0,0,0,0,0,0,0,0,0,0,0,0,0,0,0,0,0,0,0,0,0,0,0,0,0,0,0,0,0,0,0,0,0,0,0,0,0,0,0,0,0,0,0,0,0,0,0,0,0,0,0,0,0,0,0,0,0,0,0,0,0,0,0,0,0,0,0,0,0,0,0,0,0,0,0,0,0],"id":7,"left_children":[1,3,5,7,9,11,13,15,17,19,21,23,25,27,29,31,33,35,37,39,41,43,45,47,49,51,53,55,57,59,61,63,65,67,69,71,73,75,-1,77,79,81,83,85,87,89,91,93,95,97,99,101,103,105,107,-1,109,111,113,115,117,119,121,-1,-1,-1,-1,-1,-1,-1,-1,-1,-1,-1,-1,-1,-1,-1,-1,-1,-1,-1,-1,-1,-1,-1,-1,-1,-1,-1,-1,-1,-1,-1,-1,-1,-1,-1,-1,-1,-1,-1,-1,-1,-1,-1,-1,-1,-1,-1,-1,-1,-1,-1,-1,-1,-1,-1,-1,-1,-1,-1,-1],"loss_changes":[1.0496772E6,2.5153216E5,8.908156E4,2.5008375E4,3.688915E4,4.204325E4,3.6368906E4,5.5806406E3,6.39159E3,8.95256E3,2.0544172E4,2.5767562E4,8.567875E3,7.2372783E3,2.104725E4,1.2596875E3,3.5180625E3,2.7479688E3,4.2687495E3,1.0649627E4,3.7349521E3,1.6047391E4,7.9911836E3,1.6958453E4,2.4948E4,7.3289766E3,8.3221234E2,1.2524261E3,4.906715E3,1.1198266E4,2.2147906E4,6.700547E2,4.162422E2,2.1751953E3,3.6931465E3,1.4816055E3,2.0093389E3,2.0861987E3,0E0,3.455625E3,2.1408438E3,2.4811147E3,9.0808765E2,6.806629E3,1.2251648E4,5.744211E4,8.749801E3,2.3982688E4,6.081582E3,1.7913672E4,1.5888E4,1.360021E3,6.010789E3,7.2083374E1,6.2832153E1,0E0,7.129666E1,6.052761E2,3.2720312E2,1.5518375E4,2.390633E2,1.1827156E4,8.749695E3,0E0,0E0,0E0,0E0,0E0,0E0,0E0,0E0,0E0,0E0,0E0,0E0,0E0,0E0,0E0,0E0,0E0,0E0,0E0,0E0,0E0,0E0,0E0,0E0,0E0,0E0,0E0,0E0,0E0,0E0,0E0,0E0,0E0,0E0,0E0,0E0,0E0,0E0,0E0,0E0,0E0,0E0,0E0,0E0,0E0,0E0,0E0,0E0,0E0,0E0,0E0,0E0,0E0,0E0,0E0,0E0,0E0,0E0,0E0,0E0],"parents":[2147483647,0,0,1,1,2,2,3,3,4,4,5,5,6,6,7,7,8,8,9,9,10,10,11,11,12,12,13,13,14,14,15,15,16,16,17,17,18,18,19,19,20,20,21,21,22,22,23,23,24,24,25,25,26,26,27,27,28,28,29,29,30,30,31,31,32,32,33,33,34,34,35,35,36,36,37,37,39,39,40,40,41,41,42,42,43,43,44,44,45,45,46,46,47,47,48,48,49,49,50,50,51,51,52,52,53,53,54,54,56,56,57,57,58,58,59,59,60,60,61,61,62,62],"right_children":[2,4,6,8,10,12,14,16,18,20,22,24,26,28,30,32,34,36,38,40,42,44,46,48,50,52,54,56,58,60,62,64,66,68,70,72,74,76,-1,78,80,82,84,86,88,90,92,94,96,98,100,102,104,106,108,-1,110,112,114,116,118,120,122,-1,-1,-1,-1,-1,-1,-1,-1,-1,-1,-1,-1,-1,-1,-1,-1,-1,-1,-1,-1,-1,-1,-1,-1,-1,-1,-1,-1,-1,-1,-1,-1,-1,-1,-1,-1,-1,-1,-1,-1,-1,-1,-1,-1,-1,-1,-1,-1,-1,-1,-1,-1,-1,-1,-1,-1,-1,-1,-1,-1],"split_conditions":[5.22E1,1.99E1,1.271E2,1.06E1,2.75E1,7.1E1,2.4930243E0,-2.5881904E-1,1.3E1,4.7E1,5.9E1,6.71E1,3.0657518E1,6.123234E-17,1.676E2,6.454167E0,1.4808333E1,1.43E1,8.082917E1,6.68E1,7.5E1,9.027879E0,8.4E0,3.1658333E1,9.635408E0,2.11E1,-8.9070785E-1,4.2E0,-5E-1,2.3193102E1,1.0086537E1,7.2E0,-1.8369701E-16,-3.6320205E0,5.3E1,2.5881904E-1,2.43E1,5.1E1,1.8529627E0,1.2795834E1,1.9E1,9.9822307E-1,1.9341667E1,3E1,4.00125E1,2.3E0,8.4E1,-8.660254E-1,8.3031645E0,1.2981133E1,2.54E1,-1.4333142E0,8.000941E0,5.74E1,2.59E1,-6.003049E-1,-2.5881904E-1,2.64E1,-1.3738618E1,7.29E1,6.123234E-17,4.68E1,-7.0710677E-1,-3.5290933E-1,-2.6747823E-1,-3.1417224E-1,-2.646966E-1,-1.6364034E-1,-2.5154826E-1,6.7680216E-1,-9.40867E-2,-2.3342061E-1,-1.5437755E-1,-1.1953252E-1,1.4702159E-1,1.0306406E-1,-6.307418E-2,-1.3032447E-1,3.6330858E-1,-1.7194681E-1,2.095853E0,1.2301267E0,1.1126327E-1,-5.5353303E-2,7.655374E-2,1.0393546E0,4.1580805E-1,1.3048767E0,3.8380945E-1,3.177656E0,1.6662966E-1,3.0904412E-1,1.9938653E-2,3.7449002E0,1.2956958E0,4.5306292E-1,1.0253644E0,1.7059969E0,3.445311E0,2.2111173E0,1.3264005E0,3.7471214E-1,-2.3243128E-1,4.177745E-1,1.0131805E0,1.1255874E-1,-1.2362557E-1,-6.948679E-1,-1.1906376E-1,1.0376946E-1,4.2342225E-1,-4.891781E-1,5.834306E-1,6.4555806E-1,1.8764371E0,1.6185719E0,2.8215961E0,1.6316567E-1,6.976378E-1,6.2495027E0,3.1772745E0,1.0517972E0,3.0027082E0],"split_indices":[10,10,10,10,10,1,4,6,14,1,1,10,16,7,10,15,15,10,15,14,1,16,14,15,16,0,4,11,6,4,4,10,9,4,1,6,11,1,0,15,1,16,15,1,15,11,1,7,16,4,14,4,16,13,0,0,7,0,4,14,7,14,7,0,0,0,0,0,0,0,0,0,0,0,0,0,0,0,0,0,0,0,0,0,0,0,0,0,0,0,0,0,0,0,0,0,0,0,0,0,0,0,0,0,0,0,0,0,0,0,0,0,0,0,0,0,0,0,0,0,0,0,0],"split_type":[0,0,0,0,0,0,0,0,0,0,0,0,0,0,0,0,0,0,0,0,0,0,0,0,0,0,0,0,0,0,0,0,0,0,0,0,0,0,0,0,0,0,0,0,0,0,0,0,0,0,0,0,0,0,0,0,0,0,0,0,0,0,0,0,0,0,0,0,0,0,0,0,0,0,0,0,0,0,0,0,0,0,0,0,0,0,0,0,0,0,0,0,0,0,0,0,0,0,0,0,0,0,0,0,0,0,0,0,0,0,0,0,0,0,0,0,0,0,0,0,0,0,0],"sum_hessian":[1.8523E4,1.7297E4,1.226E3,1.3163E4,4.134E3,1.004E3,2.22E2,7.654E3,5.509E3,1.908E3,2.226E3,6.89E2,3.15E2,3.3E1,1.89E2,3.862E3,3.792E3,4.153E3,1.356E3,2.64E2,1.644E3,7.93E2,1.433E3,2.89E2,4E2,2.96E2,1.9E1,1.4E1,1.9E1,1.32E2,5.7E1,1.771E3,2.091E3,3.713E3,7.9E1,2.408E3,1.745E3,1.354E3,2E0,2.54E2,1E1,7.37E2,9.07E2,6.24E2,1.69E2,1.14E2,1.319E3,9E1,1.99E2,6.6E1,3.34E2,3.6E1,2.6E2,1.1E1,8E0,6E0,8E0,4E0,1.5E1,1.23E2,9E0,2E1,3.7E1,1.478E3,2.93E2,6.74E2,1.417E3,9.56E2,2.757E3,2E1,5.9E1,1.108E3,1.3E3,1.672E3,7.3E1,2.26E2,1.128E3,4.2E1,2.12E2,1E0,9E0,4E0,7.33E2,7.5E2,1.57E2,4.7E1,5.77E2,1.15E2,5.4E1,1.8E1,9.6E1,9.59E2,3.6E2,1.1E1,7.9E1,8E1,1.19E2,3.4E1,3.2E1,6.6E1,2.68E2,2.1E1,1.5E1,5.6E1,2.04E2,6E0,5E0,7E0,1E0,4E0,4E0,3E0,1E0,2E0,1.3E1,5.2E1,7.1E1,5E0,4E0,9E0,1.1E1,9E0,2.8E1],"tree_param":{"num_deleted":"0","num_feature":"17","num_nodes":"123","size_leaf_vector":"1"}},{"base_weights":[9.2323564E-2,-1.8810761E0,2.7329588E1,-3.6796033E0,5.6238747E0,2.3022177E1,4.1181274E1,6.885582E-2,-4.31328E0,8.426395E0,3.2467673E0,2.7025686E1,1.3748525E1,1.6214504E1,4.6088417E1,-1.1538831E0,2.8031983E0,-5.3786774E0,-2.9939978E0,5.7787538E0,1.2984574E1,5.4884596E0,-1.3896112E-1,1.1185407E1,2.9199837E1,1.5022613E1,-9.009154E0,-3.420347E-1,2.72636E1,4.0098022E1,6.616236E1,-1.2761935E0,2.7292109E1,3.5346189E0,-1.0047693E0,-5.8898516E0,-4.228403E0,-4.1632457E0,-2.4630394E0,7.4938664E0,-7.706776E-1,7.048954E0,1.6736517E1,2.3826578E1,4.0654054E0,-4.6329644E-1,5.860615E0,-4.575036E0,1.6011175E1,3.8481556E1,2.497961E1,8.583893E0,1.7956573E1,-1.150168E1,-4.1613812E0,1.4020859E1,-1.0259266E1,2.0719461E0,2.0225348E1,4.6250374E1,2.7929453E1,9.724897E1,5.207366E1,-1.3783595E-1,3.197934E-2,1.6632189E0,-6.423111E-2,3.633996E-1,1.03281416E-1,-9.17931E-2,9.804096E-1,-3.1688276E-1,-2.5475678E-1,-1.3355702E-1,-2.3335011E-1,-8.064034E-2,-2.5327566E-1,-7.734903E-2,-1.5091759E-1,1.5419363E0,3.1852412E-1,-5.2894037E-3,-4.526291E-1,8.0318815E-1,2.6234385E-1,7.5061095E-1,1.7799367E0,6.6522086E-1,5.7116218E0,2.748439E-1,1.3137663E-2,6.7762606E-2,-5.7765868E-2,7.8914386E-1,1.7155261E-1,-3.0336696E-1,2.951896E-1,9.561858E-1,-1.1988323E-1,1.6970166E0,4.727869E0,1.1366376E0,2.2186437E0,1.4894238E0,3.8721928E-1,1.2716393E0,6.8518E-1,-6.0942084E-1,-1.3302627E-1,-5.08348E-2,-2.258023E-1,9.6471274E-1,-1.4786749E-1,2.3478556E-2,-5.5962336E-1,5.067914E-1,2.0198886E0,2.6639404E0,1.6859598E0,1.6179184E0,4.425767E-1,1.5715092E0,6.2154655E0,5.517503E-1,2.755144E0],"categories":[],"categories_nodes":[],"categories_segments":[],"categories_sizes":[],"default_left":[0,0,0,0,0,0,0,0,0,0,0,0,0,0,0,0,0,0,0,0,0,0,0,0,0,0,0,0,0,0,0,0,0,0,0,0,0,0,0,0,0,0,0,0,0,0,0,0,0,0,0,0,0,0,0,0,0,0,0,0,0,0,0,0,0,0,0,0,0,0,0,0,0,0,0,0,0,0,0,0,0,0,0,0,0,0,0,0,0,0,0,0,0,0,0,0,0,0,0,0,0,0,0,0,0,0,0,0,0,0,0,0,0,0,0,0,0,0,0,0,0,0,0,0,0],"id":8,"left_children":[1,3,5,7,9,11,13,15,17,19,21,23,25,27,29,31,33,35,37,39,41,43,45,47,49,51,53,55,57,59,61,63,65,67,69,71,73,75,77,79,81,83,85,87,89,91,93,95,97,99,101,103,105,107,109,111,113,-1,115,117,119,121,123,-1,-1,-1,-1,-1,-1,-1,-1,-1,-1,-1,-1,-1,-1,-1,-1,-1,-1,-1,-1,-1,-1,-1,-1,-1,-1,-1,-1,-1,-1,-1,-1,-1,-1,-1,-1,-1,-1,-1,-1,-1,-1,-1,-1,-1,-1,-1,-1,-1,-1,-1,-1,-1,-1,-1,-1,-1,-1,-1,-1,-1,-1],"loss_changes":[9.937278E5,2.3271028E5,7.357344E4,3.303378E4,2.2176734E4,3.5084906E4,3.539475E4,6.73013E3,1.6704438E4,1.8377586E4,1.3700279E4,2.2609844E4,8.543973E3,9.156064E3,2.692875E4,4.874449E3,1.7359619E3,3.8440625E3,3.2906562E3,1.0890564E4,1.2375555E4,2.8243541E4,1.4037448E3,6.3098643E3,2.195375E4,5.040875E3,1.4546826E2,3.1350864E3,2.1549668E3,1.3082375E4,1.9024219E4,3.9329602E3,1.0667402E3,2.847787E3,1.7662571E3,1.588E3,1.3726875E3,3.8094863E3,1.8566602E3,1.9944527E4,1.1113657E3,3.4734531E3,1.0621359E4,7.267888E4,5.4909355E3,8.6236176E2,8.37798E2,3.4857196E2,3.6556416E3,4.2882906E4,1.6638719E4,1.3358301E3,5.6291562E3,2.8287842E1,3.2157288E0,8.62855E2,1.3541382E2,0E0,4.0681963E3,9.300906E3,5.374707E3,2.4590203E4,4.364547E3,0E0,0E0,0E0,0E0,0E0,0E0,0E0,0E0,0E0,0E0,0E0,0E0,0E0,0E0,0E0,0E0,0E0,0E0,0E0,0E0,0E0,0E0,0E0,0E0,0E0,0E0,0E0,0E0,0E0,0E0,0E0,0E0,0E0,0E0,0E0,0E0,0E0,0E0,0E0,0E0,0E0,0E0,0E0,0E0,0E0,0E0,0E0,0E0,0E0,0E0,0E0,0E0,0E0,0E0,0E0,0E0,0E0,0E0,0E0,0E0,0E0,0E0],"parents":[2147483647,0,0,1,1,2,2,3,3,4,4,5,5,6,6,7,7,8,8,9,9,10,10,11,11,12,12,13,13,14,14,15,15,16,16,17,17,18,18,19,19,20,20,21,21,22,22,23,23,24,24,25,25,26,26,27,27,28,28,29,29,30,30,31,31,32,32,33,33,34,34,35,35,36,36,37,37,38,38,39,39,40,40,41,41,42,42,43,43,44,44,45,45,46,46,47,47,48,48,49,49,50,50,51,51,52,52,53,53,54,54,55,55,56,56,58,58,59,59,60,60,61,61,62,62],"right_children":[2,4,6,8,10,12,14,16,18,20,22,24,26,28,30,32,34,36,38,40,42,44,46,48,50,52,54,56,58,60,62,64,66,68,70,72,74,76,78,80,82,84,86,88,90,92,94,96,98,100,102,104,106,108,110,112,114,-1,116,118,120,122,124,-1,-1,-1,-1,-1,-1,-1,-1,-1,-1,-1,-1,-1,-1,-1,-1,-1,-1,-1,-1,-1,-1,-1,-1,-1,-1,-1,-1,-1,-1,-1,-1,-1,-1,-1,-1,-1,-1,-1,-1,-1,-1,-1,-1,-1,-1,-1,-1,-1,-1,-1,-1,-1,-1,-1,-1,-1,-1,-1,-1,-1,-1],"split_conditions":[5.22E1,2.26E1,1.132E2,-5E-1,6.6E1,7.1E1,3.9142895E0,1.76E1,1.01E1,6.9666286E0,-5E-1,5.8269925E0,8.082917E1,0E0,1.676E2,2.91E1,9.686E2,2.5881904E-1,0E0,9.674E2,-5E-1,8.8E0,1.0152647E1,-1.8369701E-16,2.73E1,6.1E1,1E-1,5.5E1,4.8679165E1,-8.660254E-1,4.98E1,-1.8369701E-16,6.6E1,5.6E1,5.33E1,8.660254E-1,-5.045538E0,-2.4492937E-16,-1.4333142E0,3.2E1,9.727E2,3.5E1,4.87E1,9.6E1,8.5E1,7.7E1,1.1199065E1,3.6429165E1,2.0183544E1,2.61E1,8.082917E1,1.05E1,8E1,8.87E1,9.628E2,9.669E2,3.89E1,2.0719461E0,7.29E1,1.5209519E1,7.1E1,-8.660254E-1,5.9041668E1,-1.3783595E-1,3.197934E-2,1.6632189E0,-6.423111E-2,3.633996E-1,1.03281416E-1,-9.17931E-2,9.804096E-1,-3.1688276E-1,-2.5475678E-1,-1.3355702E-1,-2.3335011E-1,-8.064034E-2,-2.5327566E-1,-7.734903E-2,-1.5091759E-1,1.5419363E0,3.1852412E-1,-5.2894037E-3,-4.526291E-1,8.0318815E-1,2.6234385E-1,7.5061095E-1,1.7799367E0,6.6522086E-1,5.7116218E0,2.748439E-1,1.3137663E-2,6.7762606E-2,-5.7765868E-2,7.8914386E-1,1.7155261E-1,-3.0336696E-1,2.951896E-1,9.561858E-1,-1.1988323E-1,1.6970166E0,4.727869E0,1.1366376E0,2.2186437E0,1.4894238E0,3.8721928E-1,1.2716393E0,6.8518E-1,-6.0942084E-1,-1.3302627E-1,-5.08348E-2,-2.258023E-1,9.6471274E-1,-1.4786749E-1,2.3478556E-2,-5.5962336E-1,5.067914E-1,2.0198886E0,2.6639404E0,1.6859598E0,1.6179184E0,4.425767E-1,1.5715092E0,6.2154655E0,5.517503E-1,2.755144E0],"split_indices":[10,10,10,8,1,1,4,10,10,16,8,16,15,6,10,11,3,6,6,3,6,14,16,9,14,10,2,1,15,8,14,9,1,1,14,9,4,8,4,1,3,1,10,1,1,1,16,15,4,14,15,14,1,13,3,3,14,0,14,4,1,8,15,0,0,0,0,0,0,0,0,0,0,0,0,0,0,0,0,0,0,0,0,0,0,0,0,0,0,0,0,0,0,0,0,0,0,0,0,0,0,0,0,0,0,0,0,0,0,0,0,0,0,0,0,0,0,0,0,0,0,0,0,0,0],"split_type":[0,0,0,0,0,0,0,0,0,0,0,0,0,0,0,0,0,0,0,0,0,0,0,0,0,0,0,0,0,0,0,0,0,0,0,0,0,0,0,0,0,0,0,0,0,0,0,0,0,0,0,0,0,0,0,0,0,0,0,0,0,0,0,0,0,0,0,0,0,0,0,0,0,0,0,0,0,0,0,0,0,0,0,0,0,0,0,0,0,0,0,0,0,0,0,0,0,0,0,0,0,0,0,0,0,0,0,0,0,0,0,0,0,0,0,0,0,0,0,0,0,0,0,0,0],"sum_hessian":[1.8486E4,1.7238E4,1.248E3,1.3906E4,3.332E3,9.54E2,2.94E2,2.011E3,1.1895E4,1.528E3,1.804E3,6.65E2,2.89E2,4.9E1,2.45E2,1.39E3,6.21E2,6.579E3,5.316E3,9.68E2,5.6E2,1.085E3,7.19E2,8.1E1,5.84E2,2.74E2,1.5E1,2E1,2.9E1,1.91E2,5.4E1,1.385E3,5E0,5.21E2,1E2,4.552E3,2.027E3,1.658E3,3.658E3,7.67E2,2.01E2,2.18E2,3.42E2,7.7E1,1.008E3,6.83E2,3.6E1,1.9E1,6.2E1,1.8E2,4.04E2,8.7E1,1.87E2,9E0,6E0,8E0,1.2E1,8E0,2.1E1,1.25E2,6.6E1,1.5E1,3.9E1,7.81E2,6.04E2,4E0,1E0,1.46E2,3.75E2,9.7E1,3E0,2.907E3,1.645E3,4.47E2,1.58E3,4.34E2,1.224E3,1.382E3,2.276E3,3.4E1,7.33E2,1.87E2,1.4E1,3.5E1,1.83E2,3.15E2,2.7E1,7E1,7E0,7.32E2,2.76E2,1.88E2,4.95E2,6E0,3E1,1.7E1,2E0,5.3E1,9E0,1.68E2,1.2E1,3.64E2,4E1,2E0,8.5E1,6.6E1,1.21E2,8E0,1E0,1E0,5E0,6E0,2E0,1E0,1.1E1,1.5E1,6E0,7.8E1,4.7E1,5.3E1,1.3E1,5E0,1E1,3E0,3.6E1],"tree_param":{"num_deleted":"0","num_feature":"17","num_nodes":"125","size_leaf_vector":"1"}},{"base_weights":[-5.2892465E-2,-2.3518884E0,1.8285505E1,-3.8893785E0,2.331219E0,1.2999372E1,3.2446873E1,-5.0597587E0,-2.967734E0,6.451853E0,1.1622746E0,8.719338E0,1.7389082E1,3.9795967E1,2.1523102E1,-5.18867E0,-2.2540555E0,-3.1130106E0,1.9331053E-1,3.443664E0,9.740163E0,-5.72555E-1,3.3513718E0,1.0146474E1,2.5766542E0,8.0236025E0,2.151762E1,3.5906162E1,5.922835E1,3.1511747E1,1.532207E1,-4.554411E0,-5.808652E0,2.1081204E0,-2.393557E0,-3.4690032E0,-1.7510755E0,3.217683E0,-8.421911E-1,5.44857E0,-1.8418474E0,1.4470287E1,6.805011E0,1.0734272E0,-1.5605202E0,6.431746E-1,5.20718E0,-8.076147E-2,1.1432012E1,-3.3882356E-1,1.1095855E1,7.6412954E0,2.3701823E0,3.87041E1,1.9069136E1,1.7380611E1,3.8142757E1,3.8898163E1,9.772772E1,-2.8262138E-3,3.4304214E1,1.7680265E1,8.9245576E-1,-2.504901E-1,-1.8350105E-1,-2.9250988E-1,2.7137486E-2,-1.0294689E-1,3.3949566E-1,-1.3700458E-1,-4.386107E-2,-2.0594823E-1,-1.4206734E-1,2.896759E-2,-1.1467047E-1,6.324444E-1,-7.3482834E-2,-9.29107E-2,9.5065925E-3,1.7771577E0,2.2628477E-1,-1.4389102E-1,2.606804E-1,-6.281673E-2,8.402452E-1,4.4326934E-1,1.2683445E-1,1.4972848E-1,-6.095007E-2,-3.6906004E-1,-7.2315924E-2,1.1071588E-1,-3.8911752E-2,2.514544E-1,3.8211408E0,1.5320802E-1,-3.7824127E-1,-1.5988837E-1,6.097425E-1,1.4512806E-1,-2.4206053E-1,7.9038423E-1,-7.391296E-2,5.3788173E-1,2.3097296E-1,3.943779E0,1.2808417E0,1.160332E0,5.843501E-1,2.0555957E-1,1.7073821E0,3.374748E0,1.8316113E0,2.6909012E-1,2.1983457E0,2.5626788E0,5.8346834E0,1.4517508E-1,-1.1636616E-1,9.375087E-1,2.1009884E0,-7.066606E-2,9.7925776E-1,4.0587708E-1,-3.206881E-1],"categories":[],"categories_nodes":[],"categories_segments":[],"categories_sizes":[],"default_left":[0,0,0,0,0,0,0,0,0,0,0,0,0,0,0,0,0,0,0,0,0,0,0,0,0,0,0,0,0,0,0,0,0,0,0,0,0,0,0,0,0,0,0,0,0,0,0,0,0,0,0,0,0,0,0,0,0,0,0,0,0,0,0,0,0,0,0,0,0,0,0,0,0,0,0,0,0,0,0,0,0,0,0,0,0,0,0,0,0,0,0,0,0,0,0,0,0,0,0,0,0,0,0,0,0,0,0,0,0,0,0,0,0,0,0,0,0,0,0,0,0,0,0,0,0],"id":9,"left_children":[1,3,5,7,9,11,13,15,17,19,21,23,25,27,29,31,33,35,37,39,41,43,45,47,49,51,53,55,57,59,61,63,65,67,69,71,73,75,77,79,81,83,85,87,89,91,93,95,97,99,101,103,-1,105,107,109,111,113,115,117,119,121,123,-1,-1,-1,-1,-1,-1,-1,-1,-1,-1,-1,-1,-1,-1,-1,-1,-1,-1,-1,-1,-1,-1,-1,-1,-1,-1,-1,-1,-1,-1,-1,-1,-1,-1,-1,-1,-1,-1,-1,-1,-1,-1,-1,-1,-1,-1,-1,-1,-1,-1,-1,-1,-1,-1,-1,-1,-1,-1,-1,-1,-1,-1],"loss_changes":[7.792424E5,1.18265664E5,1.5371269E5,1.3322781E4,1.9548672E4,2.8049312E4,4.4019875E4,1.9580625E3,3.1784531E3,8.839457E3,1.2017875E4,6.6538906E3,2.8440016E4,2.304425E4,1.3577539E4,2.0207031E3,1.5170166E2,3.201621E3,9.578914E2,4.990603E3,5.8437266E3,2.8734968E3,7.027878E3,8.1260664E3,3.6052026E3,3.070377E3,2.0849406E4,1.0938625E4,3.8464344E4,7.5683906E3,4.816176E3,1.0198906E3,6.968906E2,1.7005441E2,1.20554565E2,2.1275977E3,1.7366221E3,3.4667559E3,2.394942E2,9.309915E3,9.652077E2,6.005758E3,2.3168086E3,2.9235564E3,7.231892E2,1.2746687E3,1.014251E4,1.6707555E3,6.1659297E3,1.6047942E3,2.2155098E3,2.0879785E3,0E0,3.1100766E4,1.35039375E4,6.979252E3,8.567531E3,6.04916E3,9.884703E3,6.0803383E1,8.69275E3,4.464965E3,1.1606128E3,0E0,0E0,0E0,0E0,0E0,0E0,0E0,0E0,0E0,0E0,0E0,0E0,0E0,0E0,0E0,0E0,0E0,0E0,0E0,0E0,0E0,0E0,0E0,0E0,0E0,0E0,0E0,0E0,0E0,0E0,0E0,0E0,0E0,0E0,0E0,0E0,0E0,0E0,0E0,0E0,0E0,0E0,0E0,0E0,0E0,0E0,0E0,0E0,0E0,0E0,0E0,0E0,0E0,0E0,0E0,0E0,0E0,0E0,0E0,0E0,0E0,0E0],"parents":[2147483647,0,0,1,1,2,2,3,3,4,4,5,5,6,6,7,7,8,8,9,9,10,10,11,11,12,12,13,13,14,14,15,15,16,16,17,17,18,18,19,19,20,20,21,21,22,22,23,23,24,24,25,25,26,26,27,27,28,28,29,29,30,30,31,31,32,32,33,33,34,34,35,35,36,36,37,37,38,38,39,39,40,40,41,41,42,42,43,43,44,44,45,45,46,46,47,47,48,48,49,49,50,50,51,51,53,53,54,54,55,55,56,56,57,57,58,58,59,59,60,60,61,61,62,62],"right_children":[2,4,6,8,10,12,14,16,18,20,22,24,26,28,30,32,34,36,38,40,42,44,46,48,50,52,54,56,58,60,62,64,66,68,70,72,74,76,78,80,82,84,86,88,90,92,94,96,98,100,102,104,-1,106,108,110,112,114,116,118,120,122,124,-1,-1,-1,-1,-1,-1,-1,-1,-1,-1,-1,-1,-1,-1,-1,-1,-1,-1,-1,-1,-1,-1,-1,-1,-1,-1,-1,-1,-1,-1,-1,-1,-1,-1,-1,-1,-1,-1,-1,-1,-1,-1,-1,-1,-1,-1,-1,-1,-1,-1,-1,-1,-1,-1,-1,-1,-1,-1,-1,-1,-1,-1],"split_conditions":[2.73E1,1.3E1,5.74E1,6.2E0,5.5E1,8.3031645E0,6.5E1,1E0,1.78E1,6.0624466E0,1.79E1,7.9E1,2.32E1,1.176E2,6.123234E-17,1.0114574E1,-1.4348505E1,1.1145833E1,7E1,9.677E2,6.9E1,-6.5244164E0,-3.524849E-1,3.3623555E0,6.1E1,9.550833E1,4.9E1,1.4214782E0,1.43E2,1.89E1,9.1E1,3.341949E0,9.2E1,2.915249E0,2.1595302E0,6.123234E-17,4.9E1,-2.1816432E0,9.648E2,3E1,1.9625E1,1.4175E1,6.18034E0,7.9E1,-2.1894838E1,-7.212567E0,9.4E0,-6.9015102E0,-1.7580317E1,8.131728E0,3E-1,-4.3330684E0,2.3701823E0,9.635408E0,6.3E1,2.2648159E1,3.4341667E1,-1.272144E1,9.617E2,7.9E1,-8.967044E0,2.3E0,6.68E1,-2.504901E-1,-1.8350105E-1,-2.9250988E-1,2.7137486E-2,-1.0294689E-1,3.3949566E-1,-1.3700458E-1,-4.386107E-2,-2.0594823E-1,-1.4206734E-1,2.896759E-2,-1.1467047E-1,6.324444E-1,-7.3482834E-2,-9.29107E-2,9.5065925E-3,1.7771577E0,2.2628477E-1,-1.4389102E-1,2.606804E-1,-6.281673E-2,8.402452E-1,4.4326934E-1,1.2683445E-1,1.4972848E-1,-6.095007E-2,-3.6906004E-1,-7.2315924E-2,1.1071588E-1,-3.8911752E-2,2.514544E-1,3.8211408E0,1.5320802E-1,-3.7824127E-1,-1.5988837E-1,6.097425E-1,1.4512806E-1,-2.4206053E-1,7.9038423E-1,-7.391296E-2,5.3788173E-1,2.3097296E-1,3.943779E0,1.2808417E0,1.160332E0,5.843501E-1,2.0555957E-1,1.7073821E0,3.374748E0,1.8316113E0,2.6909012E-1,2.1983457E0,2.5626788E0,5.8346834E0,1.4517508E-1,-1.1636616E-1,9.375087E-1,2.1009884E0,-7.066606E-2,9.7925776E-1,4.0587708E-1,-3.206881E-1],"split_indices":[13,13,13,13,1,16,1,7,11,16,13,1,0,13,9,4,5,15,1,3,12,5,4,16,12,15,12,4,12,0,1,16,12,16,5,7,1,5,3,1,15,15,5,1,4,4,2,5,4,4,2,5,0,16,1,16,15,5,3,1,5,11,13,0,0,0,0,0,0,0,0,0,0,0,0,0,0,0,0,0,0,0,0,0,0,0,0,0,0,0,0,0,0,0,0,0,0,0,0,0,0,0,0,0,0,0,0,0,0,0,0,0,0,0,0,0,0,0,0,0,0,0,0,0,0],"split_type":[0,0,0,0,0,0,0,0,0,0,0,0,0,0,0,0,0,0,0,0,0,0,0,0,0,0,0,0,0,0,0,0,0,0,0,0,0,0,0,0,0,0,0,0,0,0,0,0,0,0,0,0,0,0,0,0,0,0,0,0,0,0,0,0,0,0,0,0,0,0,0,0,0,0,0,0,0,0,0,0,0,0,0,0,0,0,0,0,0,0,0,0,0,0,0,0,0,0,0,0,0,0,0,0,0,0,0,0,0,0,0,0,0,0,0,0,0,0,0,0,0,0,0,0,0],"sum_hessian":[1.8481E4,1.6423E4,2.058E3,1.2364E4,4.059E3,1.5E3,5.58E2,5.445E3,6.919E3,8.96E2,3.163E3,7.61E2,7.39E2,3.32E2,2.26E2,5.205E3,2.4E2,6.615E3,3.04E2,4.69E2,4.27E2,1.765E3,1.398E3,6.17E2,1.44E2,2.27E2,5.12E2,2.79E2,5.3E1,8.5E1,1.41E2,2.577E3,2.628E3,7E0,2.33E2,5.243E3,1.372E3,7.7E1,2.27E2,3.4E2,1.29E2,1.62E2,2.65E2,6.62E2,1.103E3,5.69E2,8.29E2,6.9E1,5.48E2,1.08E2,3.6E1,2.26E2,1E0,6.2E1,4.5E2,3.1E1,2.48E2,3.6E1,1.7E1,7E0,7.8E1,1.21E2,2E1,1.698E3,8.79E2,2.611E3,1.7E1,4E0,3E0,1.89E2,4.4E1,2.573E3,2.67E3,2.59E2,1.113E3,2.5E1,5.2E1,1.14E2,1.13E2,9E0,3.31E2,1.13E2,1.6E1,2.1E1,1.41E2,1.78E2,8.7E1,3.6E2,3.02E2,2E1,1.083E3,2.7E2,2.99E2,8.28E2,1E0,4.9E1,2E1,2.7E1,5.21E2,6.3E1,4.5E1,2.6E1,1E1,1.1E2,1.16E2,1.4E1,4.8E1,2.87E2,1.63E2,1.8E1,1.3E1,1E1,2.38E2,5E0,3.1E1,6E0,1.1E1,3E0,4E0,2.7E1,5.1E1,1.1E1,1.1E2,1E1,1E1],"tree_param":{"num_deleted":"0","num_feature":"17","num_nodes":"125","size_leaf_vector":"1"}},{"base_weights":[8.670235E-3,-2.112811E0,1.7201899E1,3.0921285E0,-3.5410807E0,1.4532892E1,3.8453762E1,2.8572447E0,3.0392181E1,-4.587924E0,-2.117108E0,6.9737463E0,1.7832556E1,4.437789E1,1.3771059E1,3.853982E0,-1.1280925E0,6.792985E0,4.3697346E1,-5.329187E0,-3.4792254E0,-2.4423974E0,3.2842762E0,-1.0878584E0,1.012749E1,1.3965854E1,2.6793722E1,2.457735E1,5.448761E1,2.9502535E1,-7.3684125E0,6.7364006E0,2.8697138E0,-2.3783765E0,4.229348E0,4.5462114E-1,2.9781442E0,1.5444938E1,5.5548847E1,-5.5653577E0,-4.152586E0,-3.8766558E0,-1.8748993E0,-2.9375958E0,-1.148997E0,5.637363E0,-6.996564E-1,-2.1359787E0,3.0076027E0,5.246348E0,1.3695351E1,1.5519632E1,2.2374837E-1,1.1784728E1,3.336173E1,-1.1865999E1,3.2514713E1,4.9685547E1,8.4469536E1,4.8148255E0,4.2289276E1,-1.1385665E1,6.9604774E0,4.5530167E-1,6.264317E-2,-2.8454775E-3,2.0108293E-1,-2.4882996E-1,-3.4470804E-2,9.796651E-1,1.0551292E-1,1.9766288E-1,7.511367E-2,1.1800464E0,-1.648347E-1,1.8260269E0,3.5830896E0,-2.8202805E-1,-1.2963939E-1,-6.500314E-2,-2.30375E-1,-2.773073E-1,-1.8069075E-1,-2.7047262E-1,-8.044862E-2,-8.4580705E-2,-1.6924828E-1,4.9887195E-2,-8.212762E-2,9.271858E-2,4.6814153E-1,-1.9622885E-1,1.1878395E-1,-2.4530582E-1,-3.2864835E-2,2.9035795E-1,-2.3960292E-1,3.213832E-1,-5.323199E-1,4.5790917E-1,1.3693188E0,3.12936E-1,9.108079E-1,-4.352418E-2,1.198368E0,2.3754159E-1,7.931451E-1,3.398583E0,1.3761023E0,-6.2089676E-1,-1.4486781E-1,2.8982592E-1,1.936909E0,7.5831014E-1,2.638188E0,4.43905E0,6.027257E-1,1.7544588E0,-1.22389436E-1,2.562594E-1,2.4943461E0,-6.104565E-1,2.4158001E-2,1.2533768E0,-1.9165854E-1],"categories":[],"categories_nodes":[],"categories_segments":[],"categories_sizes":[],"default_left":[0,0,0,0,0,0,0,0,0,0,0,0,0,0,0,0,0,0,0,0,0,0,0,0,0,0,0,0,0,0,0,0,0,0,0,0,0,0,0,0,0,0,0,0,0,0,0,0,0,0,0,0,0,0,0,0,0,0,0,0,0,0,0,0,0,0,0,0,0,0,0,0,0,0,0,0,0,0,0,0,0,0,0,0,0,0,0,0,0,0,0,0,0,0,0,0,0,0,0,0,0,0,0,0,0,0,0,0,0,0,0,0,0,0,0,0,0,0,0,0,0,0,0,0,0],"id":10,"left_children":[1,3,5,7,9,11,13,15,17,19,21,23,25,27,29,31,33,35,37,39,41,43,45,47,49,51,53,55,57,59,61,63,65,67,69,-1,71,73,75,77,79,81,83,85,87,89,91,93,95,97,99,101,103,105,107,109,111,113,115,117,119,121,123,-1,-1,-1,-1,-1,-1,-1,-1,-1,-1,-1,-1,-1,-1,-1,-1,-1,-1,-1,-1,-1,-1,-1,-1,-1,-1,-1,-1,-1,-1,-1,-1,-1,-1,-1,-1,-1,-1,-1,-1,-1,-1,-1,-1,-1,-1,-1,-1,-1,-1,-1,-1,-1,-1,-1,-1,-1,-1,-1,-1,-1,-1],"loss_changes":[6.7147025E5,1.2183284E5,1.14131625E5,2.254232E4,1.915889E4,4.47225E4,3.2289219E4,1.3907516E4,9.122898E3,6.0712812E3,9.583738E3,1.3943498E4,4.2973188E4,3.489303E4,1.5182365E4,7.9244727E3,4.7055825E3,7.81853E1,5.5038906E3,1.2103984E3,1.8876992E3,3.2893828E3,2.9100515E3,6.7176715E2,6.789754E3,1.8701047E4,3.6672594E4,1.860946E4,1.2936094E4,8.0039434E3,1.230505E3,9.240299E3,7.0428906E3,2.4935085E3,4.288814E3,0E0,2.69598E0,1.1478009E3,1.3686992E3,8.1115625E2,9.620586E2,1.0247695E3,5.477361E2,2.0661816E3,1.5114772E3,2.7308525E3,1.1597781E3,5.0469824E2,7.2656714E2,3.222523E3,1.3850082E4,1.9539188E4,2.3591548E3,3.2521523E3,5.088028E4,2.342212E1,8.422E3,1.0356844E4,3.6130156E3,2.2846E3,4.5444355E3,1.6227588E2,1.0732943E3,0E0,0E0,0E0,0E0,0E0,0E0,0E0,0E0,0E0,0E0,0E0,0E0,0E0,0E0,0E0,0E0,0E0,0E0,0E0,0E0,0E0,0E0,0E0,0E0,0E0,0E0,0E0,0E0,0E0,0E0,0E0,0E0,0E0,0E0,0E0,0E0,0E0,0E0,0E0,0E0,0E0,0E0,0E0,0E0,0E0,0E0,0E0,0E0,0E0,0E0,0E0,0E0,0E0,0E0,0E0,0E0,0E0,0E0,0E0,0E0,0E0,0E0],"parents":[2147483647,0,0,1,1,2,2,3,3,4,4,5,5,6,6,7,7,8,8,9,9,10,10,11,11,12,12,13,13,14,14,15,15,16,16,17,17,18,18,19,19,20,20,21,21,22,22,23,23,24,24,25,25,26,26,27,27,28,28,29,29,30,30,31,31,32,32,33,33,34,34,36,36,37,37,38,38,39,39,40,40,41,41,42,42,43,43,44,44,45,45,46,46,47,47,48,48,49,49,50,50,51,51,52,52,53,53,54,54,55,55,56,56,57,57,58,58,59,59,60,60,61,61,62,62],"right_children":[2,4,6,8,10,12,14,16,18,20,22,24,26,28,30,32,34,36,38,40,42,44,46,48,50,52,54,56,58,60,62,64,66,68,70,-1,72,74,76,78,80,82,84,86,88,90,92,94,96,98,100,102,104,106,108,110,112,114,116,118,120,122,124,-1,-1,-1,-1,-1,-1,-1,-1,-1,-1,-1,-1,-1,-1,-1,-1,-1,-1,-1,-1,-1,-1,-1,-1,-1,-1,-1,-1,-1,-1,-1,-1,-1,-1,-1,-1,-1,-1,-1,-1,-1,-1,-1,-1,-1,-1,-1,-1,-1,-1,-1,-1,-1,-1,-1,-1,-1,-1,-1,-1,-1,-1],"split_conditions":[2.5845833E1,-5E-1,8.082917E1,1.19E2,8.3E0,2.907803E0,7.1E1,9.685E2,1.5503513E1,0E0,1.9625E1,-1.6494802E1,4.2E0,9.603E2,2.5881904E-1,-8.660254E-1,6.6042314E0,3.04E1,1.31E1,4.2379923E0,7.1E0,8E0,6.7E1,-1.8388792E1,1.2246469E-16,1E-1,8.000941E0,4.68E1,1.45E2,-8.9070785E-1,1.2981133E1,2.07E1,1.1320833E1,-1.475009E1,2.4E1,4.5462114E-1,-8.660254E-1,3.09E1,1.7509262E1,1.09625E1,4.5E1,-9.659258E-1,1.57E1,-2.4492937E-16,-2.4492937E-16,-2.5881904E-1,2.06E1,2.12E1,4E-1,1.22E2,2.33E1,6.6042314E0,6.913333E1,2.6E1,3.2475E1,2.1323568E1,1.478396E1,6.19E1,5.9E1,1.1645842E1,9.599E2,2.69E1,2.39E1,4.5530167E-1,6.264317E-2,-2.8454775E-3,2.0108293E-1,-2.4882996E-1,-3.4470804E-2,9.796651E-1,1.0551292E-1,1.9766288E-1,7.511367E-2,1.1800464E0,-1.648347E-1,1.8260269E0,3.5830896E0,-2.8202805E-1,-1.2963939E-1,-6.500314E-2,-2.30375E-1,-2.773073E-1,-1.8069075E-1,-2.7047262E-1,-8.044862E-2,-8.4580705E-2,-1.6924828E-1,4.9887195E-2,-8.212762E-2,9.271858E-2,4.6814153E-1,-1.9622885E-1,1.1878395E-1,-2.4530582E-1,-3.2864835E-2,2.9035795E-1,-2.3960292E-1,3.213832E-1,-5.323199E-1,4.5790917E-1,1.3693188E0,3.12936E-1,9.108079E-1,-4.352418E-2,1.198368E0,2.3754159E-1,7.931451E-1,3.398583E0,1.3761023E0,-6.2089676E-1,-1.4486781E-1,2.8982592E-1,1.936909E0,7.5831014E-1,2.638188E0,4.43905E0,6.027257E-1,1.7544588E0,-1.22389436E-1,2.562594E-1,2.4943461E0,-6.104565E-1,2.4158001E-2,1.2533768E0,-1.9165854E-1],"split_indices":[15,8,15,12,14,4,1,3,4,6,15,4,11,3,7,8,16,0,14,16,11,11,1,4,6,2,16,14,12,4,4,15,15,4,1,0,6,0,4,15,1,7,0,8,8,6,14,0,2,12,0,16,15,0,15,4,16,14,1,16,3,0,0,0,0,0,0,0,0,0,0,0,0,0,0,0,0,0,0,0,0,0,0,0,0,0,0,0,0,0,0,0,0,0,0,0,0,0,0,0,0,0,0,0,0,0,0,0,0,0,0,0,0,0,0,0,0,0,0,0,0,0,0,0,0],"split_type":[0,0,0,0,0,0,0,0,0,0,0,0,0,0,0,0,0,0,0,0,0,0,0,0,0,0,0,0,0,0,0,0,0,0,0,0,0,0,0,0,0,0,0,0,0,0,0,0,0,0,0,0,0,0,0,0,0,0,0,0,0,0,0,0,0,0,0,0,0,0,0,0,0,0,0,0,0,0,0,0,0,0,0,0,0,0,0,0,0,0,0,0,0,0,0,0,0,0,0,0,0,0,0,0,0,0,0,0,0,0,0,0,0,0,0,0,0,0,0,0,0,0,0,0,0],"sum_hessian":[1.8407E4,1.6386E4,2.021E3,3.528E3,1.2858E4,1.797E3,2.24E2,3.499E3,2.9E1,7.409E3,5.449E3,5.47E2,1.25E3,1.8E2,4.4E1,2.799E3,7E2,1.1E1,1.8E1,4.438E3,2.971E3,5.14E3,3.09E2,1.54E2,3.93E2,8.75E2,3.75E2,6.2E1,1.18E2,2.5E1,1.9E1,7.11E2,2.088E3,5.68E2,1.32E2,6E0,5E0,6E0,1.2E1,3.693E3,7.45E2,2.38E3,5.91E2,3.716E3,1.424E3,1.94E2,1.15E2,1.23E2,3.1E1,1.67E2,2.26E2,7.86E2,8.9E1,1.15E2,2.6E2,1.1E1,5.1E1,1.04E2,1.4E1,9E0,1.6E1,1.5E1,4E0,4.96E2,2.15E2,5.9E2,1.498E3,2.23E2,3.45E2,1.5E1,1.17E2,2E0,3E0,4E0,2E0,7E0,5E0,3.601E3,9.2E1,1.03E2,6.42E2,3.21E2,2.059E3,4E1,5.51E2,9.83E2,2.733E3,2.66E2,1.158E3,9.7E1,9.7E1,5.6E1,5.9E1,4.2E1,8.1E1,2.3E1,8E0,1.56E2,1.1E1,1.71E2,5.5E1,1.78E2,6.08E2,8.6E1,3E0,4.3E1,7.2E1,3.6E1,2.24E2,1E1,1E0,1E1,4.1E1,9E0,9.5E1,1.3E1,1E0,1E0,8E0,3E0,1.3E1,1.4E1,1E0,1E0,3E0],"tree_param":{"num_deleted":"0","num_feature":"17","num_nodes":"125","size_leaf_vector":"1"}},{"base_weights":[-1.7776133E-2,-1.7418076E0,2.0585686E1,-3.370504E0,3.437739E0,1.3993982E1,3.0785395E1,-3.237279E-1,-3.8239965E0,4.864338E0,-1.4071609E0,8.245382E0,1.7559254E1,3.858619E1,2.047202E1,-1.5942074E0,1.1083907E0,-4.7923927E0,-2.870471E0,9.130919E0,3.8587203E0,3.5103682E-2,-2.0725265E0,1.774715E0,1.0455996E1,2.2769373E1,1.2001055E1,3.4300102E1,5.9207718E1,2.5044426E1,1.0899838E1,-1.8639044E0,1.8248995E1,-7.069879E-1,3.049509E0,-3.1785634E0,-5.1242414E0,-1.7043852E0,-3.4002628E0,8.564093E0,4.9863865E1,4.6996236E0,-5.127261E-1,-3.0379362E0,9.595798E-1,-3.242709E0,-1.2640699E0,4.137564E0,-8.821347E0,7.75062E0,2.0754198E1,3.932433E1,1.6895985E1,1.5746513E1,3.5296519E0,3.0463682E1,4.630806E1,3.6843613E1,8.904606E1,3.2363926E1,2.1519302E1,1.5955752E1,1.9414581E0,3.9025715E-1,-1.0901107E-1,-6.1001297E-2,1.6164864E0,-6.280448E-2,5.0041944E-1,1.4007534E-1,1.2861681E0,-1.7283504E-1,2.3443721E-1,-3.0680567E-1,-2.4273615E-1,-6.348163E-2,-2.224789E-1,-1.9146577E-1,-1.07757166E-1,5.3184223E-1,-1.0102066E-2,4.2543098E-1,2.727812E0,1.7858468E-1,4.1966653E-1,-4.2401437E-2,1.1130769E0,-1.4796135E-2,-2.5346407E-1,-1.3523684E-1,8.000676E-2,-4.1738793E-2,-1.9762121E-1,-7.181884E-2,3.4207967E-1,9.0232E-2,9.093968E-1,-6.018705E-1,-1.4833899E-1,1.5896022E0,3.3515352E-1,1.2972392E0,1.7929839E-1,3.8734288E0,1.2940676E0,6.692981E-1,1.5476218E0,1.3976781E0,5.6737125E-1,4.3157893E-1,-2.699459E-2,2.7983565E0,1.399114E0,6.812772E-1,2.580042E0,2.1339707E0,7.0006466E-1,2.324956E0,5.5018616E0,2.4696958E0,1.3222917E0,6.5209925E-1,1.2079198E0,6.015999E-3,9.90756E-1,3.7482855E-1,-3.507963E-1],"categories":[],"categories_nodes":[],"categories_segments":[],"categories_sizes":[],"default_left":[0,0,0,0,0,0,0,0,0,0,0,0,0,0,0,0,0,0,0,0,0,0,0,0,0,0,0,0,0,0,0,0,0,0,0,0,0,0,0,0,0,0,0,0,0,0,0,0,0,0,0,0,0,0,0,0,0,0,0,0,0,0,0,0,0,0,0,0,0,0,0,0,0,0,0,0,0,0,0,0,0,0,0,0,0,0,0,0,0,0,0,0,0,0,0,0,0,0,0,0,0,0,0,0,0,0,0,0,0,0,0,0,0,0,0,0,0,0,0,0,0,0,0,0,0,0,0],"id":11,"left_children":[1,3,5,7,9,11,13,15,17,19,21,23,25,27,29,31,33,35,37,39,41,43,45,47,49,51,53,55,57,59,61,63,65,67,69,71,73,75,77,79,81,83,85,87,89,91,93,95,97,99,101,103,105,107,109,111,113,115,117,119,121,123,125,-1,-1,-1,-1,-1,-1,-1,-1,-1,-1,-1,-1,-1,-1,-1,-1,-1,-1,-1,-1,-1,-1,-1,-1,-1,-1,-1,-1,-1,-1,-1,-1,-1,-1,-1,-1,-1,-1,-1,-1,-1,-1,-1,-1,-1,-1,-1,-1,-1,-1,-1,-1,-1,-1,-1,-1,-1,-1,-1,-1,-1,-1,-1,-1],"loss_changes":[6.536936E5,1.4327019E5,9.510794E4,1.7850203E4,2.80892E4,1.7583656E4,4.4022125E4,3.0493916E3,1.03706875E4,1.3432805E4,8.8773315E2,4.7447246E3,1.5161844E4,2.5899062E4,1.0318852E4,4.7862803E3,2.7789614E3,2.9709922E3,3.496414E3,1.3379891E4,9.346707E3,8.35314E2,5.947456E2,2.1896719E3,6.748547E3,2.597761E4,8.194031E3,1.0751125E4,3.2086531E4,3.5093047E3,3.5924473E3,2.6993074E3,3.3291003E3,2.4131743E3,2.070364E3,2.1037422E3,1.2315234E3,2.1103901E3,2.0736055E3,1.0740629E4,1.0882383E3,8.852457E3,3.1573853E3,3.7725836E2,5.347946E2,4.3760864E2,5.349718E2,2.2944475E3,2.6554614E2,4.7734453E3,4.4517324E3,3.440183E4,9.650723E3,9.348777E3,1.6864238E3,1.1280625E4,1.0021734E4,3.6681328E3,1.45318125E4,3.8337734E3,2.2130078E3,3.1144668E3,1.5453739E3,0E0,0E0,0E0,0E0,0E0,0E0,0E0,0E0,0E0,0E0,0E0,0E0,0E0,0E0,0E0,0E0,0E0,0E0,0E0,0E0,0E0,0E0,0E0,0E0,0E0,0E0,0E0,0E0,0E0,0E0,0E0,0E0,0E0,0E0,0E0,0E0,0E0,0E0,0E0,0E0,0E0,0E0,0E0,0E0,0E0,0E0,0E0,0E0,0E0,0E0,0E0,0E0,0E0,0E0,0E0,0E0,0E0,0E0,0E0,0E0,0E0,0E0,0E0,0E0],"parents":[2147483647,0,0,1,1,2,2,3,3,4,4,5,5,6,6,7,7,8,8,9,9,10,10,11,11,12,12,13,13,14,14,15,15,16,16,17,17,18,18,19,19,20,20,21,21,22,22,23,23,24,24,25,25,26,26,27,27,28,28,29,29,30,30,31,31,32,32,33,33,34,34,35,35,36,36,37,37,38,38,39,39,40,40,41,41,42,42,43,43,44,44,45,45,46,46,47,47,48,48,49,49,50,50,51,51,52,52,53,53,54,54,55,55,56,56,57,57,58,58,59,59,60,60,61,61,62,62],"right_children":[2,4,6,8,10,12,14,16,18,20,22,24,26,28,30,32,34,36,38,40,42,44,46,48,50,52,54,56,58,60,62,64,66,68,70,72,74,76,78,80,82,84,86,88,90,92,94,96,98,100,102,104,106,108,110,112,114,116,118,120,122,124,126,-1,-1,-1,-1,-1,-1,-1,-1,-1,-1,-1,-1,-1,-1,-1,-1,-1,-1,-1,-1,-1,-1,-1,-1,-1,-1,-1,-1,-1,-1,-1,-1,-1,-1,-1,-1,-1,-1,-1,-1,-1,-1,-1,-1,-1,-1,-1,-1,-1,-1,-1,-1,-1,-1,-1,-1,-1,-1,-1,-1,-1,-1,-1,-1],"split_conditions":[3.32E1,1.4E1,5.74E1,-5E-1,-2.4492937E-16,8.3031645E0,6.3E1,-1.8369701E-16,0E0,4.7E1,-5.7553363E0,2.3E0,1.28091955E1,1.176E2,8E1,2.43E1,-2.5881904E-1,-2.4492937E-16,-1.4333142E0,7.6270836E1,1E-1,7.3E1,8.3E0,4.2783333E1,4.25E1,4.9E1,7.2E1,9.550833E1,1.48E2,7.1E1,8.3E1,2.4E1,4.3875E0,1.06E2,7.6270836E1,2.1245832E1,4.9666667E0,9.721E2,9.8E0,9.686E2,2.01E1,2.4025E1,9.6E0,9.65E2,-1.5113097E1,1.6E1,2.1766666E1,3.6429165E1,7.0710677E-1,3.4E1,7.8781433E0,9.410952E0,5.0904167E1,7.6E1,6.3E1,9.635408E0,1.1645842E1,1.939897E1,9.617E2,2.41E1,6.68E1,2.17E1,6.3179165E1,3.9025715E-1,-1.0901107E-1,-6.1001297E-2,1.6164864E0,-6.280448E-2,5.0041944E-1,1.4007534E-1,1.2861681E0,-1.7283504E-1,2.3443721E-1,-3.0680567E-1,-2.4273615E-1,-6.348163E-2,-2.224789E-1,-1.9146577E-1,-1.07757166E-1,5.3184223E-1,-1.0102066E-2,4.2543098E-1,2.727812E0,1.7858468E-1,4.1966653E-1,-4.2401437E-2,1.1130769E0,-1.4796135E-2,-2.5346407E-1,-1.3523684E-1,8.000676E-2,-4.1738793E-2,-1.9762121E-1,-7.181884E-2,3.4207967E-1,9.0232E-2,9.093968E-1,-6.018705E-1,-1.4833899E-1,1.5896022E0,3.3515352E-1,1.2972392E0,1.7929839E-1,3.8734288E0,1.2940676E0,6.692981E-1,1.5476218E0,1.3976781E0,5.6737125E-1,4.3157893E-1,-2.699459E-2,2.7983565E0,1.399114E0,6.812772E-1,2.580042E0,2.1339707E0,7.0006466E-1,2.324956E0,5.5018616E0,2.4696958E0,1.3222917E0,6.5209925E-1,1.2079198E0,6.015999E-3,9.90756E-1,3.7482855E-1,-3.507963E-1],"split_indices":[13,13,13,8,8,16,1,9,6,1,4,11,16,13,1,11,6,8,4,15,2,1,11,15,13,1,1,15,12,12,12,1,15,12,15,15,15,3,13,3,0,15,2,3,4,12,15,15,6,1,16,16,15,12,12,16,16,4,3,0,13,0,15,0,0,0,0,0,0,0,0,0,0,0,0,0,0,0,0,0,0,0,0,0,0,0,0,0,0,0,0,0,0,0,0,0,0,0,0,0,0,0,0,0,0,0,0,0,0,0,0,0,0,0,0,0,0,0,0,0,0,0,0,0,0,0,0],"split_type":[0,0,0,0,0,0,0,0,0,0,0,0,0,0,0,0,0,0,0,0,0,0,0,0,0,0,0,0,0,0,0,0,0,0,0,0,0,0,0,0,0,0,0,0,0,0,0,0,0,0,0,0,0,0,0,0,0,0,0,0,0,0,0,0,0,0,0,0,0,0,0,0,0,0,0,0,0,0,0,0,0,0,0,0,0,0,0,0,0,0,0,0,0,0,0,0,0,0,0,0,0,0,0,0,0,0,0,0,0,0,0,0,0,0,0,0,0,0,0,0,0,0,0,0,0,0,0],"sum_hessian":[1.8401E4,1.6981E4,1.42E3,1.2919E4,4.062E3,8.64E2,5.56E2,1.674E3,1.1245E4,3.138E3,9.24E2,3.32E2,5.32E2,3.15E2,2.41E2,8.87E2,7.87E2,5.577E3,5.668E3,5.97E2,2.541E3,2.92E2,6.32E2,8.5E1,2.47E2,2.73E2,2.59E2,2.63E2,5.2E1,1.62E2,7.9E1,8.76E2,1.1E1,4.07E2,3.8E2,9.53E2,4.624E3,1.772E3,3.896E3,5.9E2,7E0,2.131E3,4.1E2,6.7E1,2.25E2,2.57E2,3.75E2,7E1,1.5E1,1.97E2,5E1,7E1,2.03E2,1.79E2,8E1,2.02E2,6.1E1,3.1E1,2.1E1,5E1,1.12E2,5E1,2.9E1,2.7E1,8.49E2,5E0,6E0,3.88E2,1.9E1,3.77E2,3E0,9.21E2,3.2E1,9.68E2,3.656E3,1.531E3,2.41E2,2.896E3,1E3,4.77E2,1.13E2,1E0,6E0,1.634E3,4.97E2,4.05E2,5E0,2.9E1,3.8E1,3.3E1,1.92E2,5.9E1,1.98E2,3.68E2,7E0,6.1E1,9E0,9E0,6E0,7E0,1.9E2,3.8E1,1.2E1,1.7E1,5.3E1,1.64E2,3.9E1,4.6E1,1.33E2,3.5E1,4.5E1,1.6E1,1.86E2,9E0,5.2E1,2.4E1,7E0,8E0,1.3E1,1.1E1,3.9E1,2.8E1,8.4E1,1E1,4E1,1.8E1,1.1E1],"tree_param":{"num_deleted":"0","num_feature":"17","num_nodes":"127","size_leaf_vector":"1"}},{"base_weights":[3.3306178E-2,-1.5450318E0,2.2108267E1,-3.0340335E0,4.700458E0,1.6996717E1,3.139181E1,-3.9288542E0,-1.2215964E0,7.235221E0,2.4991245E0,9.700923E0,1.9809347E1,3.4285583E1,8.8176565E0,-4.6336236E0,-3.0372794E0,-1.4758091E0,1.9637457E0,5.5209384E0,1.2417364E1,7.3746033E0,1.9255903E0,6.5410357E0,1.5891352E1,2.9372263E1,1.5889215E1,3.0613342E1,5.0766148E1,-3.5887196E0,1.3608953E1,-4.963463E0,-3.4358957E0,-1.254982E0,-3.5171854E0,-5.2033186E0,-1.2767916E0,5.9845943E0,-1.18777E0,1.9607086E0,6.702711E0,9.1556635E0,1.8843756E1,4.8128743E0,8.385129E1,3.3962882E0,-2.4353941E-1,-2.5000508E0,8.822142E0,2.490303E1,8.976236E0,-8.121136E-2,3.2733273E1,1.5418243E1,2.9919198E0,3.3450462E1,1.6985697E1,8.364439E1,4.0084335E1,1.1012857E1,-8.156852E0,2.5734284E0,2.1894428E1,-6.367485E-2,-2.510494E-1,-1.8615763E-1,-7.467841E-2,-8.1125565E-2,2.8657687E-1,-8.5864164E-2,-1.901957E-1,-3.9164704E-1,-2.0589502E-1,-1.11602955E-1,-3.638099E-2,1.86891E-1,9.11409E-1,-2.2579046E-1,2.5576463E-2,2.1193965E-1,-9.9817984E-2,4.9858958E-1,2.3371832E-1,5.199997E-1,-1.12593286E-1,2.8119297E0,7.423665E-1,1.1364195E0,8.406301E-2,1.23906985E-1,6.1959167E0,-1.3409124E-1,1.9563988E-1,-3.082094E-1,8.428225E-3,-2.2190273E-1,1.3652046E-1,3.1131658E-1,8.983759E-1,2.2663655E0,5.191049E-1,5.6539655E-1,-3.8379088E-1,5.1415056E-1,-1.8884592E-1,1.4693655E0,4.0758157E0,5.1960987E-1,9.3159544E-1,1.7885065E-1,1.7308546E0,4.0231594E-1,1.6560614E0,9.582972E-1,5.177002E0,7.1277356E-1,2.2133205E0,9.104959E-1,-2.6445803E-1,-2.0510681E-1,-5.7639396E-1,-2.4318956E-1,5.7741374E-1,3.9947826E-1,1.6904444E0],"categories":[],"categories_nodes":[],"categories_segments":[],"categories_sizes":[],"default_left":[0,0,0,0,0,0,0,0,0,0,0,0,0,0,0,0,0,0,0,0,0,0,0,0,0,0,0,0,0,0,0,0,0,0,0,0,0,0,0,0,0,0,0,0,0,0,0,0,0,0,0,0,0,0,0,0,0,0,0,0,0,0,0,0,0,0,0,0,0,0,0,0,0,0,0,0,0,0,0,0,0,0,0,0,0,0,0,0,0,0,0,0,0,0,0,0,0,0,0,0,0,0,0,0,0,0,0,0,0,0,0,0,0,0,0,0,0,0,0,0,0,0,0,0,0],"id":12,"left_children":[1,3,5,7,9,11,13,15,17,19,21,23,25,27,29,31,33,35,37,39,41,43,45,47,49,51,53,55,57,59,61,63,65,67,69,71,73,75,77,79,81,83,85,87,89,91,93,95,97,99,101,103,105,107,-1,109,111,113,115,117,119,121,123,-1,-1,-1,-1,-1,-1,-1,-1,-1,-1,-1,-1,-1,-1,-1,-1,-1,-1,-1,-1,-1,-1,-1,-1,-1,-1,-1,-1,-1,-1,-1,-1,-1,-1,-1,-1,-1,-1,-1,-1,-1,-1,-1,-1,-1,-1,-1,-1,-1,-1,-1,-1,-1,-1,-1,-1,-1,-1,-1,-1,-1,-1],"loss_changes":[6.443278E5,1.6051514E5,5.8023812E4,2.2598312E4,1.852379E4,1.6183094E4,2.8244469E4,5.8484688E3,3.7342466E3,1.36478125E4,4.963132E3,4.2777305E3,2.1088812E4,2.1867375E4,3.0804128E3,2.0408047E3,3.5212773E3,3.1595283E3,4.3281807E3,4.875836E3,7.8555195E3,3.6232082E4,5.085902E3,3.1156064E3,4.4502246E3,1.6435562E4,7.5639375E3,1.1765375E4,2.0879922E4,1.0903594E3,3.3267349E3,8.600781E2,6.238037E2,2.2586484E3,1.6691875E3,5.8426074E2,2.124603E3,4.0581519E3,1.088134E3,2.631692E3,5.735465E3,3.6572676E3,1.8294062E4,1.0172802E4,1.92552E4,2.9929258E3,1.5747888E3,3.2635394E2,2.7368867E3,9.019955E3,1.7952075E3,7.282944E2,2.1925156E4,6.38025E3,0E0,9.042094E3,7.9552695E3,1.8541008E4,5.201953E3,5.656216E2,1.167337E2,1.1908826E3,3.2089297E3,0E0,0E0,0E0,0E0,0E0,0E0,0E0,0E0,0E0,0E0,0E0,0E0,0E0,0E0,0E0,0E0,0E0,0E0,0E0,0E0,0E0,0E0,0E0,0E0,0E0,0E0,0E0,0E0,0E0,0E0,0E0,0E0,0E0,0E0,0E0,0E0,0E0,0E0,0E0,0E0,0E0,0E0,0E0,0E0,0E0,0E0,0E0,0E0,0E0,0E0,0E0,0E0,0E0,0E0,0E0,0E0,0E0,0E0,0E0,0E0,0E0,0E0],"parents":[2147483647,0,0,1,1,2,2,3,3,4,4,5,5,6,6,7,7,8,8,9,9,10,10,11,11,12,12,13,13,14,14,15,15,16,16,17,17,18,18,19,19,20,20,21,21,22,22,23,23,24,24,25,25,26,26,27,27,28,28,29,29,30,30,31,31,32,32,33,33,34,34,35,35,36,36,37,37,38,38,39,39,40,40,41,41,42,42,43,43,44,44,45,45,46,46,47,47,48,48,49,49,50,50,51,51,52,52,53,53,55,55,56,56,57,57,58,58,59,59,60,60,61,61,62,62],"right_children":[2,4,6,8,10,12,14,16,18,20,22,24,26,28,30,32,34,36,38,40,42,44,46,48,50,52,54,56,58,60,62,64,66,68,70,72,74,76,78,80,82,84,86,88,90,92,94,96,98,100,102,104,106,108,-1,110,112,114,116,118,120,122,124,-1,-1,-1,-1,-1,-1,-1,-1,-1,-1,-1,-1,-1,-1,-1,-1,-1,-1,-1,-1,-1,-1,-1,-1,-1,-1,-1,-1,-1,-1,-1,-1,-1,-1,-1,-1,-1,-1,-1,-1,-1,-1,-1,-1,-1,-1,-1,-1,-1,-1,-1,-1,-1,-1,-1,-1,-1,-1,-1,-1,-1,-1],"split_conditions":[5.22E1,2.26E1,9.59E1,1.26E1,6.6E1,2.4E1,8E1,0E0,1.98875E1,2.7079166E1,8.8E0,7.15E1,2.73E1,1.676E2,-7.9062877E0,8.3E0,7.7E1,-1.7217478E1,5.3E1,-1.8369701E-16,1.2246469E-16,9.9E1,8.4E1,2.1E0,6.9E1,2.907803E0,2.8095465E1,-5.7756605E0,4.98E1,2.5881904E-1,7.0710677E-1,3E1,1.4483334E1,2.46E1,-4.666905E0,-2.282852E1,1.5E1,4.8E0,-1.0038699E1,4.3E0,4.7E1,8.5317E0,1.75E1,1.6E0,2.11E1,-5E-1,-1.6897327E1,1.5047716E1,5.0904167E1,2.5881904E-1,7.6270836E1,2.2033333E1,9.4E0,-2.5881904E-1,2.9919198E0,-1.7111303E1,5E-1,6.123234E-17,-3.230844E0,2.48E1,7.9516497E0,7.89E1,2.22E1,-6.367485E-2,-2.510494E-1,-1.8615763E-1,-7.467841E-2,-8.1125565E-2,2.8657687E-1,-8.5864164E-2,-1.901957E-1,-3.9164704E-1,-2.0589502E-1,-1.11602955E-1,-3.638099E-2,1.86891E-1,9.11409E-1,-2.2579046E-1,2.5576463E-2,2.1193965E-1,-9.9817984E-2,4.9858958E-1,2.3371832E-1,5.199997E-1,-1.12593286E-1,2.8119297E0,7.423665E-1,1.1364195E0,8.406301E-2,1.23906985E-1,6.1959167E0,-1.3409124E-1,1.9563988E-1,-3.082094E-1,8.428225E-3,-2.2190273E-1,1.3652046E-1,3.1131658E-1,8.983759E-1,2.2663655E0,5.191049E-1,5.6539655E-1,-3.8379088E-1,5.1415056E-1,-1.8884592E-1,1.4693655E0,4.0758157E0,5.1960987E-1,9.3159544E-1,1.7885065E-1,1.7308546E0,4.0231594E-1,1.6560614E0,9.582972E-1,5.177002E0,7.1277356E-1,2.2133205E0,9.104959E-1,-2.6445803E-1,-2.0510681E-1,-5.7639396E-1,-2.4318956E-1,5.7741374E-1,3.9947826E-1,1.6904444E0],"split_indices":[10,10,10,10,1,0,1,6,15,15,14,10,14,10,5,14,1,4,1,9,6,1,1,11,1,4,4,5,14,6,6,1,15,14,4,4,10,11,5,11,1,5,14,11,0,6,4,4,15,7,15,15,11,6,0,5,6,9,4,0,4,14,0,0,0,0,0,0,0,0,0,0,0,0,0,0,0,0,0,0,0,0,0,0,0,0,0,0,0,0,0,0,0,0,0,0,0,0,0,0,0,0,0,0,0,0,0,0,0,0,0,0,0,0,0,0,0,0,0,0,0,0,0,0,0],"split_type":[0,0,0,0,0,0,0,0,0,0,0,0,0,0,0,0,0,0,0,0,0,0,0,0,0,0,0,0,0,0,0,0,0,0,0,0,0,0,0,0,0,0,0,0,0,0,0,0,0,0,0,0,0,0,0,0,0,0,0,0,0,0,0,0,0,0,0,0,0,0,0,0,0,0,0,0,0,0,0,0,0,0,0,0,0,0,0,0,0,0,0,0,0,0,0,0,0,0,0,0,0,0,0,0,0,0,0,0,0,0,0,0,0,0,0,0,0,0,0,0,0,0,0,0,0],"sum_hessian":[1.8491E4,1.7258E4,1.233E3,1.3936E4,3.322E3,7.97E2,4.36E2,9.329E3,4.607E3,1.543E3,1.779E3,2.23E2,5.74E2,3.86E2,5E1,5.208E3,4.121E3,4.267E3,3.4E2,1.161E3,3.82E2,1.86E2,1.593E3,1.49E2,7.4E1,1.65E2,4.09E2,3.18E2,6.8E1,1.4E1,3.6E1,4.081E3,1.127E3,8.75E2,3.246E3,2.15E2,4.052E3,1.49E2,1.91E2,2.9E2,8.71E2,2.55E2,1.27E2,1.81E2,5E0,9.49E2,6.44E2,3E1,1.19E2,3.1E1,4.3E1,1.7E1,1.48E2,4.06E2,3E0,2.62E2,5.6E1,1.5E1,5.3E1,3E0,1.1E1,1.6E1,2E1,6.3E1,4.018E3,9.81E2,1.46E2,8.32E2,4.3E1,4.47E2,2.799E3,6.1E1,1.54E2,1.478E3,2.574E3,1.27E2,2.2E1,6.4E1,1.27E2,1.84E2,1.06E2,3.32E2,5.39E2,2.3E2,2.5E1,1.1E1,1.16E2,2.6E1,1.55E2,2E0,3E0,7.4E1,8.75E2,4.1E1,6.03E2,2.2E1,8E0,9.4E1,2.5E1,1.2E1,1.9E1,3.8E1,5E0,4E0,1.3E1,1.4E2,8E0,1.6E2,2.46E2,1E1,2.52E2,3.7E1,1.9E1,4E0,1.1E1,8E0,4.5E1,2E0,1E0,6E0,5E0,9E0,7E0,1E1,1E1],"tree_param":{"num_deleted":"0","num_feature":"17","num_nodes":"125","size_leaf_vector":"1"}},{"base_weights":[-3.490132E-3,-1.5719607E0,1.8662952E1,-2.9493697E0,3.4558408E0,1.3575809E1,2.80331E1,-3.1090815E-2,-3.4156754E0,4.6597714E0,-1.2189761E0,7.7259316E0,1.6985046E1,3.2762848E1,1.3583829E1,-6.924762E-1,2.8318255E0,-4.317715E0,-2.5545313E0,2.300844E0,6.164067E0,-2.4295202E-1,-2.107681E0,2.3818276E0,1.0986193E1,2.0828285E1,1.0171031E1,2.6998549E1,4.1676586E1,1.8746584E1,6.578334E0,-7.279467E0,-3.9903638E-1,2.5689919E1,2.1471722E0,-2.783309E0,-4.6363497E0,-1.8510628E0,-3.261666E0,3.3047266E0,-2.1043637E0,7.2619066E0,1.908473E0,-2.5426083E0,4.0213946E-1,-2.434071E0,1.7927612E0,-5.5509567E-2,8.195362E0,2.0260206E1,6.141198E0,3.2348915E1,1.5412786E1,1.6270146E0,1.2565891E1,5.1612175E1,2.5068197E1,4.8810604E1,2.3867157E1,1.1401857E1,2.8092777E1,-1.1593289E0,1.260618E1,-3.8948455E-1,2.8458273E-1,-2.526334E-2,8.267968E-1,8.6177684E-2,1.4080671E0,6.136892E-1,8.358603E-2,-1.6890745E-1,4.355877E-2,-2.0295389E-1,-2.5319558E-1,-1.886941E-1,-8.130973E-2,-1.16258636E-1,-1.9286591E-1,1.4644754E0,1.5519305E-1,-4.103224E-1,-7.821824E-2,2.174963E-1,4.1662318E-1,5.129884E-1,-4.2099148E-2,-1.8798439E-1,-2.967771E-3,-9.3357496E-2,5.0545365E-2,-2.3388112E-1,-9.324237E-2,5.884146E-1,-5.36049E-2,-6.967605E-1,6.1071135E-2,-1.3803189E-1,9.370797E-1,7.6938134E-1,2.6599963E0,3.487551E-2,4.7368583E-1,3.1686562E-1,2.177735E0,7.112379E-1,2.0344117E0,6.1707675E-1,-9.8738605E-3,8.3860654E-1,2.3926146E-1,1.7776216E0,3.6226506E0,1.1267674E0,1.9810028E0,2.2692127E0,4.49033E0,2.21228E0,7.8667843E-1,-6.1910135E-1,7.854892E-1,3.2285178E-1,1.6513537E0,-2.9199463E-1,7.317886E-1,2.5427464E-1,1.3945537E0],"categories":[],"categories_nodes":[],"categories_segments":[],"categories_sizes":[],"default_left":[0,0,0,0,0,0,0,0,0,0,0,0,0,0,0,0,0,0,0,0,0,0,0,0,0,0,0,0,0,0,0,0,0,0,0,0,0,0,0,0,0,0,0,0,0,0,0,0,0,0,0,0,0,0,0,0,0,0,0,0,0,0,0,0,0,0,0,0,0,0,0,0,0,0,0,0,0,0,0,0,0,0,0,0,0,0,0,0,0,0,0,0,0,0,0,0,0,0,0,0,0,0,0,0,0,0,0,0,0,0,0,0,0,0,0,0,0,0,0,0,0,0,0,0,0,0,0],"id":13,"left_children":[1,3,5,7,9,11,13,15,17,19,21,23,25,27,29,31,33,35,37,39,41,43,45,47,49,51,53,55,57,59,61,63,65,67,69,71,73,75,77,79,81,83,85,87,89,91,93,95,97,99,101,103,105,107,109,111,113,115,117,119,121,123,125,-1,-1,-1,-1,-1,-1,-1,-1,-1,-1,-1,-1,-1,-1,-1,-1,-1,-1,-1,-1,-1,-1,-1,-1,-1,-1,-1,-1,-1,-1,-1,-1,-1,-1,-1,-1,-1,-1,-1,-1,-1,-1,-1,-1,-1,-1,-1,-1,-1,-1,-1,-1,-1,-1,-1,-1,-1,-1,-1,-1,-1,-1,-1,-1],"loss_changes":[5.420193E5,1.18281125E5,6.802197E4,1.8242906E4,2.0677895E4,1.8456234E4,3.399903E4,3.501132E3,8.967844E3,1.0351055E4,6.526382E2,5.984828E3,1.5186609E4,1.8348344E4,4.4338027E3,2.900289E3,5.375343E3,2.746539E3,2.9368594E3,5.043967E3,8.316242E3,5.3507837E2,5.059519E2,1.8708346E3,9.491145E3,2.2897656E4,4.358365E3,9.7766875E3,1.7511781E4,4.6221465E3,2.579894E3,4.678999E2,2.597129E3,5.4377246E2,1.6068555E3,2.118083E3,1.1325859E3,1.2771709E3,1.6360547E3,4.75274E3,6.857275E2,4.381172E3,8.43858E3,2.385398E2,3.9146213E2,4.56135E2,8.985501E2,1.6830237E3,4.5579746E3,1.089798E4,2.569442E3,3.4410156E4,7.1383906E3,9.4076794E2,5.385205E3,2.779293E3,7.142125E3,1.0532734E4,6.5968555E3,4.4978057E3,3.0962168E3,1.9337205E3,3.4216997E3,0E0,0E0,0E0,0E0,0E0,0E0,0E0,0E0,0E0,0E0,0E0,0E0,0E0,0E0,0E0,0E0,0E0,0E0,0E0,0E0,0E0,0E0,0E0,0E0,0E0,0E0,0E0,0E0,0E0,0E0,0E0,0E0,0E0,0E0,0E0,0E0,0E0,0E0,0E0,0E0,0E0,0E0,0E0,0E0,0E0,0E0,0E0,0E0,0E0,0E0,0E0,0E0,0E0,0E0,0E0,0E0,0E0,0E0,0E0,0E0,0E0,0E0,0E0,0E0],"parents":[2147483647,0,0,1,1,2,2,3,3,4,4,5,5,6,6,7,7,8,8,9,9,10,10,11,11,12,12,13,13,14,14,15,15,16,16,17,17,18,18,19,19,20,20,21,21,22,22,23,23,24,24,25,25,26,26,27,27,28,28,29,29,30,30,31,31,32,32,33,33,34,34,35,35,36,36,37,37,38,38,39,39,40,40,41,41,42,42,43,43,44,44,45,45,46,46,47,47,48,48,49,49,50,50,51,51,52,52,53,53,54,54,55,55,56,56,57,57,58,58,59,59,60,60,61,61,62,62],"right_children":[2,4,6,8,10,12,14,16,18,20,22,24,26,28,30,32,34,36,38,40,42,44,46,48,50,52,54,56,58,60,62,64,66,68,70,72,74,76,78,80,82,84,86,88,90,92,94,96,98,100,102,104,106,108,110,112,114,116,118,120,122,124,126,-1,-1,-1,-1,-1,-1,-1,-1,-1,-1,-1,-1,-1,-1,-1,-1,-1,-1,-1,-1,-1,-1,-1,-1,-1,-1,-1,-1,-1,-1,-1,-1,-1,-1,-1,-1,-1,-1,-1,-1,-1,-1,-1,-1,-1,-1,-1,-1,-1,-1,-1,-1,-1,-1,-1,-1,-1,-1,-1,-1,-1,-1,-1,-1],"split_conditions":[3.32E1,1.48E1,6.19E1,-5E-1,-2.4492937E-16,8.3031645E0,7.1E1,1.28E1,0E0,4.648048E0,-2.1649947E0,2.8E0,6.8E1,8.082917E1,8.3E1,-2.282852E1,2.6E1,-2.4492937E-16,7.7406406E0,9.676E2,8.1E1,7.3E1,1.9625E1,1.6261242E1,5.4E1,3.4341667E1,2.11E1,9.575E2,1.7631428E1,7.89E1,2.46E1,3.1E0,2.91E1,2.1E1,1.4098965E0,6.0624466E0,7.1596975E0,1.53E1,5E-1,3.2E1,3.9E1,1.89E1,5.303033E0,9.4E0,9.639E2,2.5881904E-1,3.132922E0,9.59E2,4.178924E0,1.26E1,9.62E2,6.013746E-1,2.6057886E1,7.6E1,7.9E1,5.4E1,3.0657518E1,1.75E2,3.7E1,2.1E0,2.22E1,3E-1,5E-1,-3.8948455E-1,2.8458273E-1,-2.526334E-2,8.267968E-1,8.6177684E-2,1.4080671E0,6.136892E-1,8.358603E-2,-1.6890745E-1,4.355877E-2,-2.0295389E-1,-2.5319558E-1,-1.886941E-1,-8.130973E-2,-1.16258636E-1,-1.9286591E-1,1.4644754E0,1.5519305E-1,-4.103224E-1,-7.821824E-2,2.174963E-1,4.1662318E-1,5.129884E-1,-4.2099148E-2,-1.8798439E-1,-2.967771E-3,-9.3357496E-2,5.0545365E-2,-2.3388112E-1,-9.324237E-2,5.884146E-1,-5.36049E-2,-6.967605E-1,6.1071135E-2,-1.3803189E-1,9.370797E-1,7.6938134E-1,2.6599963E0,3.487551E-2,4.7368583E-1,3.1686562E-1,2.177735E0,7.112379E-1,2.0344117E0,6.1707675E-1,-9.8738605E-3,8.3860654E-1,2.3926146E-1,1.7776216E0,3.6226506E0,1.1267674E0,1.9810028E0,2.2692127E0,4.49033E0,2.21228E0,7.8667843E-1,-6.1910135E-1,7.854892E-1,3.2285178E-1,1.6513537E0,-2.9199463E-1,7.317886E-1,2.5427464E-1,1.3945537E0],"split_indices":[13,13,13,8,8,16,1,13,6,16,4,11,1,15,12,4,1,8,4,3,1,1,15,4,1,15,0,3,4,13,0,2,11,1,16,16,4,0,8,1,1,13,16,11,3,6,16,3,16,11,3,4,4,1,12,1,16,12,1,11,0,2,6,0,0,0,0,0,0,0,0,0,0,0,0,0,0,0,0,0,0,0,0,0,0,0,0,0,0,0,0,0,0,0,0,0,0,0,0,0,0,0,0,0,0,0,0,0,0,0,0,0,0,0,0,0,0,0,0,0,0,0,0,0,0,0,0],"split_type":[0,0,0,0,0,0,0,0,0,0,0,0,0,0,0,0,0,0,0,0,0,0,0,0,0,0,0,0,0,0,0,0,0,0,0,0,0,0,0,0,0,0,0,0,0,0,0,0,0,0,0,0,0,0,0,0,0,0,0,0,0,0,0,0,0,0,0,0,0,0,0,0,0,0,0,0,0,0,0,0,0,0,0,0,0,0,0,0,0,0,0,0,0,0,0,0,0,0,0,0,0,0,0,0,0,0,0,0,0,0,0,0,0,0,0,0,0,0,0,0,0,0,0,0,0,0,0],"sum_hessian":[1.8511E4,1.7077E4,1.434E3,1.3405E4,3.672E3,9.31E2,5.03E2,1.847E3,1.1558E4,2.92E3,7.52E2,3.44E2,5.87E2,3.78E2,1.25E2,1.501E3,3.46E2,5.643E3,5.915E3,1.138E3,1.782E3,3.59E2,3.93E2,1.31E2,2.13E2,3.74E2,2.13E2,2.32E2,1.46E2,7.1E1,5.4E1,6.3E1,1.438E3,9E0,3.37E2,9.72E2,4.671E3,2.967E3,2.948E3,9.27E2,2.11E2,1.416E3,3.66E2,7.8E1,2.81E2,3.63E2,3E1,9.3E1,3.8E1,7.2E1,1.41E2,1.18E2,2.56E2,4.7E1,1.66E2,1.5E1,2.17E2,1.03E2,4.3E1,4.1E1,3E1,2.4E1,3E1,6.1E1,2E0,1.43E3,8E0,1E0,8E0,1.4E1,3.23E2,8.36E2,1.36E2,1.992E3,2.679E3,3.09E2,2.658E3,1.148E3,1.8E3,6E0,9.21E2,1.6E1,1.95E2,3.82E2,1.034E3,9E1,2.76E2,5.2E1,2.6E1,5.9E1,2.22E2,7.2E1,2.91E2,6E0,2.4E1,7E0,8.6E1,1.9E1,1.9E1,6.4E1,8E0,5.4E1,8.7E1,3.6E1,8.2E1,2.46E2,1E1,6E0,4.1E1,1.07E2,5.9E1,1E1,5E0,1.87E2,3E1,9.7E1,6E0,1.1E1,3.2E1,6E0,3.5E1,6E0,2.4E1,1.9E1,5E0,2.1E1,9E0],"tree_param":{"num_deleted":"0","num_feature":"17","num_nodes":"127","size_leaf_vector":"1"}},{"base_weights":[3.587318E-2,-1.8534425E0,1.3348178E1,2.5721107E0,-2.9738095E0,1.1266353E1,3.297022E1,-1.0268949E-2,4.4975386E0,-3.893451E0,-1.9091192E0,-1.6941811E0,1.2472715E1,2.9629698E1,7.1117065E1,-6.594095E0,4.4206285E-1,4.084212E0,1.9199963E1,-4.417303E0,-2.7510955E0,-4.73976E-1,-2.4162388E0,-3.1226966E0,7.1732416E0,1.7195091E1,8.91947E0,3.3184616E1,2.8490884E0,1.0128545E0,4.260402E0,-7.298782E0,-3.1387486E0,1.6784874E1,2.5256884E-1,1.4732056E0,6.222571E0,3.351304E0,2.774313E1,-4.5904384E0,-2.7054672E0,-3.4734075E0,-2.0471616E0,2.350039E0,-1.1756642E0,-1.167526E0,-3.0401998E0,-3.9350138E0,1.2262613E0,5.4115767E0,1.2363299E0,1.2289554E1,2.586312E1,6.5502763E0,1.3833939E1,4.7405754E1,2.2336424E1,1.360124E1,-9.932512E0,-1.6188829E-1,-4.0162817E-1,-2.424492E-1,4.024233E-2,2.4119388E-1,8.647334E-1,-5.4586925E-2,1.0360854E-1,-1.7925079E-1,1.2354727E-1,7.296245E-1,2.4069302E-1,-6.935492E-3,3.622255E-1,1.7076887E0,5.908476E-1,-2.0979808E-1,-2.589292E-1,-6.7258224E-2,-1.6893531E-1,-1.20287076E-1,-1.9256972E-1,-5.8915854E-2,-1.3045613E-1,-1.3074206E-1,2.2190736E-1,-9.4256096E-2,4.343752E-2,-2.0812094E-1,-3.8610253E-2,-2.0415862E-1,-1.1941594E-1,-1.6629597E-2,-2.5785756E-1,-9.215913E-2,4.6912143E-1,3.8207912E-1,-1.8163324E-4,1.1543415E0,4.903998E-1,